{"learner":{"attributes":{"scikit_learn":"{\"_estimator_type\": \"classifier\"}"},"feature_names":["rsi_14","ema_dist","atr_14","fvg_bull","fvg_bear","oi_delta","rvol_20","vol_accel","delta_streak"],"feature_types":["float","float","float","int","int","float","float","float","float"],"gradient_booster":{"model":{"cats":{"enc":[],"feature_segments":[],"sorted_idx":[]},"gbtree_model_param":{"num_parallel_tree":"1","num_trees":"150"},"iteration_indptr":[0,1,2,3,4,5,6,7,8,9,10,11,12,13,14,15,16,17,18,19,20,21,22,23,24,25,26,27,28,29,30,31,32,33,34,35,36,37,38,39,40,41,42,43,44,45,46,47,48,49,50,51,52,53,54,55,56,57,58,59,60,61,62,63,64,65,66,67,68,69,70,71,72,73,74,75,76,77,78,79,80,81,82,83,84,85,86,87,88,89,90,91,92,93,94,95,96,97,98,99,100,101,102,103,104,105,106,107,108,109,110,111,112,113,114,115,116,117,118,119,120,121,122,123,124,125,126,127,128,129,130,131,132,133,134,135,136,137,138,139,140,141,142,143,144,145,146,147,148,149,150],"tree_info":[0,0,0,0,0,0,0,0,0,0,0,0,0,0,0,0,0,0,0,0,0,0,0,0,0,0,0,0,0,0,0,0,0,0,0,0,0,0,0,0,0,0,0,0,0,0,0,0,0,0,0,0,0,0,0,0,0,0,0,0,0,0,0,0,0,0,0,0,0,0,0,0,0,0,0,0,0,0,0,0,0,0,0,0,0,0,0,0,0,0,0,0,0,0,0,0,0,0,0,0,0,0,0,0,0,0,0,0,0,0,0,0,0,0,0,0,0,0,0,0,0,0,0,0,0,0,0,0,0,0,0,0,0,0,0,0,0,0,0,0,0,0,0,0,0,0,0,0,0,0],"trees":[{"base_weights":[1.7351513E-7,1.319571E0,-4.430674E-1,8.534753E-1,2.0746536E0,-1.1658414E-1,-1.0933541E0,1.9904994E0,5.837316E-1,1.475891E0,2.2694254E0,4.6610277E-2,-1.2135422E0,-9.433855E-1,-1.33186E0,2.3469753E0,1.613342E0,3.259508E-1,8.9150167E-1,2.0872536E0,1.2256486E0,2.3075686E0,1.1251745E0,-1.06171094E-1,9.5663387E-1,-1.0745528E0,-1.2642177E0,-9.6675074E-1,3.908891E-1,-1.2269864E0,-1.3380349E0,2.5500112E0,2.134736E0,1.0613446E0,1.858335E0,3.5628045E-1,-1.0758206E0,1.5139079E0,3.619183E-1,2.459771E0,1.7997303E0,1.010236E0,1.5661585E0,2.542551E0,2.1716194E0,1.4927814E0,4.2784682E-1,3.7808925E-1,-5.849862E-1,1.0392535E0,-3.3035484E-1,-1.1640326E0,-9.8077446E-1,-1.227458E0,-3.952228E-2,-8.938936E-1,-1.2737689E0,4.703176E-1,-9.6664757E-1,-1.0826799E0,-3.7634972E-2,-3.9129227E-2,-4.0297505E-2,7.713836E-2,1.6177801E-2,3.3969626E-2,6.557938E-2,2.5427908E-2,4.1056905E-2,6.5334976E-2,4.4236317E-2,5.4797805E-3,1.5698962E-2,-2.8039867E-2,-3.641477E-2,3.628542E-2,5.48096E-2,1.2393068E-2,-3.9415833E-2,8.141261E-2,6.714487E-2,4.6798486E-2,6.5119244E-2,2.196592E-2,4.1423123E-2,3.9336786E-2,5.0173506E-2,6.8175375E-2,7.931575E-2,5.6701727E-2,7.132079E-2,4.5462355E-2,-7.2402977E-3,1.0483791E-2,3.8378768E-2,1.4297912E-2,4.230739E-3,-1.6399512E-2,-2.6601454E-2,5.4255724E-2,2.8592627E-2,4.6693966E-2,-1.5533085E-2,-3.634694E-2,-3.3217836E-2,-2.5587032E-2,-3.121729E-2,-3.651935E-2,-3.9690882E-2,-2.2778077E-2,-2.974339E-2,-3.670686E-2,-3.9638083E-2,-2.0191462E-3,1.819052E-2,-3.3241823E-2,-1.4426333E-2,-3.5183314E-2,-2.3281155E-2],"categories":[],"categories_nodes":[],"categories_segments":[],"categories_sizes":[],"default_left":[0,0,0,0,0,0,0,0,0,0,0,0,0,0,0,0,0,0,0,0,0,0,0,0,0,0,0,0,0,0,0,0,0,0,0,0,0,0,0,0,0,0,0,0,0,0,0,0,0,0,0,0,0,0,0,0,0,0,0,0,0,0,0,0,0,0,0,0,0,0,0,0,0,0,0,0,0,0,0,0,0,0,0,0,0,0,0,0,0,0,0,0,0,0,0,0,0,0,0,0,0,0,0,0,0,0,0,0,0,0,0,0,0,0,0,0,0,0,0],"id":0,"left_children":[1,3,5,7,9,11,13,15,17,19,21,23,25,27,29,31,33,35,37,39,41,43,45,47,49,51,53,55,57,59,61,63,65,67,69,71,73,75,77,79,81,83,85,87,89,91,93,95,97,99,101,103,105,107,-1,109,111,113,115,117,-1,-1,-1,-1,-1,-1,-1,-1,-1,-1,-1,-1,-1,-1,-1,-1,-1,-1,-1,-1,-1,-1,-1,-1,-1,-1,-1,-1,-1,-1,-1,-1,-1,-1,-1,-1,-1,-1,-1,-1,-1,-1,-1,-1,-1,-1,-1,-1,-1,-1,-1,-1,-1,-1,-1,-1,-1,-1,-1],"loss_changes":[1.1748437E5,1.777504E4,3.1938232E4,9.578363E3,2.2448984E3,1.7929205E4,1.7972578E3,8.013613E2,2.002666E3,7.2179004E2,6.322031E2,1.2121678E4,8.999414E1,9.6291016E2,1.0925781E1,1.2712891E2,3.9197754E2,5.845593E2,3.792253E3,1.4270557E2,2.450166E2,4.4409375E2,1.20135864E2,1.7309824E4,1.3329883E3,2.7993408E1,1.6956055E1,6.7759766E2,5.7826065E1,2.9747314E0,1.4726562E0,6.563086E1,7.5104004E1,5.7796204E1,2.4402344E2,3.8993054E2,4.539215E0,5.0187207E2,5.339017E2,2.7453857E1,6.5897705E1,2.1142773E2,3.3057617E1,1.3494922E2,5.1239453E2,1.2457214E1,1.0501175E1,8.666797E2,4.3371094E2,7.789297E2,2.684225E2,3.4387207E0,1.2125366E1,3.850586E0,0E0,3.2136133E2,1.22578125E1,3.685166E1,1.5099545E0,4.1193542E0,0E0,0E0,0E0,0E0,0E0,0E0,0E0,0E0,0E0,0E0,0E0,0E0,0E0,0E0,0E0,0E0,0E0,0E0,0E0,0E0,0E0,0E0,0E0,0E0,0E0,0E0,0E0,0E0,0E0,0E0,0E0,0E0,0E0,0E0,0E0,0E0,0E0,0E0,0E0,0E0,0E0,0E0,0E0,0E0,0E0,0E0,0E0,0E0,0E0,0E0,0E0,0E0,0E0,0E0,0E0,0E0,0E0,0E0,0E0],"parents":[2147483647,0,0,1,1,2,2,3,3,4,4,5,5,6,6,7,7,8,8,9,9,10,10,11,11,12,12,13,13,14,14,15,15,16,16,17,17,18,18,19,19,20,20,21,21,22,22,23,23,24,24,25,25,26,26,27,27,28,28,29,29,30,30,31,31,32,32,33,33,34,34,35,35,36,36,37,37,38,38,39,39,40,40,41,41,42,42,43,43,44,44,45,45,46,46,47,47,48,48,49,49,50,50,51,51,52,52,53,53,55,55,56,56,57,57,58,58,59,59],"right_children":[2,4,6,8,10,12,14,16,18,20,22,24,26,28,30,32,34,36,38,40,42,44,46,48,50,52,54,56,58,60,62,64,66,68,70,72,74,76,78,80,82,84,86,88,90,92,94,96,98,100,102,104,106,108,-1,110,112,114,116,118,-1,-1,-1,-1,-1,-1,-1,-1,-1,-1,-1,-1,-1,-1,-1,-1,-1,-1,-1,-1,-1,-1,-1,-1,-1,-1,-1,-1,-1,-1,-1,-1,-1,-1,-1,-1,-1,-1,-1,-1,-1,-1,-1,-1,-1,-1,-1,-1,-1,-1,-1,-1,-1,-1,-1,-1,-1,-1,-1],"split_conditions":[-1E0,1E0,2E0,-3E0,5.7965755E-1,1E0,1E0,-4E0,7.526446E-1,-3E0,4.714615E0,1E0,5.453754E-1,1E0,3.210472E-1,-5E0,5.566651E-1,1E0,-8.96685E-4,-4E0,4.5964393E-1,-3E0,6.647258E0,0E0,2.8547404E0,-3.1762E-3,1.1880039E0,4E0,2.6570513E0,1.9060563E-1,5.0439936E-1,5.399365E0,4.3714285E0,2.9412303E-2,2.6478488E-3,4.858571E-1,4.7483242E-1,1.177667E0,1E0,-5E0,2.6437119E-2,1.5543019E-2,1.5607142E1,1.48785715E1,9.8905116E-1,7.564539E-2,-2.595415E-3,3.9885912E-2,1.6268055E0,0E0,0E0,-3.6312588E-2,3.4070703E-1,0E0,-3.952228E-2,6.225834E-1,5E0,1.1035714E1,4.62E1,2.0124298E-2,-3.7634972E-2,-3.9129227E-2,-4.0297505E-2,7.713836E-2,1.6177801E-2,3.3969626E-2,6.557938E-2,2.5427908E-2,4.1056905E-2,6.5334976E-2,4.4236317E-2,5.4797805E-3,1.5698962E-2,-2.8039867E-2,-3.641477E-2,3.628542E-2,5.48096E-2,1.2393068E-2,-3.9415833E-2,8.141261E-2,6.714487E-2,4.6798486E-2,6.5119244E-2,2.196592E-2,4.1423123E-2,3.9336786E-2,5.0173506E-2,6.8175375E-2,7.931575E-2,5.6701727E-2,7.132079E-2,4.5462355E-2,-7.2402977E-3,1.0483791E-2,3.8378768E-2,1.4297912E-2,4.230739E-3,-1.6399512E-2,-2.6601454E-2,5.4255724E-2,2.8592627E-2,4.6693966E-2,-1.5533085E-2,-3.634694E-2,-3.3217836E-2,-2.5587032E-2,-3.121729E-2,-3.651935E-2,-3.9690882E-2,-2.2778077E-2,-2.974339E-2,-3.670686E-2,-3.9638083E-2,-2.0191462E-3,1.819052E-2,-3.3241823E-2,-1.4426333E-2,-3.5183314E-2,-2.3281155E-2],"split_indices":[8,4,8,8,6,3,3,8,6,8,6,4,6,4,6,8,6,3,1,8,6,8,6,8,6,1,6,8,6,6,6,6,2,1,1,6,6,6,3,8,1,1,2,2,6,1,1,1,6,8,8,1,6,8,0,6,8,2,2,1,0,0,0,0,0,0,0,0,0,0,0,0,0,0,0,0,0,0,0,0,0,0,0,0,0,0,0,0,0,0,0,0,0,0,0,0,0,0,0,0,0,0,0,0,0,0,0,0,0,0,0,0,0,0,0,0,0,0,0],"split_type":[0,0,0,0,0,0,0,0,0,0,0,0,0,0,0,0,0,0,0,0,0,0,0,0,0,0,0,0,0,0,0,0,0,0,0,0,0,0,0,0,0,0,0,0,0,0,0,0,0,0,0,0,0,0,0,0,0,0,0,0,0,0,0,0,0,0,0,0,0,0,0,0,0,0,0,0,0,0,0,0,0,0,0,0,0,0,0,0,0,0,0,0,0,0,0,0,0,0,0,0,0,0,0,0,0,0,0,0,0,0,0,0,0,0,0,0,0,0,0],"sum_hessian":[2.009431E5,5.0509785E4,1.5043331E5,3.1232674E4,1.9277111E4,1.0015208E5,5.0281227E4,5.9875527E3,2.5245121E4,4.73364E3,1.4543471E4,8.718285E4,1.296923E4,3.0873455E4,1.9407771E4,3.0754866E3,2.912066E3,1.37393955E4,1.1505727E4,1.3726943E3,3.3609456E3,1.4073325E4,4.701454E2,7.465081E4,1.2532038E4,3.471106E3,9.498125E3,3.0342387E4,5.310689E2,1.0903005E3,1.831747E4,1.5661934E3,1.5092932E3,8.968014E2,2.0152646E3,1.3449147E4,2.902487E2,5.2884653E3,6.2172607E3,5.9467456E2,7.780197E2,2.061053E3,1.2998926E3,5.151483E3,8.921842E3,3.07108E2,1.6303738E2,3.7114473E4,3.753634E4,1.1776242E4,7.557961E2,1.7704211E3,1.7006848E3,5.6308247E3,3.8673003E3,2.452611E4,5.8162773E3,5.023314E2,2.8737494E1,1.810462E2,9.092543E2,2.4867512E3,1.5830719E4,1.5495256E3,1.6667746E1,7.45259E1,1.4347672E3,5.310689E2,3.657325E2,1.0971975E3,9.1806714E2,6.595255E3,6.853892E3,1.4732755E2,1.4292113E2,2.6838904E3,2.604575E3,6.033724E3,1.8353679E2,2.718567E2,3.2281784E2,4.7570132E2,3.0231842E2,1.1791952E3,8.818579E2,3.864235E2,9.134691E2,1.4117772E3,3.7397058E3,3.7711255E3,5.150717E3,3.0327634E2,3.8316658E0,1.5058447E2,1.2452914E1,2.6218748E4,1.0895725E4,3.330733E4,4.22901E3,1.1841763E3,1.0592065E4,6.76289E1,6.881672E2,9.525521E2,8.178691E2,5.467787E2,1.1539061E3,5.102821E3,5.2800354E2,1.0308714E4,1.4217396E4,2.8406055E3,2.9756716E3,1.0153915E2,4.0079224E2,2.1265745E1,7.4717484E0,1.3774838E2,4.3297825E1],"tree_param":{"num_deleted":"0","num_feature":"9","num_nodes":"119","size_leaf_vector":"1"}},{"base_weights":[-2.63112E-4,7.3486805E-1,-7.533707E-1,1.8761932E0,1.8417035E-1,-9.022859E-1,6.825922E-1,1.5722528E0,2.2526636E0,5.3526574E-1,-8.04532E-1,-5.6607604E-1,-1.1462592E0,1.0401583E0,-3.0610344E-1,2.2712228E0,1.3481612E0,2.0497463E0,2.3680158E0,6.7754084E-1,-1.0468453E0,-6.250917E-1,-1.2902979E0,-1.2857528E-1,-9.713957E-1,-1.0212165E0,-1.2711065E0,1.4137893E0,4.813747E-1,-2.6643226E-2,-7.495533E-1,2.4174643E0,2.0842483E0,1.8498434E0,9.888782E-1,2.2090538E0,1.9448237E0,2.3853977E0,1.4219104E0,1.1360652E0,2.859092E-1,-7.082405E-1,-1.0865945E0,-6.6247296E-1,6.613829E-1,4.2050652E-2,-1.2913176E0,9.559996E-2,-1.2081573E0,-7.528501E-1,-1.1864693E0,-9.197731E-1,-3.9602626E-2,-1.225811E0,-1.3171383E0,1.9622211E0,1.2274675E0,7.7745867E-1,2.2007978E-1,2.3732047E-1,-3.49001E-1,-8.9751065E-2,-8.222244E-1,5.6430478E-2,7.413831E-2,6.853055E-2,5.545002E-2,4.396434E-2,6.0525674E-2,1.4705386E-2,3.946843E-2,5.331288E-2,6.814886E-2,6.190072E-2,5.046823E-2,7.5502664E-2,6.9160394E-2,3.145389E-2,5.7536326E-2,4.566759E-2,2.2446858E-2,-2.7932553E-3,3.4321308E-2,5.1165305E-2,-2.1704579E-2,-3.0992875E-2,-3.4733884E-2,-4.585124E-3,-2.2358006E-2,-1.6598405E-2,3.1269636E-2,-2.9315885E-2,-3.885443E-2,4.3388255E-2,-3.3606033E-5,9.6367E-3,-3.62797E-2,-1.8309908E-2,-3.8472824E-2,-1.6982127E-2,-3.6165904E-2,-2.4161736E-2,-3.1855665E-2,-3.5505228E-2,-3.9840788E-2,-3.515922E-2,-3.9557032E-2,6.96536E-2,5.2401755E-2,4.6589684E-2,2.7875064E-2,1.5702628E-2,2.7013587E-2,3.4323473E-2,4.8711854E-3,3.7566416E-2,4.5558293E-3,-4.0477565E-3,-1.5564608E-2,2.559709E-2,-6.924807E-3,-1.9476736E-2,-3.276183E-2],"categories":[],"categories_nodes":[],"categories_segments":[],"categories_sizes":[],"default_left":[0,0,0,0,0,0,0,0,0,0,0,0,0,0,0,0,0,0,0,0,0,0,0,0,0,0,0,0,0,0,0,0,0,0,0,0,0,0,0,0,0,0,0,0,0,0,0,0,0,0,0,0,0,0,0,0,0,0,0,0,0,0,0,0,0,0,0,0,0,0,0,0,0,0,0,0,0,0,0,0,0,0,0,0,0,0,0,0,0,0,0,0,0,0,0,0,0,0,0,0,0,0,0,0,0,0,0,0,0,0,0,0,0,0,0,0,0,0,0,0,0,0,0],"id":1,"left_children":[1,3,5,7,9,11,13,15,17,19,21,23,25,27,29,31,33,35,37,39,41,43,45,47,49,51,53,55,57,59,61,63,65,67,69,71,73,75,77,79,81,83,85,87,89,-1,91,93,95,97,99,101,-1,103,105,107,109,111,113,115,117,119,121,-1,-1,-1,-1,-1,-1,-1,-1,-1,-1,-1,-1,-1,-1,-1,-1,-1,-1,-1,-1,-1,-1,-1,-1,-1,-1,-1,-1,-1,-1,-1,-1,-1,-1,-1,-1,-1,-1,-1,-1,-1,-1,-1,-1,-1,-1,-1,-1,-1,-1,-1,-1,-1,-1,-1,-1,-1,-1,-1,-1],"loss_changes":[1.11240125E5,6.3906395E4,2.1223977E4,3.7830625E3,2.3808541E4,7.3755625E3,3.29733E3,2.865418E3,3.4110156E2,1.1393535E4,1.5658623E3,6.705785E3,8.122031E2,1.4293169E3,3.0704352E2,1.1648633E2,2.4981602E3,8.536914E1,1.5146484E2,8.338678E3,5.5440918E1,6.317158E2,1.5116211E1,4.4017563E3,9.2178516E2,7.882637E2,5.275E1,4.169795E2,2.122846E2,1.2950314E2,4.5852173E1,6.7166016E1,8.820215E1,3.7000195E2,1.3165996E3,5.3339844E1,9.744043E1,9.1421875E1,2.991333E1,3.202871E3,8.1466914E3,1.7485458E1,1.303418E1,5.381553E2,1.72318E2,0E0,4.5649414E0,1.9675472E3,5.9663086E0,7.342842E2,1.1629297E2,3.1514453E2,0E0,5.53125E1,1.1347656E0,7.645825E1,2.9628467E2,3.974048E1,7.767505E1,7.238905E1,2.4838036E1,1.2988146E1,3.9561768E1,0E0,0E0,0E0,0E0,0E0,0E0,0E0,0E0,0E0,0E0,0E0,0E0,0E0,0E0,0E0,0E0,0E0,0E0,0E0,0E0,0E0,0E0,0E0,0E0,0E0,0E0,0E0,0E0,0E0,0E0,0E0,0E0,0E0,0E0,0E0,0E0,0E0,0E0,0E0,0E0,0E0,0E0,0E0,0E0,0E0,0E0,0E0,0E0,0E0,0E0,0E0,0E0,0E0,0E0,0E0,0E0,0E0,0E0,0E0,0E0],"parents":[2147483647,0,0,1,1,2,2,3,3,4,4,5,5,6,6,7,7,8,8,9,9,10,10,11,11,12,12,13,13,14,14,15,15,16,16,17,17,18,18,19,19,20,20,21,21,22,22,23,23,24,24,25,25,26,26,27,27,28,28,29,29,30,30,31,31,32,32,33,33,34,34,35,35,36,36,37,37,38,38,39,39,40,40,41,41,42,42,43,43,44,44,46,46,47,47,48,48,49,49,50,50,51,51,53,53,54,54,55,55,56,56,57,57,58,58,59,59,60,60,61,61,62,62],"right_children":[2,4,6,8,10,12,14,16,18,20,22,24,26,28,30,32,34,36,38,40,42,44,46,48,50,52,54,56,58,60,62,64,66,68,70,72,74,76,78,80,82,84,86,88,90,-1,92,94,96,98,100,102,-1,104,106,108,110,112,114,116,118,120,122,-1,-1,-1,-1,-1,-1,-1,-1,-1,-1,-1,-1,-1,-1,-1,-1,-1,-1,-1,-1,-1,-1,-1,-1,-1,-1,-1,-1,-1,-1,-1,-1,-1,-1,-1,-1,-1,-1,-1,-1,-1,-1,-1,-1,-1,-1,-1,-1,-1,-1,-1,-1,-1,-1,-1,-1,-1,-1,-1,-1],"split_conditions":[5.0280693E1,-1E0,1E0,1E0,2E0,0E0,6.274653E1,-3E0,1.9792856E1,1E0,1E0,6.0515022E1,6.2962963E1,0E0,6.875E1,-4E0,3.6195183E1,-3E0,6.0486054E0,0E0,3.1489176E1,1E0,9.812188E0,1E0,6.765515E1,1E0,7.091531E1,-3E0,5.5215828E1,0E0,-3E0,6.4142857E0,3.7663185E1,-1.4485358E-1,-1.2188677E-1,1.685049E1,4.1893078E1,-3E0,3.12E1,3.84643E1,1E0,9.812188E0,4.455097E1,2.9641693E1,-7.121515E-1,4.2050652E-2,2.3715029E1,-3E0,-4E0,1E0,-3E0,2E0,-3.9602626E-2,1E0,1.1357143E0,-4E0,5.5042847E1,1.8057142E1,-1.11146584E-1,-4E0,6.493507E1,-5E0,7.352974E1,5.6430478E-2,7.413831E-2,6.853055E-2,5.545002E-2,4.396434E-2,6.0525674E-2,1.4705386E-2,3.946843E-2,5.331288E-2,6.814886E-2,6.190072E-2,5.046823E-2,7.5502664E-2,6.9160394E-2,3.145389E-2,5.7536326E-2,4.566759E-2,2.2446858E-2,-2.7932553E-3,3.4321308E-2,5.1165305E-2,-2.1704579E-2,-3.0992875E-2,-3.4733884E-2,-4.585124E-3,-2.2358006E-2,-1.6598405E-2,3.1269636E-2,-2.9315885E-2,-3.885443E-2,4.3388255E-2,-3.3606033E-5,9.6367E-3,-3.62797E-2,-1.8309908E-2,-3.8472824E-2,-1.6982127E-2,-3.6165904E-2,-2.4161736E-2,-3.1855665E-2,-3.5505228E-2,-3.9840788E-2,-3.515922E-2,-3.9557032E-2,6.96536E-2,5.2401755E-2,4.6589684E-2,2.7875064E-2,1.5702628E-2,2.7013587E-2,3.4323473E-2,4.8711854E-3,3.7566416E-2,4.5558293E-3,-4.0477565E-3,-1.5564608E-2,2.559709E-2,-6.924807E-3,-1.9476736E-2,-3.276183E-2],"split_indices":[0,8,4,4,8,8,0,8,2,3,3,0,0,8,0,8,0,8,7,8,0,4,0,3,0,3,0,8,0,8,8,2,0,7,7,0,0,8,0,0,4,0,0,0,7,0,0,8,8,3,8,8,0,3,2,8,0,2,5,8,0,8,0,0,0,0,0,0,0,0,0,0,0,0,0,0,0,0,0,0,0,0,0,0,0,0,0,0,0,0,0,0,0,0,0,0,0,0,0,0,0,0,0,0,0,0,0,0,0,0,0,0,0,0,0,0,0,0,0,0,0,0,0],"split_type":[0,0,0,0,0,0,0,0,0,0,0,0,0,0,0,0,0,0,0,0,0,0,0,0,0,0,0,0,0,0,0,0,0,0,0,0,0,0,0,0,0,0,0,0,0,0,0,0,0,0,0,0,0,0,0,0,0,0,0,0,0,0,0,0,0,0,0,0,0,0,0,0,0,0,0,0,0,0,0,0,0,0,0,0,0,0,0,0,0,0,0,0,0,0,0,0,0,0,0,0,0,0,0,0,0,0,0,0,0,0,0,0,0,0,0,0,0,0,0,0,0,0,0],"sum_hessian":[2.0092561E5,1.01676305E5,9.9249305E4,3.3091504E4,6.8584805E4,8.992417E4,9.32513E3,1.8312352E4,1.4779152E4,5.061242E4,1.797238E4,3.781549E4,5.2108684E4,6.848344E3,2.4767854E3,4.44347E3,1.3868882E4,5.363287E3,9.415865E3,4.6437035E4,4.1753887E3,1.3125975E4,4.846406E3,1.8186428E4,1.9629059E4,2.603855E4,2.6070133E4,4.103204E3,2.7451401E3,1.5199681E3,9.568174E2,2.486633E3,1.9568372E3,5.785789E3,8.083093E3,2.121731E3,3.2415562E3,9.244506E3,1.7136018E2,2.139074E4,2.5046293E4,4.406346E2,3.7347542E3,1.2755812E4,3.701627E2,1.3150246E0,4.845091E3,1.5060108E4,3.1263206E3,9.738179E3,9.890881E3,1.9443186E4,6.595366E3,1.3154099E4,1.2916034E4,1.0380895E3,3.0651147E3,1.2859745E3,1.4591656E3,8.358189E2,6.841492E2,9.515073E1,8.616666E2,2.2998035E2,2.2566526E3,1.0540792E3,9.027579E2,1.7603467E3,4.0254421E3,3.2005623E3,4.882531E3,2.7218964E2,1.8495414E3,2.2285632E3,1.0129929E3,3.488952E3,5.755553E3,9.953071E1,7.1829475E1,1.0716688E4,1.0674051E4,1.7373652E4,7.6726406E3,2.0697412E0,4.3856488E2,2.1413345E3,1.5934197E3,1.7830625E3,1.0972749E4,8.8265656E1,2.8189703E2,6.145035E1,4.7836406E3,1.00543805E3,1.405467E4,2.1729436E0,3.1241477E3,7.674871E3,2.063308E3,2.9574173E2,9.595139E3,1.077531E4,8.667876E3,9.312536E3,3.8415623E3,1.3394461E2,1.278209E4,3.8534625E2,6.5274316E2,1.4636663E3,1.6014486E3,4.2122134E2,8.647532E2,8.466326E1,1.3745023E3,6.385397E1,7.7196497E2,3.0343307E2,3.8071613E2,1.1725615E1,8.342511E1,5.271207E2,3.3454596E2],"tree_param":{"num_deleted":"0","num_feature":"9","num_nodes":"123","size_leaf_vector":"1"}},{"base_weights":[-5.6669605E-4,6.945238E-1,-7.509401E-1,1.7664341E0,1.6801213E-1,-8.961206E-1,6.354033E-1,1.0560771E0,1.9746073E0,5.0554585E-1,-7.956865E-1,-5.6868196E-1,-1.1350628E0,9.6640664E-1,-3.375416E-1,1.9447896E0,8.0707246E-1,2.1672497E0,1.6999918E0,6.4175314E-1,-1.0335207E0,-6.173465E-1,-1.2776268E0,-1.8048315E-1,-9.972915E-1,-9.618655E-1,-1.2245375E0,1.3160986E0,4.4002774E-1,-6.3954234E-2,-7.350141E-1,2.254186E0,1.6381999E0,5.845098E-1,1.3966959E0,2.2113316E0,1.1316913E0,1.9286393E0,1.2518488E0,1.0747231E0,2.6820487E-1,-6.944193E-1,-1.0725042E0,-6.54233E-1,6.355018E-1,4.084298E-2,-1.2786283E0,3.1637277E-2,-1.2011832E0,-7.870666E-1,-1.1781265E0,-8.881949E-1,-1.2864448E0,-1.0905392E0,-1.2830446E0,1.8257532E0,1.1423477E0,6.275831E-1,6.9452666E-2,1.9563869E-1,-3.7901992E-1,-8.700903E-2,-8.071257E-1,5.8807105E-2,7.168329E-2,3.9940607E-2,5.4603443E-2,3.861956E-2,1.3400298E-2,5.919491E-2,3.7163656E-2,6.0147133E-2,6.881383E-2,4.184851E-2,1.06331445E-2,5.8350272E-2,-2.7715674E-2,2.87403E-2,5.999656E-2,4.594623E-2,2.3300864E-2,-2.9687989E-3,3.269174E-2,4.927785E-2,-2.1288062E-2,-2.8754335E-2,-3.348561E-2,-6.2836767E-3,-2.2417868E-2,2.2921262E-2,-2.8642623E-2,-3.588641E-2,-3.896422E-2,3.8773622E-2,-1.7644467E-3,-3.1477876E-2,-3.780085E-2,-1.959066E-2,-3.8312223E-2,-1.7124813E-2,-3.5904333E-2,-2.2387203E-2,-3.3251E-2,-3.0645715E-2,-3.8821593E-2,-2.6647843E-2,-3.682854E-2,-3.702471E-2,-3.9247632E-2,6.490223E-2,4.863069E-2,4.425307E-2,2.608022E-2,2.0071287E-2,-4.477207E-3,3.4946345E-2,6.472527E-4,3.3187594E-2,3.6512904E-3,2.1941641E-2,-1.23635195E-2,2.4623929E-2,-6.7409757E-3,-1.9070528E-2,-3.2287054E-2],"categories":[],"categories_nodes":[],"categories_segments":[],"categories_sizes":[],"default_left":[0,0,0,0,0,0,0,0,0,0,0,0,0,0,0,0,0,0,0,0,0,0,0,0,0,0,0,0,0,0,0,0,0,0,0,0,0,0,0,0,0,0,0,0,0,0,0,0,0,0,0,0,0,0,0,0,0,0,0,0,0,0,0,0,0,0,0,0,0,0,0,0,0,0,0,0,0,0,0,0,0,0,0,0,0,0,0,0,0,0,0,0,0,0,0,0,0,0,0,0,0,0,0,0,0,0,0,0,0,0,0,0,0,0,0,0,0,0,0,0,0,0,0,0,0],"id":2,"left_children":[1,3,5,7,9,11,13,15,17,19,21,23,25,27,29,31,33,35,37,39,41,43,45,47,49,51,53,55,57,59,61,63,65,67,69,71,73,75,77,79,81,83,85,87,89,-1,91,93,95,97,99,101,103,105,107,109,111,113,115,117,119,121,123,-1,-1,-1,-1,-1,-1,-1,-1,-1,-1,-1,-1,-1,-1,-1,-1,-1,-1,-1,-1,-1,-1,-1,-1,-1,-1,-1,-1,-1,-1,-1,-1,-1,-1,-1,-1,-1,-1,-1,-1,-1,-1,-1,-1,-1,-1,-1,-1,-1,-1,-1,-1,-1,-1,-1,-1,-1,-1,-1,-1,-1,-1],"loss_changes":[1.0474574E5,5.8837207E4,1.9437652E4,5.0760547E3,2.2741953E4,6.8388438E3,2.948716E3,1.7211836E3,1.4012188E3,1.0855188E4,1.557957E3,6.136375E3,7.819883E2,1.2568765E3,2.5275345E2,1.5786182E2,7.9741846E2,7.098125E2,1.1199395E3,7.6934062E3,5.491211E1,6.122407E2,1.4687012E1,4.190467E3,6.6542773E2,4.1060742E2,2.598164E2,3.613418E2,1.8958325E2,1.1278347E2,4.421408E1,2.8913086E1,4.553174E1,4.27365E2,1.4922241E2,2.5014844E2,1.3029022E2,3.403828E2,8.1208496E2,2.9983574E3,7.7033896E3,1.6669403E1,1.772998E1,5.3199854E2,7.823198E1,0E0,6.588379E0,1.8276438E3,2.844873E1,5.3175195E2,1.0621582E2,4.378994E2,5.09375E0,2.798828E2,2.6960938E1,6.850806E1,2.770022E2,5.8438232E1,4.8118076E1,5.0773277E1,2.3192314E1,1.2186713E1,3.865497E1,0E0,0E0,0E0,0E0,0E0,0E0,0E0,0E0,0E0,0E0,0E0,0E0,0E0,0E0,0E0,0E0,0E0,0E0,0E0,0E0,0E0,0E0,0E0,0E0,0E0,0E0,0E0,0E0,0E0,0E0,0E0,0E0,0E0,0E0,0E0,0E0,0E0,0E0,0E0,0E0,0E0,0E0,0E0,0E0,0E0,0E0,0E0,0E0,0E0,0E0,0E0,0E0,0E0,0E0,0E0,0E0,0E0,0E0,0E0,0E0,0E0,0E0],"parents":[2147483647,0,0,1,1,2,2,3,3,4,4,5,5,6,6,7,7,8,8,9,9,10,10,11,11,12,12,13,13,14,14,15,15,16,16,17,17,18,18,19,19,20,20,21,21,22,22,23,23,24,24,25,25,26,26,27,27,28,28,29,29,30,30,31,31,32,32,33,33,34,34,35,35,36,36,37,37,38,38,39,39,40,40,41,41,42,42,43,43,44,44,46,46,47,47,48,48,49,49,50,50,51,51,52,52,53,53,54,54,55,55,56,56,57,57,58,58,59,59,60,60,61,61,62,62],"right_children":[2,4,6,8,10,12,14,16,18,20,22,24,26,28,30,32,34,36,38,40,42,44,46,48,50,52,54,56,58,60,62,64,66,68,70,72,74,76,78,80,82,84,86,88,90,-1,92,94,96,98,100,102,104,106,108,110,112,114,116,118,120,122,124,-1,-1,-1,-1,-1,-1,-1,-1,-1,-1,-1,-1,-1,-1,-1,-1,-1,-1,-1,-1,-1,-1,-1,-1,-1,-1,-1,-1,-1,-1,-1,-1,-1,-1,-1,-1,-1,-1,-1,-1,-1,-1,-1,-1,-1,-1,-1,-1,-1,-1,-1,-1,-1,-1,-1,-1,-1,-1,-1,-1,-1,-1],"split_conditions":[5.0617283E1,-1E0,1E0,5.3048015E-1,2E0,0E0,6.3172806E1,-3E0,-2E0,1E0,1E0,6.1710453E1,6.145458E-1,0E0,6.875E1,-4E0,1E0,4.2487173E0,4.1525425E1,0E0,3.1489176E1,1E0,9.812188E0,1E0,6.792453E1,1E0,5.936591E1,-3E0,5.788033E1,0E0,-3E0,1.3014286E1,3.635028E-1,3.12E1,3.361855E1,1.7814285E1,6.647258E0,1E0,1E0,3.5747097E1,1E0,9.812188E0,4.5964393E-1,3.12E1,2.6570513E0,4.084298E-2,4.094202E-1,-3E0,5.453754E-1,1E0,-3E0,6.2962963E1,1.9060563E-1,2E0,2E0,-4E0,5.5042847E1,1.6724588E0,-1.5452914E-1,-4E0,-2.776941E-1,-5E0,7.352974E1,5.8807105E-2,7.168329E-2,3.9940607E-2,5.4603443E-2,3.861956E-2,1.3400298E-2,5.919491E-2,3.7163656E-2,6.0147133E-2,6.881383E-2,4.184851E-2,1.06331445E-2,5.8350272E-2,-2.7715674E-2,2.87403E-2,5.999656E-2,4.594623E-2,2.3300864E-2,-2.9687989E-3,3.269174E-2,4.927785E-2,-2.1288062E-2,-2.8754335E-2,-3.348561E-2,-6.2836767E-3,-2.2417868E-2,2.2921262E-2,-2.8642623E-2,-3.588641E-2,-3.896422E-2,3.8773622E-2,-1.7644467E-3,-3.1477876E-2,-3.780085E-2,-1.959066E-2,-3.8312223E-2,-1.7124813E-2,-3.5904333E-2,-2.2387203E-2,-3.3251E-2,-3.0645715E-2,-3.8821593E-2,-2.6647843E-2,-3.682854E-2,-3.702471E-2,-3.9247632E-2,6.490223E-2,4.863069E-2,4.425307E-2,2.608022E-2,2.0071287E-2,-4.477207E-3,3.4946345E-2,6.472527E-4,3.3187594E-2,3.6512904E-3,2.1941641E-2,-1.23635195E-2,2.4623929E-2,-6.7409757E-3,-1.9070528E-2,-3.2287054E-2],"split_indices":[0,8,4,6,8,8,0,8,8,3,3,0,6,8,0,8,4,6,0,8,0,4,0,3,0,3,0,8,0,8,8,2,6,0,0,2,6,3,4,0,4,0,6,0,6,0,6,8,6,3,8,0,6,8,8,8,0,6,5,8,5,8,0,0,0,0,0,0,0,0,0,0,0,0,0,0,0,0,0,0,0,0,0,0,0,0,0,0,0,0,0,0,0,0,0,0,0,0,0,0,0,0,0,0,0,0,0,0,0,0,0,0,0,0,0,0,0,0,0,0,0,0,0,0,0],"split_type":[0,0,0,0,0,0,0,0,0,0,0,0,0,0,0,0,0,0,0,0,0,0,0,0,0,0,0,0,0,0,0,0,0,0,0,0,0,0,0,0,0,0,0,0,0,0,0,0,0,0,0,0,0,0,0,0,0,0,0,0,0,0,0,0,0,0,0,0,0,0,0,0,0,0,0,0,0,0,0,0,0,0,0,0,0,0,0,0,0,0,0,0,0,0,0,0,0,0,0,0,0,0,0,0,0,0,0,0,0,0,0,0,0,0,0,0,0,0,0,0,0,0,0,0,0],"sum_hessian":[2.0082294E5,1.0425182E5,9.657112E4,3.433922E4,6.99126E4,8.741699E4,9.154123E3,7.7839277E3,2.6555291E4,5.1777945E4,1.8134658E4,3.688051E4,5.053648E4,6.8303813E3,2.323742E3,1.702126E3,6.081802E3,1.5602957E4,1.0952333E4,4.7568703E4,4.2092437E3,1.3238199E4,4.896458E3,1.9353314E4,1.7527197E4,1.7218377E4,3.33181E4,4.103069E3,2.7273123E3,1.3770529E3,9.4668915E2,8.4402386E2,8.581022E2,4.4166562E3,1.6651459E3,1.4964795E4,6.3816223E2,7.25E3,3.7023328E3,2.2031125E4,2.5537576E4,4.3594534E2,3.7732983E3,1.2860051E4,3.7814862E2,1.3424355E0,4.8951157E3,1.6024165E4,3.3291501E3,8.1074487E3,9.419748E3,1.4036267E4,3.1821108E3,1.0132142E4,2.318596E4,1.040758E3,3.062311E3,1.81036E3,9.169523E2,7.5519885E2,6.2185394E2,9.502127E1,8.5166785E2,2.7086212E2,5.7316174E2,3.2247824E2,5.3562396E2,7.227952E2,3.6938608E3,3.5557205E2,1.3095737E3,4.278882E3,1.0685913E4,4.7610776E2,1.6205447E2,7.2089478E3,4.10525E1,2.659806E3,1.0425269E3,8.69668E3,1.3334445E4,1.7650053E4,7.887523E3,2.1220326E0,4.3382333E2,1.0514956E3,2.7218027E3,2.2250823E3,1.0634969E4,3.5034946E2,2.7799173E1,9.746714E2,3.9204443E3,1.071747E3,1.4952418E4,9.347459E2,2.3944043E3,6.367824E3,1.7396245E3,2.8210718E2,9.137641E3,8.536672E3,5.4995947E3,9.261155E1,3.0894993E3,4.095773E3,6.036368E3,7.9054766E3,1.5280484E4,3.892365E2,6.515215E2,1.3781497E3,1.6841613E3,1.7187665E3,9.1593506E1,3.7421795E1,8.7953046E2,5.5659065E1,6.995398E2,1.7388166E1,6.044658E2,1.1860761E1,8.316051E1,5.2229315E2,3.293747E2],"tree_param":{"num_deleted":"0","num_feature":"9","num_nodes":"125","size_leaf_vector":"1"}},{"base_weights":[-8.39606E-4,6.5212923E-1,-7.546788E-1,3.361218E-1,1.6671522E0,-8.947429E-1,5.783377E-1,5.3031945E-1,-1.1482664E0,1.7133286E0,4.8738593E-1,-6.3570464E-1,-1.1475884E0,8.9910823E-1,-3.291033E-1,1.0575625E0,2.2989282E-1,-8.7957036E-1,-1.1734824E0,1.1715258E0,1.7922556E0,6.995222E-1,-1.3315383E-1,-4.655772E-1,-1.2572396E0,-9.633192E-1,-1.2207721E0,6.739224E-1,1.210397E0,-9.454227E-2,-7.765792E-1,9.0404403E-1,1.535111E0,-1.2754081E-2,5.664784E-1,5.4091994E-2,-8.954843E-1,-1.103726E0,-1.215947E0,5.7424134E-1,1.4999042E0,1.6880411E0,2.1332376E0,5.53901E-1,1.0240067E0,-2.0467515E-1,8.7281656E-1,-6.416946E-1,-2.1259877E-1,-1.1513613E0,-1.2814381E0,-8.087574E-1,-1.1324862E0,-1.108849E0,-1.2668792E0,8.494736E-1,2.7761698E-1,1.5529689E0,9.051378E-1,8.2605565E-1,-1.2514234E-1,-5.982492E-1,-9.906861E-1,3.929141E-2,2.0403024E-2,5.6034267E-2,4.0482067E-2,-9.723907E-3,4.0690433E-3,2.7359122E-2,1.0925469E-2,-3.13021E-2,-1.9602198E-2,-3.504216E-2,-3.0491695E-2,-3.458971E-2,-3.7513845E-2,4.24313E-3,2.3720372E-2,5.9437644E-2,4.0159836E-2,5.22359E-2,3.9689496E-2,6.650181E-2,5.629286E-2,-1.1196287E-2,1.8473145E-2,3.7126347E-2,1.6402133E-2,-1.5498796E-2,-2.6808137E-3,6.8910554E-2,1.6220009E-2,-1.4243341E-2,-2.3307301E-2,1.3514732E-3,-1.2424062E-2,-3.661513E-2,-3.187824E-2,-3.7168764E-2,-3.8739104E-2,-3.0540876E-2,-1.8907746E-2,-3.1140678E-2,-3.672314E-2,-3.0723656E-2,-3.903323E-2,-3.661622E-2,-3.8880646E-2,1.6546303E-2,3.0103015E-2,4.3036066E-2,7.2096162E-3,6.070891E-2,4.4619765E-2,4.631035E-2,2.4715545E-2,3.508096E-2,1.2807741E-2,-1.0151129E-3,-1.0331465E-2,2.285699E-3,-1.8973576E-2,-1.6272722E-2,-3.0648675E-2],"categories":[],"categories_nodes":[],"categories_segments":[],"categories_sizes":[],"default_left":[0,0,0,0,0,0,0,0,0,0,0,0,0,0,0,0,0,0,0,0,0,0,0,0,0,0,0,0,0,0,0,0,0,0,0,0,0,0,0,0,0,0,0,0,0,0,0,0,0,0,0,0,0,0,0,0,0,0,0,0,0,0,0,0,0,0,0,0,0,0,0,0,0,0,0,0,0,0,0,0,0,0,0,0,0,0,0,0,0,0,0,0,0,0,0,0,0,0,0,0,0,0,0,0,0,0,0,0,0,0,0,0,0,0,0,0,0,0,0,0,0,0,0,0,0],"id":3,"left_children":[1,3,5,7,9,11,13,15,17,19,21,23,25,27,29,31,33,35,37,39,41,43,45,47,49,51,53,55,57,59,61,63,65,67,69,-1,71,73,75,77,79,81,83,85,87,89,91,93,95,97,99,101,103,105,107,109,111,113,115,117,119,121,123,-1,-1,-1,-1,-1,-1,-1,-1,-1,-1,-1,-1,-1,-1,-1,-1,-1,-1,-1,-1,-1,-1,-1,-1,-1,-1,-1,-1,-1,-1,-1,-1,-1,-1,-1,-1,-1,-1,-1,-1,-1,-1,-1,-1,-1,-1,-1,-1,-1,-1,-1,-1,-1,-1,-1,-1,-1,-1,-1,-1,-1,-1],"loss_changes":[9.875431E4,3.4482195E4,1.7386734E4,2.3633389E4,1.3895938E3,5.518414E3,2.5777175E3,1.1483424E4,6.32334E1,1.0482109E3,1.2682898E2,4.400916E3,5.738672E2,4.5779053E2,2.427311E2,1.9278555E3,3.7719692E3,3.6525696E1,2.4333984E1,6.122412E2,7.5814844E2,3.334247E1,1.7886234E1,1.4559712E3,2.1442383E1,3.161416E2,1.5607812E2,2.6403052E2,2.8563867E2,4.2890305E1,2.977832E1,1.8084229E3,3.92917E2,1.2401025E3,1.3518818E3,0E0,2.8451477E1,1.7307129E1,1.0245117E1,1.0391788E2,1.5384766E2,3.1639062E2,1.0334766E2,2.8767853E1,2.1858765E1,8.248708E0,6.5759068E0,4.3449268E2,6.966201E2,8.975098E0,1.4462891E0,2.361914E2,4.8813965E1,1.4383203E2,2.759375E1,1.2017053E2,5.0034035E1,3.6908203E1,7.4192505E1,6.214119E0,2.9431852E1,1.0117386E1,4.4372864E0,0E0,0E0,0E0,0E0,0E0,0E0,0E0,0E0,0E0,0E0,0E0,0E0,0E0,0E0,0E0,0E0,0E0,0E0,0E0,0E0,0E0,0E0,0E0,0E0,0E0,0E0,0E0,0E0,0E0,0E0,0E0,0E0,0E0,0E0,0E0,0E0,0E0,0E0,0E0,0E0,0E0,0E0,0E0,0E0,0E0,0E0,0E0,0E0,0E0,0E0,0E0,0E0,0E0,0E0,0E0,0E0,0E0,0E0,0E0,0E0,0E0,0E0],"parents":[2147483647,0,0,1,1,2,2,3,3,4,4,5,5,6,6,7,7,8,8,9,9,10,10,11,11,12,12,13,13,14,14,15,15,16,16,17,17,18,18,19,19,20,20,21,21,22,22,23,23,24,24,25,25,26,26,27,27,28,28,29,29,30,30,31,31,32,32,33,33,34,34,36,36,37,37,38,38,39,39,40,40,41,41,42,42,43,43,44,44,45,45,46,46,47,47,48,48,49,49,50,50,51,51,52,52,53,53,54,54,55,55,56,56,57,57,58,58,59,59,60,60,61,61,62,62],"right_children":[2,4,6,8,10,12,14,16,18,20,22,24,26,28,30,32,34,36,38,40,42,44,46,48,50,52,54,56,58,60,62,64,66,68,70,-1,72,74,76,78,80,82,84,86,88,90,92,94,96,98,100,102,104,106,108,110,112,114,116,118,120,122,124,-1,-1,-1,-1,-1,-1,-1,-1,-1,-1,-1,-1,-1,-1,-1,-1,-1,-1,-1,-1,-1,-1,-1,-1,-1,-1,-1,-1,-1,-1,-1,-1,-1,-1,-1,-1,-1,-1,-1,-1,-1,-1,-1,-1,-1,-1,-1,-1,-1,-1,-1,-1,-1,-1,-1,-1,-1,-1,-1,-1,-1,-1],"split_conditions":[5.111969E1,1E0,1E0,1E0,4.2487173E0,6.2326702E1,6.3172806E1,3.5747097E1,3.1489176E1,4.5596585E-1,6.647258E0,1E0,6.145458E-1,3.484414E-2,6.964755E1,8.867297E-4,-2.4281988E-4,9.812188E0,5.453754E-1,-1.2840551E-2,2.5000911E-2,5.470714E1,-2.595415E-3,3.015962E-2,4.7105244E-1,6.847265E1,6.6875E1,5.788033E1,5.6085754E1,-2.4488041E-1,7.352974E1,2.6219345E1,2.826008E1,5.3048015E-1,4.2799023E1,5.4091994E-2,-1.7873196E-2,-2.595415E-3,4.2263382E1,3.159324E-1,3.458942E1,2.499177E0,4.6259052E1,-1.1902315E-1,5.399365E0,2.0042856E1,-2.4281988E-4,5.5555557E1,5.6265358E1,4.466954E-3,6.3468647E-1,1.1802123E-2,7.312246E1,1E0,7.197116E1,5.0063396E-1,-1.4414558E-1,-6.802859E-2,-8.833443E-2,6.588031E1,6.7132866E1,2.8857143E0,2.5357144E0,3.929141E-2,2.0403024E-2,5.6034267E-2,4.0482067E-2,-9.723907E-3,4.0690433E-3,2.7359122E-2,1.0925469E-2,-3.13021E-2,-1.9602198E-2,-3.504216E-2,-3.0491695E-2,-3.458971E-2,-3.7513845E-2,4.24313E-3,2.3720372E-2,5.9437644E-2,4.0159836E-2,5.22359E-2,3.9689496E-2,6.650181E-2,5.629286E-2,-1.1196287E-2,1.8473145E-2,3.7126347E-2,1.6402133E-2,-1.5498796E-2,-2.6808137E-3,6.8910554E-2,1.6220009E-2,-1.4243341E-2,-2.3307301E-2,1.3514732E-3,-1.2424062E-2,-3.661513E-2,-3.187824E-2,-3.7168764E-2,-3.8739104E-2,-3.0540876E-2,-1.8907746E-2,-3.1140678E-2,-3.672314E-2,-3.0723656E-2,-3.903323E-2,-3.661622E-2,-3.8880646E-2,1.6546303E-2,3.0103015E-2,4.3036066E-2,7.2096162E-3,6.070891E-2,4.4619765E-2,4.631035E-2,2.4715545E-2,3.508096E-2,1.2807741E-2,-1.0151129E-3,-1.0331465E-2,2.285699E-3,-1.8973576E-2,-1.6272722E-2,-3.0648675E-2],"split_indices":[0,4,4,3,6,0,0,0,0,6,6,3,6,1,0,1,1,0,6,1,1,2,1,1,6,0,0,0,0,5,0,0,0,6,0,0,1,1,0,6,0,6,0,1,6,2,1,0,0,1,6,1,0,3,0,6,5,5,5,0,0,2,2,0,0,0,0,0,0,0,0,0,0,0,0,0,0,0,0,0,0,0,0,0,0,0,0,0,0,0,0,0,0,0,0,0,0,0,0,0,0,0,0,0,0,0,0,0,0,0,0,0,0,0,0,0,0,0,0,0,0,0,0,0,0],"split_type":[0,0,0,0,0,0,0,0,0,0,0,0,0,0,0,0,0,0,0,0,0,0,0,0,0,0,0,0,0,0,0,0,0,0,0,0,0,0,0,0,0,0,0,0,0,0,0,0,0,0,0,0,0,0,0,0,0,0,0,0,0,0,0,0,0,0,0,0,0,0,0,0,0,0,0,0,0,0,0,0,0,0,0,0,0,0,0,0,0,0,0,0,0,0,0,0,0,0,0,0,0,0,0,0,0,0,0,0,0,0,0,0,0,0,0,0,0,0,0,0,0,0,0,0,0],"sum_hessian":[2.0062294E5,1.0750403E5,9.311891E4,8.198191E4,2.5522125E4,8.426523E4,8.853676E3,7.249788E4,9.48402E3,2.4560371E4,9.6175287E2,4.1624625E4,4.2640605E4,6.541379E3,2.3122969E3,2.631429E4,4.6183594E4,8.1675287E2,8.667267E3,3.1249172E3,2.1435455E4,7.166376E2,2.4511531E2,3.2680908E4,8.943716E3,1.2125088E4,3.0515518E4,3.797464E3,2.7439148E3,1.5178639E3,7.944331E2,1.9915049E4,6.3992397E3,2.6837334E4,1.9346262E4,4.1543217E0,8.125985E2,3.2899233E3,5.3773433E3,1.1095376E3,2.0153798E3,1.6422258E4,5.0131978E3,4.965186E2,2.20119E2,2.295888E2,1.5526503E1,1.9266502E4,1.3414405E4,1.6728628E3,7.270853E3,6.3390815E3,5.7860063E3,8.910538E3,2.1604979E4,2.6309087E3,1.1665555E3,1.2910118E3,1.452903E3,4.7993446E1,1.4698704E3,4.3549927E2,3.589338E2,7.0817397E3,1.283331E4,2.2891528E3,4.110087E3,8.66135E3,1.8175984E4,7.143199E3,1.22030625E4,5.0233948E2,3.1025906E2,1.8871625E3,1.4027609E3,1.9163008E3,3.4610425E3,3.7043802E2,7.3909955E2,5.0287738E2,1.5125024E3,1.4331666E4,2.0905913E3,3.7774907E3,1.2357069E3,3.074727E1,4.657713E2,1.5097656E2,6.914243E1,6.1024395E1,1.685644E2,1.8175476E0,1.3708955E1,8.624506E3,1.0641997E4,5.8879395E3,7.526466E3,9.331463E2,7.3971655E2,1.3941902E3,5.876663E3,2.9158489E3,3.423233E3,2.854842E3,2.9311646E3,6.189288E3,2.7212505E3,8.358032E3,1.3246946E4,8.9791846E2,1.7329901E3,3.5262604E1,1.1312928E3,1.543679E2,1.1366439E3,1.6203702E2,1.290866E3,2.476351E1,2.3229937E1,1.0385199E3,4.313506E2,2.0960566E1,4.145387E2,2.4368803E1,3.34565E2],"tree_param":{"num_deleted":"0","num_feature":"9","num_nodes":"125","size_leaf_vector":"1"}},{"base_weights":[-1.0442414E-3,6.2718236E-1,-7.410149E-1,1.2225664E0,-2.0148446E-1,-8.803114E-1,5.567243E-1,1.6111213E0,6.998312E-1,-4.7523916E-1,9.480538E-1,-5.60041E-1,-1.1152632E0,8.553365E-1,-3.4048876E-1,9.426343E-1,1.7883717E0,1.1169175E0,3.1715417E-1,-1.404482E-1,-8.1831914E-1,1.1369746E0,-2.1592689E-1,-1.8780345E-1,-9.7255504E-1,-9.549301E-1,-1.2106977E0,1.1797222E0,3.6465555E-1,-1.2956348E-1,-8.0050164E-1,1.7696561E0,7.097602E-1,1.9648901E0,1.5378704E0,7.8463274E-1,1.4498076E0,7.12555E-2,6.1625934E-1,2.8286406E-1,-3.844026E-1,-6.3883394E-1,-1.0752409E0,4.395998E-1,1.2116218E0,8.810952E-2,-1.0054674E0,1.1965456E0,-2.699996E-1,-7.8821534E-1,-1.1744397E0,-8.7341875E-1,-1.2057985E0,-1.0638369E0,-1.2542148E0,1.6619668E0,1.0148995E0,5.4255116E-1,4.6276875E-2,1.2998688E-1,-4.3608916E-1,-2.1098594E-1,-8.6529094E-1,4.442104E-2,6.246048E-2,9.245935E-3,3.368383E-2,5.972281E-2,1.9258773E-2,5.244745E-2,3.3636447E-2,1.43549675E-2,3.6542382E-2,1.1516298E-2,4.4982202E-2,1.0205273E-3,4.85834E-2,2.6725335E-2,1.2262061E-2,3.6524644E-3,2.3312308E-2,-1.582299E-2,1.7433846E-4,-5.145599E-3,-2.1896346E-2,2.0545708E-2,-3.259555E-2,2.2082275E-2,-1.4695913E-2,4.2860948E-2,2.95975E-2,-2.324984E-2,6.929661E-3,-2.1246549E-2,-3.590094E-2,6.407149E-2,2.9840976E-2,-1.4675265E-2,-1.0784403E-3,1.134281E-2,-2.5092661E-2,-1.8798513E-2,-3.5736028E-2,-2.1995993E-2,-3.259134E-2,-3.4651693E-2,-3.7802115E-2,-2.575668E-2,-3.6096945E-2,-3.5947375E-2,-3.8490906E-2,6.8979494E-2,4.6621703E-2,2.2220157E-2,4.001869E-2,1.0595418E-2,2.9301554E-2,-7.880989E-3,5.1313797E-3,3.0458715E-2,1.7842217E-3,-5.4626516E-3,-1.6373541E-2,8.250728E-3,-1.22309225E-2,-2.0268748E-2,-3.1403657E-2],"categories":[],"categories_nodes":[],"categories_segments":[],"categories_sizes":[],"default_left":[0,0,0,0,0,0,0,0,0,0,0,0,0,0,0,0,0,0,0,0,0,0,0,0,0,0,0,0,0,0,0,0,0,0,0,0,0,0,0,0,0,0,0,0,0,0,0,0,0,0,0,0,0,0,0,0,0,0,0,0,0,0,0,0,0,0,0,0,0,0,0,0,0,0,0,0,0,0,0,0,0,0,0,0,0,0,0,0,0,0,0,0,0,0,0,0,0,0,0,0,0,0,0,0,0,0,0,0,0,0,0,0,0,0,0,0,0,0,0,0,0,0,0,0,0,0,0],"id":4,"left_children":[1,3,5,7,9,11,13,15,17,19,21,23,25,27,29,31,33,35,37,39,41,43,45,47,49,51,53,55,57,59,61,63,65,67,69,71,73,75,77,79,81,83,85,87,89,91,93,95,97,99,101,103,105,107,109,111,113,115,117,119,121,123,125,-1,-1,-1,-1,-1,-1,-1,-1,-1,-1,-1,-1,-1,-1,-1,-1,-1,-1,-1,-1,-1,-1,-1,-1,-1,-1,-1,-1,-1,-1,-1,-1,-1,-1,-1,-1,-1,-1,-1,-1,-1,-1,-1,-1,-1,-1,-1,-1,-1,-1,-1,-1,-1,-1,-1,-1,-1,-1,-1,-1,-1,-1,-1,-1],"loss_changes":[9.31631E4,5.3475883E4,1.6634938E4,1.2809445E4,1.4261247E4,6.2525117E3,2.3902273E3,4.285086E3,4.292213E3,4.203907E3,1.9170088E3,5.399873E3,7.322969E2,1.064915E3,2.1609903E2,1.4594443E3,1.2613906E3,1.4222637E3,1.0316396E3,1.9132277E3,8.328916E2,3.8986816E2,2.9247424E2,2.1039663E3,6.1986426E2,3.6477734E2,1.9067969E2,3.1855078E2,1.5092844E2,1.2169699E2,2.6565155E1,1.472627E2,9.8148804E2,5.7270703E2,1.0345645E3,8.5423804E2,3.3921973E2,4.438238E2,3.6026367E2,5.392538E2,6.5596826E2,4.5276025E2,1.4828613E2,2.0061227E2,3.2949414E2,1.0873835E2,1.8406158E1,1.9433533E2,8.952438E2,4.9072412E2,7.233984E1,4.025254E2,1.0619629E1,1.956753E2,3.583203E1,6.690088E1,2.6195142E2,1.4022818E2,3.6917793E1,5.166996E1,1.9439606E1,6.8681507E0,2.1001923E1,0E0,0E0,0E0,0E0,0E0,0E0,0E0,0E0,0E0,0E0,0E0,0E0,0E0,0E0,0E0,0E0,0E0,0E0,0E0,0E0,0E0,0E0,0E0,0E0,0E0,0E0,0E0,0E0,0E0,0E0,0E0,0E0,0E0,0E0,0E0,0E0,0E0,0E0,0E0,0E0,0E0,0E0,0E0,0E0,0E0,0E0,0E0,0E0,0E0,0E0,0E0,0E0,0E0,0E0,0E0,0E0,0E0,0E0,0E0,0E0,0E0,0E0,0E0,0E0],"parents":[2147483647,0,0,1,1,2,2,3,3,4,4,5,5,6,6,7,7,8,8,9,9,10,10,11,11,12,12,13,13,14,14,15,15,16,16,17,17,18,18,19,19,20,20,21,21,22,22,23,23,24,24,25,25,26,26,27,27,28,28,29,29,30,30,31,31,32,32,33,33,34,34,35,35,36,36,37,37,38,38,39,39,40,40,41,41,42,42,43,43,44,44,45,45,46,46,47,47,48,48,49,49,50,50,51,51,52,52,53,53,54,54,55,55,56,56,57,57,58,58,59,59,60,60,61,61,62,62],"right_children":[2,4,6,8,10,12,14,16,18,20,22,24,26,28,30,32,34,36,38,40,42,44,46,48,50,52,54,56,58,60,62,64,66,68,70,72,74,76,78,80,82,84,86,88,90,92,94,96,98,100,102,104,106,108,110,112,114,116,118,120,122,124,126,-1,-1,-1,-1,-1,-1,-1,-1,-1,-1,-1,-1,-1,-1,-1,-1,-1,-1,-1,-1,-1,-1,-1,-1,-1,-1,-1,-1,-1,-1,-1,-1,-1,-1,-1,-1,-1,-1,-1,-1,-1,-1,-1,-1,-1,-1,-1,-1,-1,-1,-1,-1,-1,-1,-1,-1,-1,-1,-1,-1,-1,-1,-1,-1],"split_conditions":[5.111969E1,0E0,1E0,-1E0,1E0,0E0,6.3391655E1,5.119827E-1,3.886048E1,2E0,2.2465098E0,6.191781E1,6.5078604E-1,0E0,7.02661E1,-3E0,-2E0,7.720621E-1,-2.4281988E-4,3.7049503E1,3E0,-7.022954E-1,3.9092057E0,-3E0,6.905207E1,3E0,5.7701283E1,-3E0,5.788033E1,0E0,-3E0,1.303289E-2,-3.1762E-3,5.399365E0,4.1893078E1,-9.753991E-3,-6.232608E-1,1E0,4.4891304E1,-8.96685E-4,2.2888398E-2,3.12E1,1.5234657E1,9.337923E-1,3.925442E1,-3.5991585E-1,4.714615E0,-5E0,2.0124298E-2,-3E0,-3E0,6.2962963E1,4E0,2E0,2E0,-5E0,-1.1600753E-1,4.5294277E-2,-8.96685E-4,-4E0,6.493507E1,6.8285713E0,7.352974E1,4.442104E-2,6.246048E-2,9.245935E-3,3.368383E-2,5.972281E-2,1.9258773E-2,5.244745E-2,3.3636447E-2,1.43549675E-2,3.6542382E-2,1.1516298E-2,4.4982202E-2,1.0205273E-3,4.85834E-2,2.6725335E-2,1.2262061E-2,3.6524644E-3,2.3312308E-2,-1.582299E-2,1.7433846E-4,-5.145599E-3,-2.1896346E-2,2.0545708E-2,-3.259555E-2,2.2082275E-2,-1.4695913E-2,4.2860948E-2,2.95975E-2,-2.324984E-2,6.929661E-3,-2.1246549E-2,-3.590094E-2,6.407149E-2,2.9840976E-2,-1.4675265E-2,-1.0784403E-3,1.134281E-2,-2.5092661E-2,-1.8798513E-2,-3.5736028E-2,-2.1995993E-2,-3.259134E-2,-3.4651693E-2,-3.7802115E-2,-2.575668E-2,-3.6096945E-2,-3.5947375E-2,-3.8490906E-2,6.8979494E-2,4.6621703E-2,2.2220157E-2,4.001869E-2,1.0595418E-2,2.9301554E-2,-7.880989E-3,5.1313797E-3,3.0458715E-2,1.7842217E-3,-5.4626516E-3,-1.6373541E-2,8.250728E-3,-1.22309225E-2,-2.0268748E-2,-3.1403657E-2],"split_indices":[0,8,4,8,4,8,0,6,0,8,6,0,6,8,0,8,8,6,1,0,8,7,6,8,0,8,0,8,0,8,8,1,1,6,0,1,7,4,0,1,1,0,0,6,0,7,6,8,1,8,8,0,8,8,8,8,7,1,1,8,0,2,0,0,0,0,0,0,0,0,0,0,0,0,0,0,0,0,0,0,0,0,0,0,0,0,0,0,0,0,0,0,0,0,0,0,0,0,0,0,0,0,0,0,0,0,0,0,0,0,0,0,0,0,0,0,0,0,0,0,0,0,0,0,0,0,0],"split_type":[0,0,0,0,0,0,0,0,0,0,0,0,0,0,0,0,0,0,0,0,0,0,0,0,0,0,0,0,0,0,0,0,0,0,0,0,0,0,0,0,0,0,0,0,0,0,0,0,0,0,0,0,0,0,0,0,0,0,0,0,0,0,0,0,0,0,0,0,0,0,0,0,0,0,0,0,0,0,0,0,0,0,0,0,0,0,0,0,0,0,0,0,0,0,0,0,0,0,0,0,0,0,0,0,0,0,0,0,0,0,0,0,0,0,0,0,0,0,0,0,0,0,0,0,0,0,0],"sum_hessian":[2.004051E5,1.0838642E5,9.201868E4,6.3070668E4,4.5315754E4,8.30993E4,8.919378E3,3.6177465E4,2.6893205E4,3.6600242E4,8.715512E3,3.516633E4,4.7932973E4,6.692135E3,2.2272427E3,7.58343E3,2.8594035E4,1.2867153E4,1.4026051E4,1.8524607E4,1.8075633E4,7.498487E3,1.2170247E3,1.8486363E4,1.6679965E4,1.788933E4,3.0043643E4,4.0279084E3,2.6642266E3,1.5279349E3,6.993076E2,1.6647369E3,5.9186934E3,1.6770023E4,1.1824012E4,6.441113E3,6.426041E3,7.6983574E3,6.327693E3,6.7725854E3,1.1752022E4,1.0643549E4,7.4320845E3,7.2569855E2,6.7727886E3,8.7930865E2,3.3771594E2,1.035354E3,1.745101E4,8.721402E3,7.958561E3,1.3505609E4,4.3837217E3,6.8732705E3,2.3170373E4,1.0236858E3,3.0042227E3,1.7087502E3,9.5547626E2,8.276765E2,7.002584E2,6.966691E1,6.2964075E2,8.677491E2,7.969879E2,3.0019077E3,2.9167854E3,1.6447875E4,3.2214914E2,7.8547754E3,3.9692366E3,3.7761821E3,2.6649307E3,2.861062E2,6.1399346E3,7.5185396E3,1.7981796E2,2.7223386E3,3.6053542E3,5.108456E3,1.6641295E3,8.599558E3,3.1524648E3,1.7359769E3,8.907572E3,4.693588E1,7.3851484E3,5.5035645E2,1.753421E2,3.4446562E3,3.3281323E3,1.2425931E2,7.550494E2,1.3405074E2,2.036652E2,1.8145967E2,8.5389435E2,9.011327E3,8.439683E3,3.458997E2,8.375503E3,2.3741293E2,7.7211484E3,8.146286E3,5.3593228E3,2.277057E3,2.1066648E3,2.7826016E3,4.0906687E3,7.8893394E3,1.5281032E4,1.4528438E2,8.784014E2,1.6173992E3,1.3868235E3,1.1910597E3,5.176905E2,2.7452954E2,6.809467E2,6.0071182E1,7.6760535E2,2.1200934E2,4.882491E2,1.9958303E1,4.9708603E1,3.1020126E2,3.1943945E2],"tree_param":{"num_deleted":"0","num_feature":"9","num_nodes":"127","size_leaf_vector":"1"}},{"base_weights":[-1.2608464E-3,6.0380113E-1,-7.277268E-1,7.6483446E-1,-1.1316084E0,-4.120943E-1,-1.0685172E0,1.0863838E0,4.3334118E-1,-8.6916983E-1,-1.1565673E0,-2.2724965E-1,-1.2364202E0,-9.1526914E-1,-1.2051263E0,8.966638E-1,1.4298362E0,1.6780025E-1,7.7060264E-1,1.6923789E0,-8.849526E-1,-1.0861102E0,-1.1995599E0,-4.8624358E-1,-1.2928672E-2,-1.1292554E0,-1.2610215E0,-8.058716E-1,-1.2692549E0,-1.0406926E0,-1.2368877E0,2.8901598E-1,1.0535308E0,1.0249486E0,1.5429534E0,-8.106637E-2,4.0649322E-1,9.9628836E-1,5.930079E-1,5.8889527E-2,8.464614E-3,-1.0432619E0,-6.6544986E-1,-1.1495494E0,-1.0006415E0,-1.1385075E0,-1.2332652E0,-2.945287E-1,-6.559509E-1,2.5980935E-1,-2.3322883E-1,-1.1989841E0,-1.0402405E0,-1.2184888E0,-3.8127784E-2,-6.2267125E-1,-9.581163E-1,-1.0993524E0,-3.8289268E-2,-9.193293E-1,-1.1627992E0,-1.1881834E0,-1.2720253E0,2.9296204E-2,4.0949043E-3,3.7632562E-2,2.630425E-2,4.7832727E-2,2.6387254E-2,4.2211417E-2,5.216198E-2,-6.596336E-3,3.479174E-3,1.6380023E-2,2.1234553E-3,2.324138E-2,3.800046E-2,1.3121198E-2,2.3843938E-2,-1.5825972E-2,-3.1808432E-2,-8.948619E-3,-2.267893E-2,-3.604925E-2,-3.3346035E-2,-2.7767846E-2,-3.1498823E-2,-3.634217E-2,-3.219944E-2,-3.789774E-2,-3.6462765E-2,-1.1648393E-2,-2.1234928E-3,-1.606564E-2,-2.2328923E-2,2.3053195E-2,6.362174E-3,2.0107234E-2,-8.283186E-3,-2.5262795E-2,-3.6150765E-2,-6.2940437E-3,-3.1723496E-2,-3.725965E-2,-3.5041805E-2,-2.5627049E-2,-1.3633391E-2,-2.5444295E-2,-3.114875E-2,-3.6445808E-2,-2.393888E-2,-3.282302E-2,-2.3626858E-2,-3.3240344E-2,-3.6965825E-2,-3.438301E-2,-3.8490098E-2,-3.5414036E-2,-3.823086E-2],"categories":[],"categories_nodes":[],"categories_segments":[],"categories_sizes":[],"default_left":[0,0,0,0,0,0,0,0,0,0,0,0,0,0,0,0,0,0,0,0,0,0,0,0,0,0,0,0,0,0,0,0,0,0,0,0,0,0,0,0,0,0,0,0,0,0,0,0,0,0,0,0,0,0,0,0,0,0,0,0,0,0,0,0,0,0,0,0,0,0,0,0,0,0,0,0,0,0,0,0,0,0,0,0,0,0,0,0,0,0,0,0,0,0,0,0,0,0,0,0,0,0,0,0,0,0,0,0,0,0,0,0,0,0,0,0,0,0,0],"id":5,"left_children":[1,3,5,7,9,11,13,15,17,19,21,23,25,27,29,31,33,35,37,39,41,43,45,47,49,51,53,55,57,59,61,63,65,67,69,71,73,75,77,-1,-1,79,81,83,85,87,89,91,93,95,97,99,101,103,-1,105,107,109,-1,111,113,115,117,-1,-1,-1,-1,-1,-1,-1,-1,-1,-1,-1,-1,-1,-1,-1,-1,-1,-1,-1,-1,-1,-1,-1,-1,-1,-1,-1,-1,-1,-1,-1,-1,-1,-1,-1,-1,-1,-1,-1,-1,-1,-1,-1,-1,-1,-1,-1,-1,-1,-1,-1,-1,-1,-1,-1,-1],"loss_changes":[8.794576E4,3.0506676E4,9.779102E3,1.0647137E4,5.9711914E1,7.192117E3,9.1408984E2,3.3026953E3,4.4048975E3,3.420581E1,2.4328125E1,2.1402725E3,2.136914E1,7.9700586E2,1.1941406E2,3.1133848E3,8.246953E2,1.6348477E3,8.6783984E2,1.4678059E0,2.727002E1,1.6292725E1,9.390137E0,5.6785693E2,1.2678208E3,8.831299E0,1.4101562E0,4.385547E2,4.4248047E0,5.446582E1,3.1625E1,7.0284064E2,9.206133E2,3.2499414E2,3.7270703E2,3.6856015E2,6.5787695E2,5.7059766E2,3.8053613E2,0E0,0E0,3.5289612E0,1.1072617E1,2.3078613E0,4.1296387E0,7.628662E0,2.6611328E-1,1.7197815E2,9.8128174E1,2.2875983E2,4.5235657E2,9.342041E-1,1.0079224E1,1.4978027E-1,0E0,2.7809595E2,7.4921875E1,6.03067E0,0E0,4.2530273E1,5.722412E0,3.0970703E1,8.984375E-1,0E0,0E0,0E0,0E0,0E0,0E0,0E0,0E0,0E0,0E0,0E0,0E0,0E0,0E0,0E0,0E0,0E0,0E0,0E0,0E0,0E0,0E0,0E0,0E0,0E0,0E0,0E0,0E0,0E0,0E0,0E0,0E0,0E0,0E0,0E0,0E0,0E0,0E0,0E0,0E0,0E0,0E0,0E0,0E0,0E0,0E0,0E0,0E0,0E0,0E0,0E0,0E0,0E0,0E0,0E0,0E0],"parents":[2147483647,0,0,1,1,2,2,3,3,4,4,5,5,6,6,7,7,8,8,9,9,10,10,11,11,12,12,13,13,14,14,15,15,16,16,17,17,18,18,19,19,20,20,21,21,22,22,23,23,24,24,25,25,26,26,27,27,28,28,29,29,30,30,31,31,32,32,33,33,34,34,35,35,36,36,37,37,38,38,41,41,42,42,43,43,44,44,45,45,46,46,47,47,48,48,49,49,50,50,51,51,52,52,53,53,55,55,56,56,57,57,59,59,60,60,61,61,62,62],"right_children":[2,4,6,8,10,12,14,16,18,20,22,24,26,28,30,32,34,36,38,40,42,44,46,48,50,52,54,56,58,60,62,64,66,68,70,72,74,76,78,-1,-1,80,82,84,86,88,90,92,94,96,98,100,102,104,-1,106,108,110,-1,112,114,116,118,-1,-1,-1,-1,-1,-1,-1,-1,-1,-1,-1,-1,-1,-1,-1,-1,-1,-1,-1,-1,-1,-1,-1,-1,-1,-1,-1,-1,-1,-1,-1,-1,-1,-1,-1,-1,-1,-1,-1,-1,-1,-1,-1,-1,-1,-1,-1,-1,-1,-1,-1,-1,-1,-1,-1,-1],"split_conditions":[5.111969E1,1E0,6.2326702E1,3.886048E1,3.1489176E1,1E0,6.905207E1,-9.753991E-3,2.6478488E-3,9.812188E0,5.453754E-1,9.921402E-3,4.7105244E-1,1E0,5.08172E-1,5.913363E-1,4.5206907E-1,6.891152E-1,4.4891304E1,-1.5614597E-1,-2.1851432E-2,-2.595415E-3,4.2263382E1,5.5555557E1,5.6085754E1,4.466954E-3,6.3468647E-1,6.592347E-1,3.210472E-1,7.352974E1,7.395976E1,2.6219345E1,2.8956566E1,2.6666666E1,2.5724212E-2,-3.7202537E-2,4.6769108E1,7.158092E-1,5.336724E-2,5.8889527E-2,8.464614E-3,1.8140776E1,2.3715029E1,-5.192768E-2,3.5458615E-1,-3.8960803E-2,-3.7202537E-2,-1.2840551E-2,5.8069084E1,-7.543999E-2,-1.5452914E-1,5.128713E1,-2.4488041E-1,2.3577938E-2,-3.8127784E-2,1.1802123E-2,6.493507E1,2.2888398E-2,-3.8289268E-2,6.2681637E-3,7.8313255E1,1E0,2.1285715E0,2.9296204E-2,4.0949043E-3,3.7632562E-2,2.630425E-2,4.7832727E-2,2.6387254E-2,4.2211417E-2,5.216198E-2,-6.596336E-3,3.479174E-3,1.6380023E-2,2.1234553E-3,2.324138E-2,3.800046E-2,1.3121198E-2,2.3843938E-2,-1.5825972E-2,-3.1808432E-2,-8.948619E-3,-2.267893E-2,-3.604925E-2,-3.3346035E-2,-2.7767846E-2,-3.1498823E-2,-3.634217E-2,-3.219944E-2,-3.789774E-2,-3.6462765E-2,-1.1648393E-2,-2.1234928E-3,-1.606564E-2,-2.2328923E-2,2.3053195E-2,6.362174E-3,2.0107234E-2,-8.283186E-3,-2.5262795E-2,-3.6150765E-2,-6.2940437E-3,-3.1723496E-2,-3.725965E-2,-3.5041805E-2,-2.5627049E-2,-1.3633391E-2,-2.5444295E-2,-3.114875E-2,-3.6445808E-2,-2.393888E-2,-3.282302E-2,-2.3626858E-2,-3.3240344E-2,-3.6965825E-2,-3.438301E-2,-3.8490098E-2,-3.5414036E-2,-3.823086E-2],"split_indices":[0,3,0,0,0,3,0,1,1,0,6,1,6,3,6,6,6,6,0,7,1,1,0,0,0,1,6,6,6,0,0,0,0,0,1,1,0,6,1,0,0,0,0,1,6,1,1,1,0,5,5,0,5,1,0,1,0,1,0,1,0,3,2,0,0,0,0,0,0,0,0,0,0,0,0,0,0,0,0,0,0,0,0,0,0,0,0,0,0,0,0,0,0,0,0,0,0,0,0,0,0,0,0,0,0,0,0,0,0,0,0,0,0,0,0,0,0,0,0],"split_type":[0,0,0,0,0,0,0,0,0,0,0,0,0,0,0,0,0,0,0,0,0,0,0,0,0,0,0,0,0,0,0,0,0,0,0,0,0,0,0,0,0,0,0,0,0,0,0,0,0,0,0,0,0,0,0,0,0,0,0,0,0,0,0,0,0,0,0,0,0,0,0,0,0,0,0,0,0,0,0,0,0,0,0,0,0,0,0,0,0,0,0,0,0,0,0,0,0,0,0,0,0,0,0,0,0,0,0,0,0,0,0,0,0,0,0,0,0,0,0],"sum_hessian":[2.000762E5,1.0915931E5,9.091689E4,9.9890734E4,9.268572E3,4.720182E4,4.371507E4,5.0704742E4,4.9185996E4,8.0803937E2,8.460533E3,3.8557145E4,8.644676E3,2.060644E4,2.310863E4,3.2664676E4,1.8040064E4,2.7519873E4,2.1666121E4,4.297672E0,8.0374164E2,3.2161282E3,5.244405E3,1.7458426E4,2.1098719E4,1.6227557E3,7.02192E3,1.5744087E4,4.862352E3,3.7464573E3,1.9362172E4,6.7028896E3,2.5961787E4,3.941626E3,1.4098439E4,1.347314E4,1.4046734E4,9.539193E3,1.2126929E4,3.276907E0,1.0207646E0,4.6478067E2,3.38961E2,1.8388186E3,1.3773097E3,1.8778036E3,3.366601E3,8.198962E3,9.259463E3,9.427286E3,1.1671434E4,9.0296185E2,7.197939E2,1.3497583E3,5.6721616E3,7.147903E3,8.596184E3,2.0007742E2,4.6622744E3,1.8832251E3,1.8632322E3,8.1291494E3,1.1233023E4,1.2160029E3,5.486887E3,1.2147319E4,1.3814468E4,7.995513E2,3.1420745E3,8.32652E3,5.7719194E3,7.9044404E3,5.5686987E3,9.922665E3,4.1240693E3,5.245006E3,4.294187E3,6.848248E3,5.2786807E3,1.5870121E1,4.4891055E2,6.78856E1,2.7107538E2,7.628551E2,1.0759635E3,5.5403375E2,8.232759E2,8.782113E2,9.995923E2,1.2295709E3,2.1370303E3,5.777437E3,2.4215251E3,3.9212588E3,5.3382046E3,8.075748E2,8.619711E3,5.281495E2,1.1143284E4,1.7367777E1,8.855941E2,1.4881325E1,7.0491254E2,9.045943E2,4.4516406E2,3.0060115E3,4.141891E3,3.6294302E3,4.9667534E3,1.4245178E2,5.7625633E1,8.0637555E2,1.0768496E3,1.0506804E3,8.1255176E2,5.639368E3,2.4897812E3,2.9214142E2,1.0940882E4],"tree_param":{"num_deleted":"0","num_feature":"9","num_nodes":"119","size_leaf_vector":"1"}},{"base_weights":[-1.4123673E-3,1.0556532E0,-3.966092E-1,1.4323667E0,-1.2831847E-1,2.0394534E-1,-8.400984E-1,9.9821025E-1,1.6664046E0,2.9501325E-1,-6.785664E-1,5.0004226E-1,-7.289623E-1,-5.487624E-1,-1.0783224E0,1.7242395E0,7.807314E-1,1.7561492E0,1.1950252E0,7.688449E-1,-6.702113E-2,-4.402167E-1,-1.0224671E0,8.6292434E-1,2.7276805E-1,-5.461079E-1,-1.0182483E0,-2.9959223E-1,-1.0605139E0,-8.695059E-1,-1.1681138E0,1.9748465E0,1.4847512E0,4.7318473E-1,1.0746161E0,1.7818104E0,5.5733633E-1,1.5690323E0,8.191136E-1,1.5434937E0,6.2152225E-1,-3.176974E-1,2.983848E-1,3.935997E-1,-5.753648E-1,-5.8418095E-1,-1.0769955E0,1.164123E0,5.494375E-1,4.626885E-2,6.139133E-1,-9.7700566E-2,-6.360719E-1,5.840313E-1,-1.0324938E0,-5.275358E-1,-8.776438E-2,-9.275857E-1,-1.2015215E0,-7.3352385E-1,-1.0978206E0,-1.0518905E0,-1.2358748E0,5.399399E-2,6.598486E-2,3.208425E-2,4.8555095E-2,3.1447161E-3,2.3640702E-2,4.353112E-2,2.3697773E-2,5.6479335E-2,4.8706654E-2,2.7161961E-2,6.6294386E-3,5.5562343E-2,3.9731953E-2,1.5504187E-2,3.289751E-2,5.7640187E-2,3.924593E-2,9.647214E-3,2.506065E-2,-1.709656E-2,-4.6877847E-3,2.448849E-3,1.6849203E-2,4.625392E-2,7.096957E-3,-8.9567285E-3,-2.062888E-2,-1.15572475E-2,-3.123855E-2,-2.8918063E-2,-3.587049E-2,2.6363552E-2,4.226713E-2,2.0073507E-2,-1.7907023E-2,8.300377E-3,-5.2164616E-3,2.3949595E-2,1.2674307E-2,-8.593248E-3,1.0340242E-2,-2.3413012E-2,-1.2490535E-2,-8.2866205E-3,3.9098892E-2,-2.8399318E-2,-3.5115104E-2,-1.2143594E-2,-2.129443E-2,1.8950539E-3,-8.995183E-3,-2.2587461E-2,-3.2100588E-2,-3.2361526E-2,-3.705848E-2,-1.7347805E-2,-3.1717177E-2,-3.0291216E-2,-3.5927035E-2,-2.7785478E-2,-3.7290458E-2,-3.5783965E-2,-3.789341E-2],"categories":[],"categories_nodes":[],"categories_segments":[],"categories_sizes":[],"default_left":[0,0,0,0,0,0,0,0,0,0,0,0,0,0,0,0,0,0,0,0,0,0,0,0,0,0,0,0,0,0,0,0,0,0,0,0,0,0,0,0,0,0,0,0,0,0,0,0,0,0,0,0,0,0,0,0,0,0,0,0,0,0,0,0,0,0,0,0,0,0,0,0,0,0,0,0,0,0,0,0,0,0,0,0,0,0,0,0,0,0,0,0,0,0,0,0,0,0,0,0,0,0,0,0,0,0,0,0,0,0,0,0,0,0,0,0,0,0,0,0,0,0,0,0,0,0,0],"id":6,"left_children":[1,3,5,7,9,11,13,15,17,19,21,23,25,27,29,31,33,35,37,39,41,43,45,47,49,51,53,55,57,59,61,63,65,67,69,71,73,75,77,79,81,83,85,87,89,91,93,95,97,99,101,103,105,107,109,111,113,115,117,119,121,123,125,-1,-1,-1,-1,-1,-1,-1,-1,-1,-1,-1,-1,-1,-1,-1,-1,-1,-1,-1,-1,-1,-1,-1,-1,-1,-1,-1,-1,-1,-1,-1,-1,-1,-1,-1,-1,-1,-1,-1,-1,-1,-1,-1,-1,-1,-1,-1,-1,-1,-1,-1,-1,-1,-1,-1,-1,-1,-1,-1,-1,-1,-1,-1,-1],"loss_changes":[8.3465234E4,2.4250137E4,3.87333E4,4.1893438E3,3.0574014E3,1.7064709E4,5.8051953E3,2.280125E3,1.1315625E3,1.2726353E3,4.6735498E2,3.867204E3,7.8674756E2,4.798461E3,8.618672E2,1.969082E2,1.00459766E3,6.914844E2,6.017427E2,3.6574072E2,3.853812E2,3.8028198E2,5.5187256E1,1.7044688E3,2.2280688E3,3.6790576E2,1.3214746E2,1.2221172E3,2.2986719E2,4.2895117E2,2.52125E2,5.990625E1,9.306372E1,6.3032104E2,6.081592E2,3.4860938E2,5.519806E1,1.4634424E2,1.7904163E2,4.3074097E1,1.7299768E2,1.01499756E2,9.764406E1,8.455885E1,8.999548E1,2.3296959E1,2.6703613E1,6.4195605E2,1.2146406E3,8.7915314E2,4.0584082E2,1.27463425E2,2.4065015E2,3.2179535E1,6.657666E1,2.7249854E2,4.200024E2,1.5711719E2,2.344629E1,4.3557324E2,4.4186035E1,2.8375293E2,2.233789E1,0E0,0E0,0E0,0E0,0E0,0E0,0E0,0E0,0E0,0E0,0E0,0E0,0E0,0E0,0E0,0E0,0E0,0E0,0E0,0E0,0E0,0E0,0E0,0E0,0E0,0E0,0E0,0E0,0E0,0E0,0E0,0E0,0E0,0E0,0E0,0E0,0E0,0E0,0E0,0E0,0E0,0E0,0E0,0E0,0E0,0E0,0E0,0E0,0E0,0E0,0E0,0E0,0E0,0E0,0E0,0E0,0E0,0E0,0E0,0E0,0E0,0E0,0E0,0E0],"parents":[2147483647,0,0,1,1,2,2,3,3,4,4,5,5,6,6,7,7,8,8,9,9,10,10,11,11,12,12,13,13,14,14,15,15,16,16,17,17,18,18,19,19,20,20,21,21,22,22,23,23,24,24,25,25,26,26,27,27,28,28,29,29,30,30,31,31,32,32,33,33,34,34,35,35,36,36,37,37,38,38,39,39,40,40,41,41,42,42,43,43,44,44,45,45,46,46,47,47,48,48,49,49,50,50,51,51,52,52,53,53,54,54,55,55,56,56,57,57,58,58,59,59,60,60,61,61,62,62],"right_children":[2,4,6,8,10,12,14,16,18,20,22,24,26,28,30,32,34,36,38,40,42,44,46,48,50,52,54,56,58,60,62,64,66,68,70,72,74,76,78,80,82,84,86,88,90,92,94,96,98,100,102,104,106,108,110,112,114,116,118,120,122,124,126,-1,-1,-1,-1,-1,-1,-1,-1,-1,-1,-1,-1,-1,-1,-1,-1,-1,-1,-1,-1,-1,-1,-1,-1,-1,-1,-1,-1,-1,-1,-1,-1,-1,-1,-1,-1,-1,-1,-1,-1,-1,-1,-1,-1,-1,-1,-1,-1,-1,-1,-1,-1,-1,-1,-1,-1,-1,-1,-1,-1,-1,-1,-1,-1],"split_conditions":[-1E0,5.4698994E1,4.794916E1,6.592347E-1,6.3391655E1,2E0,5.9174213E1,-3E0,4.7608517E1,-2E0,7.02661E1,3.4832134E1,3E0,2E0,6.1067945E-1,-4E0,-5.564896E-3,5.399365E0,-2E0,-4E0,-4.316492E-2,-3E0,-3E0,0E0,-2.4281988E-4,2.9641693E1,1.5234657E1,5.663762E-3,3E0,6.792453E1,6.588031E1,1.8132899E-2,3.635028E-1,4.4821924E-1,4.207818E1,-2E0,6.647258E0,-3E0,2.0909469E-1,-5E0,1.9458987E-2,1.1193587E-2,3.326389E-2,-5E0,-2E0,7.701909E1,7.488024E1,7.720621E-1,2.750986E0,0E0,0E0,-1.4090501E-2,-9.753991E-3,-3.984499E-2,4E0,5.4005764E1,5.4698994E1,6.0672617E-1,4.6334326E-1,2E0,7.312246E1,2E0,7.126091E1,5.399399E-2,6.598486E-2,3.208425E-2,4.8555095E-2,3.1447161E-3,2.3640702E-2,4.353112E-2,2.3697773E-2,5.6479335E-2,4.8706654E-2,2.7161961E-2,6.6294386E-3,5.5562343E-2,3.9731953E-2,1.5504187E-2,3.289751E-2,5.7640187E-2,3.924593E-2,9.647214E-3,2.506065E-2,-1.709656E-2,-4.6877847E-3,2.448849E-3,1.6849203E-2,4.625392E-2,7.096957E-3,-8.9567285E-3,-2.062888E-2,-1.15572475E-2,-3.123855E-2,-2.8918063E-2,-3.587049E-2,2.6363552E-2,4.226713E-2,2.0073507E-2,-1.7907023E-2,8.300377E-3,-5.2164616E-3,2.3949595E-2,1.2674307E-2,-8.593248E-3,1.0340242E-2,-2.3413012E-2,-1.2490535E-2,-8.2866205E-3,3.9098892E-2,-2.8399318E-2,-3.5115104E-2,-1.2143594E-2,-2.129443E-2,1.8950539E-3,-8.995183E-3,-2.2587461E-2,-3.2100588E-2,-3.2361526E-2,-3.705848E-2,-1.7347805E-2,-3.1717177E-2,-3.0291216E-2,-3.5927035E-2,-2.7785478E-2,-3.7290458E-2,-3.5783965E-2,-3.789341E-2],"split_indices":[8,0,0,6,0,8,0,8,0,8,0,0,8,8,6,8,1,6,8,8,7,8,8,8,1,0,0,1,8,0,0,1,6,6,0,8,6,8,7,8,1,1,1,8,8,0,0,6,6,8,8,1,1,1,8,0,0,6,6,8,0,8,0,0,0,0,0,0,0,0,0,0,0,0,0,0,0,0,0,0,0,0,0,0,0,0,0,0,0,0,0,0,0,0,0,0,0,0,0,0,0,0,0,0,0,0,0,0,0,0,0,0,0,0,0,0,0,0,0,0,0,0,0,0,0,0,0],"split_type":[0,0,0,0,0,0,0,0,0,0,0,0,0,0,0,0,0,0,0,0,0,0,0,0,0,0,0,0,0,0,0,0,0,0,0,0,0,0,0,0,0,0,0,0,0,0,0,0,0,0,0,0,0,0,0,0,0,0,0,0,0,0,0,0,0,0,0,0,0,0,0,0,0,0,0,0,0,0,0,0,0,0,0,0,0,0,0,0,0,0,0,0,0,0,0,0,0,0,0,0,0,0,0,0,0,0,0,0,0,0,0,0,0,0,0,0,0,0,0,0,0,0,0,0,0,0,0],"sum_hessian":[1.9979558E5,5.4368902E4,1.4542667E5,4.1245344E4,1.3123562E4,6.1774613E4,8.3652055E4,1.4448199E4,2.6797145E4,7.417439E3,5.7061226E3,4.689197E4,1.4882646E4,3.763259E4,4.6019465E4,3.3287168E3,1.1119482E4,2.2508994E4,4.2881494E3,3.2121907E3,4.205248E3,3.371614E3,2.3345083E3,1.8057418E4,2.8834549E4,9.120542E3,5.7621045E3,2.531055E4,1.2322041E4,1.3841267E4,3.21782E4,1.6230583E3,1.7056586E3,5.4347227E3,5.6847593E3,2.2036799E4,4.7219495E2,2.147929E3,2.1402202E3,5.1176437E2,2.7004263E3,2.4942617E3,1.7109865E3,4.6999545E2,2.9016187E3,2.5960208E2,2.0749062E3,9.207818E3,8.849601E3,1.7329785E4,1.1504764E4,1.5244282E3,7.596114E3,5.0425583E1,5.7116787E3,1.2190795E4,1.3119755E4,6.346635E3,5.9754062E3,8.677343E3,5.1639243E3,1.1857238E4,2.032096E4,9.1730475E2,7.0575354E2,4.1771692E2,1.2879417E3,2.5050962E3,2.9296267E3,2.4462273E3,3.238532E3,1.3453711E4,8.583089E3,2.3122746E2,2.409675E2,9.9274E2,1.1551891E3,1.0256375E3,1.1145828E3,1.9364212E2,3.1812225E2,1.1249438E3,1.5754824E3,9.7252136E2,1.5217405E3,9.390836E2,7.7190283E2,5.548493E1,4.1451053E2,8.383023E2,2.0633162E3,1.8216403E2,7.743805E1,1.0673168E3,1.00758954E3,4.253807E3,4.9540107E3,8.013406E3,8.36195E2,8.467464E3,8.862322E3,5.8583594E3,5.6464043E3,1.0687812E3,4.5564697E2,4.58265E3,3.0134639E3,2.3242804E1,2.7182777E1,3.526103E3,2.1855757E3,7.286899E3,4.9038965E3,7.6651826E3,5.4545728E3,2.8535454E3,3.4930894E3,1.2956212E3,4.6797847E3,5.8664175E3,2.8109248E3,2.7477607E3,2.4161633E3,7.1562363E3,4.7010024E3,7.8893945E3,1.2431566E4],"tree_param":{"num_deleted":"0","num_feature":"9","num_nodes":"127","size_leaf_vector":"1"}},{"base_weights":[-1.5825748E-3,5.6077737E-1,-7.0194143E-1,1.0910181E0,-2.0409968E-1,-8.418939E-1,5.5078906E-1,1.2286235E0,-9.841314E-1,-4.6711347E-1,8.662012E-1,-5.2353334E-1,-1.0803106E0,8.200114E-1,-2.9088566E-1,1.6483575E0,1.0055751E0,-6.4931875E-1,-1.0239555E0,-1.5904696E-1,-7.9341346E-1,6.486199E-1,1.2020726E0,-1.6374014E-1,-9.231712E-1,-9.586001E-1,-1.1976901E0,1.1067939E0,3.7551582E-1,-6.8382174E-2,-7.0821965E-1,1.771281E0,1.4989264E0,1.2684674E0,6.819478E-1,-8.741896E-1,-2.810794E-1,-1.1462989E0,-9.6053463E-1,2.2339486E-1,-3.8498524E-1,-6.372743E-1,-1.2264531E0,6.995912E-1,-3.6526886E-1,1.0740001E0,1.413243E0,3.216902E-2,-1.1549222E0,-7.129199E-1,-1.1094782E0,-7.668432E-1,-1.1062152E0,-1.1505691E0,-1.2461848E0,1.5274348E0,9.607082E-1,5.375247E-1,8.045188E-2,1.7410006E-1,-3.6346507E-1,-4.902602E-2,-7.835271E-1,5.0738502E-2,5.923808E-2,3.753812E-2,4.9544033E-2,3.557649E-2,5.1524654E-2,1.7011607E-2,4.4968124E-2,-3.993941E-3,-2.7219616E-2,6.9869356E-3,-1.1914801E-2,-3.0491566E-2,-3.4878876E-2,-2.6523836E-2,-3.1732664E-2,2.852198E-3,2.207786E-2,-1.557035E-2,-8.150444E-4,-7.262294E-3,-2.162447E-2,3.5798553E-2,-3.682387E-2,6.8874547E-4,2.2637784E-2,-2.3093552E-3,-2.616544E-2,3.8266003E-2,2.790914E-2,4.6219952E-2,3.6044933E-2,3.311294E-2,-1.4445545E-3,1.2761365E-2,-3.468366E-2,-1.7324459E-2,-3.672903E-2,-1.4718045E-2,-3.3878952E-2,-2.6825327E-2,-1.675182E-2,-3.0116651E-2,-3.7591726E-2,-3.3186257E-2,-3.7791923E-2,-3.669897E-2,-3.770627E-2,6.2384546E-2,4.297675E-2,2.1236967E-2,3.754414E-2,1.0845495E-2,2.8035192E-2,2.6921714E-2,8.043576E-4,2.8611766E-2,3.280015E-3,1.9968841E-2,-1.20678805E-2,2.8466314E-2,-5.445003E-3,-1.8179523E-2,-2.996469E-2],"categories":[],"categories_nodes":[],"categories_segments":[],"categories_sizes":[],"default_left":[0,0,0,0,0,0,0,0,0,0,0,0,0,0,0,0,0,0,0,0,0,0,0,0,0,0,0,0,0,0,0,0,0,0,0,0,0,0,0,0,0,0,0,0,0,0,0,0,0,0,0,0,0,0,0,0,0,0,0,0,0,0,0,0,0,0,0,0,0,0,0,0,0,0,0,0,0,0,0,0,0,0,0,0,0,0,0,0,0,0,0,0,0,0,0,0,0,0,0,0,0,0,0,0,0,0,0,0,0,0,0,0,0,0,0,0,0,0,0,0,0,0,0,0,0,0,0],"id":7,"left_children":[1,3,5,7,9,11,13,15,17,19,21,23,25,27,29,31,33,35,37,39,41,43,45,47,49,51,53,55,57,59,61,63,65,67,69,71,73,75,77,79,81,83,85,87,89,91,93,95,97,99,101,103,105,107,109,111,113,115,117,119,121,123,125,-1,-1,-1,-1,-1,-1,-1,-1,-1,-1,-1,-1,-1,-1,-1,-1,-1,-1,-1,-1,-1,-1,-1,-1,-1,-1,-1,-1,-1,-1,-1,-1,-1,-1,-1,-1,-1,-1,-1,-1,-1,-1,-1,-1,-1,-1,-1,-1,-1,-1,-1,-1,-1,-1,-1,-1,-1,-1,-1,-1,-1,-1,-1,-1],"loss_changes":[7.852714E4,4.485033E4,1.5568391E4,1.865071E4,1.274585E4,6.0619883E3,2.0223523E3,5.7325625E3,5.3496338E1,3.6534062E3,6.519419E2,4.9179717E3,6.513047E2,8.6148584E2,2.0084064E2,3.8771094E2,3.4021406E3,3.5736084E1,2.7052979E1,1.6156074E3,1.1926279E3,2.8048608E2,9.341553E1,3.495427E3,6.3396484E2,6.339551E2,5.1683594E1,2.5104834E2,1.2678339E2,1.0110814E2,3.730301E1,1.8623047E2,3.6053906E2,8.163203E2,1.6822197E3,6.491272E0,1.0009697E1,1.4355469E0,1.686206E1,4.5663342E2,5.636406E2,4.2819238E2,1.2884277E1,1.921394E2,3.796005E1,6.221045E1,3.3818115E1,1.2937843E3,6.1240234E0,5.267722E2,1.0480957E2,2.5850293E2,1.8911133E2,5.575586E1,1.2617188E0,5.2412598E1,2.2351343E2,1.19321045E2,4.1235977E1,3.90714E1,2.5713753E1,1.0508674E1,2.5197052E1,0E0,0E0,0E0,0E0,0E0,0E0,0E0,0E0,0E0,0E0,0E0,0E0,0E0,0E0,0E0,0E0,0E0,0E0,0E0,0E0,0E0,0E0,0E0,0E0,0E0,0E0,0E0,0E0,0E0,0E0,0E0,0E0,0E0,0E0,0E0,0E0,0E0,0E0,0E0,0E0,0E0,0E0,0E0,0E0,0E0,0E0,0E0,0E0,0E0,0E0,0E0,0E0,0E0,0E0,0E0,0E0,0E0,0E0,0E0,0E0,0E0,0E0,0E0,0E0],"parents":[2147483647,0,0,1,1,2,2,3,3,4,4,5,5,6,6,7,7,8,8,9,9,10,10,11,11,12,12,13,13,14,14,15,15,16,16,17,17,18,18,19,19,20,20,21,21,22,22,23,23,24,24,25,25,26,26,27,27,28,28,29,29,30,30,31,31,32,32,33,33,34,34,35,35,36,36,37,37,38,38,39,39,40,40,41,41,42,42,43,43,44,44,45,45,46,46,47,47,48,48,49,49,50,50,51,51,52,52,53,53,54,54,55,55,56,56,57,57,58,58,59,59,60,60,61,61,62,62],"right_children":[2,4,6,8,10,12,14,16,18,20,22,24,26,28,30,32,34,36,38,40,42,44,46,48,50,52,54,56,58,60,62,64,66,68,70,72,74,76,78,80,82,84,86,88,90,92,94,96,98,100,102,104,106,108,110,112,114,116,118,120,122,124,126,-1,-1,-1,-1,-1,-1,-1,-1,-1,-1,-1,-1,-1,-1,-1,-1,-1,-1,-1,-1,-1,-1,-1,-1,-1,-1,-1,-1,-1,-1,-1,-1,-1,-1,-1,-1,-1,-1,-1,-1,-1,-1,-1,-1,-1,-1,-1,-1,-1,-1,-1,-1,-1,-1,-1,-1,-1,-1,-1,-1,-1,-1,-1,-1],"split_conditions":[5.111969E1,0E0,1E0,1E0,1E0,0E0,6.3391655E1,-2E0,3.1489176E1,2E0,-8.96685E-4,6.1710453E1,6.2962963E1,0E0,6.964755E1,-3E0,3.98374E1,-1.5970353E-2,-3.8960803E-2,3.7049503E1,1E0,2.598978E0,4.6222758E-2,1E0,6.792453E1,2E0,7.091531E1,-3E0,5.788033E1,0E0,-3E0,1.8132899E-2,1E0,1E0,1E0,1.8140776E1,2.3111713E1,3.5070576E1,4.523161E1,8.085856E-3,2.2888398E-2,3.12E1,9.812188E0,-7.226022E-1,4.6063585E0,3.746009E1,4.4720497E1,-3E0,-4E0,1E0,-3E0,3.247243E-2,1E0,1E0,7.440812E1,-5E0,-1.1600753E-1,4.5294277E-2,-1.11146584E-1,-4E0,-2.4488041E-1,-7.3336386E-3,7.352974E1,5.0738502E-2,5.923808E-2,3.753812E-2,4.9544033E-2,3.557649E-2,5.1524654E-2,1.7011607E-2,4.4968124E-2,-3.993941E-3,-2.7219616E-2,6.9869356E-3,-1.1914801E-2,-3.0491566E-2,-3.4878876E-2,-2.6523836E-2,-3.1732664E-2,2.852198E-3,2.207786E-2,-1.557035E-2,-8.150444E-4,-7.262294E-3,-2.162447E-2,3.5798553E-2,-3.682387E-2,6.8874547E-4,2.2637784E-2,-2.3093552E-3,-2.616544E-2,3.8266003E-2,2.790914E-2,4.6219952E-2,3.6044933E-2,3.311294E-2,-1.4445545E-3,1.2761365E-2,-3.468366E-2,-1.7324459E-2,-3.672903E-2,-1.4718045E-2,-3.3878952E-2,-2.6825327E-2,-1.675182E-2,-3.0116651E-2,-3.7591726E-2,-3.3186257E-2,-3.7791923E-2,-3.669897E-2,-3.770627E-2,6.2384546E-2,4.297675E-2,2.1236967E-2,3.754414E-2,1.0845495E-2,2.8035192E-2,2.6921714E-2,8.043576E-4,2.8611766E-2,3.280015E-3,1.9968841E-2,-1.20678805E-2,2.8466314E-2,-5.445003E-3,-1.8179523E-2,-2.996469E-2],"split_indices":[0,8,4,3,4,8,0,8,0,8,1,0,0,8,0,8,0,1,1,0,3,7,1,3,0,8,0,8,0,8,8,1,4,4,4,0,0,0,0,1,1,0,0,7,7,0,0,8,8,3,8,1,3,3,0,8,7,1,5,8,5,1,0,0,0,0,0,0,0,0,0,0,0,0,0,0,0,0,0,0,0,0,0,0,0,0,0,0,0,0,0,0,0,0,0,0,0,0,0,0,0,0,0,0,0,0,0,0,0,0,0,0,0,0,0,0,0,0,0,0,0,0,0,0,0,0,0],"split_type":[0,0,0,0,0,0,0,0,0,0,0,0,0,0,0,0,0,0,0,0,0,0,0,0,0,0,0,0,0,0,0,0,0,0,0,0,0,0,0,0,0,0,0,0,0,0,0,0,0,0,0,0,0,0,0,0,0,0,0,0,0,0,0,0,0,0,0,0,0,0,0,0,0,0,0,0,0,0,0,0,0,0,0,0,0,0,0,0,0,0,0,0,0,0,0,0,0,0,0,0,0,0,0,0,0,0,0,0,0,0,0,0,0,0,0,0,0,0,0,0,0,0,0,0,0,0,0],"sum_hessian":[1.9937945E5,1.1058464E5,8.879481E4,6.530937E4,4.5275266E4,7.9872E4,8.922809E3,6.1248336E4,4.061037E3,3.634458E4,8.930687E3,3.4203227E4,4.5668777E4,6.760414E3,2.1623943E3,2.1251238E4,3.9997094E4,4.335298E2,3.6275073E3,1.8695379E4,1.7649201E4,5.421505E3,3.5091816E3,1.799962E4,1.6203609E4,2.2425256E4,2.3243521E4,4.1083027E3,2.6521116E3,1.4111807E3,7.5121344E2,1.1653827E4,9.597412E3,2.2067816E4,1.792928E4,2.6830896E2,1.6522083E2,1.2326199E3,2.3948875E3,6.943035E3,1.1752344E4,1.2973775E4,4.6754253E3,5.162291E3,2.5921423E2,2.188169E3,1.3210128E3,1.5029896E4,2.969722E3,7.614882E3,8.588728E3,9.756908E3,1.2668348E4,1.1801279E4,1.1442241E4,1.0565642E3,3.0517383E3,1.7115435E3,9.4056805E2,7.7485736E2,6.3632336E2,7.719017E1,6.740233E2,8.369961E3,3.283866E3,3.6617095E3,5.9357026E3,1.8642674E4,3.4251426E3,1.5720219E4,2.2090603E3,1.1696867E1,2.566121E2,3.0254553E1,1.3496628E2,1.4470282E2,1.0879171E3,1.3466432E3,1.0482443E3,5.5537456E3,1.3892894E3,8.549524E3,3.2028196E3,2.2646404E3,1.0709135E4,1.4567655E0,4.6739688E3,3.8818893E2,4.774102E3,1.6597379E2,9.324045E1,9.075087E2,1.2806602E3,8.208019E2,5.0021097E2,1.0471163E3,1.398278E4,1.9845512E0,2.9677373E3,6.0220796E3,1.5928019E3,2.6732718E2,8.3214E3,6.0548926E3,3.7020156E3,7.4704263E3,5.1979214E3,8.399195E3,3.4020845E3,3.6799934E3,7.762248E3,1.5188516E2,9.04679E2,1.6342468E3,1.4174916E3,1.1871239E3,5.2441956E2,5.6983128E1,8.8358496E2,5.838004E1,7.164773E2,2.253133E1,6.1379205E2,8.32403E0,6.886614E1,3.7149008E2,3.025332E2],"tree_param":{"num_deleted":"0","num_feature":"9","num_nodes":"127","size_leaf_vector":"1"}},{"base_weights":[-1.7542045E-3,5.163186E-1,-7.2270656E-1,1.0235502E0,-2.1753885E-1,4.2289317E-2,-9.041789E-1,1.1569197E0,-9.762509E-1,1.462582E-1,-7.649075E-1,4.1572878E-1,-6.5182215E-1,-6.894019E-1,-1.1206391E0,1.5661932E0,9.4055605E-1,-6.363478E-1,-1.0139893E0,4.2367056E-1,-9.2719585E-2,-6.029741E-1,-1.2174267E0,8.42326E-1,7.199584E-2,-4.3533397E-1,-1.0238466E0,-4.8112664E-1,-1.0932232E0,-1.0043917E0,-1.1967415E0,1.6879644E0,1.419268E0,1.2129065E0,6.292066E-1,-8.5975635E-1,-2.738644E-1,-1.1312736E0,-9.548274E-1,2.5658423E-1,8.517245E-1,-3.1683186E-1,2.0451269E-1,-4.7502822E-1,-8.918506E-1,3.4858033E-2,-1.2183673E0,1.5234797E0,7.026944E-1,-1.942917E-1,4.4233522E-1,3.6716372E-1,-5.673197E-1,-6.3141984E-1,-1.0728022E0,-3.6903796E-1,-1.1646329E0,-9.895073E-1,-3.7295833E-2,-9.1390085E-1,-3.716831E-2,-1.141672E0,-1.2336664E0,4.8531033E-2,5.6798037E-2,4.6299987E-2,3.4381535E-2,3.275517E-2,4.493382E-2,1.0883309E-2,2.4703864E-2,-3.8907158E-3,-2.6783856E-2,6.7614526E-3,-1.1629885E-2,-3.006739E-2,-3.43942E-2,-2.6099244E-2,-3.135587E-2,1.4671829E-2,2.543987E-3,3.6221348E-2,2.1889022E-2,-9.037364E-3,-3.5975844E-2,1.1945788E-2,1.0585176E-3,-6.072306E-3,-1.8045785E-2,-2.2341723E-2,-3.304289E-2,-2.6523117E-2,-3.6658946E-2,5.5480793E-2,3.9202012E-2,2.7356269E-2,1.143023E-2,-1.3365068E-2,-6.422547E-4,2.4004983E-2,7.8039765E-3,2.673985E-2,2.090052E-3,-2.2465395E-2,-1.2049972E-2,-1.3005113E-2,-3.063379E-2,-2.875657E-2,-3.516323E-2,-1.7881911E-2,-5.822034E-3,-3.6232177E-2,-3.3743285E-2,-2.7971389E-2,-3.6701817E-2,-2.4693903E-2,-3.3961147E-2,-3.2859858E-2,-3.7328213E-2,-3.306666E-2,-3.7122536E-2],"categories":[],"categories_nodes":[],"categories_segments":[],"categories_sizes":[],"default_left":[0,0,0,0,0,0,0,0,0,0,0,0,0,0,0,0,0,0,0,0,0,0,0,0,0,0,0,0,0,0,0,0,0,0,0,0,0,0,0,0,0,0,0,0,0,0,0,0,0,0,0,0,0,0,0,0,0,0,0,0,0,0,0,0,0,0,0,0,0,0,0,0,0,0,0,0,0,0,0,0,0,0,0,0,0,0,0,0,0,0,0,0,0,0,0,0,0,0,0,0,0,0,0,0,0,0,0,0,0,0,0,0,0,0,0,0,0,0,0,0,0],"id":8,"left_children":[1,3,5,7,9,11,13,15,17,19,21,23,25,27,29,31,33,35,37,39,41,43,45,47,49,51,53,55,57,59,61,63,65,67,69,71,73,75,77,79,81,83,85,87,89,-1,91,93,95,97,99,101,103,105,107,109,111,113,-1,115,-1,117,119,-1,-1,-1,-1,-1,-1,-1,-1,-1,-1,-1,-1,-1,-1,-1,-1,-1,-1,-1,-1,-1,-1,-1,-1,-1,-1,-1,-1,-1,-1,-1,-1,-1,-1,-1,-1,-1,-1,-1,-1,-1,-1,-1,-1,-1,-1,-1,-1,-1,-1,-1,-1,-1,-1,-1,-1,-1,-1],"loss_changes":[7.4276125E4,4.307234E4,1.1543398E4,1.824982E4,9.41745E3,4.1330522E3,3.1237344E3,5.6785547E3,5.423462E1,1.8835486E3,1.3829219E3,1.520131E3,4.4877563E2,2.8369883E3,2.9490625E2,3.9445703E2,3.5575664E3,3.4605133E1,2.562793E1,9.4017456E2,1.0168219E3,5.13624E2,1.2549316E1,4.388994E2,5.6636914E2,3.738501E2,3.872632E1,1.7049434E3,1.7731738E2,2.800713E2,3.9714844E1,1.7182031E2,3.3918555E2,7.7034375E2,1.0131704E3,6.293213E0,9.49106E0,1.37146E0,1.87583E1,3.7768616E2,1.5938818E2,1.19323425E2,2.1506406E2,3.3235474E2,1.3078223E2,0E0,4.9018555E0,5.3107788E1,2.5810242E2,1.450943E2,1.5640799E2,7.772669E1,9.080725E1,1.7291E1,1.954956E1,7.5957715E2,4.029297E0,8.959424E1,0E0,1.8844482E2,0E0,3.7296875E1,4.6015625E0,0E0,0E0,0E0,0E0,0E0,0E0,0E0,0E0,0E0,0E0,0E0,0E0,0E0,0E0,0E0,0E0,0E0,0E0,0E0,0E0,0E0,0E0,0E0,0E0,0E0,0E0,0E0,0E0,0E0,0E0,0E0,0E0,0E0,0E0,0E0,0E0,0E0,0E0,0E0,0E0,0E0,0E0,0E0,0E0,0E0,0E0,0E0,0E0,0E0,0E0,0E0,0E0,0E0,0E0,0E0,0E0,0E0,0E0],"parents":[2147483647,0,0,1,1,2,2,3,3,4,4,5,5,6,6,7,7,8,8,9,9,10,10,11,11,12,12,13,13,14,14,15,15,16,16,17,17,18,18,19,19,20,20,21,21,22,22,23,23,24,24,25,25,26,26,27,27,28,28,29,29,30,30,31,31,32,32,33,33,34,34,35,35,36,36,37,37,38,38,39,39,40,40,41,41,42,42,43,43,44,44,46,46,47,47,48,48,49,49,50,50,51,51,52,52,53,53,54,54,55,55,56,56,57,57,59,59,61,61,62,62],"right_children":[2,4,6,8,10,12,14,16,18,20,22,24,26,28,30,32,34,36,38,40,42,44,46,48,50,52,54,56,58,60,62,64,66,68,70,72,74,76,78,80,82,84,86,88,90,-1,92,94,96,98,100,102,104,106,108,110,112,114,-1,116,-1,118,120,-1,-1,-1,-1,-1,-1,-1,-1,-1,-1,-1,-1,-1,-1,-1,-1,-1,-1,-1,-1,-1,-1,-1,-1,-1,-1,-1,-1,-1,-1,-1,-1,-1,-1,-1,-1,-1,-1,-1,-1,-1,-1,-1,-1,-1,-1,-1,-1,-1,-1,-1,-1,-1,-1,-1,-1,-1,-1],"split_conditions":[5.2130043E1,0E0,-1E0,1E0,2E0,6.3391655E1,6.2962963E1,-2E0,3.1489176E1,3.905522E1,1E0,-2E0,7.091531E1,2E0,6.847265E1,-3E0,3.98374E1,-1.5970353E-2,-3.8960803E-2,-8.96685E-4,2.0571027E-3,3E0,9.812188E0,-4E0,-4.316492E-2,-3E0,-3E0,1E0,1E0,1E0,7.312246E1,2.4278827E-2,4.31473E1,-2.4281988E-4,-1.3475092E-2,1.8140776E1,2.3111713E1,3.5070576E1,4.523161E1,2.9965557E1,2.8613281E1,1E0,4.5913044E1,3.5977898E1,4E0,3.4858033E-2,2.3715029E1,-5E0,5.8069084E1,1.1193587E-2,5.5215828E1,-4E0,-2.4242045E-1,7.701909E1,7.488024E1,8.707066E-3,3.2510078E-3,4E0,-3.7295833E-2,2E0,-3.716831E-2,1E0,2.1285715E0,4.8531033E-2,5.6798037E-2,4.6299987E-2,3.4381535E-2,3.275517E-2,4.493382E-2,1.0883309E-2,2.4703864E-2,-3.8907158E-3,-2.6783856E-2,6.7614526E-3,-1.1629885E-2,-3.006739E-2,-3.43942E-2,-2.6099244E-2,-3.135587E-2,1.4671829E-2,2.543987E-3,3.6221348E-2,2.1889022E-2,-9.037364E-3,-3.5975844E-2,1.1945788E-2,1.0585176E-3,-6.072306E-3,-1.8045785E-2,-2.2341723E-2,-3.304289E-2,-2.6523117E-2,-3.6658946E-2,5.5480793E-2,3.9202012E-2,2.7356269E-2,1.143023E-2,-1.3365068E-2,-6.422547E-4,2.4004983E-2,7.8039765E-3,2.673985E-2,2.090052E-3,-2.2465395E-2,-1.2049972E-2,-1.3005113E-2,-3.063379E-2,-2.875657E-2,-3.516323E-2,-1.7881911E-2,-5.822034E-3,-3.6232177E-2,-3.3743285E-2,-2.7971389E-2,-3.6701817E-2,-2.4693903E-2,-3.3961147E-2,-3.2859858E-2,-3.7328213E-2,-3.306666E-2,-3.7122536E-2],"split_indices":[0,8,8,3,8,0,0,8,0,0,3,8,0,8,0,8,0,1,1,1,1,8,0,8,7,8,8,3,3,3,0,1,0,1,1,0,0,0,0,0,0,3,0,0,8,0,0,8,0,1,0,8,7,0,0,1,1,8,0,8,0,3,2,0,0,0,0,0,0,0,0,0,0,0,0,0,0,0,0,0,0,0,0,0,0,0,0,0,0,0,0,0,0,0,0,0,0,0,0,0,0,0,0,0,0,0,0,0,0,0,0,0,0,0,0,0,0,0,0,0,0],"split_type":[0,0,0,0,0,0,0,0,0,0,0,0,0,0,0,0,0,0,0,0,0,0,0,0,0,0,0,0,0,0,0,0,0,0,0,0,0,0,0,0,0,0,0,0,0,0,0,0,0,0,0,0,0,0,0,0,0,0,0,0,0,0,0,0,0,0,0,0,0,0,0,0,0,0,0,0,0,0,0,0,0,0,0,0,0,0,0,0,0,0,0,0,0,0,0,0,0,0,0,0,0,0,0,0,0,0,0,0,0,0,0,0,0,0,0,0,0,0,0,0,0],"sum_hessian":[1.9886E5,1.1571096E5,8.314905E4,6.8419805E4,4.7291152E4,1.5942841E4,6.72062E4,6.4142473E4,4.277334E3,2.8409865E4,1.8881287E4,1.0366145E4,5.5766963E3,3.3736355E4,3.3469848E4,2.2180191E4,4.196228E4,4.292268E2,3.848107E3,1.3147312E4,1.5262554E4,1.3907015E4,4.9742725E3,4.624883E3,5.7412617E3,3.5266445E3,2.050052E3,2.2258488E4,1.1477869E4,1.324782E4,2.0222027E4,1.2122564E4,1.0057628E4,2.2381414E4,1.9580865E4,2.6470804E2,1.6451877E2,1.2841823E3,2.5639246E3,9.457339E3,3.6899727E3,8.701547E3,6.561007E3,9.640015E3,4.2670005E3,1.4778444E0,4.972795E3,7.8509644E2,3.8397866E3,3.34009E3,2.4011714E3,4.978489E2,3.0287957E3,2.2892159E2,1.8211305E3,1.9123887E4,3.1346003E3,6.7898174E3,4.688052E3,9.563208E3,3.6846123E3,8.1295825E3,1.2092445E4,9.038203E3,3.084361E3,6.9135894E3,3.1440383E3,1.5710021E4,6.671393E3,8.257806E3,1.132306E4,1.1673862E1,2.5303418E2,3.035733E1,1.3416144E2,1.4239114E2,1.1417911E3,1.3277977E3,1.236127E3,4.0179658E3,5.439373E3,9.407233E2,2.7492493E3,8.551826E3,1.4972105E2,3.0588442E3,3.5021626E3,3.0561821E3,6.5838325E3,2.5097117E3,1.7572886E3,5.558025E1,4.9172144E3,3.1058948E2,4.7450696E2,2.3256597E3,1.5141268E3,1.3609558E3,1.9791342E3,8.089902E2,1.5921813E3,1.7953152E2,3.1831735E2,1.4434806E3,1.585315E3,1.5321985E2,7.570174E1,8.517985E2,9.69332E2,8.322692E3,1.0801195E4,1.4918319E3,1.6427684E3,5.4609473E3,1.3288699E3,6.7564893E3,2.8067188E3,5.6081597E3,2.521423E3,3.4373355E2,1.1748711E4],"tree_param":{"num_deleted":"0","num_feature":"9","num_nodes":"121","size_leaf_vector":"1"}},{"base_weights":[-1.9022949E-3,4.9847808E-1,-7.1019644E-1,9.8261434E-1,-2.1196303E-1,4.0937964E-2,-8.910725E-1,1.1087675E0,-9.62633E-1,1.4159927E-1,-7.5163287E-1,4.012077E-1,-6.393473E-1,-6.7666864E-1,-1.1089042E0,7.564728E-1,1.3498814E0,-6.236199E-1,-1.0005329E0,4.0873533E-1,-9.009447E-2,-5.906158E-1,-1.207008E0,8.0889314E-1,6.974383E-2,-4.0780318E-1,-9.8275554E-1,-4.70418E-1,-1.0810765E0,-9.255995E-1,-1.1769737E0,1.273597E0,5.690292E-1,1.5111884E0,1.0350289E0,-8.4558696E-1,-2.6681742E-1,-8.915408E-1,-1.0692788E0,4.8950636E-1,-6.5485984E-1,-3.0879325E-1,1.97826E-1,-4.6428928E-1,-8.778085E-1,3.395547E-2,-1.2079601E0,1.4544231E0,6.7562574E-1,4.1169432E-1,-9.0429306E-2,3.7437153E-1,-5.390529E-1,-5.52873E-1,-1.0379028E0,-3.600692E-1,-1.1531062E0,-9.7629505E-1,-1.2334212E0,-8.1577384E-1,-1.1266842E0,-1.0797329E0,-1.2113217E0,5.2323744E-2,3.3645652E-2,8.235523E-3,2.5855254E-2,4.5976475E-2,1.3026685E-2,3.702221E-2,1.5122986E-2,-3.7900158E-3,-2.6356123E-2,6.5440456E-3,-1.1350742E-2,-3.0233977E-2,-2.257085E-2,-2.898858E-2,-3.398829E-2,1.0109236E-2,2.5525376E-2,-1.1879984E-2,-3.286855E-2,-1.6611211E-2,-6.55301E-3,1.1525805E-2,1.0262587E-3,-1.89329E-2,-7.857383E-3,-2.1934023E-2,-3.2640453E-2,-3.3572707E-2,-3.687894E-2,5.2829243E-2,3.749003E-2,2.6239099E-2,1.1031412E-2,3.0413999E-3,2.0191712E-2,-1.0056102E-2,2.1656784E-3,4.275639E-2,6.8008257E-3,-8.004611E-3,-1.9522088E-2,-1.0785965E-2,-3.0214326E-2,-2.7668362E-2,-3.4816477E-2,-1.6392522E-2,-4.613225E-3,-3.0283233E-2,-3.6086015E-2,-2.3939041E-2,-3.318959E-2,-2.4935026E-2,-3.7114885E-2,-2.0783763E-2,-3.19134E-2,-3.166914E-2,-3.5650212E-2,-2.9545598E-2,-3.6576744E-2,-3.525516E-2,-3.7087243E-2],"categories":[],"categories_nodes":[],"categories_segments":[],"categories_sizes":[],"default_left":[0,0,0,0,0,0,0,0,0,0,0,0,0,0,0,0,0,0,0,0,0,0,0,0,0,0,0,0,0,0,0,0,0,0,0,0,0,0,0,0,0,0,0,0,0,0,0,0,0,0,0,0,0,0,0,0,0,0,0,0,0,0,0,0,0,0,0,0,0,0,0,0,0,0,0,0,0,0,0,0,0,0,0,0,0,0,0,0,0,0,0,0,0,0,0,0,0,0,0,0,0,0,0,0,0,0,0,0,0,0,0,0,0,0,0,0,0,0,0,0,0,0,0,0,0],"id":9,"left_children":[1,3,5,7,9,11,13,15,17,19,21,23,25,27,29,31,33,35,37,39,41,43,45,47,49,51,53,55,57,59,61,63,65,67,69,71,73,75,77,79,81,83,85,87,89,-1,91,93,95,97,99,101,103,105,107,109,111,113,115,117,119,121,123,-1,-1,-1,-1,-1,-1,-1,-1,-1,-1,-1,-1,-1,-1,-1,-1,-1,-1,-1,-1,-1,-1,-1,-1,-1,-1,-1,-1,-1,-1,-1,-1,-1,-1,-1,-1,-1,-1,-1,-1,-1,-1,-1,-1,-1,-1,-1,-1,-1,-1,-1,-1,-1,-1,-1,-1,-1,-1,-1,-1,-1,-1],"loss_changes":[7.028795E4,3.997323E4,1.1154707E4,1.6962367E4,8.987345E3,3.905635E3,3.0896133E3,5.5124844E3,5.3467773E1,1.7614274E3,1.3663184E3,1.4077965E3,4.3831348E2,2.7811494E3,4.0842578E2,2.5559277E3,1.9554688E3,3.3511154E1,2.7406494E1,1.1358762E3,9.597516E2,4.9937305E2,1.2211914E1,4.009297E2,3.1482983E2,3.3869E2,5.208545E1,1.6635151E3,1.7858691E2,1.9545752E2,7.861719E1,5.0009375E2,1.6693579E3,5.854336E2,1.3792275E3,6.101883E0,8.998511E0,2.30271E1,1.4091064E1,6.768618E2,1.0606192E2,1.9157373E2,2.006265E2,3.2287793E2,1.289209E2,0E0,7.8554688E0,4.7924805E1,2.3708667E2,1.4864136E2,1.5585411E2,7.329065E1,8.568109E1,2.2007538E1,2.6831787E1,7.309226E2,2.075415E1,1.5396045E2,5.8740234E0,1.747832E2,1.2493164E1,8.158887E1,1.446875E1,0E0,0E0,0E0,0E0,0E0,0E0,0E0,0E0,0E0,0E0,0E0,0E0,0E0,0E0,0E0,0E0,0E0,0E0,0E0,0E0,0E0,0E0,0E0,0E0,0E0,0E0,0E0,0E0,0E0,0E0,0E0,0E0,0E0,0E0,0E0,0E0,0E0,0E0,0E0,0E0,0E0,0E0,0E0,0E0,0E0,0E0,0E0,0E0,0E0,0E0,0E0,0E0,0E0,0E0,0E0,0E0,0E0,0E0,0E0,0E0,0E0,0E0],"parents":[2147483647,0,0,1,1,2,2,3,3,4,4,5,5,6,6,7,7,8,8,9,9,10,10,11,11,12,12,13,13,14,14,15,15,16,16,17,17,18,18,19,19,20,20,21,21,22,22,23,23,24,24,25,25,26,26,27,27,28,28,29,29,30,30,31,31,32,32,33,33,34,34,35,35,36,36,37,37,38,38,39,39,40,40,41,41,42,42,43,43,44,44,46,46,47,47,48,48,49,49,50,50,51,51,52,52,53,53,54,54,55,55,56,56,57,57,58,58,59,59,60,60,61,61,62,62],"right_children":[2,4,6,8,10,12,14,16,18,20,22,24,26,28,30,32,34,36,38,40,42,44,46,48,50,52,54,56,58,60,62,64,66,68,70,72,74,76,78,80,82,84,86,88,90,-1,92,94,96,98,100,102,104,106,108,110,112,114,116,118,120,122,124,-1,-1,-1,-1,-1,-1,-1,-1,-1,-1,-1,-1,-1,-1,-1,-1,-1,-1,-1,-1,-1,-1,-1,-1,-1,-1,-1,-1,-1,-1,-1,-1,-1,-1,-1,-1,-1,-1,-1,-1,-1,-1,-1,-1,-1,-1,-1,-1,-1,-1,-1,-1,-1,-1,-1,-1,-1,-1,-1,-1,-1,-1],"split_conditions":[5.2130043E1,0E0,-1E0,1E0,2E0,6.3391655E1,6.2962963E1,6.891152E-1,3.1489176E1,3.905522E1,1E0,-2E0,7.02661E1,2E0,6.0672617E-1,-2E0,-1E0,-1.5970353E-2,5.453754E-1,2.8547404E0,2.0571027E-3,3E0,9.812188E0,-4E0,5.5215828E1,-3E0,-3E0,1E0,1E0,7.091531E1,6.6875E1,-4E0,-9.753991E-3,5.399365E0,4.3682247E1,1.8140776E1,2.3111713E1,-3.1762E-3,4.26178E1,-8.96685E-4,4.2487173E0,5.0063396E-1,4.5913044E1,-1.7232683E-2,4E0,3.395547E-2,4.094202E-1,-5E0,5.8069084E1,1.1802123E-2,1.2401118E-2,-5E0,-2E0,7.701909E1,7.488024E1,2.2888398E-2,5.342352E-1,5.913363E-1,1.9060563E-1,2E0,7.488024E1,2E0,7.235415E1,5.2323744E-2,3.3645652E-2,8.235523E-3,2.5855254E-2,4.5976475E-2,1.3026685E-2,3.702221E-2,1.5122986E-2,-3.7900158E-3,-2.6356123E-2,6.5440456E-3,-1.1350742E-2,-3.0233977E-2,-2.257085E-2,-2.898858E-2,-3.398829E-2,1.0109236E-2,2.5525376E-2,-1.1879984E-2,-3.286855E-2,-1.6611211E-2,-6.55301E-3,1.1525805E-2,1.0262587E-3,-1.89329E-2,-7.857383E-3,-2.1934023E-2,-3.2640453E-2,-3.3572707E-2,-3.687894E-2,5.2829243E-2,3.749003E-2,2.6239099E-2,1.1031412E-2,3.0413999E-3,2.0191712E-2,-1.0056102E-2,2.1656784E-3,4.275639E-2,6.8008257E-3,-8.004611E-3,-1.9522088E-2,-1.0785965E-2,-3.0214326E-2,-2.7668362E-2,-3.4816477E-2,-1.6392522E-2,-4.613225E-3,-3.0283233E-2,-3.6086015E-2,-2.3939041E-2,-3.318959E-2,-2.4935026E-2,-3.7114885E-2,-2.0783763E-2,-3.19134E-2,-3.166914E-2,-3.5650212E-2,-2.9545598E-2,-3.6576744E-2,-3.525516E-2,-3.7087243E-2],"split_indices":[0,8,8,3,8,0,0,6,0,0,3,8,0,8,6,8,8,1,6,6,1,8,0,8,0,8,8,3,3,0,0,8,1,6,0,0,0,1,0,1,6,6,0,1,8,0,6,8,0,1,1,8,8,0,0,1,6,6,6,8,0,8,0,0,0,0,0,0,0,0,0,0,0,0,0,0,0,0,0,0,0,0,0,0,0,0,0,0,0,0,0,0,0,0,0,0,0,0,0,0,0,0,0,0,0,0,0,0,0,0,0,0,0,0,0,0,0,0,0,0,0,0,0,0,0],"split_type":[0,0,0,0,0,0,0,0,0,0,0,0,0,0,0,0,0,0,0,0,0,0,0,0,0,0,0,0,0,0,0,0,0,0,0,0,0,0,0,0,0,0,0,0,0,0,0,0,0,0,0,0,0,0,0,0,0,0,0,0,0,0,0,0,0,0,0,0,0,0,0,0,0,0,0,0,0,0,0,0,0,0,0,0,0,0,0,0,0,0,0,0,0,0,0,0,0,0,0,0,0,0,0,0,0,0,0,0,0,0,0,0,0,0,0,0,0,0,0,0,0,0,0,0,0],"sum_hessian":[1.983182E5,1.1621642E5,8.210178E4,6.91162E4,4.710022E4,1.5933714E4,6.616806E4,6.490727E4,4.208936E3,2.845729E4,1.864293E4,1.0417277E4,5.5164365E3,3.334847E4,3.2819594E4,2.6374816E4,3.8532453E4,4.2497824E2,3.7839578E3,1.3217331E4,1.5239959E4,1.3774628E4,4.868302E3,4.6708745E3,5.7464033E3,3.2961704E3,2.220266E3,2.2086418E4,1.1262051E4,8.891153E3,2.3928441E4,7.015229E3,1.9359586E4,2.5476428E4,1.3056024E4,2.61148E2,1.6383025E2,1.4689698E3,2.314988E3,1.2284935E4,9.323965E2,8.661091E3,6.578868E3,9.568415E3,4.206213E3,1.4978838E0,4.866804E3,7.975811E2,3.8732932E3,1.8325525E3,3.9138508E3,4.733597E2,2.8228108E3,2.536949E2,1.9665713E3,1.9014473E4,3.0719468E3,6.6770415E3,4.5850093E3,5.75372E3,3.1374329E3,6.254391E3,1.767405E4,1.7109633E3,5.3042656E3,9.652755E3,9.706831E3,2.4980535E4,4.9589325E2,9.495026E3,3.560998E3,1.1651429E1,2.4949657E2,3.0456581E1,1.3337366E2,7.969902E2,6.719796E2,8.9052344E2,1.4244645E3,8.639771E3,3.6451633E3,5.88604E2,3.4379245E2,2.3328696E3,6.328221E3,3.0749802E3,3.503888E3,5.243982E3,4.324433E3,2.4801404E3,1.7260724E3,9.5263245E2,3.9141716E3,3.1635147E2,4.8122968E2,2.3515742E3,1.5217191E3,8.384519E2,9.941005E2,1.5618647E3,2.351986E3,5.7259815E1,4.1609988E2,8.2215814E2,2.0006526E3,1.7921237E2,7.448253E1,1.0166509E3,9.499204E2,9.989349E3,9.025123E3,7.95767E2,2.2761797E3,2.8185635E3,3.858478E3,4.4311123E1,4.540698E3,3.84891E3,1.9048104E3,1.4661364E3,1.6712965E3,3.7272502E3,2.527141E3,7.231666E3,1.0442385E4],"tree_param":{"num_deleted":"0","num_feature":"9","num_nodes":"125","size_leaf_vector":"1"}},{"base_weights":[-2.0388886E-3,4.8151952E-1,-6.979296E-1,9.4426256E-1,-2.0653194E-1,-8.2915974E-1,4.7607708E-1,1.0637974E0,-9.492796E-1,-4.6081185E-1,8.155142E-1,-5.2753896E-1,-1.0577356E0,7.273981E-1,-2.464598E-1,8.8316417E-1,1.4948498E0,-6.1112577E-1,-9.873498E-1,-1.7928897E-1,-7.668221E-1,9.8004967E-1,-2.5529164E-1,-2.1477929E-1,-9.2647254E-1,-8.8112265E-1,-1.1504145E0,9.7128135E-1,3.4303823E-1,-5.0493952E-2,-6.959218E-1,6.076787E-1,1.166445E0,1.0621212E0,1.5530671E0,-4.9697724E-1,-9.1142046E-1,-8.7804985E-1,-1.0565118E0,1.8842125E-1,-3.8605565E-1,-6.119318E-1,-1.1969727E0,6.7050415E-1,1.0589784E0,5.5947687E-2,-9.130082E-1,-3.7592374E-2,-1.1346747E0,-7.665312E-1,-1.1280829E0,-8.1177354E-1,-1.2031629E0,-1.0277685E0,-1.196924E0,1.3279822E0,8.475114E-1,4.8165736E-1,6.5946154E-2,1.7851558E-1,-3.329741E-1,-1.3406804E-1,-7.6134044E-1,4.2685207E-2,1.5787072E-2,3.9927423E-2,2.0493971E-2,4.9279083E-2,2.9201137E-2,4.754731E-2,1.8745575E-2,1.4749304E-2,-1.623589E-2,7.815216E-3,-2.7751038E-2,1.646835E-2,-2.6480952E-2,-2.858223E-2,-3.362628E-2,1.4517526E-2,6.3594116E-4,-7.681284E-3,-1.5320971E-2,-9.95877E-3,-2.1916255E-2,3.3088725E-2,-3.5938103E-2,4.1916806E-2,1.7428609E-2,3.453437E-2,2.1018816E-2,-7.979402E-3,7.6148617E-3,-1.8991875E-2,-3.5504058E-2,2.6673617E-2,-3.2044437E-3,-2.9275265E-2,-3.5711158E-2,-1.9425077E-2,-3.6012545E-2,-2.7953956E-2,-3.49432E-2,-2.0517446E-2,-3.064051E-2,-2.74725E-2,-3.633507E-2,-2.5589086E-2,-3.4576535E-2,-3.4386896E-2,-3.6708172E-2,3.234377E-2,4.4899467E-2,3.0176928E-2,1.588963E-2,1.5930694E-2,-1.1216461E-3,2.5694894E-2,4.6718988E-4,2.630975E-2,3.566603E-3,2.0246461E-2,-1.1146417E-2,1.0876314E-2,-1.0127941E-2,-1.6974468E-2,-2.8605876E-2],"categories":[],"categories_nodes":[],"categories_segments":[],"categories_sizes":[],"default_left":[0,0,0,0,0,0,0,0,0,0,0,0,0,0,0,0,0,0,0,0,0,0,0,0,0,0,0,0,0,0,0,0,0,0,0,0,0,0,0,0,0,0,0,0,0,0,0,0,0,0,0,0,0,0,0,0,0,0,0,0,0,0,0,0,0,0,0,0,0,0,0,0,0,0,0,0,0,0,0,0,0,0,0,0,0,0,0,0,0,0,0,0,0,0,0,0,0,0,0,0,0,0,0,0,0,0,0,0,0,0,0,0,0,0,0,0,0,0,0,0,0,0,0,0,0,0,0],"id":10,"left_children":[1,3,5,7,9,11,13,15,17,19,21,23,25,27,29,31,33,35,37,39,41,43,45,47,49,51,53,55,57,59,61,63,65,67,69,71,73,75,77,79,81,83,85,87,89,91,93,95,97,99,101,103,105,107,109,111,113,115,117,119,121,123,125,-1,-1,-1,-1,-1,-1,-1,-1,-1,-1,-1,-1,-1,-1,-1,-1,-1,-1,-1,-1,-1,-1,-1,-1,-1,-1,-1,-1,-1,-1,-1,-1,-1,-1,-1,-1,-1,-1,-1,-1,-1,-1,-1,-1,-1,-1,-1,-1,-1,-1,-1,-1,-1,-1,-1,-1,-1,-1,-1,-1,-1,-1,-1,-1],"loss_changes":[6.653615E4,3.714433E4,1.2489793E4,1.5788867E4,1.2192005E4,5.0264805E3,1.4803248E3,5.107258E3,5.2723145E1,3.2361348E3,1.646958E3,3.922213E3,6.779375E2,5.6658203E2,1.8530794E2,3.607668E3,4.8641016E2,1.4005127E1,2.7204834E1,1.4877693E3,1.1985312E3,1.972334E2,2.5504446E2,2.8724014E3,4.4461035E2,3.179375E2,1.5392969E2,1.6220386E2,9.0205475E1,9.4925156E1,2.3378448E1,1.5556445E3,1.811084E3,1.1692505E2,5.036797E2,1.3722481E1,2.075325E0,1.0091064E1,1.4122803E1,3.4802722E2,2.0283728E2,4.3930713E2,1.1885742E1,1.0649072E2,2.1235791E2,5.399085E1,2.9549622E1,9.480836E2,2.4017578E1,3.9723486E2,4.291211E1,3.14229E2,4.708008E0,1.623003E2,2.5265625E1,3.8473755E1,1.3787732E2,4.0139557E1,3.1228767E1,3.3653637E1,2.5789444E1,6.979085E0,2.0954498E1,0E0,0E0,0E0,0E0,0E0,0E0,0E0,0E0,0E0,0E0,0E0,0E0,0E0,0E0,0E0,0E0,0E0,0E0,0E0,0E0,0E0,0E0,0E0,0E0,0E0,0E0,0E0,0E0,0E0,0E0,0E0,0E0,0E0,0E0,0E0,0E0,0E0,0E0,0E0,0E0,0E0,0E0,0E0,0E0,0E0,0E0,0E0,0E0,0E0,0E0,0E0,0E0,0E0,0E0,0E0,0E0,0E0,0E0,0E0,0E0,0E0,0E0,0E0,0E0],"parents":[2147483647,0,0,1,1,2,2,3,3,4,4,5,5,6,6,7,7,8,8,9,9,10,10,11,11,12,12,13,13,14,14,15,15,16,16,17,17,18,18,19,19,20,20,21,21,22,22,23,23,24,24,25,25,26,26,27,27,28,28,29,29,30,30,31,31,32,32,33,33,34,34,35,35,36,36,37,37,38,38,39,39,40,40,41,41,42,42,43,43,44,44,45,45,46,46,47,47,48,48,49,49,50,50,51,51,52,52,53,53,54,54,55,55,56,56,57,57,58,58,59,59,60,60,61,61,62,62],"right_children":[2,4,6,8,10,12,14,16,18,20,22,24,26,28,30,32,34,36,38,40,42,44,46,48,50,52,54,56,58,60,62,64,66,68,70,72,74,76,78,80,82,84,86,88,90,92,94,96,98,100,102,104,106,108,110,112,114,116,118,120,122,124,126,-1,-1,-1,-1,-1,-1,-1,-1,-1,-1,-1,-1,-1,-1,-1,-1,-1,-1,-1,-1,-1,-1,-1,-1,-1,-1,-1,-1,-1,-1,-1,-1,-1,-1,-1,-1,-1,-1,-1,-1,-1,-1,-1,-1,-1,-1,-1,-1,-1,-1,-1,-1,-1,-1,-1,-1,-1,-1,-1,-1,-1,-1,-1,-1],"split_conditions":[5.2130043E1,0E0,1E0,1E0,1E0,0E0,6.3391655E1,1E0,3.1489176E1,2E0,2.2465098E0,6.2962963E1,6.186208E-1,0E0,7.02661E1,7.425753E-1,4.6334326E-1,5.117143E1,5.453754E-1,3.7049503E1,1E0,5.0063396E-1,3.650986E0,1E0,7.02661E1,1E0,5.936591E1,-3E0,5.8616314E1,0E0,-3E0,-3E0,4.3682247E1,-4E0,4.714615E0,1.685049E1,2.0438962E-1,-4E0,4.26178E1,2.8613281E1,4.4891304E1,3.5977898E1,9.812188E0,2.9641693E1,1.5055598E0,2.5792856E1,4.714615E0,-3E0,5.380116E-1,1E0,4.895617E-1,6.3827072E1,1.9060563E-1,2E0,2E0,2.235E1,5.8429832E1,1.3592179E0,-1.11146584E-1,-4E0,-2.4488041E-1,6.8285713E0,7.352974E1,4.2685207E-2,1.5787072E-2,3.9927423E-2,2.0493971E-2,4.9279083E-2,2.9201137E-2,4.754731E-2,1.8745575E-2,1.4749304E-2,-1.623589E-2,7.815216E-3,-2.7751038E-2,1.646835E-2,-2.6480952E-2,-2.858223E-2,-3.362628E-2,1.4517526E-2,6.3594116E-4,-7.681284E-3,-1.5320971E-2,-9.95877E-3,-2.1916255E-2,3.3088725E-2,-3.5938103E-2,4.1916806E-2,1.7428609E-2,3.453437E-2,2.1018816E-2,-7.979402E-3,7.6148617E-3,-1.8991875E-2,-3.5504058E-2,2.6673617E-2,-3.2044437E-3,-2.9275265E-2,-3.5711158E-2,-1.9425077E-2,-3.6012545E-2,-2.7953956E-2,-3.49432E-2,-2.0517446E-2,-3.064051E-2,-2.74725E-2,-3.633507E-2,-2.5589086E-2,-3.4576535E-2,-3.4386896E-2,-3.6708172E-2,3.234377E-2,4.4899467E-2,3.0176928E-2,1.588963E-2,1.5930694E-2,-1.1216461E-3,2.5694894E-2,4.6718988E-4,2.630975E-2,3.566603E-3,2.0246461E-2,-1.1146417E-2,1.0876314E-2,-1.0127941E-2,-1.6974468E-2,-2.8605876E-2],"split_indices":[0,8,4,3,4,8,0,4,0,8,6,0,6,8,0,6,6,2,6,0,3,6,6,3,0,3,0,8,0,8,8,8,0,8,6,0,6,8,0,0,0,0,0,0,6,2,6,8,6,3,6,0,6,8,8,2,0,6,5,8,5,2,0,0,0,0,0,0,0,0,0,0,0,0,0,0,0,0,0,0,0,0,0,0,0,0,0,0,0,0,0,0,0,0,0,0,0,0,0,0,0,0,0,0,0,0,0,0,0,0,0,0,0,0,0,0,0,0,0,0,0,0,0,0,0,0,0],"split_type":[0,0,0,0,0,0,0,0,0,0,0,0,0,0,0,0,0,0,0,0,0,0,0,0,0,0,0,0,0,0,0,0,0,0,0,0,0,0,0,0,0,0,0,0,0,0,0,0,0,0,0,0,0,0,0,0,0,0,0,0,0,0,0,0,0,0,0,0,0,0,0,0,0,0,0,0,0,0,0,0,0,0,0,0,0,0,0,0,0,0,0,0,0,0,0,0,0,0,0,0,0,0,0,0,0,0,0,0,0,0,0,0,0,0,0,0,0,0,0,0,0,0,0,0,0,0,0],"sum_hessian":[1.9772577E5,1.16661016E5,8.106474E4,6.975053E4,4.6910484E4,7.291466E4,8.1500884E3,6.560922E4,4.141316E3,3.7565043E4,9.345443E3,3.1436045E4,4.1478613E4,6.0468105E3,2.1032776E3,4.62367E4,1.9372516E4,4.2078674E2,3.720529E3,1.956617E4,1.7998873E4,8.1007944E3,1.2446488E3,1.7622068E4,1.3813976E4,1.4278803E4,2.719981E4,3.698512E3,2.3482988E3,1.4654517E3,6.37826E2,2.3442473E4,2.2794227E4,2.2995103E3,1.7073006E4,3.0681476E2,1.13972E2,1.447178E3,2.273351E3,7.042321E3,1.252385E4,1.3235429E4,4.763443E3,1.647819E3,6.4529756E3,8.4547485E2,3.991739E2,1.4776847E4,2.845222E3,7.705698E3,6.1082773E3,1.1751681E4,2.5271218E3,7.4849785E3,1.9714832E4,9.502352E2,2.7482766E3,1.5647653E3,7.8353357E2,8.095275E2,6.5592413E2,6.683737E1,5.7098865E2,2.1278982E3,2.1314574E4,1.7005559E4,5.7886685E3,3.0261176E2,1.9968984E3,1.6506041E4,5.669642E2,1.27024975E1,2.9411224E2,1.100544E0,1.1287146E2,4.318821E0,1.4428591E3,8.7631854E2,1.3970326E3,2.5443555E3,4.4979653E3,6.1313853E3,6.392465E3,3.9397227E3,9.295706E3,1.5169073E0,4.761926E3,1.7917442E2,1.4686445E3,5.131064E3,1.3219114E3,3.217247E2,5.237501E2,1.9778896E2,2.0138493E2,1.0262405E3,1.3750606E4,7.4350037E2,2.1017217E3,6.048814E3,1.6568843E3,9.6613135E2,5.142146E3,7.301466E3,4.450215E3,7.161362E1,2.4555083E3,3.1209307E3,4.364048E3,6.813469E3,1.2901361E4,3.8592807E2,5.643072E2,1.832826E3,9.1545056E2,1.4288464E3,1.3591888E2,4.597676E1,7.375568E2,6.2595303E1,7.4693225E2,2.3570389E1,6.3235376E2,1.9202393E1,4.7634983E1,2.8499286E2,2.859958E2],"tree_param":{"num_deleted":"0","num_feature":"9","num_nodes":"127","size_leaf_vector":"1"}},{"base_weights":[-2.1676738E-3,-2.4817589E-1,1.0543319E0,-6.439863E-2,-1.1594889E0,6.9221014E-1,1.1410328E0,-1.4906433E-1,3.3822257E-2,-1.0551323E0,-1.1933904E0,3.9797926E-1,9.0714383E-1,1.1725016E0,2.6188025E-1,-2.8583178E-1,-1.14696376E-1,1.0771266E-1,-3.915152E-2,-1.115259E0,-9.9480456E-1,-1.1575035E0,-1.2096707E0,6.0754098E-2,5.4974395E-1,7.524287E-1,1.0079632E0,7.416427E-1,1.2168864E0,4.294946E-1,-2.4487433E-1,-2.3207964E-1,-6.0454667E-1,-1.0534205E-1,-2.8788504E-1,-2.1626528E-1,2.981279E-1,8.134894E-2,-3.6174676E-1,-3.1305686E-2,-1.1359123E0,-8.728663E-1,-1.042263E0,-1.137401E0,-3.552028E-2,-3.5759237E-2,-3.6605448E-2,-6.2985025E-2,4.051366E-1,4.7406855E-1,7.1534705E-1,5.760503E-1,7.809092E-1,9.429125E-1,1.1684619E0,8.8375056E-1,-2.5631655E-2,1.0560971E0,1.3176727E0,-4.609716E-1,4.7797045E-1,-3.08585E-1,5.966173E-1,-1.1247297E-2,-5.8859987E-3,-1.2039611E-2,-2.7517071E-2,-5.0148303E-3,-2.6612335E-3,2.532472E-3,-2.449497E-2,-1.2633275E-2,-3.4773943E-3,4.8033693E-3,1.2806813E-2,5.247287E-3,-7.310085E-4,-5.82877E-3,-1.5392448E-2,-3.4466304E-2,-3.2488365E-2,-2.914375E-2,-2.3897799E-2,-2.7027769E-2,-3.167493E-2,-3.4137145E-2,-1.2306472E-3,-1.14669E-2,2.1213999E-3,3.8824793E-2,9.793859E-3,9.514907E-3,1.756764E-2,2.7536925E-2,1.7543802E-2,4.0584512E-2,1.6453167E-2,2.1461582E-2,2.641119E-2,1.6917165E-2,2.8990893E-2,3.3712223E-2,4.581635E-2,8.113216E-3,2.9522361E-2,-1.6445747E-2,7.433555E-3,3.2569863E-2,2.0435264E-2,3.5893638E-2,4.150152E-2,-2.2474319E-2,-7.76535E-4,9.5954705E-3,2.0792194E-2,-1.7622596E-2,-6.186491E-3,6.0487587E-2,9.145055E-3],"categories":[],"categories_nodes":[],"categories_segments":[],"categories_sizes":[],"default_left":[0,0,0,0,0,0,0,0,0,0,0,0,0,0,0,0,0,0,0,0,0,0,0,0,0,0,0,0,0,0,0,0,0,0,0,0,0,0,0,0,0,0,0,0,0,0,0,0,0,0,0,0,0,0,0,0,0,0,0,0,0,0,0,0,0,0,0,0,0,0,0,0,0,0,0,0,0,0,0,0,0,0,0,0,0,0,0,0,0,0,0,0,0,0,0,0,0,0,0,0,0,0,0,0,0,0,0,0,0,0,0,0,0,0,0,0,0,0,0],"id":11,"left_children":[1,3,5,7,9,11,13,15,17,19,21,23,25,27,29,31,33,35,37,39,41,43,45,47,49,51,53,55,57,59,61,63,65,67,69,71,73,75,77,-1,79,81,83,85,-1,-1,-1,87,89,91,93,95,97,99,101,103,105,107,109,111,113,115,117,-1,-1,-1,-1,-1,-1,-1,-1,-1,-1,-1,-1,-1,-1,-1,-1,-1,-1,-1,-1,-1,-1,-1,-1,-1,-1,-1,-1,-1,-1,-1,-1,-1,-1,-1,-1,-1,-1,-1,-1,-1,-1,-1,-1,-1,-1,-1,-1,-1,-1,-1,-1,-1,-1,-1,-1],"loss_changes":[5.1218305E4,2.6770309E4,1.1677773E3,1.1061897E3,9.3640625E1,4.544912E2,8.304492E2,3.3576343E2,3.3205356E2,2.2780273E1,1.0427734E1,1.5544473E2,6.406055E1,5.535078E2,8.835673E1,2.4563086E2,9.246649E1,1.8877062E3,1.2044462E3,3.6894531E0,1.816919E1,2.0322266E0,1.1308594E0,4.02523E1,2.5914978E1,7.805908E0,2.5135986E1,2.9551978E2,4.245039E2,3.3938095E1,1.4063124E1,6.284424E1,1.3115527E2,5.568933E1,5.7575964E2,2.3280365E2,3.42432E2,2.2312491E2,2.1343384E2,0E0,5.024414E-1,6.2182007E0,3.590088E0,1.9580078E0,0E0,0E0,0E0,2.9705444E1,1.703965E1,2.5026123E1,1.678653E1,4.2402725E0,8.573608E0,1.5394897E1,9.844971E0,1.404347E2,6.078332E1,1.1156348E2,1.2699414E2,5.100711E0,2.4990967E1,6.7670155E0,7.074011E0,0E0,0E0,0E0,0E0,0E0,0E0,0E0,0E0,0E0,0E0,0E0,0E0,0E0,0E0,0E0,0E0,0E0,0E0,0E0,0E0,0E0,0E0,0E0,0E0,0E0,0E0,0E0,0E0,0E0,0E0,0E0,0E0,0E0,0E0,0E0,0E0,0E0,0E0,0E0,0E0,0E0,0E0,0E0,0E0,0E0,0E0,0E0,0E0,0E0,0E0,0E0,0E0,0E0,0E0,0E0,0E0],"parents":[2147483647,0,0,1,1,2,2,3,3,4,4,5,5,6,6,7,7,8,8,9,9,10,10,11,11,12,12,13,13,14,14,15,15,16,16,17,17,18,18,19,19,20,20,21,21,22,22,23,23,24,24,25,25,26,26,27,27,28,28,29,29,30,30,31,31,32,32,33,33,34,34,35,35,36,36,37,37,38,38,40,40,41,41,42,42,43,43,47,47,48,48,49,49,50,50,51,51,52,52,53,53,54,54,55,55,56,56,57,57,58,58,59,59,60,60,61,61,62,62],"right_children":[2,4,6,8,10,12,14,16,18,20,22,24,26,28,30,32,34,36,38,40,42,44,46,48,50,52,54,56,58,60,62,64,66,68,70,72,74,76,78,-1,80,82,84,86,-1,-1,-1,88,90,92,94,96,98,100,102,104,106,108,110,112,114,116,118,-1,-1,-1,-1,-1,-1,-1,-1,-1,-1,-1,-1,-1,-1,-1,-1,-1,-1,-1,-1,-1,-1,-1,-1,-1,-1,-1,-1,-1,-1,-1,-1,-1,-1,-1,-1,-1,-1,-1,-1,-1,-1,-1,-1,-1,-1,-1,-1,-1,-1,-1,-1,-1,-1,-1,-1],"split_conditions":[1E0,1E0,5.0063396E-1,5.0127987E-2,5.453754E-1,3.4686987E-4,4.2487173E0,-5.536281E-1,-8.96685E-4,-6.153203E-3,8.387576E-1,3.159324E-1,2.864824E-2,-5.777089E-1,6.647258E0,8.608049E-1,1.4361285E0,8.1811154E-1,1.3888918E0,1.1685715E1,3.2622343E-1,3.4635715E1,1.209311E0,-1.2840551E-2,4.4821924E-1,2.3645285E-1,-2.5807422E-1,1.3592179E0,2.2614286E1,-8.032679E-2,-2.595415E-3,-7.452755E-1,1.492086E-2,-6.47206E-2,8.085856E-3,5.1566446E-1,1.3181365E0,8.120156E-1,3.9025187E-2,-3.1305686E-2,-2.3916317E-2,2.0797389E-2,-6.474936E-2,4.1701283E0,-3.552028E-2,-3.5759237E-2,-3.6605448E-2,2.1666838E-1,2.1285715E0,-4.0746003E-2,-4.1510895E-1,-1.3446945E-1,1.6840816E-2,-8.060212E-1,4.761706E-1,-7.8784657E-1,-7.022954E-1,2.6570513E0,8.839761E-1,5.267143E1,4.145714E1,2.0042856E1,-2.4281988E-4,-1.1247297E-2,-5.8859987E-3,-1.2039611E-2,-2.7517071E-2,-5.0148303E-3,-2.6612335E-3,2.532472E-3,-2.449497E-2,-1.2633275E-2,-3.4773943E-3,4.8033693E-3,1.2806813E-2,5.247287E-3,-7.310085E-4,-5.82877E-3,-1.5392448E-2,-3.4466304E-2,-3.2488365E-2,-2.914375E-2,-2.3897799E-2,-2.7027769E-2,-3.167493E-2,-3.4137145E-2,-1.2306472E-3,-1.14669E-2,2.1213999E-3,3.8824793E-2,9.793859E-3,9.514907E-3,1.756764E-2,2.7536925E-2,1.7543802E-2,4.0584512E-2,1.6453167E-2,2.1461582E-2,2.641119E-2,1.6917165E-2,2.8990893E-2,3.3712223E-2,4.581635E-2,8.113216E-3,2.9522361E-2,-1.6445747E-2,7.433555E-3,3.2569863E-2,2.0435264E-2,3.5893638E-2,4.150152E-2,-2.2474319E-2,-7.76535E-4,9.5954705E-3,2.0792194E-2,-1.7622596E-2,-6.186491E-3,6.0487587E-2,9.145055E-3],"split_indices":[4,3,6,7,6,1,6,7,1,1,6,6,1,7,6,6,6,6,6,2,6,2,6,1,6,6,7,6,2,7,1,7,1,1,1,6,6,6,1,0,1,1,5,7,0,0,0,6,2,1,7,5,1,7,7,7,7,6,6,2,2,2,1,0,0,0,0,0,0,0,0,0,0,0,0,0,0,0,0,0,0,0,0,0,0,0,0,0,0,0,0,0,0,0,0,0,0,0,0,0,0,0,0,0,0,0,0,0,0,0,0,0,0,0,0,0,0,0,0],"split_type":[0,0,0,0,0,0,0,0,0,0,0,0,0,0,0,0,0,0,0,0,0,0,0,0,0,0,0,0,0,0,0,0,0,0,0,0,0,0,0,0,0,0,0,0,0,0,0,0,0,0,0,0,0,0,0,0,0,0,0,0,0,0,0,0,0,0,0,0,0,0,0,0,0,0,0,0,0,0,0,0,0,0,0,0,0,0,0,0,0,0,0,0,0,0,0,0,0,0,0,0,0,0,0,0,0,0,0,0,0,0,0,0,0,0,0,0,0,0,0],"sum_hessian":[1.9706152E5,1.598426E5,3.7218926E4,1.3301881E5,2.6823775E4,7.191463E3,3.0027463E4,7.143867E4,6.1580137E4,6.585184E3,2.0238592E4,3.036937E3,4.154526E3,2.8989469E4,1.0379952E3,1.4345071E4,5.70936E4,3.0597662E4,3.0982477E4,3.2893274E3,3.295857E3,6.338521E3,1.390007E4,9.429896E2,2.0939475E3,1.6424778E3,2.512048E3,2.7090942E3,2.6280373E4,7.8011615E2,2.5787903E2,1.2276359E4,2.0687126E3,5.4169395E4,2.9242073E3,1.1326424E4,1.9271238E4,2.2557295E4,8.425181E3,7.46832E2,2.5424954E3,9.288064E2,2.3670505E3,3.6296614E3,2.7088594E3,5.2222803E3,8.67779E3,6.943292E2,2.4866042E2,1.439846E3,6.5410156E2,2.3129643E2,1.4111814E3,1.7924415E3,7.1960645E2,2.2856199E3,4.2347433E2,1.0130377E4,1.6149997E4,3.9836655E1,7.402795E2,2.403175E2,1.7561527E1,2.4628335E3,9.813525E3,1.2552015E3,8.13511E2,1.1483496E4,4.26859E4,1.7162789E3,1.2079282E3,3.7232134E3,7.60321E3,9.30262E3,9.968617E3,1.1966263E4,1.0591032E4,4.0006653E3,4.4245156E3,2.025929E3,5.165664E2,4.0000912E2,5.2879724E2,2.1322946E2,2.153821E3,3.6279563E3,1.7051072E0,2.0440115E2,4.8992807E2,1.8960236E1,2.2970018E2,5.997948E2,8.400511E2,2.5399878E2,4.0010278E2,6.2920837E0,2.2500435E2,8.556823E2,5.554991E2,1.0590241E2,1.6865392E3,6.4351886E2,7.608755E1,3.2184753E2,1.9637723E3,1.451176E2,2.7835675E2,9.388164E3,7.422124E2,5.6839536E3,1.0466043E4,2.3530088E1,1.6306568E1,4.280834E2,3.121961E2,6.326258E1,1.7705493E2,1.9864632E0,1.5575063E1],"tree_param":{"num_deleted":"0","num_feature":"9","num_nodes":"119","size_leaf_vector":"1"}},{"base_weights":[-2.197365E-3,4.3587703E-1,-7.2185117E-1,8.801816E-1,-2.248431E-1,-8.41645E-1,3.6401242E-1,9.929383E-1,-9.2997444E-1,-4.6595776E-1,7.3617625E-1,-5.579461E-1,-1.0553433E0,6.1855406E-1,-2.6647842E-1,1.3473496E0,8.056501E-1,-6.4618206E-1,-9.767143E-1,-1.9279948E-1,-7.636963E-1,7.706175E-1,-2.1018498E-1,-2.599997E-1,-9.231169E-1,-9.427011E-1,-1.1593248E0,8.469049E-1,2.6498407E-1,-3.0041337E-2,-6.145253E-1,1.46396E0,1.2082846E0,1.0700562E0,5.255921E-1,-5.508902E-1,-8.8766533E-1,1.578228E-1,-9.805554E-1,1.829378E-1,-3.9009205E-1,-6.129047E-1,-1.1808699E0,2.885406E-1,8.1599724E-1,-1.0578459E-2,-9.806385E-1,-9.550316E-2,-1.1209136E0,-7.6261383E-1,-1.1126276E0,-8.5792625E-1,-3.6194783E-2,-1.110539E0,-1.2038192E0,6.479699E-1,1.0783507E0,1.1217701E0,2.2544032E-1,1.7993467E-1,-2.9732212E-1,-4.0929347E-1,-8.22124E-1,3.6472607E-2,4.5490194E-2,4.006694E-2,2.8704073E-2,3.8715508E-2,2.860546E-2,1.2822079E-2,3.6584653E-2,-4.0299483E-3,-1.9367492E-2,-2.4826922E-2,-2.9490558E-2,1.7546179E-2,-9.465074E-3,-2.7426608E-2,-3.1044606E-2,1.3984215E-2,6.481227E-4,-7.435058E-3,-1.5250339E-2,-9.662427E-3,-2.183721E-2,3.3100646E-2,-3.5453554E-2,1.2347711E-2,-1.7179947E-2,2.0795364E-2,2.7907621E-2,-1.0340653E-2,7.8393575E-3,-3.1046147E-2,-1.605903E-2,2.3665277E-2,-4.818258E-3,1.3739519E-2,-3.3658616E-2,8.161604E-3,-2.4249656E-2,-1.9931614E-2,-3.3798758E-2,-2.4182236E-2,-3.3556838E-2,-3.191644E-2,-3.61387E-2,-3.087612E-2,-3.616689E-2,3.387145E-2,1.4837379E-2,2.3847679E-2,3.7228417E-2,3.5884E-2,3.919236E-3,1.09390365E-2,-4.5455454E-4,2.4666639E-2,3.7160367E-3,2.3433745E-2,-9.973912E-3,-7.4034045E-3,-2.4060195E-2,-1.7790089E-3,-2.5814347E-2],"categories":[],"categories_nodes":[],"categories_segments":[],"categories_sizes":[],"default_left":[0,0,0,0,0,0,0,0,0,0,0,0,0,0,0,0,0,0,0,0,0,0,0,0,0,0,0,0,0,0,0,0,0,0,0,0,0,0,0,0,0,0,0,0,0,0,0,0,0,0,0,0,0,0,0,0,0,0,0,0,0,0,0,0,0,0,0,0,0,0,0,0,0,0,0,0,0,0,0,0,0,0,0,0,0,0,0,0,0,0,0,0,0,0,0,0,0,0,0,0,0,0,0,0,0,0,0,0,0,0,0,0,0,0,0,0,0,0,0,0,0,0,0,0,0],"id":12,"left_children":[1,3,5,7,9,11,13,15,17,19,21,23,25,27,29,31,33,35,37,39,41,43,45,47,49,51,53,55,57,59,61,63,65,67,69,71,73,75,77,79,81,83,85,87,89,91,93,95,97,99,101,103,-1,105,107,109,111,113,115,117,119,121,123,-1,-1,-1,-1,-1,-1,-1,-1,-1,-1,-1,-1,-1,-1,-1,-1,-1,-1,-1,-1,-1,-1,-1,-1,-1,-1,-1,-1,-1,-1,-1,-1,-1,-1,-1,-1,-1,-1,-1,-1,-1,-1,-1,-1,-1,-1,-1,-1,-1,-1,-1,-1,-1,-1,-1,-1,-1,-1,-1,-1,-1,-1],"loss_changes":[6.2016176E4,3.589643E4,9.682738E3,1.4923902E4,1.1392922E4,4.0637188E3,1.1872002E3,4.5674297E3,5.624414E1,3.1965527E3,3.2159473E2,3.13371E3,4.467539E2,4.2522546E2,1.7509592E2,3.8409766E2,3.3340781E3,1.3531387E1,1.6189453E1,1.5197549E3,1.1823047E3,2.0793457E2,5.3366985E1,2.2464531E3,3.9280078E2,4.0952246E2,4.18125E1,1.4669556E2,6.985469E1,7.12291E1,3.633719E1,1.6635938E2,3.4628125E2,5.9388477E2,1.4896304E3,1.7250122E1,1.6508484E-1,2.8681803E0,1.2254639E1,3.2250946E2,2.2600464E2,4.6182568E2,1.1740723E1,8.715616E1,1.2139111E2,2.5223787E1,1.1706696E0,7.670266E2,4.6938477E0,3.3175684E2,3.647412E1,1.8691211E2,0E0,4.039746E1,1.9208984E0,1.2666382E2,6.713611E1,6.553627E0,6.628766E1,2.5497248E1,2.1420166E1,2.7554184E1,1.2439728E1,0E0,0E0,0E0,0E0,0E0,0E0,0E0,0E0,0E0,0E0,0E0,0E0,0E0,0E0,0E0,0E0,0E0,0E0,0E0,0E0,0E0,0E0,0E0,0E0,0E0,0E0,0E0,0E0,0E0,0E0,0E0,0E0,0E0,0E0,0E0,0E0,0E0,0E0,0E0,0E0,0E0,0E0,0E0,0E0,0E0,0E0,0E0,0E0,0E0,0E0,0E0,0E0,0E0,0E0,0E0,0E0,0E0,0E0,0E0,0E0,0E0,0E0],"parents":[2147483647,0,0,1,1,2,2,3,3,4,4,5,5,6,6,7,7,8,8,9,9,10,10,11,11,12,12,13,13,14,14,15,15,16,16,17,17,18,18,19,19,20,20,21,21,22,22,23,23,24,24,25,25,26,26,27,27,28,28,29,29,30,30,31,31,32,32,33,33,34,34,35,35,36,36,37,37,38,38,39,39,40,40,41,41,42,42,43,43,44,44,45,45,46,46,47,47,48,48,49,49,50,50,51,51,53,53,54,54,55,55,56,56,57,57,58,58,59,59,60,60,61,61,62,62],"right_children":[2,4,6,8,10,12,14,16,18,20,22,24,26,28,30,32,34,36,38,40,42,44,46,48,50,52,54,56,58,60,62,64,66,68,70,72,74,76,78,80,82,84,86,88,90,92,94,96,98,100,102,104,-1,106,108,110,112,114,116,118,120,122,124,-1,-1,-1,-1,-1,-1,-1,-1,-1,-1,-1,-1,-1,-1,-1,-1,-1,-1,-1,-1,-1,-1,-1,-1,-1,-1,-1,-1,-1,-1,-1,-1,-1,-1,-1,-1,-1,-1,-1,-1,-1,-1,-1,-1,-1,-1,-1,-1,-1,-1,-1,-1,-1,-1,-1,-1,-1,-1,-1,-1,-1,-1],"split_conditions":[5.332551E1,0E0,1E0,1E0,1E0,0E0,6.3391655E1,-2E0,3.3862434E1,2E0,2.598978E0,6.3391655E1,6.3827072E1,0E0,6.875E1,-3E0,3.98374E1,5.117143E1,-3E0,3.7049503E1,1E0,-7.022954E-1,6.0486054E0,1E0,7.02661E1,1E0,7.091531E1,-1.1600753E-1,-1.4414558E-1,0E0,0E0,9.971429E0,4.31473E1,2.8613281E1,1E0,2.4793062E1,-1.1600753E-1,1.6585714E1,4.4720497E1,2.8613281E1,4.4891304E1,3.5977898E1,9.812188E0,2E0,2.9328571E1,2.4742857E1,4.1525425E1,-3E0,-4E0,-3E0,-3E0,3E0,-3.6194783E-2,3E0,1.1357143E0,-3E0,2.1835714E1,6.2326702E1,5.8801796E1,-4E0,-2.776941E-1,7.440812E1,2.8857143E0,3.6472607E-2,4.5490194E-2,4.006694E-2,2.8704073E-2,3.8715508E-2,2.860546E-2,1.2822079E-2,3.6584653E-2,-4.0299483E-3,-1.9367492E-2,-2.4826922E-2,-2.9490558E-2,1.7546179E-2,-9.465074E-3,-2.7426608E-2,-3.1044606E-2,1.3984215E-2,6.481227E-4,-7.435058E-3,-1.5250339E-2,-9.662427E-3,-2.183721E-2,3.3100646E-2,-3.5453554E-2,1.2347711E-2,-1.7179947E-2,2.0795364E-2,2.7907621E-2,-1.0340653E-2,7.8393575E-3,-3.1046147E-2,-1.605903E-2,2.3665277E-2,-4.818258E-3,1.3739519E-2,-3.3658616E-2,8.161604E-3,-2.4249656E-2,-1.9931614E-2,-3.3798758E-2,-2.4182236E-2,-3.3556838E-2,-3.191644E-2,-3.61387E-2,-3.087612E-2,-3.616689E-2,3.387145E-2,1.4837379E-2,2.3847679E-2,3.7228417E-2,3.5884E-2,3.919236E-3,1.09390365E-2,-4.5455454E-4,2.4666639E-2,3.7160367E-3,2.3433745E-2,-9.973912E-3,-7.4034045E-3,-2.4060195E-2,-1.7790089E-3,-2.5814347E-2],"split_indices":[0,8,4,3,4,8,0,8,0,8,7,0,0,8,0,8,0,2,8,0,3,7,7,3,0,3,0,7,5,8,8,2,0,0,4,0,7,2,0,0,0,0,0,8,2,2,0,8,8,8,8,8,0,8,2,8,2,0,0,8,5,0,2,0,0,0,0,0,0,0,0,0,0,0,0,0,0,0,0,0,0,0,0,0,0,0,0,0,0,0,0,0,0,0,0,0,0,0,0,0,0,0,0,0,0,0,0,0,0,0,0,0,0,0,0,0,0,0,0,0,0,0,0,0,0],"split_type":[0,0,0,0,0,0,0,0,0,0,0,0,0,0,0,0,0,0,0,0,0,0,0,0,0,0,0,0,0,0,0,0,0,0,0,0,0,0,0,0,0,0,0,0,0,0,0,0,0,0,0,0,0,0,0,0,0,0,0,0,0,0,0,0,0,0,0,0,0,0,0,0,0,0,0,0,0,0,0,0,0,0,0,0,0,0,0,0,0,0,0,0,0,0,0,0,0,0,0,0,0,0,0,0,0,0,0,0,0,0,0,0,0,0,0,0,0,0,0,0,0,0,0,0,0],"sum_hessian":[1.9671119E5,1.2227761E5,7.443358E4,7.3112445E4,4.9165164E4,6.703808E4,7.395497E3,6.882567E4,4.286779E3,3.930441E4,9.860754E3,2.880333E4,3.823475E4,5.268513E3,2.1269844E3,2.3793773E4,4.5031895E4,6.0828064E2,3.678498E3,2.04992E4,1.880521E4,9.514669E3,3.4608502E2,1.5862597E4,1.2940733E4,1.8357887E4,1.9876861E4,3.200255E3,2.068258E3,1.2672175E3,8.5976666E2,1.2936547E4,1.0857226E4,2.3161773E4,2.1870123E4,4.3851804E2,1.6976262E2,1.2276629E1,3.6662214E3,7.057842E3,1.3441356E4,1.3814348E4,4.990864E3,8.192275E2,8.695441E3,2.7567722E2,7.040779E1,1.331885E4,2.543748E3,7.009322E3,5.931411E3,1.3896282E4,4.4616045E3,9.493586E3,1.0383275E4,1.7230438E3,1.477211E3,9.00388E1,1.9782192E3,7.0986993E2,5.5734766E2,4.3384222E2,4.2592447E2,2.2585295E3,1.0678018E4,7.205879E3,3.651347E3,8.006246E3,1.5155526E4,1.9160451E4,2.7096733E3,8.1669334E1,3.5684872E2,1.1006654E2,5.9696075E1,6.329908E0,5.946722E0,1.6576719E3,2.0085497E3,2.5607866E3,4.497055E3,6.1028184E3,7.338538E3,3.9157615E3,9.898586E3,1.5166324E0,