{"learner":{"attributes":{"scikit_learn":"{\"_estimator_type\": \"classifier\"}"},"feature_names":["rsi_14","ema_dist","atr_14","fvg_bull","fvg_bear","oi_delta","rvol_20","vol_accel","delta_streak","prob_long","prob_short","prob_stay","side_long","side_short"],"feature_types":["float","float","float","int","int","float","float","float","float","float","float","float","int","int"],"gradient_booster":{"model":{"cats":{"enc":[],"feature_segments":[],"sorted_idx":[]},"gbtree_model_param":{"num_parallel_tree":"1","num_trees":"100"},"iteration_indptr":[0,1,2,3,4,5,6,7,8,9,10,11,12,13,14,15,16,17,18,19,20,21,22,23,24,25,26,27,28,29,30,31,32,33,34,35,36,37,38,39,40,41,42,43,44,45,46,47,48,49,50,51,52,53,54,55,56,57,58,59,60,61,62,63,64,65,66,67,68,69,70,71,72,73,74,75,76,77,78,79,80,81,82,83,84,85,86,87,88,89,90,91,92,93,94,95,96,97,98,99,100],"tree_info":[0,0,0,0,0,0,0,0,0,0,0,0,0,0,0,0,0,0,0,0,0,0,0,0,0,0,0,0,0,0,0,0,0,0,0,0,0,0,0,0,0,0,0,0,0,0,0,0,0,0,0,0,0,0,0,0,0,0,0,0,0,0,0,0,0,0,0,0,0,0,0,0,0,0,0,0,0,0,0,0,0,0,0,0,0,0,0,0,0,0,0,0,0,0,0,0,0,0,0,0],"trees":[{"base_weights":[6.889835E-8,-2.0449464E-1,6.905099E-1,-6.564922E-2,-9.326894E-2,-6.279786E-2,8.134934E-1,-2.7107146E-1,4.3157512E-1,3.0023327E-1,1.3055373E0,-5.184379E-2,-7.661663E-3,4.2749953E-2,-4.456049E-3,3.70312E-2,-3.2269426E-2,1.9686624E-2,8.1654325E-2],"categories":[],"categories_nodes":[],"categories_segments":[],"categories_sizes":[],"default_left":[0,0,0,0,0,0,0,0,0,0,0,0,0,0,0,0,0,0,0],"id":0,"left_children":[1,3,5,-1,7,-1,9,11,13,15,17,-1,-1,-1,-1,-1,-1,-1,-1],"loss_changes":[3.246736E1,2.1748936E1,1.3597805E1,0E0,1.5262057E1,0E0,1.2240463E1,1.0836114E1,9.215739E0,1.1214281E1,6.8949814E0,0E0,0E0,0E0,0E0,0E0,0E0,0E0,0E0],"parents":[2147483647,0,0,1,1,2,2,4,4,6,6,7,7,8,8,9,9,10,10],"right_children":[2,4,6,-1,8,-1,10,12,14,16,18,-1,-1,-1,-1,-1,-1,-1,-1],"split_conditions":[1.3067857E2,1.7071428E0,2.180136E-1,-6.564922E-2,3.6335436E-1,-6.279786E-2,3.200705E1,-5.3514147E-1,2.5243525E1,1.94E2,4.215021E-1,-5.184379E-2,-7.661663E-3,4.2749953E-2,-4.456049E-3,3.70312E-2,-3.2269426E-2,1.9686624E-2,8.1654325E-2],"split_indices":[2,2,6,0,9,0,0,7,0,2,6,0,0,0,0,0,0,0,0],"split_type":[0,0,0,0,0,0,0,0,0,0,0,0,0,0,0,0,0,0,0],"sum_hessian":[2.279297E2,1.7639432E2,5.1535385E1,1.5100099E1,1.6129422E2,2.5151725E0,4.902021E1,1.20840385E2,4.0453835E1,2.4780937E1,2.4239273E1,1.5074622E1,1.0576576E2,2.1956795E1,1.8497038E1,1.7054964E1,7.725974E0,6.988184E0,1.725109E1],"tree_param":{"num_deleted":"0","num_feature":"14","num_nodes":"19","size_leaf_vector":"1"}},{"base_weights":[-2.833762E-4,-1.951254E-1,6.5401053E-1,-1.2637488E0,-8.884117E-2,3.3468726E-1,1.3072312E0,-6.688971E-3,-1.3372529E0,-2.5852835E-1,4.0977043E-1,-7.968466E-2,7.45106E-1,1.4570007E0,-1.09645305E-2,-2.1002771E-2,-6.916267E-2,-4.978883E-2,-7.2901845E-3,3.1454887E-2,-4.889945E-2,1.8345747E-2,-7.068577E-2,9.237885E-2,5.368028E-3,-2.6914773E-3,8.009413E-2],"categories":[],"categories_nodes":[],"categories_segments":[],"categories_sizes":[],"default_left":[0,0,0,0,0,0,0,0,0,0,0,0,0,0,0,0,0,0,0,0,0,0,0,0,0,0,0],"id":1,"left_children":[1,3,5,7,9,11,13,-1,15,17,19,21,23,25,-1,-1,-1,-1,-1,-1,-1,-1,-1,-1,-1,-1,-1],"loss_changes":[2.9303885E1,2.0004398E1,1.0564352E1,1.1456013E0,1.3826915E1,6.312787E0,4.200178E0,0E0,4.5991898E-2,9.961138E0,1.3266108E1,1.19579525E1,1.2858118E1,3.4983406E0,0E0,0E0,0E0,0E0,0E0,0E0,0E0,0E0,0E0,0E0,0E0,0E0,0E0],"parents":[2147483647,0,0,1,1,2,2,3,3,4,4,5,5,6,6,8,8,9,9,10,10,11,11,12,12,13,13],"right_children":[2,4,6,8,10,12,14,-1,16,18,20,22,24,26,-1,-1,-1,-1,-1,-1,-1,-1,-1,-1,-1,-1,-1],"split_conditions":[1.3067857E2,1.7071428E0,7.367243E1,-1.15278335E-2,3.6335436E-1,2.0832828E-1,9.388807E1,-6.688971E-3,5.675509E0,-5.3514147E-1,1.6721974E-1,1.3535397E-1,3.1198537E-1,2.3763926E-1,-1.09645305E-2,-2.1002771E-2,-6.916267E-2,-4.978883E-2,-7.2901845E-3,3.1454887E-2,-4.889945E-2,1.8345747E-2,-7.068577E-2,9.237885E-2,5.368028E-3,-2.6914773E-3,8.009413E-2],"split_indices":[2,2,0,5,9,1,0,0,0,7,5,1,1,9,0,0,0,0,0,0,0,0,0,0,0,0,0],"split_type":[0,0,0,0,0,0,0,0,0,0,0,0,0,0,0,0,0,0,0,0,0,0,0,0,0,0,0],"sum_hessian":[2.278623E2,1.7611795E2,5.174435E1,1.4946791E1,1.6117116E2,3.5770504E1,1.5973844E1,1.0851375E0,1.3861653E1,1.20607574E2,4.0563587E1,1.820052E1,1.7569984E1,1.4588121E1,1.3857222E0,1.1458685E0,1.2715785E1,1.4956238E1,1.0565134E2,3.549974E1,5.063846E0,1.41787815E1,4.0217385E0,5.743738E0,1.1826247E1,1.3315151E0,1.3256606E1],"tree_param":{"num_deleted":"0","num_feature":"14","num_nodes":"27","size_leaf_vector":"1"}},{"base_weights":[-6.189833E-4,-1.8673538E-1,6.216514E-1,-1.2199816E0,-8.497434E-2,-6.124419E-2,7.373808E-1,-6.5189414E-3,-6.457432E-2,-2.4659297E-1,3.8785923E-1,4.4865194E-1,1.2945378E0,-4.7858555E-2,-6.9365413E-3,3.8378872E-2,-1.8336957E-2,-3.1308245E-2,3.3048835E-2,7.916536E-2,-2.4310924E-2],"categories":[],"categories_nodes":[],"categories_segments":[],"categories_sizes":[],"default_left":[0,0,0,0,0,0,0,0,0,0,0,0,0,0,0,0,0,0,0,0,0],"id":2,"left_children":[1,3,5,7,9,-1,11,-1,-1,13,15,17,19,-1,-1,-1,-1,-1,-1,-1,-1],"loss_changes":[2.660143E1,1.8486366E1,1.2204021E1,1.0608253E0,1.2477632E1,0E0,7.5248985E0,0E0,0E0,9.169162E0,1.2219484E1,8.337093E0,9.341248E0,0E0,0E0,0E0,0E0,0E0,0E0,0E0,0E0],"parents":[2147483647,0,0,1,1,2,2,3,3,4,4,6,6,9,9,10,10,11,11,12,12],"right_children":[2,4,6,8,10,-1,12,-1,-1,14,16,18,20,-1,-1,-1,-1,-1,-1,-1,-1],"split_conditions":[1.3067857E2,1.7071428E0,2.180136E-1,-1.15278335E-2,3.6335436E-1,-6.124419E-2,3.5108185E-1,-6.5189414E-3,-6.457432E-2,-5.3514147E-1,6.6631935E-3,-2.2200464E-1,3.6849168E-1,-4.7858555E-2,-6.9365413E-3,3.8378872E-2,-1.8336957E-2,-3.1308245E-2,3.3048835E-2,7.916536E-2,-2.4310924E-2],"split_indices":[2,2,6,5,9,0,10,0,0,7,5,5,10,0,0,0,0,0,0,0,0],"split_type":[0,0,0,0,0,0,0,0,0,0,0,0,0,0,0,0,0,0,0,0,0],"sum_hessian":[2.2768721E2,1.7580513E2,5.188208E1,1.4776904E1,1.6102823E2,2.4946315E0,4.9387447E1,1.0838822E0,1.3693022E1,1.2036493E2,4.0663303E1,3.3718933E1,1.5668512E1,1.4825163E1,1.05539764E2,2.7039614E1,1.3623688E1,5.2407E0,2.8478235E1,1.3577628E1,2.090884E0],"tree_param":{"num_deleted":"0","num_feature":"14","num_nodes":"21","size_leaf_vector":"1"}},{"base_weights":[-1.1506539E-3,-1.784379E-1,5.891934E-1,-1.1782776E0,-8.106573E-2,4.003439E-1,1.4025259E0,-6.3532987E-3,-6.2399805E-2,-7.819081E-1,1.08593E-2,4.930561E-1,-4.598234E-2,-4.450629E-3,8.9242645E-2,-4.799874E-2,5.128506E-2,5.093494E-3,-4.9677346E-2,3.007407E-2,-3.619806E-2],"categories":[],"categories_nodes":[],"categories_segments":[],"categories_sizes":[],"default_left":[0,0,0,0,0,0,0,0,0,0,0,0,0,0,0,0,0,0,0,0,0],"id":3,"left_children":[1,3,5,7,9,11,13,-1,-1,15,17,19,-1,-1,-1,-1,-1,-1,-1,-1,-1],"loss_changes":[2.4012192E1,1.7081774E1,7.5773354E0,9.8355675E-1,1.0435856E1,5.8873844E0,5.625057E0,0E0,0E0,7.029872E0,1.3271027E1,5.995984E0,0E0,0E0,0E0,0E0,0E0,0E0,0E0,0E0,0E0],"parents":[2147483647,0,0,1,1,2,2,3,3,4,4,5,5,6,6,9,9,10,10,11,11],"right_children":[2,4,6,8,10,12,14,-1,-1,16,18,20,-1,-1,-1,-1,-1,-1,-1,-1,-1],"split_conditions":[1.3067857E2,1.7071428E0,4E0,-1.15278335E-2,-5.528577E-1,2.578676E0,3.7427118E-1,-6.3532987E-3,-6.2399805E-2,5E0,3.5467058E-1,3.6849168E-1,-4.598234E-2,-4.450629E-3,8.9242645E-2,-4.799874E-2,5.128506E-2,5.093494E-3,-4.9677346E-2,3.007407E-2,-3.619806E-2],"split_indices":[2,2,8,5,7,7,11,0,0,8,10,10,0,0,0,0,0,0,0,0,0],"split_type":[0,0,0,0,0,0,0,0,0,0,0,0,0,0,0,0,0,0,0,0,0],"sum_hessian":[2.2742493E2,1.754369E2,5.1988026E1,1.4584026E1,1.6085287E2,4.3402523E1,8.585502E0,1.0826375E0,1.35013895E1,1.7781284E1,1.430716E2,4.1139477E1,2.2630439E0,1.9082391E0,6.677263E0,1.6613611E1,1.1676729E0,1.3200868E2,1.1062905E1,3.823854E1,2.9009361E0],"tree_param":{"num_deleted":"0","num_feature":"14","num_nodes":"21","size_leaf_vector":"1"}},{"base_weights":[-1.5006698E-3,-1.7055568E-1,5.595839E-1,-1.1394496E0,-7.737723E-2,1.4381902E-1,9.5828426E-1,-6.1919303E-3,-1.2076222E0,-2.3013568E-1,3.6718342E-1,-3.3444712E-1,8.207543E-1,3.9264122E-1,1.3246055E0,-1.7388484E-2,-6.2686376E-2,-3.6258325E-3,-3.263402E-2,2.848323E-2,-4.6515387E-2,6.304547E-2,-2.8070113E-2,-3.27315E-2,6.551365E-2,-2.838926E-2,5.6566782E-2,7.312383E-2,-7.719157E-3],"categories":[],"categories_nodes":[],"categories_segments":[],"categories_sizes":[],"default_left":[0,0,0,0,0,0,0,0,0,0,0,0,0,0,0,0,0,0,0,0,0,0,0,0,0,0,0,0,0],"id":4,"left_children":[1,3,5,7,9,11,13,-1,15,17,19,21,23,25,27,-1,-1,-1,-1,-1,-1,-1,-1,-1,-1,-1,-1,-1,-1],"loss_changes":[2.1735239E1,1.58084755E1,8.657057E0,9.1498184E-1,1.1066037E1,9.06407E0,5.0552845E0,0E0,1.3065338E-1,8.00915E0,1.1495806E1,6.725333E0,9.184622E0,9.154174E0,3.469923E0,0E0,0E0,0E0,0E0,0E0,0E0,0E0,0E0,0E0,0E0,0E0,0E0,0E0,0E0],"parents":[2147483647,0,0,1,1,2,2,3,3,4,4,5,5,6,6,8,8,9,9,10,10,11,11,12,12,13,13,14,14],"right_children":[2,4,6,8,10,12,14,-1,16,18,20,22,24,26,28,-1,-1,-1,-1,-1,-1,-1,-1,-1,-1,-1,-1,-1,-1],"split_conditions":[1.3067857E2,1.7071428E0,3.200705E1,-1.15278335E-2,3.6335436E-1,3.6223477E-1,-1.4463814E-2,-6.1919303E-3,5.675509E0,3.5713363E-1,1.6721974E-1,1.16350765E1,3.7368424E-2,1.784E2,9.388807E1,-1.7388484E-2,-6.2686376E-2,-3.6258325E-3,-3.263402E-2,2.848323E-2,-4.6515387E-2,6.304547E-2,-2.8070113E-2,-3.27315E-2,6.551365E-2,-2.838926E-2,5.6566782E-2,7.312383E-2,-7.719157E-3],"split_indices":[2,2,0,5,9,9,1,0,0,9,5,0,1,2,0,0,0,0,0,0,0,0,0,0,0,0,0,0,0],"split_type":[0,0,0,0,0,0,0,0,0,0,0,0,0,0,0,0,0,0,0,0,0,0,0,0,0,0,0,0,0],"sum_hessian":[2.2713757E2,1.7508148E2,5.2056095E1,1.4375245E1,1.6070624E2,2.6148817E1,2.5907278E1,1.0814044E0,1.329384E1,1.1996619E2,4.074005E1,1.5619393E1,1.0529425E1,1.0997576E1,1.4909702E1,1.1113008E0,1.218254E1,8.822706E1,3.1739128E1,3.572578E1,5.0142694E0,1.377891E0,1.4241502E1,2.5391784E0,7.9902463E0,4.8817935E0,6.1157827E0,1.3648551E1,1.2611514E0],"tree_param":{"num_deleted":"0","num_feature":"14","num_nodes":"29","size_leaf_vector":"1"}},{"base_weights":[-1.4024086E-3,-8.113318E-1,1.081341E-1,1.2712978E-1,-5.6813926E-2,1.4358033E0,5.8812965E-2,-3.0597255E-1,5.806498E-2,8.393187E-2,7.4089016E-3,-1.04697414E-1,5.0901747E-1,-4.1646346E-2,3.8646095E-2,3.5170135E-3,-2.7450824E-2,1.6269974E-2,6.466132E-2],"categories":[],"categories_nodes":[],"categories_segments":[],"categories_sizes":[],"default_left":[0,0,0,0,0,0,0,0,0,0,0,0,0,0,0,0,0,0,0],"id":5,"left_children":[1,3,5,7,-1,9,11,13,-1,-1,-1,15,17,-1,-1,-1,-1,-1,-1],"loss_changes":[2.0290674E1,8.453268E0,1.310873E1,3.89694E0,0E0,1.9943666E0,1.4430198E1,4.2622476E0,0E0,0E0,0E0,1.1245553E1,7.096404E0,0E0,0E0,0E0,0E0,0E0,0E0],"parents":[2147483647,0,0,1,1,2,2,3,3,5,5,6,6,7,7,11,11,12,12],"right_children":[2,4,6,8,-1,10,12,14,-1,-1,-1,16,18,-1,-1,-1,-1,-1,-1],"split_conditions":[3.8214285E0,-1.4169043E-3,2.1096548E-1,3.640341E-1,-5.6813926E-2,-4.034142E-2,1.3067857E2,1.3454257E-2,5.806498E-2,8.393187E-2,7.4089016E-3,3.9288297E-1,4E0,-4.1646346E-2,3.8646095E-2,3.5170135E-3,-2.7450824E-2,1.6269974E-2,6.466132E-2],"split_indices":[2,5,10,9,0,1,2,1,0,0,0,11,8,0,0,0,0,0,0],"split_type":[0,0,0,0,0,0,0,0,0,0,0,0,0,0,0,0,0,0,0],"sum_hessian":[2.267239E2,2.6246487E1,2.0047742E2,6.9071302E0,1.9339357E1,6.1738205E0,1.943036E2,5.36461E0,1.5425203E0,4.9387493E0,1.2350712E0,1.430988E2,5.1204803E1,3.7573993E0,1.6072106E0,1.0326118E2,3.9837627E1,4.263662E1,8.568181E0],"tree_param":{"num_deleted":"0","num_feature":"14","num_nodes":"19","size_leaf_vector":"1"}},{"base_weights":[-7.474091E-4,-7.796993E-1,1.0347213E-1,1.278555E-1,-5.489259E-2,-4.1718844E-2,5.102254E-1,-4.0535134E-1,9.4159675E-1,-9.109056E-1,3.8807917E-2,-5.978578E-2,6.1719E-1,2.7444536E-2,-4.745209E-2,5.710904E-2,1.1443769E-2,-5.9926134E-2,3.9182793E-2,4.6854477E-2,-4.1222507E-3,1.0209161E-2,5.0596118E-2],"categories":[],"categories_nodes":[],"categories_segments":[],"categories_sizes":[],"default_left":[0,0,0,0,0,0,0,0,0,0,0,0,0,0,0,0,0,0,0,0,0,0,0],"id":6,"left_children":[1,3,5,7,-1,9,11,13,15,17,19,-1,21,-1,-1,-1,-1,-1,-1,-1,-1,-1,-1],"loss_changes":[1.8539015E1,7.9214E0,1.1916626E1,3.805317E0,0E0,1.0489569E1,1.0420175E1,3.3567576E0,2.2815228E-1,7.1316013E0,1.5070658E1,0E0,8.040798E0,0E0,0E0,0E0,0E0,0E0,0E0,0E0,0E0,0E0,0E0],"parents":[2147483647,0,0,1,1,2,2,3,3,5,5,6,6,7,7,8,8,9,9,10,10,12,12],"right_children":[2,4,6,8,-1,10,12,14,16,18,20,-1,22,-1,-1,-1,-1,-1,-1,-1,-1,-1,-1],"split_conditions":[3.8214285E0,-1.4169043E-3,1.3067857E2,6.467425E-1,-5.489259E-2,-3.9545146E-1,2.180136E-1,3.291474E-1,-8.980592E-3,1.8325067E0,-1.7682971E-1,-5.978578E-2,3.200705E1,2.7444536E-2,-4.745209E-2,5.710904E-2,1.1443769E-2,-5.9926134E-2,3.9182793E-2,4.6854477E-2,-4.1222507E-3,1.0209161E-2,5.0596118E-2],"split_indices":[2,5,2,6,0,5,6,6,1,6,5,0,0,0,0,0,0,0,0,0,0,0,0],"split_type":[0,0,0,0,0,0,0,0,0,0,0,0,0,0,0,0,0,0,0,0,0,0,0],"sum_hessian":[2.2636983E2,2.5948166E1,2.0042166E2,6.890527E0,1.9057638E1,1.4836136E2,5.2060295E1,4.4660187E0,2.4245076E0,1.1705299E1,1.3665607E2,2.471093E0,4.9589203E1,1.617517E0,2.848502E0,1.4218014E0,1.0027062E0,1.02570915E1,1.4482074E0,1.5452257E1,1.21203804E2,2.4975117E1,2.4614086E1],"tree_param":{"num_deleted":"0","num_feature":"14","num_nodes":"23","size_leaf_vector":"1"}},{"base_weights":[-7.0375454E-4,-2.2281785E-1,2.6960945E-1,3.9736262E-1,-4.45318E-1,3.886826E-1,-4.589626E-1,7.101496E-1,-7.931833E-1,-1.19834E0,-3.6773473E-1,-8.56612E-1,4.5871192E-1,-7.5606346E-1,6.308198E-2,8.183331E-2,1.8596988E-2,-6.3563265E-2,-9.508896E-3,-1.659736E-2,-7.1666926E-2,3.7401266E-2,-2.8114632E-2,-6.0168423E-2,2.7522503E-4,5.435369E-2,1.1505635E-2,3.252165E-2,-5.3761315E-2],"categories":[],"categories_nodes":[],"categories_segments":[],"categories_sizes":[],"default_left":[0,0,0,0,0,0,0,0,0,0,0,0,0,0,0,0,0,0,0,0,0,0,0,0,0,0,0,0,0],"id":7,"left_children":[1,3,5,7,9,11,13,15,17,19,21,23,25,27,-1,-1,-1,-1,-1,-1,-1,-1,-1,-1,-1,-1,-1,-1,-1],"loss_changes":[1.3686266E1,1.7443642E1,9.098432E0,1.3063402E1,4.9669952E0,8.147257E0,8.571825E0,7.8866844E0,1.907845E0,1.1943684E0,1.895036E1,1.5261161E0,1.1935884E1,6.684686E0,0E0,0E0,0E0,0E0,0E0,0E0,0E0,0E0,0E0,0E0,0E0,0E0,0E0,0E0,0E0],"parents":[2147483647,0,0,1,1,2,2,3,3,4,4,5,5,6,6,7,7,8,8,9,9,10,10,11,11,12,12,13,13],"right_children":[2,4,6,8,10,12,14,16,18,20,22,24,26,28,-1,-1,-1,-1,-1,-1,-1,-1,-1,-1,-1,-1,-1,-1,-1],"split_conditions":[1.1397635E-1,-5.9615802E-2,1.8503305E-1,1.4270994E-2,-3.9545146E-1,-4.312369E-1,3.573095E1,2.2254324E-1,8.364826E-2,5.3579813E-1,-1.8478966E-1,6.256048E-1,3.679909E-1,2.3620394E-1,6.308198E-2,8.183331E-2,1.8596988E-2,-6.3563265E-2,-9.508896E-3,-1.659736E-2,-7.1666926E-2,3.7401266E-2,-2.8114632E-2,-6.0168423E-2,2.7522503E-4,5.435369E-2,1.1505635E-2,3.252165E-2,-5.3761315E-2],"split_indices":[1,1,5,5,5,5,0,10,5,6,5,6,11,10,0,0,0,0,0,0,0,0,0,0,0,0,0,0,0],"split_type":[0,0,0,0,0,0,0,0,0,0,0,0,0,0,0,0,0,0,0,0,0,0,0,0,0,0,0,0,0],"sum_hessian":[2.2595047E2,1.24129776E2,1.01820694E2,3.256754E1,9.156224E1,8.791839E1,1.3902306E1,2.6111013E1,6.456524E0,7.203112E0,8.435912E1,4.0828586E0,8.3835526E1,1.233327E1,1.5690359E0,5.955869E0,2.0155146E1,2.9831622E0,3.4733615E0,2.0516472E0,5.151465E0,1.2103372E1,7.225575E1,2.6294312E0,1.4534276E0,2.1361835E1,6.2473694E1,2.0890863E0,1.0244184E1],"tree_param":{"num_deleted":"0","num_feature":"14","num_nodes":"29","size_leaf_vector":"1"}},{"base_weights":[-7.6576043E-4,-2.1288392E-1,2.564772E-1,3.7785545E-1,-4.260331E-1,1.3384205E-1,7.638631E-1,-1.08943045E-1,9.493786E-1,-4.9850526E-1,2.7723372E-1,-1.2837791E-1,5.380003E-1,1.0629673E0,-6.160963E-1,7.8844205E-2,-2.8100073E-2,6.0104918E-2,-1.7979365E-2,-4.4293035E-2,-1.4872518E-2,3.3074003E-2,-4.7703955E-2,7.5257234E-2,-1.2155865E-2,3.7228916E-2,-2.4193527E-2,6.51521E-2,-1.0242778E-2,1.2438984E-2,-5.5404652E-2],"categories":[],"categories_nodes":[],"categories_segments":[],"categories_sizes":[],"default_left":[0,0,0,0,0,0,0,0,0,0,0,0,0,0,0,0,0,0,0,0,0,0,0,0,0,0,0,0,0,0,0],"id":8,"left_children":[1,3,5,7,9,11,13,15,17,19,21,23,25,27,29,-1,-1,-1,-1,-1,-1,-1,-1,-1,-1,-1,-1,-1,-1,-1,-1],"loss_changes":[1.241735E1,1.5865211E1,6.2971344E0,9.451299E0,4.8333607E0,8.975335E0,8.830112E0,1.5429763E1,5.578759E0,6.2684364E0,5.007002E0,1.0070403E1,7.3817205E0,5.3332863E0,2.046404E0,0E0,0E0,0E0,0E0,0E0,0E0,0E0,0E0,0E0,0E0,0E0,0E0,0E0,0E0,0E0,0E0],"parents":[2147483647,0,0,1,1,2,2,3,3,4,4,5,5,6,6,7,7,8,8,9,9,10,10,11,11,12,12,13,13,14,14],"right_children":[2,4,6,8,10,12,14,16,18,20,22,24,26,28,30,-1,-1,-1,-1,-1,-1,-1,-1,-1,-1,-1,-1,-1,-1,-1,-1],"split_conditions":[1.1397635E-1,-5.9615802E-2,2.8027868E-1,-1E0,5E0,3.6335436E-1,3.534801E-1,2.1096548E-1,3.584499E-1,-3.6336988E-1,3.6785042E-1,3.5053846E-1,3.247982E-1,8.709006E-1,-2.8360063E-1,7.8844205E-2,-2.8100073E-2,6.0104918E-2,-1.7979365E-2,-4.4293035E-2,-1.4872518E-2,3.3074003E-2,-4.7703955E-2,7.5257234E-2,-1.2155865E-2,3.7228916E-2,-2.4193527E-2,6.51521E-2,-1.0242778E-2,1.2438984E-2,-5.5404652E-2],"split_indices":[1,1,10,8,8,9,10,10,10,7,9,9,1,7,7,0,0,0,0,0,0,0,0,0,0,0,0,0,0,0,0],"split_type":[0,0,0,0,0,0,0,0,0,0,0,0,0,0,0,0,0,0,0,0,0,0,0,0,0,0,0,0,0,0,0],"sum_hessian":[2.2556546E2,1.23720276E2,1.01845184E2,3.2599255E1,9.112102E1,8.303855E1,1.8806631E1,1.8041594E1,1.4557663E1,8.287214E1,8.248878E0,5.0776714E1,3.2261837E1,1.5645255E1,3.161376E0,3.2961419E0,1.4745452E1,1.22703E1,2.2873628E0,2.7152897E1,5.5719246E1,6.6396713E0,1.6092064E0,2.5371962E0,4.8239517E1,2.706236E1,5.1994786E0,1.3130994E1,2.5142612E0,1.3255508E0,1.8358251E0],"tree_param":{"num_deleted":"0","num_feature":"14","num_nodes":"31","size_leaf_vector":"1"}},{"base_weights":[-3.1090798E-4,-1.0089637E0,6.837543E-2,-3.2940865E-3,-1.0782317E0,-5.946661E-2,4.5545083E-1,-1.3259323E-2,-5.6318402E-2,-8.428492E-1,6.670265E-3,-5.7309568E-2,5.550036E-1,-5.611484E-2,3.7988987E-2,4.3576516E-2,-5.179136E-3,8.788881E-3,4.598726E-2],"categories":[],"categories_nodes":[],"categories_segments":[],"categories_sizes":[],"default_left":[0,0,0,0,0,0,0,0,0,0,0,0,0,0,0,0,0,0,0],"id":9,"left_children":[1,3,5,-1,7,9,11,-1,-1,13,15,-1,17,-1,-1,-1,-1,-1,-1],"loss_changes":[1.5730408E1,8.7460613E-1,1.0546584E1,0E0,2.2653484E-1,8.330896E0,9.07007E0,0E0,0E0,6.4587507E0,1.4314086E1,0E0,6.819726E0,0E0,0E0,0E0,0E0,0E0,0E0],"parents":[2147483647,0,0,1,1,2,2,4,4,5,5,6,6,9,9,10,10,12,12],"right_children":[2,4,6,-1,8,10,12,-1,-1,14,16,-1,18,-1,-1,-1,-1,-1,-1],"split_conditions":[1.7071428E0,-1.15278335E-2,1.3067857E2,-3.2940865E-3,5.675509E0,-3.9545146E-1,2.180136E-1,-1.3259323E-2,-5.6318402E-2,1.8325067E0,-1.7682971E-1,-5.7309568E-2,3.200705E1,-5.611484E-2,3.7988987E-2,4.3576516E-2,-5.179136E-3,8.788881E-3,4.598726E-2],"split_indices":[2,5,2,0,0,5,6,0,0,6,5,0,0,0,0,0,0,0,0],"split_type":[0,0,0,0,0,0,0,0,0,0,0,0,0,0,0,0,0,0,0],"sum_hessian":[2.2505756E2,1.3475888E1,2.1158167E2,1.0555602E0,1.2420328E1,1.5968709E2,5.189458E1,1.0580719E0,1.1362256E1,1.151768E1,1.481694E2,2.421598E0,4.947298E1,1.0062768E1,1.4549121E0,1.5972346E1,1.3219707E2,2.4981428E1,2.4491554E1],"tree_param":{"num_deleted":"0","num_feature":"14","num_nodes":"19","size_leaf_vector":"1"}},{"base_weights":[-5.902229E-4,-9.805051E-1,6.50939E-2,-3.2108247E-3,-1.0489718E0,-5.6453303E-2,4.333754E-1,-1.29478425E-2,-5.4813053E-2,-6.923069E-1,2.5014177E-2,-5.5855215E-2,5.289493E-1,-4.333899E-2,4.988622E-2,5.330356E-3,-4.469531E-2,8.361004E-3,4.390455E-2],"categories":[],"categories_nodes":[],"categories_segments":[],"categories_sizes":[],"default_left":[0,0,0,0,0,0,0,0,0,0,0,0,0,0,0,0,0,0,0],"id":10,"left_children":[1,3,5,-1,7,9,11,-1,-1,13,15,-1,17,-1,-1,-1,-1,-1,-1],"loss_changes":[1.4582513E1,8.2551E-1,9.529393E0,0E0,2.0842457E-1,8.333065E0,8.415799E0,0E0,0E0,6.2510166E0,1.0836908E1,0E0,6.2206326E0,0E0,0E0,0E0,0E0,0E0,0E0],"parents":[2147483647,0,0,1,1,2,2,4,4,5,5,6,6,9,9,10,10,12,12],"right_children":[2,4,6,-1,8,10,12,-1,-1,14,16,-1,18,-1,-1,-1,-1,-1,-1],"split_conditions":[1.7071428E0,-1.15278335E-2,1.3067857E2,-3.2108247E-3,5.675509E0,-5.528577E-1,2.180136E-1,-1.29478425E-2,-5.4813053E-2,5E0,3.5467058E-1,-5.5855215E-2,3.200705E1,-4.333899E-2,4.988622E-2,5.330356E-3,-4.469531E-2,8.361004E-3,4.390455E-2],"split_indices":[2,5,2,0,0,7,6,0,0,8,10,0,0,0,0,0,0,0,0],"split_type":[0,0,0,0,0,0,0,0,0,0,0,0,0,0,0,0,0,0,0],"sum_hessian":[2.2456857E2,1.3232386E1,2.1133618E2,1.0547391E0,1.2177647E1,1.5953136E2,5.1804836E1,1.0535225E0,1.1124124E1,1.7266714E1,1.4226463E2,2.3873224E0,4.941751E1,1.6092503E1,1.174212E0,1.314747E2,1.0789939E1,2.4997614E1,2.4419899E1],"tree_param":{"num_deleted":"0","num_feature":"14","num_nodes":"19","size_leaf_vector":"1"}},{"base_weights":[-1.0944282E-3,-9.534339E-1,6.1726168E-2,-5.1636178E-2,-1.5730906E-2,-5.3937797E-2,4.1254175E-1,-1.7168991E-1,3.601313E-1,-5.4487195E-2,5.0434685E-1,-1.4167129E-3,-2.4885017E-2,3.6539696E-2,-6.499675E-3,1.3043388E-2,4.9544267E-2],"categories":[],"categories_nodes":[],"categories_segments":[],"categories_sizes":[],"default_left":[0,0,0,0,0,0,0,0,0,0,0,0,0,0,0,0,0],"id":11,"left_children":[1,3,5,-1,-1,7,9,11,13,-1,15,-1,-1,-1,-1,-1,-1],"loss_changes":[1.3521432E1,3.835001E-1,8.626177E0,0E0,0E0,7.880078E0,7.8166637E0,5.8522825E0,6.603598E0,0E0,5.704934E0,0E0,0E0,0E0,0E0,0E0,0E0],"parents":[2147483647,0,0,1,1,2,2,5,5,6,6,7,7,8,8,10,10],"right_children":[2,4,6,-1,-1,8,10,12,14,-1,16,-1,-1,-1,-1,-1,-1],"split_conditions":[1.7071428E0,3.6997947E-1,1.3067857E2,-5.1636178E-2,-1.5730906E-2,3.6507756E-1,2.180136E-1,3.5713363E-1,2.5105392E1,-5.4487195E-2,5.8796295E1,-1.4167129E-3,-2.4885017E-2,3.6539696E-2,-6.499675E-3,1.3043388E-2,4.9544267E-2],"split_indices":[2,10,2,0,0,9,6,9,0,0,0,0,0,0,0,0,0],"split_type":[0,0,0,0,0,0,0,0,0,0,0,0,0,0,0,0,0],"sum_hessian":[2.2402693E2,1.2986024E1,2.1104091E2,1.1003634E1,1.9823893E0,1.5934958E2,5.1691334E1,1.2452326E2,3.4826313E1,2.350926E0,4.934041E1,8.724581E1,3.727745E1,1.9550205E1,1.5276108E1,3.3907967E1,1.543244E1],"tree_param":{"num_deleted":"0","num_feature":"14","num_nodes":"17","size_leaf_vector":"1"}},{"base_weights":[-1.3212244E-3,-9.268484E-1,5.8771927E-2,-2.142314E-3,-9.96098E-1,-5.1286455E-2,3.9309913E-1,-1.15116E-2,-5.2203268E-2,5.8284E-3,-8.9052165E-1,-5.3196937E-2,4.8134232E-1,-7.289448E-3,2.2262312E-2,-6.325247E-2,4.343772E-2,7.3212027E-3,4.0404256E-2],"categories":[],"categories_nodes":[],"categories_segments":[],"categories_sizes":[],"default_left":[0,0,0,0,0,0,0,0,0,0,0,0,0,0,0,0,0,0,0],"id":12,"left_children":[1,3,5,-1,7,9,11,-1,-1,13,15,-1,17,-1,-1,-1,-1,-1,-1],"loss_changes":[1.2540269E1,7.9886246E-1,7.8114524E0,0E0,2.2629833E-1,7.6834726E0,7.269594E0,0E0,0E0,1.0123367E1,7.828741E0,0E0,5.3800335E0,0E0,0E0,0E0,0E0,0E0,0E0],"parents":[2147483647,0,0,1,1,2,2,4,4,5,5,6,6,9,9,10,10,12,12],"right_children":[2,4,6,-1,8,10,12,-1,-1,14,16,-1,18,-1,-1,-1,-1,-1,-1],"split_conditions":[1.7071428E0,-1.15278335E-2,1.3067857E2,-2.142314E-3,5.675509E0,2.0111015E-1,2.180136E-1,-1.15116E-2,-5.2203268E-2,3.6335436E-1,5.462185E1,-5.3196937E-2,3.200705E1,-7.289448E-3,2.2262312E-2,-6.325247E-2,4.343772E-2,7.3212027E-3,4.0404256E-2],"split_indices":[2,5,2,0,0,5,6,0,0,9,0,0,0,0,0,0,0,0,0],"split_type":[0,0,0,0,0,0,0,0,0,0,0,0,0,0,0,0,0,0,0],"sum_hessian":[2.2349261E2,1.2746917E1,2.1074571E2,1.0436007E0,1.1703317E1,1.5918848E2,5.1557228E1,1.0316323E0,1.0671684E1,1.4997487E2,9.21361E0,2.3127694E0,4.924446E1,1.1199885E2,3.7976017E1,7.8280444E0,1.3855658E0,2.5033117E1,2.4211344E1],"tree_param":{"num_deleted":"0","num_feature":"14","num_nodes":"19","size_leaf_vector":"1"}},{"base_weights":[-1.6420193E-3,-9.020037E-1,5.5859827E-2,-4.907539E-2,-1.4086868E-2,1.0182065E0,1.8510373E-2,-3.5394516E-2,1.3848032E0,1.6982521E-1,-3.0341652E-1,4.4330023E-3,8.3084695E-2,-2.2628854E-3,2.652581E-2,-2.2817863E-2,2.2767132E-2],"categories":[],"categories_nodes":[],"categories_segments":[],"categories_sizes":[],"default_left":[0,0,0,0,0,0,0,0,0,0,0,0,0,0,0,0,0],"id":13,"left_children":[1,3,5,-1,-1,7,9,-1,11,13,15,-1,-1,-1,-1,-1,-1],"loss_changes":[1.1642223E1,3.8917446E-1,7.5795417E0,0E0,0E0,5.9663353E0,1.001421E1,0E0,2.3065853E0,1.0867016E1,7.8380694E0,0E0,0E0,0E0,0E0,0E0,0E0],"parents":[2147483647,0,0,1,1,2,2,5,5,6,6,8,8,9,9,10,10],"right_children":[2,4,6,-1,-1,8,10,-1,12,14,16,-1,-1,-1,-1,-1,-1],"split_conditions":[1.7071428E0,3.6997947E-1,2.1096548E-1,-4.907539E-2,-1.4086868E-2,4.6714287E0,3.8868013E-1,-3.5394516E-2,3.884845E-1,8.6904216E-1,3.5227555E-1,4.4330023E-3,8.3084695E-2,-2.2628854E-3,2.652581E-2,-2.2817863E-2,2.2767132E-2],"split_indices":[2,10,10,0,0,2,11,0,11,6,10,0,0,0,0,0,0],"split_type":[0,0,0,0,0,0,0,0,0,0,0,0,0,0,0,0,0],"sum_hessian":[2.228997E2,1.2499319E1,2.1040039E2,1.0562986E1,1.9363332E0,6.879573E0,2.0352081E2,1.042071E0,5.837502E0,1.3876825E2,6.475257E1,1.2599224E0,4.5775795E0,8.7478584E1,5.1289658E1,5.4221794E1,1.0530772E1],"tree_param":{"num_deleted":"0","num_feature":"14","num_nodes":"17","size_leaf_vector":"1"}},{"base_weights":[-1.5454219E-3,-2.5427067E-1,1.4144817E-1,1.7811399E-3,-8.4020954E-1,-2.092715E-2,6.0628146E-1,-2.0627105E-1,1.6137203E0,-9.445243E-1,1.4471254E-2,9.2094496E-2,-9.2210454E-1,1.0762837E0,9.911584E-2,1.8961126E-2,-2.3854693E-2,8.989387E-2,1.6192004E-2,-5.4309603E-2,3.4585737E-3,7.861931E-2,2.997655E-4,1.688749E-2,-6.4311035E-2,6.548944E-2,1.06924735E-2,-4.5814425E-2,2.9971639E-2],"categories":[],"categories_nodes":[],"categories_segments":[],"categories_sizes":[],"default_left":[0,0,0,0,0,0,0,0,0,0,0,0,0,0,0,0,0,0,0,0,0,0,0,0,0,0,0,0,0],"id":14,"left_children":[1,3,5,7,9,11,13,15,17,19,-1,21,23,25,27,-1,-1,-1,-1,-1,-1,-1,-1,-1,-1,-1,-1,-1,-1],"loss_changes":[8.113662E0,1.2173162E1,1.08357935E1,1.9601233E1,3.1808128E0,1.1007475E1,8.750239E0,8.390352E0,1.0048428E0,3.3525639E0,0E0,1.22511215E1,5.958226E0,3.583088E0,1.0188013E1,0E0,0E0,0E0,0E0,0E0,0E0,0E0,0E0,0E0,0E0,0E0,0E0,0E0,0E0],"parents":[2147483647,0,0,1,1,2,2,3,3,4,4,5,5,6,6,7,7,8,8,9,9,11,11,12,12,13,13,14,14],"right_children":[2,4,6,8,10,12,14,16,18,20,-1,22,24,26,28,-1,-1,-1,-1,-1,-1,-1,-1,-1,-1,-1,-1,-1,-1],"split_conditions":[6.28295E-1,4.9706265E-1,3.6925224E1,4.7479033E-1,3.9875114E-1,1.7706934E-1,7.6947464E1,-1.15278335E-2,2E0,7.059316E-2,1.4471254E-2,2.1096548E-1,2.3620394E-1,9.057733E-1,-1.1880679E-1,1.8961126E-2,-2.3854693E-2,8.989387E-2,1.6192004E-2,-5.4309603E-2,3.4585737E-3,7.861931E-2,2.997655E-4,1.688749E-2,-6.4311035E-2,6.548944E-2,1.06924735E-2,-4.5814425E-2,2.9971639E-2],"split_indices":[6,6,0,6,11,5,0,5,8,5,0,10,10,7,5,0,0,0,0,0,0,0,0,0,0,0,0,0,0],"split_type":[0,0,0,0,0,0,0,0,0,0,0,0,0,0,0,0,0,0,0,0,0,0,0,0,0,0,0,0,0],"sum_hessian":[2.2252304E2,8.012782E1,1.4239522E2,5.6454502E1,2.3673325E1,1.06238884E2,3.615633E1,5.077326E1,5.6812444E0,2.182206E1,1.851264E0,9.519745E1,1.1041432E1,1.8183292E1,1.797304E1,1.5931211E1,3.4842045E1,4.626835E0,1.054409E0,1.9083546E1,2.738514E0,4.2838197E0,9.0913635E1,2.4918742E0,8.549559E0,1.3900897E1,4.2823954E0,5.658194E0,1.2314846E1],"tree_param":{"num_deleted":"0","num_feature":"14","num_nodes":"29","size_leaf_vector":"1"}},{"base_weights":[-8.311222E-4,-8.727301E-1,5.378171E-2,-1.0502905E-3,-9.430242E-1,-5.82706E-1,1.0754551E-1,-4.2668247E-1,-5.1886346E-2,8.028048E-1,-1.0833981E0,-2.2259943E-2,5.370293E-1,-1.9812824E-3,-2.8825441E-2,6.6200845E-2,-1.8022209E-3,-6.320409E-2,1.5829742E-2,6.014823E-3,-2.3595788E-2,4.706446E-2,-2.1638882E-3],"categories":[],"categories_nodes":[],"categories_segments":[],"categories_sizes":[],"default_left":[0,0,0,0,0,0,0,0,0,0,0,0,0,0,0,0,0,0,0,0,0,0,0],"id":15,"left_children":[1,3,5,-1,7,9,11,13,-1,15,17,19,21,-1,-1,-1,-1,-1,-1,-1,-1,-1,-1],"loss_changes":[1.0671386E1,7.710886E-1,7.280132E0,0E0,1.5281105E-1,1.237425E1,1.0901458E1,1.8511283E-1,0E0,2.2235727E0,3.5892982E0,9.733239E0,1.0685217E1,0E0,0E0,0E0,0E0,0E0,0E0,0E0,0E0,0E0,0E0],"parents":[2147483647,0,0,1,1,2,2,4,4,5,5,6,6,7,7,9,9,10,10,11,11,12,12],"right_children":[2,4,6,-1,8,10,12,14,-1,16,18,20,22,-1,-1,-1,-1,-1,-1,-1,-1,-1,-1],"split_conditions":[1.7071428E0,-1.15278335E-2,-4.0334576E-1,-1.0502905E-3,1.0357143E0,-9.6290775E-2,3.6335436E-1,-2.4591815E-3,-5.1886346E-2,-6.110609E-1,3.7644312E-1,3.5713363E-1,9.3984855E-3,-1.9812824E-3,-2.8825441E-2,6.6200845E-2,-1.8022209E-3,-6.320409E-2,1.5829742E-2,6.014823E-3,-2.3595788E-2,4.706446E-2,-2.1638882E-3],"split_indices":[2,5,5,0,2,1,9,1,0,5,9,9,5,0,0,0,0,0,0,0,0,0,0],"split_type":[0,0,0,0,0,0,0,0,0,0,0,0,0,0,0,0,0,0,0,0,0,0,0],"sum_hessian":[2.2212363E2,1.2209972E1,2.0991365E2,1.0299027E0,1.1180069E1,1.5583905E1,1.9432974E2,2.5860105E0,8.594059E0,3.9765742E0,1.1607331E1,1.4995586E2,4.4373886E1,1.0745438E0,1.5114666E0,2.0959194E0,1.8806549E0,1.0366506E1,1.2408252E0,1.1441487E2,3.554099E1,2.5787477E1,1.8586407E1],"tree_param":{"num_deleted":"0","num_feature":"14","num_nodes":"23","size_leaf_vector":"1"}},{"base_weights":[-1.0239545E-3,-6.0723054E-1,7.405858E-2,2.0959142E-1,-9.188259E-1,1.1438352E0,3.371966E-2,-3.630279E-2,5.615226E-1,-1.011937E0,-4.7868863E-1,6.817798E-2,3.0256638E-3,-8.6494714E-2,4.1233248E-1,-2.1127213E-2,5.1053833E-2,-1.6714629E-2,-5.5096287E-2,1.7084463E-2,-3.9859604E-2,-1.91535E-2,6.7220475E-3,4.02962E-2,-9.974926E-3],"categories":[],"categories_nodes":[],"categories_segments":[],"categories_sizes":[],"default_left":[0,0,0,0,0,0,0,0,0,0,0,0,0,0,0,0,0,0,0,0,0,0,0,0,0],"id":16,"left_children":[1,3,5,7,9,11,13,-1,15,17,19,-1,-1,21,23,-1,-1,-1,-1,-1,-1,-1,-1,-1,-1],"loss_changes":[1.01796465E1,6.4658756E0,8.549711E0,2.916957E0,2.5438976E-1,1.6316528E0,8.811583E0,0E0,3.1906977E0,4.842558E-1,1.5907389E0,0E0,0E0,9.694961E0,1.1392389E1,0E0,0E0,0E0,0E0,0E0,0E0,0E0,0E0,0E0,0E0],"parents":[2147483647,0,0,1,1,2,2,3,3,4,4,5,5,6,6,8,8,9,9,10,10,13,13,14,14],"right_children":[2,4,6,8,10,12,14,-1,16,18,20,-1,-1,22,24,-1,-1,-1,-1,-1,-1,-1,-1,-1,-1],"split_conditions":[3.8214285E0,-1.4169043E-3,2.1096548E-1,4.323308E1,3E0,4.8601445E-2,2.8130364E-1,-3.630279E-2,-4.921676E-1,1.0357143E0,3.5639456E-1,6.817798E-2,3.0256638E-3,1.12950966E-1,3.5424355E-1,-2.1127213E-2,5.1053833E-2,-1.6714629E-2,-5.5096287E-2,1.7084463E-2,-3.9859604E-2,-1.91535E-2,6.7220475E-3,4.02962E-2,-9.974926E-3],"split_indices":[2,5,10,0,8,5,10,0,7,2,9,0,0,1,10,0,0,0,0,0,0,0,0,0,0],"split_type":[0,0,0,0,0,0,0,0,0,0,0,0,0,0,0,0,0,0,0,0,0,0,0,0,0],"sum_hessian":[2.2166418E2,2.3647758E1,1.9801643E2,6.620366E0,1.7027391E1,6.2014008E0,1.9181503E2,1.5189666E0,5.1013994E0,1.2981922E1,4.0454698E0,4.9406347E0,1.2607663E0,1.4617436E2,4.5640667E1,1.6495874E0,3.451812E0,2.0745668E0,1.0907355E1,1.1110116E0,2.934458E0,6.209143E1,8.408293E1,2.7580723E1,1.8059944E1],"tree_param":{"num_deleted":"0","num_feature":"14","num_nodes":"25","size_leaf_vector":"1"}},{"base_weights":[-1.0719495E-3,-5.885659E-1,7.087513E-2,1.9839096E-1,-8.931447E-1,1.1007597E0,3.2148037E-2,-3.5459917E-2,5.3752506E-1,-9.84707E-1,-4.6335807E-1,6.573517E-2,2.341907E-3,1.9085945E-1,-2.3781459E-1,4.4557426E-2,-2.1484945E-2,-1.6236626E-2,-5.366495E-2,1.6586697E-2,-3.8862765E-2,-3.198898E-2,1.3993149E-2,-1.767224E-2,2.2382764E-2],"categories":[],"categories_nodes":[],"categories_segments":[],"categories_sizes":[],"default_left":[0,0,0,0,0,0,0,0,0,0,0,0,0,0,0,0,0,0,0,0,0,0,0,0,0],"id":17,"left_children":[1,3,5,7,9,11,13,-1,15,17,19,-1,-1,21,23,-1,-1,-1,-1,-1,-1,-1,-1,-1,-1],"loss_changes":[9.4313755E0,6.0122194E0,7.893613E0,2.723875E0,2.4155712E-1,1.5561295E0,8.298623E0,0E0,2.472609E0,4.5422173E-1,1.506506E0,0E0,0E0,9.188326E0,5.8461723E0,0E0,0E0,0E0,0E0,0E0,0E0,0E0,0E0,0E0,0E0],"parents":[2147483647,0,0,1,1,2,2,3,3,4,4,5,5,6,6,8,8,9,9,10,10,13,13,14,14],"right_children":[2,4,6,8,10,12,14,-1,16,18,20,-1,-1,22,24,-1,-1,-1,-1,-1,-1,-1,-1,-1,-1],"split_conditions":[3.8214285E0,-1.4169043E-3,2.1096548E-1,4.323308E1,3E0,-4.034142E-2,3.8720584E-1,-3.5459917E-2,3.5467058E-1,1.0357143E0,3.5639456E-1,6.573517E-2,2.341907E-3,-4.0334576E-1,3.5195157E-1,4.4557426E-2,-2.1484945E-2,-1.6236626E-2,-5.366495E-2,1.6586697E-2,-3.8862765E-2,-3.198898E-2,1.3993149E-2,-1.767224E-2,2.2382764E-2],"split_indices":[2,5,10,0,8,1,11,0,10,2,9,0,0,5,10,0,0,0,0,0,0,0,0,0,0],"split_type":[0,0,0,0,0,0,0,0,0,0,0,0,0,0,0,0,0,0,0,0,0,0,0,0,0],"sum_hessian":[2.2114337E2,2.3344015E1,1.9779936E2,6.611127E0,1.6732887E1,6.1745167E0,1.9162485E2,1.5015316E0,5.1095953E0,1.2729771E1,4.0031176E0,4.9269238E0,1.2475929E0,1.2086258E2,7.076227E1,3.7992268E0,1.3103688E0,2.058707E0,1.0671063E1,1.1169909E0,2.8861265E0,1.1098246E1,1.09764336E2,6.096295E1,9.7993145E0],"tree_param":{"num_deleted":"0","num_feature":"14","num_nodes":"25","size_leaf_vector":"1"}},{"base_weights":[-1.2934061E-3,-1.728226E-1,2.0219885E-1,2.9880673E-1,-3.469593E-1,3.0483904E-1,-4.322008E-1,5.767882E-1,-7.639869E-1,-1.0589387E0,-2.7438483E-1,-4.6831223E-1,4.0291426E-1,-7.0004606E-1,5.7183653E-2,6.8203025E-2,1.4529879E-2,-1.1151144E-2,-6.034826E-2,-1.0772251E-2,-6.5260746E-2,3.285598E-2,-2.230881E-2,-6.586433E-2,1.1033283E-2,-4.909889E-2,2.4088329E-2,-5.9609976E-2,1.1052466E-2],"categories":[],"categories_nodes":[],"categories_segments":[],"categories_sizes":[],"default_left":[0,0,0,0,0,0,0,0,0,0,0,0,0,0,0,0,0,0,0,0,0,0,0,0,0,0,0,0,0],"id":18,"left_children":[1,3,5,7,9,11,13,15,17,19,21,23,25,27,-1,-1,-1,-1,-1,-1,-1,-1,-1,-1,-1,-1,-1,-1,-1],"loss_changes":[7.772138E0,1.0026215E1,6.763521E0,1.0224632E1,4.29276E0,6.8804455E0,6.96181E0,5.646571E0,1.47927E0,1.3506355E0,1.3390486E1,6.372102E0,9.084026E0,6.2004905E0,0E0,0E0,0E0,0E0,0E0,0E0,0E0,0E0,0E0,0E0,0E0,0E0,0E0,0E0,0E0],"parents":[2147483647,0,0,1,1,2,2,3,3,4,4,5,5,6,6,7,7,8,8,9,9,10,10,11,11,12,12,13,13],"right_children":[2,4,6,8,10,12,14,16,18,20,22,24,26,28,-1,-1,-1,-1,-1,-1,-1,-1,-1,-1,-1,-1,-1,-1,-1],"split_conditions":[1.1397635E-1,-5.9615802E-2,1.8503305E-1,1.4270994E-2,-3.9545146E-1,2.4272335E-1,3.573095E1,2.2254324E-1,3.576098E-1,5.3579813E-1,-1.8478966E-1,3.6550906E-1,-4.312369E-1,1E0,5.7183653E-2,6.8203025E-2,1.4529879E-2,-1.1151144E-2,-6.034826E-2,-1.0772251E-2,-6.5260746E-2,3.285598E-2,-2.230881E-2,-6.586433E-2,1.1033283E-2,-4.909889E-2,2.4088329E-2,-5.9609976E-2,1.1052466E-2],"split_indices":[1,1,5,5,5,10,0,10,10,6,5,9,5,4,0,0,0,0,0,0,0,0,0,0,0,0,0,0,0],"split_type":[0,0,0,0,0,0,0,0,0,0,0,0,0,0,0,0,0,0,0,0,0,0,0,0,0,0,0,0,0],"sum_hessian":[2.206652E2,1.1981803E2,1.00847176E2,3.2116966E1,8.7701065E1,8.7250336E1,1.3596842E1,2.5820673E1,6.296295E0,6.855479E0,8.084559E1,9.396934E0,7.78534E1,1.20966015E1,1.5002404E0,5.8798156E0,1.9940857E1,3.5115101E0,2.7847848E0,1.9729503E0,4.8825283E0,1.2148372E1,6.869721E1,3.8011389E0,5.5957947E0,3.5769866E0,7.427641E1,7.6922193E0,4.404382E0],"tree_param":{"num_deleted":"0","num_feature":"14","num_nodes":"29","size_leaf_vector":"1"}},{"base_weights":[-1.8637269E-3,-1.6542442E-1,1.9153988E-1,2.8473362E-1,-3.32192E-1,2.88686E-1,-4.1306603E-1,5.5142623E-1,-7.403265E-1,-4.0038475E-1,3.370557E-1,-4.522221E-1,3.8226026E-1,-1.0208492E0,3.2972917E-2,6.5583125E-2,1.382951E-2,-5.8980834E-2,-9.31906E-3,-9.999348E-3,-3.4959286E-2,-3.9653998E-2,6.7442454E-2,4.812209E-2,-4.0811162E-2,8.17839E-2,1.4467758E-2,-6.55502E-2,9.862172E-3,6.3974544E-2,-2.133721E-2],"categories":[],"categories_nodes":[],"categories_segments":[],"categories_sizes":[],"default_left":[0,0,0,0,0,0,0,0,0,0,0,0,0,0,0,0,0,0,0,0,0,0,0,0,0,0,0,0,0,0,0],"id":19,"left_children":[1,3,5,7,9,11,13,15,17,19,21,23,25,27,29,-1,-1,-1,-1,-1,-1,-1,-1,-1,-1,-1,-1,-1,-1,-1,-1],"loss_changes":[7.023322E0,9.124703E0,6.0946884E0,9.4445E0,4.1616774E0,6.2905707E0,3.9631793E0,5.237461E0,1.5446718E0,4.6822433E0,1.1020123E1,6.11667E0,8.713076E0,2.4380145E0,5.8917146E0,0E0,0E0,0E0,0E0,0E0,0E0,0E0,0E0,0E0,0E0,0E0,0E0,0E0,0E0,0E0,0E0],"parents":[2147483647,0,0,1,1,2,2,3,3,4,4,5,5,6,6,7,7,8,8,9,9,10,10,11,11,12,12,13,13,14,14],"right_children":[2,4,6,8,10,12,14,16,18,20,22,24,26,28,30,-1,-1,-1,-1,-1,-1,-1,-1,-1,-1,-1,-1,-1,-1,-1,-1],"split_conditions":[1.1397635E-1,-5.9615802E-2,1.8503305E-1,1.4270994E-2,5.417708E-2,2.4272335E-1,3.7065172E-1,2.2254324E-1,8.364826E-2,3.8606358E-1,8.961141E-1,2.2165634E-1,2.4729237E-1,3.74634E-1,-1.07387625E-1,6.5583125E-2,1.382951E-2,-5.8980834E-2,-9.31906E-3,-9.999348E-3,-3.4959286E-2,-3.9653998E-2,6.7442454E-2,4.812209E-2,-4.0811162E-2,8.17839E-2,1.4467758E-2,-6.55502E-2,9.862172E-3,6.3974544E-2,-2.133721E-2],"split_indices":[1,1,5,5,5,10,11,10,5,11,6,10,10,5,7,0,0,0,0,0,0,0,0,0,0,0,0,0,0,0,0],"split_type":[0,0,0,0,0,0,0,0,0,0,0,0,0,0,0,0,0,0,0,0,0,0,0,0,0,0,0,0,0,0,0],"sum_hessian":[2.2002191E2,1.1928647E2,1.00735435E2,3.2054348E1,8.723212E1,8.724045E1,1.3494989E1,2.5803135E1,6.251214E0,7.953016E1,7.7019606E0,9.352878E0,7.7887566E1,5.1664124E0,8.328576E0,5.849644E0,1.9953491E1,2.8564823E0,3.3947318E0,4.8602837E1,3.0927324E1,3.7403228E0,3.961638E0,1.5775974E0,7.7752805E0,4.2288365E0,7.365873E1,4.110903E0,1.0555098E0,1.763541E0,6.5650353E0],"tree_param":{"num_deleted":"0","num_feature":"14","num_nodes":"31","size_leaf_vector":"1"}},{"base_weights":[-1.4404355E-3,-7.936822E-1,4.541769E-2,2.9939736E-4,-8.65612E-1,-5.0462283E-2,3.380657E-1,-8.458771E-3,-4.5892864E-2,-2.659056E-1,1.9654456E-1,-6.5806216E-1,5.1953256E-1,-1.5867887E-2,6.1113875E-2,3.0860112E-3,3.970738E-2,1.3887611E-2,-6.2950045E-2,4.6678554E-2,-2.709133E-3],"categories":[],"categories_nodes":[],"categories_segments":[],"categories_sizes":[],"default_left":[0,0,0,0,0,0,0,0,0,0,0,0,0,0,0,0,0,0,0,0,0],"id":20,"left_children":[1,3,5,-1,7,9,11,-1,-1,13,15,17,19,-1,-1,-1,-1,-1,-1,-1,-1],"loss_changes":[8.220045E0,7.164278E-1,5.8839703E0,0E0,2.5775528E-1,8.479672E0,9.692621E0,0E0,0E0,6.8971763E0,5.9416203E0,5.0806527E0,1.0577495E1,0E0,0E0,0E0,0E0,0E0,0E0,0E0,0E0],"parents":[2147483647,0,0,1,1,2,2,4,4,5,5,6,6,9,9,10,10,11,11,12,12],"right_children":[2,4,6,-1,8,10,12,-1,-1,14,16,18,20,-1,-1,-1,-1,-1,-1,-1,-1],"split_conditions":[1.7071428E0,-1.15278335E-2,3.6335436E-1,2.9939736E-4,5.7349033E0,2.893204E1,-3.8312393E-1,-8.458771E-3,-4.5892864E-2,4.3727913E-1,1.8029286E2,-5.4196364E-1,9.3984855E-3,-1.5867887E-2,6.1113875E-2,3.0860112E-3,3.970738E-2,1.3887611E-2,-6.2950045E-2,4.6678554E-2,-2.709133E-3],"split_indices":[2,5,9,0,0,0,5,0,0,11,2,5,5,0,0,0,0,0,0,0,0],"split_type":[0,0,0,0,0,0,0,0,0,0,0,0,0,0,0,0,0,0,0,0,0],"sum_hessian":[2.1945648E2,1.1365149E1,2.0809132E2,1.0135779E0,1.0351571E1,1.5736241E2,5.072892E1,1.0181121E0,9.333459E0,8.401055E1,7.335185E1,7.412587E0,4.3316334E1,8.196351E1,2.047042E0,6.0749523E1,1.260233E1,3.1089556E0,4.3036313E0,2.479503E1,1.8521303E1],"tree_param":{"num_deleted":"0","num_feature":"14","num_nodes":"21","size_leaf_vector":"1"}},{"base_weights":[-1.2687838E-3,-2.3641123E-1,1.3105607E-1,5.411196E-3,-7.935819E-1,-1.3240792E-2,5.4650223E-1,-1.8779513E-1,1.4863489E0,-8.955782E-1,1.4902166E-2,1.7871909E-1,-3.5141724E-1,1.0088068E0,4.7571495E-2,-1.5614982E-2,3.1791966E-2,2.0131988E-2,8.0970824E-2,-5.0302055E-2,1.3709656E-2,-2.2961327E-3,8.735654E-2,-2.7143363E-2,3.6991097E-2,7.2600804E-2,3.1066133E-2,-4.951782E-2,2.102271E-2],"categories":[],"categories_nodes":[],"categories_segments":[],"categories_sizes":[],"default_left":[0,0,0,0,0,0,0,0,0,0,0,0,0,0,0,0,0,0,0,0,0,0,0,0,0,0,0,0,0],"id":21,"left_children":[1,3,5,7,9,11,13,15,17,19,-1,21,23,25,27,-1,-1,-1,-1,-1,-1,-1,-1,-1,-1,-1,-1,-1,-1],"loss_changes":[6.870223E0,1.07169075E1,8.477585E0,1.6427364E1,2.9469795E0,6.934029E0,8.359149E0,5.409149E0,3.0338383E-1,3.1526432E0,0E0,2.4103355E1,8.479218E0,2.338356E0,7.607076E0,0E0,0E0,0E0,0E0,0E0,0E0,0E0,0E0,0E0,0E0,0E0,0E0,0E0,0E0],"parents":[2147483647,0,0,1,1,2,2,3,3,4,4,5,5,6,6,7,7,8,8,9,9,11,11,12,12,13,13,14,14],"right_children":[2,4,6,8,10,12,14,16,18,20,-1,22,24,26,28,-1,-1,-1,-1,-1,-1,-1,-1,-1,-1,-1,-1,-1,-1],"split_conditions":[6.28295E-1,4.9706265E-1,3.6925224E1,4.7479033E-1,3.9875114E-1,2.4824192E1,7.6947464E1,3E0,1.3454257E-2,4.1243035E-1,1.4902166E-2,2.2631989E1,2.7487382E-1,-2E0,8.6904216E-1,-1.5614982E-2,3.1791966E-2,2.0131988E-2,8.0970824E-2,-5.0302055E-2,1.3709656E-2,-2.2961327E-3,8.735654E-2,-2.7143363E-2,3.6991097E-2,7.2600804E-2,3.1066133E-2,-4.951782E-2,2.102271E-2],"split_indices":[6,6,0,6,11,0,0,8,1,1,0,0,10,8,6,0,0,0,0,0,0,0,0,0,0,0,0,0,0],"split_type":[0,0,0,0,0,0,0,0,0,0,0,0,0,0,0,0,0,0,0,0,0,0,0,0,0,0,0,0,0],"sum_hessian":[2.188039E2,7.850796E1,1.4029593E2,5.543739E1,2.3070568E1,1.0484743E2,3.5448513E1,4.9812E1,5.62539E0,2.1263409E1,1.8071597E0,6.718345E1,3.7663975E1,1.786917E1,1.7579342E1,4.381026E1,6.0017405E0,1.0554646E0,4.5699253E0,1.9556622E1,1.7067865E0,5.961551E1,7.5679383E0,3.246989E1,5.1940856E0,7.0537324E0,1.0815437E1,4.208615E0,1.3370728E1],"tree_param":{"num_deleted":"0","num_feature":"14","num_nodes":"29","size_leaf_vector":"1"}},{"base_weights":[-4.564389E-5,-7.748771E-1,4.5158662E-2,3.806748E-4,-8.4654874E-1,1.8952606E-2,1.1080234E0,-3.5499418E-1,-4.71729E-2,8.400562E-2,-6.445002E-1,6.6311583E-3,6.8828814E-2,8.9390436E-4,-2.5980521E-2,-4.8671337E-3,1.6075825E-2,-9.720667E-3,-6.0468256E-2],"categories":[],"categories_nodes":[],"categories_segments":[],"categories_sizes":[],"default_left":[0,0,0,0,0,0,0,0,0,0,0,0,0,0,0,0,0,0,0],"id":22,"left_children":[1,3,5,-1,7,9,11,13,-1,15,17,-1,-1,-1,-1,-1,-1,-1,-1],"loss_changes":[7.7175007E0,6.8762684E-1,5.777901E0,0E0,1.9554758E-1,8.867362E0,1.1251483E0,2.2026315E-1,0E0,8.079376E0,4.4300833E0,0E0,0E0,0E0,0E0,0E0,0E0,0E0,0E0],"parents":[2147483647,0,0,1,1,2,2,4,4,5,5,6,6,7,7,9,9,10,10],"right_children":[2,4,6,-1,8,10,12,14,-1,16,18,-1,-1,-1,-1,-1,-1,-1,-1],"split_conditions":[1.7071428E0,-1.15278335E-2,3.4120865E0,3.806748E-4,1.0357143E0,2.1452444E0,4.8700958E-1,-2.4591815E-3,-4.71729E-2,8.6904216E-1,1.4284499E-1,6.6311583E-3,6.8828814E-2,8.9390436E-4,-2.5980521E-2,-4.8671337E-3,1.6075825E-2,-9.720667E-3,-6.0468256E-2],"split_indices":[2,5,6,0,2,6,7,1,0,6,1,0,0,0,0,0,0,0,0],"split_type":[0,0,0,0,0,0,0,0,0,0,0,0,0,0,0,0,0,0,0],"sum_hessian":[2.1833907E2,1.1146091E1,2.0719298E2,1.0102501E0,1.0135841E1,2.0320068E2,3.992296E0,2.4371252E0,7.698716E0,1.8585097E2,1.7349716E1,1.1843839E0,2.807912E0,1.0194236E0,1.4177016E0,1.0572E2,8.013097E1,1.0403967E1,6.9457493E0],"tree_param":{"num_deleted":"0","num_feature":"14","num_nodes":"19","size_leaf_vector":"1"}},{"base_weights":[-3.2806853E-4,-7.559592E-1,4.29793E-2,3.7108845E-4,-8.2727814E-1,1.7705243E-2,1.0721117E0,-8.053714E-3,-4.398957E-2,7.9841964E-2,-6.1842114E-1,6.452996E-3,6.663623E-2,-8.420759E-3,1.1827421E-2,-5.9160676E-2,-1.182707E-2],"categories":[],"categories_nodes":[],"categories_segments":[],"categories_sizes":[],"default_left":[0,0,0,0,0,0,0,0,0,0,0,0,0,0,0,0,0],"id":23,"left_children":[1,3,5,-1,7,9,11,-1,-1,13,15,-1,-1,-1,-1,-1,-1],"loss_changes":[7.201674E0,6.5560436E-1,5.395033E0,0E0,2.4027681E-1,8.119801E0,1.0501008E0,0E0,0E0,7.31061E0,3.6635485E0,0E0,0E0,0E0,0E0,0E0,0E0],"parents":[2147483647,0,0,1,1,2,2,4,4,5,5,6,6,9,9,10,10],"right_children":[2,4,6,-1,8,10,12,-1,-1,14,16,-1,-1,-1,-1,-1,-1],"split_conditions":[1.7071428E0,-1.15278335E-2,3.4120865E0,3.7108845E-4,8.244816E0,2.1452444E0,4.8700958E-1,-8.053714E-3,-4.398957E-2,6.28295E-1,3.89218E-1,6.452996E-3,6.663623E-2,-8.420759E-3,1.1827421E-2,-5.9160676E-2,-1.182707E-2],"split_indices":[2,5,6,0,0,6,7,0,0,6,11,0,0,0,0,0,0],"split_type":[0,0,0,0,0,0,0,0,0,0,0,0,0,0,0,0,0],"sum_hessian":[2.1807762E2,1.0929147E1,2.0714848E2,1.0103655E0,9.918781E0,2.0317596E2,3.972514E0,1.0218972E0,8.896884E0,1.858925E2,1.7283463E1,1.1838518E0,2.7886622E0,7.190485E1,1.13987656E2,6.125532E0,1.1157931E1],"tree_param":{"num_deleted":"0","num_feature":"14","num_nodes":"17","size_leaf_vector":"1"}},{"base_weights":[-5.5403577E-4,-2.0247103E-1,1.5695043E-1,4.391169E-3,-8.2474816E-1,4.3710455E-1,-1.4935078E-1,-2.9026842E-1,4.2764398E-1,-1.231287E0,2.3875645E-1,3.1513336E-1,1.4283959E0,-2.491188E-1,6.673217E-2,-3.0549789E-2,7.535271E-3,-1.8733336E-2,3.7447877E-2,4.953484E-3,-6.665071E-2,5.0145578E-2,-3.3360116E-2,5.2064117E-2,5.299518E-3,2.9327353E-2,8.027832E-2,-2.1987448E-2,1.42498305E-2],"categories":[],"categories_nodes":[],"categories_segments":[],"categories_sizes":[],"default_left":[0,0,0,0,0,0,0,0,0,0,0,0,0,0,0,0,0,0,0,0,0,0,0,0,0,0,0,0,0],"id":24,"left_children":[1,3,5,7,9,11,13,15,17,19,21,23,25,27,-1,-1,-1,-1,-1,-1,-1,-1,-1,-1,-1,-1,-1,-1,-1],"loss_changes":[6.9896045E0,1.24011545E1,1.0660462E1,9.262798E0,1.0685066E1,7.3777924E0,9.17553E0,6.2863054E0,8.138081E0,2.5071068E0,5.8503084E0,8.839588E0,7.400894E-2,5.909454E0,0E0,0E0,0E0,0E0,0E0,0E0,0E0,0E0,0E0,0E0,0E0,0E0,0E0,0E0,0E0],"parents":[2147483647,0,0,1,1,2,2,3,3,4,4,5,5,6,6,7,7,8,8,9,9,10,10,11,11,12,12,13,13],"right_children":[2,4,6,8,10,12,14,16,18,20,22,24,26,28,-1,-1,-1,-1,-1,-1,-1,-1,-1,-1,-1,-1,-1,-1,-1],"split_conditions":[7.3171425E1,6.0264286E1,1.8616405E-1,3.6192856E1,-2E0,1.10459626E-1,3.1913054E0,6.239955E-1,-3.888742E-1,-3.6870543E-2,3.8255507E-1,8.912143E1,1.2447625E-1,3.623525E-1,6.673217E-2,-3.0549789E-2,7.535271E-3,-1.8733336E-2,3.7447877E-2,4.953484E-3,-6.665071E-2,5.0145578E-2,-3.3360116E-2,5.2064117E-2,5.299518E-3,2.9327353E-2,8.027832E-2,-2.1987448E-2,1.42498305E-2],"split_indices":[2,2,7,2,8,7,6,6,7,1,11,2,7,9,0,0,0,0,0,0,0,0,0,0,0,0,0,0,0],"split_type":[0,0,0,0,0,0,0,0,0,0,0,0,0,0,0,0,0,0,0,0,0,0,0,0,0,0,0,0,0],"sum_hessian":[2.177801E2,9.530975E1,1.22470345E2,7.2276115E1,2.3033644E1,6.37423E1,5.8728046E1,4.2796383E1,2.9479733E1,1.6549582E1,6.4840617E0,5.793208E1,5.8102202E0,5.5808224E1,2.9198232E0,2.4553017E1,1.8243364E1,8.382593E0,2.109714E1,1.1774448E0,1.5372136E1,3.459249E0,3.0248127E0,1.2064628E1,4.586745E1,1.75965E0,4.05057E0,4.1259167E1,1.4549054E1],"tree_param":{"num_deleted":"0","num_feature":"14","num_nodes":"29","size_leaf_vector":"1"}},{"base_weights":[2.1146254E-4,-7.2934574E-1,4.105854E-2,7.1704324E-4,-8.0107427E-1,-4.967655E-1,8.557249E-2,-3.1703773E-1,-9.0066063E-1,-6.6718185E-1,4.873013E-2,-1.6432952E-2,4.9345034E-1,4.7234536E-4,-2.5884783E-2,-4.912241E-2,-1.7063754E-2,-4.0828828E-2,2.011317E-2,-8.752896E-3,1.4622956E-2,3.437703E-2,-1.6040534E-2],"categories":[],"categories_nodes":[],"categories_segments":[],"categories_sizes":[],"default_left":[0,0,0,0,0,0,0,0,0,0,0,0,0,0,0,0,0,0,0,0,0,0,0],"id":25,"left_children":[1,3,5,-1,7,9,11,13,15,17,-1,19,21,-1,-1,-1,-1,-1,-1,-1,-1,-1,-1],"loss_changes":[6.5338554E0,6.316061E-1,5.0131903E0,0E0,2.263751E-1,4.666627E0,8.021677E0,2.24706E-1,4.2827606E-2,2.7168398E0,0E0,7.647975E0,6.3153133E0,0E0,0E0,0E0,0E0,0E0,0E0,0E0,0E0,0E0,0E0],"parents":[2147483647,0,0,1,1,2,2,4,4,5,5,6,6,7,7,8,8,9,9,11,11,12,12],"right_children":[2,4,6,-1,8,10,12,14,16,18,-1,20,22,-1,-1,-1,-1,-1,-1,-1,-1,-1,-1],"split_conditions":[1.7071428E0,-1.15278335E-2,-4.0334576E-1,7.1704324E-4,1.0357143E0,3.9600608E-1,3.6452907E-1,6.080483E-1,3.730272E-1,3.7779626E-1,4.873013E-2,2.7872887E-1,1.5115806E-1,4.7234536E-4,-2.5884783E-2,-4.912241E-2,-1.7063754E-2,-4.0828828E-2,2.011317E-2,-8.752896E-3,1.4622956E-2,3.437703E-2,-1.6040534E-2],"split_indices":[2,5,5,0,2,11,9,6,11,9,0,10,5,0,0,0,0,0,0,0,0,0,0],"split_type":[0,0,0,0,0,0,0,0,0,0,0,0,0,0,0,0,0,0,0,0,0,0,0],"sum_hessian":[2.1724995E2,1.0624976E1,2.0662497E2,1.0050114E0,9.619965E0,1.5017812E1,1.9160716E2,2.3553584E0,7.264606E0,1.3948796E1,1.0690163E0,1.5404263E2,3.7564533E1,1.2593033E0,1.096055E0,5.678112E0,1.5864942E0,1.2446542E1,1.5022545E0,1.020634E2,5.1979225E1,3.045968E1,7.1048546E0],"tree_param":{"num_deleted":"0","num_feature":"14","num_nodes":"23","size_leaf_vector":"1"}},{"base_weights":[-9.42E-6,-9.443994E-2,3.0881405E-1,-2.6846709E-2,-6.8999386E-1,-5.1784005E-2,3.9203787E-1,-1.0603898E-1,4.867853E-1,-8.839832E-1,-1.6349815E-3,9.7682637E-1,2.3411109E-1,-2.741618E-3,-5.0243795E-2,-2.5077572E-2,3.7583765E-2,3.6924488E-3,-4.848173E-2,-4.0445488E-2,6.0486812E-2,-5.6691427E-2,6.859668E-2,2.3904752E-2,-1.8553894E-2],"categories":[],"categories_nodes":[],"categories_segments":[],"categories_sizes":[],"default_left":[0,0,0,0,0,0,0,0,0,0,0,0,0,0,0,0,0,0,0,0,0,0,0,0,0],"id":26,"left_children":[1,3,5,7,9,-1,11,13,15,17,19,21,23,-1,-1,-1,-1,-1,-1,-1,-1,-1,-1,-1,-1],"loss_changes":[6.379866E0,6.725896E0,6.138328E0,6.2141514E0,2.2735233E0,0E0,4.2937803E0,6.0243707E0,5.722317E0,1.1618443E0,5.621141E0,9.976003E0,6.0647182E0,0E0,0E0,0E0,0E0,0E0,0E0,0E0,0E0,0E0,0E0,0E0,0E0],"parents":[2147483647,0,0,1,1,2,2,3,3,4,4,6,6,7,7,8,8,9,9,10,10,11,11,12,12],"right_children":[2,4,6,8,10,-1,12,14,16,18,20,22,24,-1,-1,-1,-1,-1,-1,-1,-1,-1,-1,-1,-1],"split_conditions":[1.3067857E2,3.5467058E-1,2.180136E-1,2.8130364E-1,1E0,-5.1784005E-2,2.6527792E-1,7.6947464E1,2.4357142E0,-6E0,4.1E0,3.5108185E-1,1.94E2,-2.741618E-3,-5.0243795E-2,-2.5077572E-2,3.7583765E-2,3.6924488E-3,-4.848173E-2,-4.0445488E-2,6.0486812E-2,-5.6691427E-2,6.859668E-2,2.3904752E-2,-1.8553894E-2],"split_indices":[2,10,6,10,4,0,9,0,2,8,2,10,2,0,0,0,0,0,0,0,0,0,0,0,0],"split_type":[0,0,0,0,0,0,0,0,0,0,0,0,0,0,0,0,0,0,0,0,0,0,0,0,0],"sum_hessian":[2.167705E2,1.665407E2,5.0229797E1,1.505041E2,1.6036596E1,2.2608516E0,4.7968945E1,1.310866E2,1.9417505E1,1.2289149E1,3.7474475E0,9.09727E0,3.8871674E1,1.2502495E2,6.0616503E0,3.9153662E0,1.5502138E1,1.0200299E0,1.1269119E1,2.4481814E0,1.2992662E0,1.1396434E0,7.9576263E0,2.7852753E1,1.1018923E1],"tree_param":{"num_deleted":"0","num_feature":"14","num_nodes":"25","size_leaf_vector":"1"}},{"base_weights":[-4.939622E-4,-8.2584673E-1,3.2851987E-2,9.841867E-4,-5.366167E-2,-4.8892044E-2,5.9123013E-2,1.8218456E-1,-1.4163047E-1,-2.6698342E-2,1.2544421E-2,6.107367E-2,-9.933812E-3],"categories":[],"categories_nodes":[],"categories_segments":[],"categories_sizes":[],"default_left":[0,0,0,0,0,0,0,0,0,0,0,0,0],"id":27,"left_children":[1,3,5,-1,-1,-1,7,9,11,-1,-1,-1,-1],"loss_changes":[6.005404E0,1.7935419E0,5.6269E0,0E0,0E0,0E0,5.0995345E0,6.420097E0,6.355461E0,0E0,0E0,0E0,0E0],"parents":[2147483647,0,0,1,1,2,2,6,6,7,7,8,8],"right_children":[2,4,6,-1,-1,-1,8,10,12,-1,-1,-1,-1],"split_conditions":[-7.880639E-1,2.5481957E-1,3.3435428E-1,9.841867E-4,-5.366167E-2,-4.8892044E-2,3.8720584E-1,-4.0334576E-1,-1.1E1,-2.6698342E-2,1.2544421E-2,6.107367E-2,-9.933812E-3],"split_indices":[7,6,11,0,0,0,11,5,8,0,0,0,0],"split_type":[0,0,0,0,0,0,0,0,0,0,0,0,0],"sum_hessian":[2.162166E2,7.473456E0,2.0874315E2,1.8999935E0,5.573462E0,4.3707666E0,2.0437238E2,1.2676076E2,7.7611626E1,1.0503453E1,1.162573E2,2.2976356E0,7.5313995E1],"tree_param":{"num_deleted":"0","num_feature":"14","num_nodes":"13","size_leaf_vector":"1"}},{"base_weights":[-7.967919E-4,-1.8595295E-1,1.4261985E-1,1.3363023E-2,-7.8747636E-1,5.353248E-1,1.7065067E-2,-2.6295027E-1,4.0416443E-1,-1.1818668E0,2.3333547E-1,8.942018E-1,-1.8664691E-1,-4.9265343E-1,1.9414133E-1,-2.8627647E-2,7.791914E-3,3.3252914E-2,-1.5113159E-2,-1.5235749E-2,-6.892931E-2,3.8358774E-2,-3.700662E-2,5.4015167E-2,-3.734894E-2,-2.9005578E-2,6.0936194E-2,2.0518383E-2,-5.1305782E-2,6.78441E-2,5.7260264E-3],"categories":[],"categories_nodes":[],"categories_segments":[],"categories_sizes":[],"default_left":[0,0,0,0,0,0,0,0,0,0,0,0,0,0,0,0,0,0,0,0,0,0,0,0,0,0,0,0,0,0,0],"id":28,"left_children":[1,3,5,7,9,11,13,15,17,19,21,23,25,27,29,-1,-1,-1,-1,-1,-1,-1,-1,-1,-1,-1,-1,-1,-1,-1,-1],"loss_changes":[5.7873077E0,1.1415461E1,6.0464497E0,7.927943E0,9.814115E0,7.867549E0,8.588622E0,5.6694727E0,5.8030205E0,2.5572052E0,4.4329686E0,6.9232006E0,6.621281E0,1.22442875E1,6.3762193E0,0E0,0E0,0E0,0E0,0E0,0E0,0E0,0E0,0E0,0E0,0E0,0E0,0E0,0E0,0E0,0E0],"parents":[2147483647,0,0,1,1,2,2,3,3,4,4,5,5,6,6,7,7,8,8,9,9,10,10,11,11,12,12,13,13,14,14],"right_children":[2,4,6,8,10,12,14,16,18,20,22,24,26,28,30,-1,-1,-1,-1,-1,-1,-1,-1,-1,-1,-1,-1,-1,-1,-1,-1],"split_conditions":[7.3171425E1,6.0264286E1,9.507143E1,3.6192856E1,-2E0,1.1963545E0,1.1487143E2,6.239955E-1,7.138749E1,-5E0,2E0,7.591136E1,9.3064285E1,2.4937579E-1,7.121394E0,-2.8627647E-2,7.791914E-3,3.3252914E-2,-1.5113159E-2,-1.5235749E-2,-6.892931E-2,3.8358774E-2,-3.700662E-2,5.4015167E-2,-3.734894E-2,-2.9005578E-2,6.0936194E-2,2.0518383E-2,-5.1305782E-2,6.78441E-2,5.7260264E-3],"split_indices":[2,2,2,2,8,6,2,6,0,8,8,0,2,10,0,0,0,0,0,0,0,0,0,0,0,0,0,0,0,0,0],"split_type":[0,0,0,0,0,0,0,0,0,0,0,0,0,0,0,0,0,0,0,0,0,0,0,0,0,0,0,0,0,0,0],"sum_hessian":[2.1594225E2,9.412579E1,1.2181645E2,7.143384E1,2.269196E1,2.8720867E1,9.309558E1,4.203819E1,2.9395647E1,1.6254332E1,6.437628E0,1.9025255E1,9.695612E0,2.3543337E1,6.9552246E1,2.395876E1,1.8079432E1,2.1510187E1,7.8854594E0,3.444525E0,1.2809806E1,4.2944884E0,2.1431394E0,1.7394554E1,1.6307012E0,8.033636E0,1.6619761E0,8.828905E0,1.4714432E1,3.4293919E0,6.6122856E1],"tree_param":{"num_deleted":"0","num_feature":"14","num_nodes":"31","size_leaf_vector":"1"}},{"base_weights":[-8.228376E-4,-6.862668E-1,3.6245156E-2,-7.797354E-1,-4.230843E-3,1.347135E-2,9.704065E-1,-4.696768E-1,-4.7195088E-2,7.137406E-2,-5.814049E-1,3.7872752E-3,6.1698623E-2,-3.6754783E-2,1.2827064E-2,-4.0527154E-3,1.516735E-2,-7.519E-3,-5.64335E-2],"categories":[],"categories_nodes":[],"categories_segments":[],"categories_sizes":[],"default_left":[0,0,0,0,0,0,0,0,0,0,0,0,0,0,0,0,0,0,0],"id":29,"left_children":[1,3,5,7,-1,9,11,13,-1,15,17,-1,-1,-1,-1,-1,-1,-1,-1],"loss_changes":[5.5226717E0,5.611248E-1,4.3743258E0,4.1770935E-2,0E0,7.0109153E0,1.060525E0,1.2081558E0,0E0,6.575886E0,4.089603E0,0E0,0E0,0E0,0E0,0E0,0E0,0E0,0E0],"parents":[2147483647,0,0,1,1,2,2,3,3,5,5,6,6,7,7,9,9,10,10],"right_children":[2,4,6,8,-1,10,12,14,-1,16,18,-1,-1,-1,-1,-1,-1,-1,-1],"split_conditions":[1.7071428E0,3.6997947E-1,3.4120865E0,-2.4591815E-3,-4.230843E-3,2.1452444E0,4.8700958E-1,-6.193524E-3,-4.7195088E-2,9.144153E-1,1.4284499E-1,3.7872752E-3,6.1698623E-2,-3.6754783E-2,1.2827064E-2,-4.0527154E-3,1.516735E-2,-7.519E-3,-5.64335E-2],"split_indices":[2,10,6,1,0,6,7,1,0,6,1,0,0,0,0,0,0,0,0],"split_type":[0,0,0,0,0,0,0,0,0,0,0,0,0,0,0,0,0,0,0],"sum_hessian":[2.1538031E2,1.0151413E1,2.052289E2,8.530217E0,1.6211962E0,2.0133499E2,3.8939009E0,4.2895627E0,4.240654E0,1.8427817E2,1.705683E1,1.1790531E0,2.7148476E0,3.1324775E0,1.1570853E0,1.1159813E2,7.268004E1,1.0254887E1,6.801944E0],"tree_param":{"num_deleted":"0","num_feature":"14","num_nodes":"19","size_leaf_vector":"1"}},{"base_weights":[-1.0984958E-3,-8.7751426E-2,2.8216583E-1,-6.1271584E-1,-1.6561743E-2,3.5220388E-1,-6.8315864E-1,-7.605091E-1,4.0953863E-2,5.655988E-2,-7.024298E-1,1.3525322E-1,8.543616E-1,-4.678942E-4,-4.9860604E-2,1.7341709E-2,-4.2231556E-2,1.4006308E-2,-8.234384E-3,-4.5166243E-2,2.767527E-2,-7.169215E-2,1.3460072E-2,7.818982E-3,6.0969353E-2],"categories":[],"categories_nodes":[],"categories_segments":[],"categories_sizes":[],"default_left":[0,0,0,0,0,0,0,0,0,0,0,0,0,0,0,0,0,0,0,0,0,0,0,0,0],"id":30,"left_children":[1,3,5,7,9,11,13,15,-1,17,19,21,23,-1,-1,-1,-1,-1,-1,-1,-1,-1,-1,-1,-1],"loss_changes":[5.329127E0,6.202688E0,3.6791582E0,4.817881E0,7.433043E0,5.1222696E0,7.9067385E-1,2.0151205E0,0E0,6.6812553E0,4.10223E0,7.6920853E0,3.4569836E0,0E0,0E0,0E0,0E0,0E0,0E0,0E0,0E0,0E0,0E0,0E0,0E0],"parents":[2147483647,0,0,1,1,2,2,3,3,4,4,5,5,6,6,7,7,9,9,10,10,11,11,12,12],"right_children":[2,4,6,8,10,12,14,16,-1,18,20,22,24,-1,-1,-1,-1,-1,-1,-1,-1,-1,-1,-1,-1],"split_conditions":[1.3067857E2,-5.528577E-1,3.6849168E-1,5E0,3.5467058E-1,3.5108185E-1,-7.630854E-1,2.5400418E-1,4.0953863E-2,1.813656E-1,1.6758122E0,2.7581474E-1,3E0,-4.678942E-4,-4.9860604E-2,1.7341709E-2,-4.2231556E-2,1.4006308E-2,-8.234384E-3,-4.5166243E-2,2.767527E-2,-7.169215E-2,1.3460072E-2,7.818982E-3,6.0969353E-2],"split_indices":[2,7,10,8,10,10,7,9,0,7,7,9,8,0,0,0,0,0,0,0,0,0,0,0,0],"split_type":[0,0,0,0,0,0,0,0,0,0,0,0,0,0,0,0,0,0,0,0,0,0,0,0,0],"sum_hessian":[2.1510182E2,1.6524286E2,4.9858963E1,1.8824095E1,1.4641876E2,4.7078384E1,2.7805762E0,1.74878E1,1.3362935E0,1.3314182E2,1.3276953E1,3.376151E1,1.33168745E1,1.2113739E0,1.5692023E0,1.0142105E0,1.647359E1,6.6091515E1,6.70503E1,1.1688117E1,1.5888363E0,1.8921409E0,3.186937E1,5.063373E0,8.253502E0],"tree_param":{"num_deleted":"0","num_feature":"14","num_nodes":"25","size_leaf_vector":"1"}},{"base_weights":[-1.2400858E-3,-7.6688385E-1,2.8833272E-2,3.6064924E-3,-5.10014E-2,-7.6203203E-1,5.5425737E-2,2.0956403E-2,-5.8944564E-2,-4.6749386E-1,9.779284E-2,3.1626143E-2,-3.3379447E-2,1.4299584E-4,2.346404E-2],"categories":[],"categories_nodes":[],"categories_segments":[],"categories_sizes":[],"default_left":[0,0,0,0,0,0,0,0,0,0,0,0,0,0,0],"id":31,"left_children":[1,3,5,-1,-1,7,9,-1,-1,11,13,-1,-1,-1,-1],"loss_changes":[4.984404E0,1.8112216E0,4.423673E0,0E0,0E0,3.8644192E0,4.531729E0,0E0,0E0,3.8006966E0,6.6336083E0,0E0,0E0,0E0,0E0],"parents":[2147483647,0,0,1,1,2,2,5,5,6,6,9,9,10,10],"right_children":[2,4,6,-1,-1,8,10,-1,-1,12,14,-1,-1,-1,-1],"split_conditions":[-7.880639E-1,2.5481957E-1,2.180136E-1,3.6064924E-3,-5.10014E-2,-4.4470802E-1,-4.0334576E-1,2.0956403E-2,-5.8944564E-2,2.4658696E-1,3.6452907E-1,3.1626143E-2,-3.3379447E-2,1.4299584E-4,2.346404E-2],"split_indices":[7,6,6,0,0,7,5,0,0,10,9,0,0,0,0],"split_type":[0,0,0,0,0,0,0,0,0,0,0,0,0,0,0],"sum_hessian":[2.1451309E2,7.181345E0,2.0733176E2,1.8302572E0,5.3510876E0,5.844978E0,2.0148677E2,1.5233011E0,4.3216767E0,1.4348975E1,1.871378E2,1.8757865E0,1.2473189E1,1.4985132E2,3.7286476E1],"tree_param":{"num_deleted":"0","num_feature":"14","num_nodes":"15","size_leaf_vector":"1"}},{"base_weights":[-1.5077037E-3,-4.5682248E-2,2.2694325E-2,-7.3999953E-1,5.121503E-2,3.4511012E-3,-4.9166255E-2,1.7008114E-1,-1.4238378E-1,1.4423777E-3,2.3512468E-2,-1.763094E-2,9.302289E-3],"categories":[],"categories_nodes":[],"categories_segments":[],"categories_sizes":[],"default_left":[0,0,0,0,0,0,0,0,0,0,0,0,0],"id":32,"left_children":[1,-1,3,5,7,-1,-1,9,11,-1,-1,-1,-1],"loss_changes":[4.7718368E0,0E0,4.619702E0,1.5752645E0,4.7181673E0,0E0,0E0,5.363496E0,5.4609294E0,0E0,0E0,0E0,0E0],"parents":[2147483647,0,0,2,2,3,3,4,4,7,7,8,8],"right_children":[2,-1,4,6,8,-1,-1,10,12,-1,-1,-1,-1],"split_conditions":[3.3435428E-1,-4.5682248E-2,-7.880639E-1,2.5481957E-1,3.8720584E-1,3.4511012E-3,-4.9166255E-2,9.144153E-1,4.0472668E-1,1.4423777E-3,2.3512468E-2,-1.763094E-2,9.302289E-3],"split_indices":[11,0,7,6,11,0,0,6,11,0,0,0,0],"split_type":[0,0,0,0,0,0,0,0,0,0,0,0,0],"sum_hessian":[2.142199E2,4.587133E0,2.0963275E2,6.657354E0,2.029754E2,1.7049581E0,4.9523954E0,1.2583593E2,7.713947E1,8.63181E1,3.9517838E1,4.6987858E1,3.0151611E1],"tree_param":{"num_deleted":"0","num_feature":"14","num_nodes":"13","size_leaf_vector":"1"}},{"base_weights":[-1.8086823E-3,-6.536154E-1,3.2525748E-2,-7.497226E-1,-2.8942663E-3,7.611165E-1,5.046845E-3,-4.6329015E-1,-4.8378732E-2,9.8206306E-1,-1.6519655E-2,1.2231393E-1,-2.4630839E-1,2.4723327E-3,-3.9314054E-2,3.1783965E-3,6.457863E-2,-2.1676754E-3,1.988663E-2,-1.8873869E-2,2.0661358E-2],"categories":[],"categories_nodes":[],"categories_segments":[],"categories_sizes":[],"default_left":[0,0,0,0,0,0,0,0,0,0,0,0,0,0,0,0,0,0,0,0,0],"id":33,"left_children":[1,3,5,7,-1,9,11,13,-1,15,-1,17,19,-1,-1,-1,-1,-1,-1,-1,-1],"loss_changes":[4.831632E0,5.751338E-1,4.1033025E0,1.2698841E-1,0E0,2.1209378E0,5.886769E0,1.0161867E0,0E0,1.7506223E0,0E0,6.229624E0,5.652939E0,0E0,0E0,0E0,0E0,0E0,0E0,0E0,0E0],"parents":[2147483647,0,0,1,1,2,2,3,3,5,5,6,6,7,7,9,9,11,11,12,12],"right_children":[2,4,6,8,-1,10,12,14,-1,16,-1,18,20,-1,-1,-1,-1,-1,-1,-1,-1],"split_conditions":[1.7071428E0,3.6997947E-1,2.1096548E-1,2.557308E-1,-2.8942663E-3,4.1141582E-1,3.8868013E-1,-2.4591815E-3,-4.8378732E-2,7.1869534E-1,-1.6519655E-2,8.6904216E-1,3.5227555E-1,2.4723327E-3,-3.9314054E-2,3.1783965E-3,6.457863E-2,-2.1676754E-3,1.988663E-2,-1.8873869E-2,2.0661358E-2],"split_indices":[2,10,10,7,0,9,11,1,0,6,0,6,10,0,0,0,0,0,0,0,0],"split_type":[0,0,0,0,0,0,0,0,0,0,0,0,0,0,0,0,0,0,0,0,0],"sum_hessian":[2.1394635E2,9.803297E0,2.0414305E2,8.218878E0,1.5844187E0,6.4491277E0,1.9769392E2,4.901284E0,3.3175938E0,5.446834E0,1.0022935E0,1.3515309E2,6.254084E1,2.221554E0,2.6797302E0,1.6766423E0,3.770192E0,8.491709E1,5.0235996E1,5.2522736E1,1.0018102E1],"tree_param":{"num_deleted":"0","num_feature":"14","num_nodes":"21","size_leaf_vector":"1"}},{"base_weights":[-1.8196327E-3,-8.215829E-2,2.609886E-1,-4.845902E-2,-9.862949E-1,-4.952442E-2,3.3781597E-1,1.0019964E0,-7.3790096E-2,1.1227027E-2,-6.4786635E-2,9.207419E-1,1.8459745E-1,5.8409613E-2,1.3294823E-2,-3.3166263E-2,-1.0662626E-3,-2.8143954E-3,5.3698923E-2,3.7194904E-2,-3.2481134E-3],"categories":[],"categories_nodes":[],"categories_segments":[],"categories_sizes":[],"default_left":[0,0,0,0,0,0,0,0,0,0,0,0,0,0,0,0,0,0,0,0,0],"id":34,"left_children":[1,3,5,7,9,-1,11,13,15,-1,-1,17,19,-1,-1,-1,-1,-1,-1,-1,-1],"loss_changes":[4.550472E0,4.9809656E0,5.1862636E0,4.335864E0,2.4936595E0,0E0,4.142845E0,1.5915346E-1,4.8519764E0,0E0,0E0,1.5276232E0,5.5600123E0,0E0,0E0,0E0,0E0,0E0,0E0,0E0,0E0],"parents":[2147483647,0,0,1,1,2,2,3,3,4,4,6,6,7,7,8,8,11,11,12,12],"right_children":[2,4,6,8,10,-1,12,14,16,-1,-1,18,20,-1,-1,-1,-1,-1,-1,-1,-1],"split_conditions":[1.3067857E2,1.2687857E2,2.180136E-1,-1.1E1,1.9085545E-2,-4.952442E-2,2.6527792E-1,5.357143E1,2.6398385E-1,1.1227027E-2,-6.4786635E-2,1.4207857E2,1.4809285E2,5.8409613E-2,1.3294823E-2,-3.3166263E-2,-1.0662626E-3,-2.8143954E-3,5.3698923E-2,3.7194904E-2,-3.2481134E-3],"split_indices":[2,2,6,8,1,0,9,2,9,0,0,2,2,0,0,0,0,0,0,0,0],"split_type":[0,0,0,0,0,0,0,0,0,0,0,0,0,0,0,0,0,0,0,0,0],"sum_hessian":[2.1350705E2,1.6404654E2,4.946051E1,1.5916759E2,4.8789487E0,2.1728907E0,4.728762E1,2.839988E0,1.563276E2,1.0489092E0,3.8300395E0,8.799652E0,3.848797E1,1.8380036E0,1.0019844E0,1.1823744E1,1.4450386E2,1.2787929E0,7.5208592E0,1.1263637E1,2.7224333E1],"tree_param":{"num_deleted":"0","num_feature":"14","num_nodes":"21","size_leaf_vector":"1"}},{"base_weights":[-1.6441708E-3,-6.349108E-1,3.122743E-2,-7.3289275E-1,-2.014591E-3,1.0009584E-2,9.1339314E-1,-4.3152776E-1,-4.4871215E-2,6.5571316E-2,-5.6206304E-1,5.3984154E-2,1.20564755E-2,-3.505616E-2,1.3689163E-2,-3.5812333E-3,1.3704851E-2,-8.7984E-3,-5.7055958E-2],"categories":[],"categories_nodes":[],"categories_segments":[],"categories_sizes":[],"default_left":[0,0,0,0,0,0,0,0,0,0,0,0,0,0,0,0,0,0,0],"id":35,"left_children":[1,3,5,7,-1,9,11,13,-1,15,17,-1,-1,-1,-1,-1,-1,-1,-1],"loss_changes":[4.475831E0,5.886326E-1,3.8177054E0,6.151533E-2,0E0,6.4149127E0,2.7523255E-1,1.1660022E0,0E0,5.2777243E0,3.7939734E0,0E0,0E0,0E0,0E0,0E0,0E0,0E0,0E0],"parents":[2147483647,0,0,1,1,2,2,3,3,5,5,6,6,7,7,9,9,10,10],"right_children":[2,4,6,8,-1,10,12,14,-1,16,18,-1,-1,-1,-1,-1,-1,-1,-1],"split_conditions":[1.7071428E0,3.6997947E-1,3.4120865E0,-2.4591815E-3,-2.014591E-3,2.1452444E0,-2E0,-6.193524E-3,-4.4871215E-2,9.144153E-1,1.4976947E-1,5.3984154E-2,1.20564755E-2,-3.505616E-2,1.3689163E-2,-3.5812333E-3,1.3704851E-2,-8.7984E-3,-5.7055958E-2],"split_indices":[2,10,6,1,0,6,8,1,0,6,1,0,0,0,0,0,0,0,0],"split_type":[0,0,0,0,0,0,0,0,0,0,0,0,0,0,0,0,0,0,0],"sum_hessian":[2.1306126E2,9.610055E0,2.034512E2,8.050881E0,1.5591737E0,1.9966032E2,3.7908828E0,4.122554E0,3.9283278E0,1.8279227E2,1.6868057E1,2.5532694E0,1.2376133E0,2.9868207E0,1.1357332E0,1.10649086E2,7.214319E1,1.0902514E1,5.9655423E0],"tree_param":{"num_deleted":"0","num_feature":"14","num_nodes":"19","size_leaf_vector":"1"}},{"base_weights":[-1.8598175E-3,-1.6196527E-1,1.2111242E-1,3.6722183E-2,-7.589831E-1,3.7894535E-1,-1.603006E-1,-1.6989408E-1,4.6146914E-1,-1.1429638E0,2.2338189E-1,8.46383E-1,1.268237E-1,-2.4874772E-1,5.989051E-2,-1.7259732E-2,1.5767548E-2,-4.3088548E-2,3.590805E-2,-1.4809163E-2,-6.681102E-2,4.4897325E-2,-3.0106327E-2,6.185637E-3,6.0862184E-2,4.663834E-2,-3.5061855E-3,9.071915E-3,-2.1575747E-2],"categories":[],"categories_nodes":[],"categories_segments":[],"categories_sizes":[],"default_left":[0,0,0,0,0,0,0,0,0,0,0,0,0,0,0,0,0,0,0,0,0,0,0,0,0,0,0,0,0],"id":36,"left_children":[1,3,5,7,9,11,13,15,17,19,21,23,25,27,-1,-1,-1,-1,-1,-1,-1,-1,-1,-1,-1,-1,-1,-1,-1],"loss_changes":[4.228574E0,1.1094536E1,8.875185E0,6.3052287E0,9.06011E0,7.3991137E0,7.3595877E0,4.2314186E0,8.597222E0,2.377325E0,4.659336E0,5.783475E0,6.819805E0,4.4829035E0,0E0,0E0,0E0,0E0,0E0,0E0,0E0,0E0,0E0,0E0,0E0,0E0,0E0,0E0,0E0],"parents":[2147483647,0,0,1,1,2,2,3,3,4,4,5,5,6,6,7,7,8,8,9,9,10,10,11,11,12,12,13,13],"right_children":[2,4,6,8,10,12,14,16,18,20,22,24,26,28,-1,-1,-1,-1,-1,-1,-1,-1,-1,-1,-1,-1,-1,-1,-1],"split_conditions":[7.3171425E1,6.0264286E1,1.8616405E-1,2.8750873E-1,-2E0,-9.498479E-3,3.1913054E0,4.7564285E1,1.7071428E0,-5E0,3.8255507E-1,-2.2200464E-1,8.912143E1,9.8942856E1,5.989051E-2,-1.7259732E-2,1.5767548E-2,-4.3088548E-2,3.590805E-2,-1.4809163E-2,-6.681102E-2,4.4897325E-2,-3.0106327E-2,6.185637E-3,6.0862184E-2,4.663834E-2,-3.5061855E-3,9.071915E-3,-2.1575747E-2],"split_indices":[2,2,7,7,8,5,6,2,2,8,11,5,2,2,0,0,0,0,0,0,0,0,0,0,0,0,0,0,0],"split_type":[0,0,0,0,0,0,0,0,0,0,0,0,0,0,0,0,0,0,0,0,0,0,0,0,0,0,0,0,0],"sum_hessian":[2.127772E2,9.229514E1,1.20482056E2,6.995322E1,2.234193E1,6.2694374E1,5.7787685E1,4.7464386E1,2.2488829E1,1.5945695E1,6.396235E0,2.1141203E1,4.155317E1,5.502126E1,2.7664232E0,3.5079952E1,1.2384434E1,3.2707865E0,1.9218042E1,3.4335797E0,1.2512115E1,3.4716363E0,2.9245987E0,7.6221113E0,1.3519092E1,7.4265027E0,3.4126667E1,1.6408121E1,3.861314E1],"tree_param":{"num_deleted":"0","num_feature":"14","num_nodes":"29","size_leaf_vector":"1"}},{"base_weights":[-1.4393311E-3,-7.7953346E-2,2.4928065E-1,-3.5642404E-2,-7.527083E-1,-4.8342433E-2,3.2333347E-1,-1.12486266E-1,4.569216E-1,-1.0947278E0,3.6287468E-2,-2.991598E-1,4.5293084E-1,-1.1319238E-2,1.1443095E-2,4.6640583E-3,5.4839026E-2,-1.5228117E-2,-5.8582116E-2,3.0825099E-2,-5.0873484E-2,2.720136E-2,-4.6316486E-2],"categories":[],"categories_nodes":[],"categories_segments":[],"categories_sizes":[],"default_left":[0,0,0,0,0,0,0,0,0,0,0,0,0,0,0,0,0,0,0,0,0,0,0],"id":37,"left_children":[1,3,5,7,9,-1,11,13,15,17,-1,19,21,-1,-1,-1,-1,-1,-1,-1,-1,-1,-1],"loss_changes":[4.108058E0,4.656968E0,4.822053E0,5.934428E0,5.6643605E0,0E0,4.0036364E0,5.310388E0,4.824235E0,1.4273548E-1,0E0,6.4576807E0,5.5402765E0,0E0,0E0,0E0,0E0,0E0,0E0,0E0,0E0,0E0,0E0],"parents":[2147483647,0,0,1,1,2,2,3,3,4,4,6,6,7,7,8,8,9,9,11,11,12,12],"right_children":[2,4,6,8,10,-1,12,14,16,18,-1,20,22,-1,-1,-1,-1,-1,-1,-1,-1,-1,-1],"split_conditions":[1.3067857E2,2.0111015E-1,2.180136E-1,8.364826E-2,5.462185E1,-4.8342433E-2,-2.2200464E-1,3.6335436E-1,2.9118116E1,4.9114285E1,3.6287468E-2,-9.806188E-2,3.2977856E2,-1.1319238E-2,1.1443095E-2,4.6640583E-3,5.4839026E-2,-1.5228117E-2,-5.8582116E-2,3.0825099E-2,-5.0873484E-2,2.720136E-2,-4.6316486E-2],"split_indices":[2,5,6,5,0,0,5,9,0,2,0,1,2,0,0,0,0,0,0,0,0,0,0],"split_type":[0,0,0,0,0,0,0,0,0,0,0,0,0,0,0,0,0,0,0,0,0,0,0],"sum_hessian":[2.1213138E2,1.6305867E2,4.9072704E1,1.54428E2,8.630684E0,2.1246428E0,4.6948063E1,1.342548E2,2.0173178E1,7.219992E0,1.4106919E0,7.8644557E0,3.9083607E1,1.0091804E2,3.333678E1,1.3593558E1,6.5796185E0,1.0804071E0,6.139585E0,3.5195985E0,4.344857E0,3.723022E1,1.853387E0],"tree_param":{"num_deleted":"0","num_feature":"14","num_nodes":"23","size_leaf_vector":"1"}},{"base_weights":[-1.7046619E-3,-7.077731E-1,2.5316846E-2,4.861781E-3,-4.804894E-2,5.717313E-2,6.247751E-3,-2.0433798E-1,1.1130851E-1,1.5934318E-3,-3.5802048E-2,3.0350432E-2,4.4897347E-4],"categories":[],"categories_nodes":[],"categories_segments":[],"categories_sizes":[],"default_left":[0,0,0,0,0,0,0,0,0,0,0,0,0],"id":38,"left_children":[1,3,5,-1,-1,-1,7,9,11,-1,-1,-1,-1],"loss_changes":[4.0732794E0,1.6974607E0,4.3785114E0,0E0,0E0,0E0,4.5193553E0,8.241903E0,6.90538E0,0E0,0E0,0E0,0E0],"parents":[2147483647,0,0,1,1,2,2,6,6,7,7,8,8],"right_children":[2,4,6,-1,-1,-1,8,10,12,-1,-1,-1,-1],"split_conditions":[-7.880639E-1,2.5481957E-1,-7.630854E-1,4.861781E-3,-4.804894E-2,5.717313E-2,6.28295E-1,4.9706265E-1,7.879509E-1,1.5934318E-3,-3.5802048E-2,3.0350432E-2,4.4897347E-4],"split_indices":[7,6,7,0,0,0,6,6,6,0,0,0,0],"split_type":[0,0,0,0,0,0,0,0,0,0,0,0,0],"sum_hessian":[2.115559E2,6.86929E0,2.046866E2,1.7910489E0,5.078241E0,2.4435089E0,2.0224309E2,6.7000694E1,1.3524239E2,4.648194E1,2.0518755E1,2.2297482E1,1.1294491E2],"tree_param":{"num_deleted":"0","num_feature":"14","num_nodes":"13","size_leaf_vector":"1"}},{"base_weights":[-1.601015E-3,-4.304729E-2,2.030913E-2,-2.2660535E-2,4.5383802E-1,-1.1769118E-1,1.9246331E-1,6.282376E-1,-5.928168E-1,5.42089E-2,-8.74826E-3,-2.4670852E-2,1.7048268E-2,5.147898E-2,-1.0572459E-2,-4.7667585E-2,1.5763771E-3],"categories":[],"categories_nodes":[],"categories_segments":[],"categories_sizes":[],"default_left":[0,0,0,0,0,0,0,0,0,0,0,0,0,0,0,0,0],"id":39,"left_children":[1,-1,3,5,7,9,11,13,15,-1,-1,-1,-1,-1,-1,-1,-1],"loss_changes":[4.0155516E0,0E0,3.8857815E0,3.9116342E0,3.805607E0,9.314985E0,6.1436577E0,5.814416E0,7.5055563E-1,0E0,0E0,0E0,0E0,0E0,0E0,0E0,0E0],"parents":[2147483647,0,0,2,2,3,3,4,4,5,5,6,6,7,7,8,8],"right_children":[2,-1,4,6,8,10,12,14,16,-1,-1,-1,-1,-1,-1,-1,-1],"split_conditions":[3.3435428E-1,-4.304729E-2,3.7326717E-1,2.7872887E-1,3.2852566E-1,3.5036537E-1,3.8214285E0,9.560303E-1,6.0649943E-1,5.42089E-2,-8.74826E-3,-2.4670852E-2,1.7048268E-2,5.147898E-2,-1.0572459E-2,-4.7667585E-2,1.5763771E-3],"split_indices":[11,0,9,10,1,9,2,7,7,0,0,0,0,0,0,0,0],"split_type":[0,0,0,0,0,0,0,0,0,0,0,0,0,0,0,0,0],"sum_hessian":[2.113427E2,4.302402E0,2.070403E2,1.8923209E2,1.7808205E1,1.3156593E2,5.766615E1,1.560738E1,2.200824E0,5.1689167E0,1.2639702E2,9.849952E0,4.7816196E1,1.0407025E1,5.200354E0,1.0611095E0,1.1397145E0],"tree_param":{"num_deleted":"0","num_feature":"14","num_nodes":"17","size_leaf_vector":"1"}},{"base_weights":[-1.5862895E-3,6.9750327E-1,-2.701815E-2,-4.1134194E-2,1.0840148E0,-1.8014686E-1,1.3830535E-1,6.4675614E-2,4.5668012E-3,-1.3566984E-1,-5.4747313E-2,-8.271162E-1,1.7977068E-1,-3.5884317E-2,-2.8723772E-3,-1.0444952E-2,-4.9678292E-2,2.6385456E-3,3.3400666E-2],"categories":[],"categories_nodes":[],"categories_segments":[],"categories_sizes":[],"default_left":[0,0,0,0,0,0,0,0,0,0,0,0,0,0,0,0,0,0,0],"id":40,"left_children":[1,3,5,-1,7,9,11,-1,-1,13,-1,15,17,-1,-1,-1,-1,-1,-1],"loss_changes":[3.7858407E0,5.2836037E0,5.224842E0,0E0,1.2109118E0,4.207801E0,4.12519E0,0E0,0E0,4.659201E0,0E0,2.3176384E-1,5.921415E0,0E0,0E0,0E0,0E0,0E0,0E0],"parents":[2147483647,0,0,1,1,2,2,4,4,5,5,6,6,9,9,11,11,12,12],"right_children":[2,4,6,-1,8,10,12,-1,-1,14,-1,16,18,-1,-1,-1,-1,-1,-1],"split_conditions":[2.1096548E-1,6.239955E-1,1.12950966E-1,-4.1134194E-2,-4.034142E-2,1.0941208E-1,-4.312369E-1,6.4675614E-2,4.5668012E-3,2.3194323E-1,-5.4747313E-2,7.496806E1,3.918919E1,-3.5884317E-2,-2.8723772E-3,-1.0444952E-2,-4.9678292E-2,2.6385456E-3,3.3400666E-2],"split_indices":[10,6,1,0,1,1,5,0,0,10,0,0,0,0,0,0,0,0,0],"split_type":[0,0,0,0,0,0,0,0,0,0,0,0,0,0,0,0,0,0,0],"sum_hessian":[2.1087717E2,6.474519E0,2.0440263E2,1.0837075E0,5.390811E0,1.0606847E2,9.8334175E1,4.20114E0,1.1896713E0,1.0224564E2,3.8228178E0,3.2692933E0,9.506488E1,1.11451E1,9.110055E1,1.1718621E0,2.0974312E0,7.632072E1,1.8744165E1],"tree_param":{"num_deleted":"0","num_feature":"14","num_nodes":"19","size_leaf_vector":"1"}},{"base_weights":[-1.9350463E-3,-8.4017825E-1,1.9109795E-2,-1.3995274E-2,-4.851836E-2,-6.8273544E-1,4.476757E-2,1.8253748E-3,-4.1110642E-2,5.4787785E-2,2.6286282E-2,-2.5856534E-3,1.5426645E-2],"categories":[],"categories_nodes":[],"categories_segments":[],"categories_sizes":[],"default_left":[0,0,0,0,0,0,0,0,0,0,0,0,0],"id":41,"left_children":[1,3,5,-1,-1,7,9,-1,-1,-1,11,-1,-1],"loss_changes":[3.7463408E0,1.0776305E-1,3.7628214E0,0E0,0E0,7.694783E-1,3.8731444E0,0E0,0E0,0E0,4.3846197E0,0E0,0E0],"parents":[2147483647,0,0,1,1,2,2,5,5,6,6,10,10],"right_children":[2,4,6,-1,-1,8,10,-1,-1,-1,12,-1,-1],"split_conditions":[3.3435428E-1,0E0,-7.880639E-1,-1.3995274E-2,-4.851836E-2,-8.936513E-1,-7.630854E-1,1.8253748E-3,-4.1110642E-2,5.4787785E-2,3.6452907E-1,-2.5856534E-3,1.5426645E-2],"split_indices":[11,8,7,0,0,7,7,0,0,0,9,0,0],"split_type":[0,0,0,0,0,0,0,0,0,0,0,0,0],"sum_hessian":[2.1045906E2,4.2010875E0,2.0625798E2,1.3860718E0,2.8150158E0,6.371166E0,1.9988681E2,1.1547451E0,5.216421E0,2.4469063E0,1.9743991E2,1.5533076E2,4.210915E1],"tree_param":{"num_deleted":"0","num_feature":"14","num_nodes":"13","size_leaf_vector":"1"}},{"base_weights":[-2.0193155E-3,-8.228813E-1,1.8294424E-2,-1.3658675E-2,-4.7575768E-2,-4.3306595E-1,5.4225802E-2,7.287544E-1,-8.8827205E-1,-3.1208372E-2,4.0088814E-1,6.1339296E-2,-2.4591542E-3,-5.290392E-2,1.5429902E-2,-7.720607E-3,1.7336627E-2,2.8965492E-2,-1.7227229E-2],"categories":[],"categories_nodes":[],"categories_segments":[],"categories_sizes":[],"default_left":[0,0,0,0,0,0,0,0,0,0,0,0,0,0,0,0,0,0,0],"id":42,"left_children":[1,3,5,-1,-1,7,9,11,13,15,17,-1,-1,-1,-1,-1,-1,-1,-1],"loss_changes":[3.5373538E0,1.02318525E-1,3.3824303E0,0E0,0E0,8.782955E0,5.7205358E0,1.9509506E0,2.6644068E0,7.296555E0,5.27741E0,0E0,0E0,0E0,0E0,0E0,0E0,0E0,0E0],"parents":[2147483647,0,0,1,1,2,2,5,5,6,6,7,7,8,8,9,9,10,10],"right_children":[2,4,6,-1,-1,8,10,12,14,16,18,-1,-1,-1,-1,-1,-1,-1,-1],"split_conditions":[3.3435428E-1,0E0,-4.0334576E-1,-1.3658675E-2,-4.7575768E-2,-9.6290775E-2,3.6452907E-1,-6.110609E-1,3.7644312E-1,6.631206E1,1.5115806E-1,6.1339296E-2,-2.4591542E-3,-5.290392E-2,1.5429902E-2,-7.720607E-3,1.7336627E-2,2.8965492E-2,-1.7227229E-2],"split_indices":[11,8,5,0,0,1,9,5,9,0,5,0,0,0,0,0,0,0,0],"split_type":[0,0,0,0,0,0,0,0,0,0,0,0,0,0,0,0,0,0,0],"sum_hessian":[2.102352E2,4.122915E0,2.0611229E2,1.3741667E0,2.7487478E0,1.4383096E1,1.9172919E2,3.8797905E0,1.05033045E1,1.5455052E2,3.717866E1,2.0136745E0,1.866116E0,9.299848E0,1.2034568E0,1.1700114E2,3.7549393E1,3.0178257E1,7.0004053E0],"tree_param":{"num_deleted":"0","num_feature":"14","num_nodes":"19","size_leaf_vector":"1"}},{"base_weights":[-2.0378972E-3,6.698448E-1,-2.6280113E-2,-4.053578E-2,1.0515518E0,-1.7023335E-1,1.2885736E-1,6.309103E-2,3.956623E-3,-1.2703267E-1,-5.3301323E-2,2.0704435E-1,-3.4132317E-1,-3.4273587E-2,-2.614008E-3,-6.733018E-4,2.543861E-2,-3.773657E-2,4.1932397E-2],"categories":[],"categories_nodes":[],"categories_segments":[],"categories_sizes":[],"default_left":[0,0,0,0,0,0,0,0,0,0,0,0,0,0,0,0,0,0,0],"id":43,"left_children":[1,3,5,-1,7,9,11,-1,-1,13,-1,15,17,-1,-1,-1,-1,-1,-1],"loss_changes":[3.4495773E0,5.020708E0,4.5851693E0,0E0,1.1881213E0,3.9827898E0,3.7069578E0,0E0,0E0,4.2495136E0,0E0,5.6910906E0,7.696881E0,0E0,0E0,0E0,0E0,0E0,0E0],"parents":[2147483647,0,0,1,1,2,2,4,4,5,5,6,6,9,9,11,11,12,12],"right_children":[2,4,6,-1,8,10,12,-1,-1,14,-1,16,18,-1,-1,-1,-1,-1,-1],"split_conditions":[2.1096548E-1,6.239955E-1,1.12950966E-1,-4.053578E-2,-4.034142E-2,1.0941208E-1,2.0342968E0,6.309103E-2,3.956623E-3,2.3194323E-1,-5.3301323E-2,8.61513E-1,3.1913054E0,-3.4273587E-2,-2.614008E-3,-6.733018E-4,2.543861E-2,-3.773657E-2,4.1932397E-2],"split_indices":[10,6,1,0,1,1,6,0,0,10,0,6,6,0,0,0,0,0,0],"split_type":[0,0,0,0,0,0,0,0,0,0,0,0,0,0,0,0,0,0,0],"sum_hessian":[2.0970662E2,6.375509E0,2.0333112E2,1.0764127E0,5.299096E0,1.0541677E2,9.791434E1,4.1122785E0,1.1868179E0,1.016561E2,3.7606757E0,8.443343E1,1.3480907E1,1.1036675E1,9.061942E1,4.933415E1,3.509928E1,1.0250115E1,3.2307925E0],"tree_param":{"num_deleted":"0","num_feature":"14","num_nodes":"19","size_leaf_vector":"1"}},{"base_weights":[-2.1101146E-3,-5.750742E-1,2.6326463E-2,-2.612808E-1,-4.29884E-2,4.626469E-2,9.477471E-3,-1.8702451E-2,-3.4288414E-2,-8.4534097E-1,3.489808E-2,-2.6563117E-2,2.5295654E-2,-5.9269406E-2,-1.2071509E-2,9.140735E-3,-4.778176E-3],"categories":[],"categories_nodes":[],"categories_segments":[],"categories_sizes":[],"default_left":[0,0,0,0,0,0,0,0,0,0,0,0,0,0,0,0,0],"id":44,"left_children":[1,3,5,7,-1,-1,9,11,-1,13,15,-1,-1,-1,-1,-1,-1],"loss_changes":[3.4409862E0,6.674447E-1,3.0399163E0,6.242305E-1,0E0,0E0,4.344745E0,1.6038349E0,0E0,8.9967537E-1,3.757507E0,0E0,0E0,0E0,0E0,0E0,0E0],"parents":[2147483647,0,0,1,1,2,2,3,3,6,6,7,7,9,9,10,10],"right_children":[2,4,6,8,-1,-1,10,12,-1,14,16,-1,-1,-1,-1,-1,-1],"split_conditions":[1.7071428E0,1.3142858E0,-1.1E1,3.4274092E-1,-4.29884E-2,4.626469E-2,-8E0,-3.0083835E-1,-3.4288414E-2,3.9485055E-1,3.7881178E-1,-2.6563117E-2,2.5295654E-2,-5.9269406E-2,-1.2071509E-2,9.140735E-3,-4.778176E-3],"split_indices":[2,2,8,7,0,0,8,7,0,11,11,0,0,0,0,0,0],"split_type":[0,0,0,0,0,0,0,0,0,0,0,0,0,0,0,0,0],"sum_hessian":[2.0926317E2,8.985841E0,2.0027733E2,5.186724E0,3.799117E0,2.692708E0,1.9758461E2,3.9649599E0,1.2217641E0,4.774613E0,1.9281E2,1.9991149E0,1.965845E0,2.438629E0,2.335984E0,9.0172104E1,1.026379E2],"tree_param":{"num_deleted":"0","num_feature":"14","num_nodes":"17","size_leaf_vector":"1"}},{"base_weights":[-2.5005478E-3,-6.5884084E-1,2.2018041E-2,6.519809E-3,-4.5752566E-2,5.2590173E-2,4.242453E-3,-1.9407247E-1,1.0311751E-1,1.375003E-3,-3.392487E-2,-1.1147696E-3,2.716819E-2],"categories":[],"categories_nodes":[],"categories_segments":[],"categories_sizes":[],"default_left":[0,0,0,0,0,0,0,0,0,0,0,0,0],"id":45,"left_children":[1,3,5,-1,-1,-1,7,9,11,-1,-1,-1,-1],"loss_changes":[3.3942873E0,1.6552081E0,3.7192624E0,0E0,0E0,0E0,3.9608762E0,7.2329226E0,7.4528866E0,0E0,0E0,0E0,0E0],"parents":[2147483647,0,0,1,1,2,2,6,6,7,7,8,8],"right_children":[2,4,6,-1,-1,-1,8,10,12,-1,-1,-1,-1],"split_conditions":[-7.880639E-1,2.5481957E-1,-7.630854E-1,6.519809E-3,-4.5752566E-2,5.2590173E-2,6.28295E-1,4.9706265E-1,2.7648696E-1,1.375003E-3,-3.392487E-2,-1.1147696E-3,2.716819E-2],"split_indices":[7,6,7,0,0,0,6,6,10,0,0,0,0],"split_type":[0,0,0,0,0,0,0,0,0,0,0,0,0],"sum_hessian":[2.0902164E2,6.5954833E0,2.0242615E2,1.7367169E0,4.858766E0,2.4477963E0,1.9997836E2,6.621244E1,1.3376591E2,4.607932E1,2.0133123E1,1.04847404E2,2.8918509E1],"tree_param":{"num_deleted":"0","num_feature":"14","num_nodes":"13","size_leaf_vector":"1"}},{"base_weights":[-2.368934E-3,-8.029047E-1,1.7185604E-2,-1.3250032E-2,-4.647535E-2,-6.3883144E-1,4.0671285E-2,5.7362635E-3,-4.411132E-2,5.0695397E-2,2.3429003E-2,-2.3202384E-3,1.3812278E-2],"categories":[],"categories_nodes":[],"categories_segments":[],"categories_sizes":[],"default_left":[0,0,0,0,0,0,0,0,0,0,0,0,0],"id":46,"left_children":[1,3,5,-1,-1,7,9,-1,-1,-1,11,-1,-1],"loss_changes":[3.2966685E0,9.563899E-2,3.1950738E0,0E0,0E0,1.4161263E0,3.324395E0,0E0,0E0,0E0,3.492165E0,0E0,0E0],"parents":[2147483647,0,0,1,1,2,2,5,5,6,6,10,10],"right_children":[2,4,6,-1,-1,8,10,-1,-1,-1,12,-1,-1],"split_conditions":[3.3435428E-1,0E0,-7.880639E-1,-1.3250032E-2,-4.647535E-2,2.5481957E-1,-7.630854E-1,5.7362635E-3,-4.411132E-2,5.0695397E-2,3.6452907E-1,-2.3202384E-3,1.3812278E-2],"split_indices":[11,8,7,0,0,6,7,0,0,0,9,0,0],"split_type":[0,0,0,0,0,0,0,0,0,0,0,0,0],"sum_hessian":[2.0871301E2,4.021431E0,2.0469159E2,1.3554806E0,2.6659505E0,6.1691813E0,1.985224E2,1.6352016E0,4.53398E0,2.449637E0,1.9607277E2,1.5427492E2,4.1797848E1],"tree_param":{"num_deleted":"0","num_feature":"14","num_nodes":"13","size_leaf_vector":"1"}},{"base_weights":[-2.4403888E-3,-5.6044537E-1,2.486538E-2,-2.9348928E-1,-4.5221876E-2,6.9587016E-1,3.5389455E-4,-3.6091942E-2,2.3610754E-2,5.5962503E-2,1.541988E-1,-5.027742E-1,4.4351045E-2,2.521039E-2,-1.9863987E-2,4.2936224E-2,-1.8685808E-2,-4.617865E-2,6.0347557E-2,6.023931E-2,8.002456E-4],"categories":[],"categories_nodes":[],"categories_segments":[],"categories_sizes":[],"default_left":[0,0,0,0,0,0,0,0,0,0,0,0,0,0,0,0,0,0,0,0,0],"id":47,"left_children":[1,3,5,7,-1,9,11,-1,13,-1,15,17,19,-1,-1,-1,-1,-1,-1,-1,-1],"loss_changes":[3.2058964E0,6.3593125E-1,3.3003242E0,9.6880394E-1,0E0,1.4491894E0,4.3300815E0,0E0,1.2106315E0,0E0,1.9061698E0,1.2431755E1,5.897445E0,0E0,0E0,0E0,0E0,0E0,0E0,0E0,0E0],"parents":[2147483647,0,0,1,1,2,2,3,3,5,5,6,6,8,8,10,10,11,11,12,12],"right_children":[2,4,6,8,-1,10,12,-1,14,-1,16,18,20,-1,-1,-1,-1,-1,-1,-1,-1],"split_conditions":[1.7071428E0,3.4274092E-1,2.1096548E-1,-6.098089E-1,-4.5221876E-2,8.549888E0,2.3194323E-1,-3.6091942E-2,-2.4591815E-3,5.5962503E-2,-7.406202E-2,-1E0,2.3365958E-1,2.521039E-2,-1.9863987E-2,4.2936224E-2,-1.8685808E-2,-4.617865E-2,6.0347557E-2,6.023931E-2,8.002456E-4],"split_indices":[2,7,10,7,0,0,10,0,1,0,7,8,10,0,0,0,0,0,0,0,0],"split_type":[0,0,0,0,0,0,0,0,0,0,0,0,0,0,0,0,0,0,0,0,0],"sum_hessian":[2.0849084E2,8.815595E0,1.9967525E2,6.0070176E0,2.8085775E0,6.071717E0,1.9360353E2,2.0123248E0,3.9946926E0,2.8094845E0,3.2622325E0,1.4730131E1,1.788734E2,1.7726378E0,2.2220547E0,1.1289564E0,2.133276E0,1.2189785E1,2.5403461E0,3.2755635E0,1.7559784E2],"tree_param":{"num_deleted":"0","num_feature":"14","num_nodes":"21","size_leaf_vector":"1"}},{"base_weights":[-1.9651663E-3,-7.8199255E-1,1.6712176E-2,-1.2212674E-2,-4.5571584E-2,6.315112E-1,-5.5283746E-3,-3.886654E-2,9.9946797E-1,-4.8456472E-1,3.5278566E-2,6.046142E-2,3.549603E-3,-4.4455048E-2,5.5346217E-2,-7.2935416E-4,3.2359373E-2],"categories":[],"categories_nodes":[],"categories_segments":[],"categories_sizes":[],"default_left":[0,0,0,0,0,0,0,0,0,0,0,0,0,0,0,0,0],"id":48,"left_children":[1,3,5,-1,-1,7,9,-1,11,13,15,-1,-1,-1,-1,-1,-1],"loss_changes":[3.0609221E0,1.1934996E-1,2.810525E0,0E0,0E0,4.496829E0,3.9093902E0,0E0,1.107491E0,1.1090824E1,5.6365876E0,0E0,0E0,0E0,0E0,0E0,0E0],"parents":[2147483647,0,0,1,1,2,2,5,5,6,6,8,8,9,9,10,10],"right_children":[2,4,6,-1,-1,8,10,-1,12,14,16,-1,-1,-1,-1,-1,-1],"split_conditions":[3.3435428E-1,0E0,2.1096548E-1,-1.2212674E-2,-4.5571584E-2,4.3285713E0,2.3194323E-1,-3.886654E-2,3.9300457E-1,-1E0,4.0472668E-1,6.046142E-2,3.549603E-3,-4.4455048E-2,5.5346217E-2,-7.2935416E-4,3.2359373E-2],"split_indices":[11,8,10,0,0,2,10,0,9,8,11,0,0,0,0,0,0],"split_type":[0,0,0,0,0,0,0,0,0,0,0,0,0,0,0,0,0],"sum_hessian":[2.082036E2,3.9130535E0,2.0429054E2,1.3192799E0,2.5937736E0,6.1758537E0,1.9811469E2,1.0485562E0,5.1272974E0,1.4698077E1,1.8341661E2,3.9357557E0,1.1915418E0,1.2071098E1,2.6269794E0,1.7049852E2,1.2918096E1],"tree_param":{"num_deleted":"0","num_feature":"14","num_nodes":"17","size_leaf_vector":"1"}},{"base_weights":[-1.8378361E-3,-5.440553E-1,2.4280997E-2,-2.3745401E-1,-4.1528653E-2,-4.189904E-1,6.0281385E-2,-2.1361976E-3,-3.3037424E-2,-5.8548594E-1,4.632247E-2,5.070943E-1,-1.8069549E-3,-2.5275687E-2,2.4496293E-2,-3.5751652E-2,1.5230848E-2,4.7407843E-2,-6.3724006E-3,-4.189033E-3,1.730746E-2],"categories":[],"categories_nodes":[],"categories_segments":[],"categories_sizes":[],"default_left":[0,0,0,0,0,0,0,0,0,0,0,0,0,0,0,0,0,0,0,0,0],"id":49,"left_children":[1,3,5,7,-1,9,11,13,-1,15,-1,17,19,-1,-1,-1,-1,-1,-1,-1,-1],"loss_changes":[2.9728003E0,6.502111E-1,3.2221606E0,6.022565E-1,0E0,3.9414904E0,5.165324E0,1.460938E0,0E0,1.8454795E0,0E0,6.478393E0,4.7194633E0,0E0,0E0,0E0,0E0,0E0,0E0,0E0,0E0],"parents":[2147483647,0,0,1,1,2,2,3,3,5,5,6,6,7,7,9,9,11,11,12,12],"right_children":[2,4,6,8,-1,10,12,14,-1,16,-1,18,20,-1,-1,-1,-1,-1,-1,-1,-1],"split_conditions":[1.7071428E0,1.3142858E0,-4.0334576E-1,3.4274092E-1,-4.1528653E-2,3.9600608E-1,-1.7248872E-1,-3.0083835E-1,-3.3037424E-2,3.7779626E-1,4.632247E-2,7.180232E1,3.6452907E-1,-2.5275687E-2,2.4496293E-2,-3.5751652E-2,1.5230848E-2,4.7407843E-2,-6.3724006E-3,-4.189033E-3,1.730746E-2],"split_indices":[2,2,5,7,0,11,5,7,0,9,0,0,9,0,0,0,0,0,0,0,0],"split_type":[0,0,0,0,0,0,0,0,0,0,0,0,0,0,0,0,0,0,0,0,0],"sum_hessian":[2.079798E2,8.646735E0,1.9933307E2,5.060392E0,3.5863428E0,1.4173748E1,1.8515932E2,3.8982975E0,1.1620945E0,1.311556E1,1.0581881E0,2.1715858E1,1.6344345E2,1.913479E0,1.9848186E0,1.1620916E1,1.4946432E0,1.2519484E1,9.196376E0,1.3289455E2,3.0548914E1],"tree_param":{"num_deleted":"0","num_feature":"14","num_nodes":"21","size_leaf_vector":"1"}},{"base_weights":[-1.751983E-3,-1.4484886E-2,5.4131497E-2,1.634315E-2,-8.4249914E-1,-1.0823874E-1,1.7141336E-1,-1.0780513E0,4.903519E-3,-1.1305606E-2,1.4491587E-2,3.8230106E-2,4.2052795E-3,-5.3789923E-3,-6.3118435E-2],"categories":[],"categories_nodes":[],"categories_segments":[],"categories_sizes":[],"default_left":[0,0,0,0,0,0,0,0,0,0,0,0,0,0,0],"id":50,"left_children":[1,3,-1,5,7,9,11,13,-1,-1,-1,-1,-1,-1,-1],"loss_changes":[2.896218E0,5.302493E0,0E0,3.8965058E0,1.7576394E0,5.3171163E0,4.5870266E0,9.4569874E-1,0E0,0E0,0E0,0E0,0E0,0E0,0E0],"parents":[2147483647,0,0,1,1,3,3,4,4,5,5,6,6,7,7],"right_children":[2,4,-1,6,8,10,12,14,-1,-1,-1,-1,-1,-1,-1],"split_conditions":[8.696539E-1,5.113608E-1,5.4131497E-2,1.1397635E-1,1.1397983E0,4.0472668E-1,5.357143E1,3.5140988E-1,4.903519E-3,-1.1305606E-2,1.4491587E-2,3.8230106E-2,4.2052795E-3,-5.3789923E-3,-6.3118435E-2],"split_indices":[1,1,0,1,6,11,2,9,0,0,0,0,0,0,0],"split_type":[0,0,0,0,0,0,0,0,0,0,0,0,0,0,0],"sum_hessian":[2.076237E2,2.0618925E2,1.4344491E0,1.997332E2,6.4560614E0,1.10921745E2,8.881145E1,5.0461555E0,1.4099059E0,8.591367E1,2.5008074E1,1.0399222E1,7.8412224E1,1.0581944E0,3.9879613E0],"tree_param":{"num_deleted":"0","num_feature":"14","num_nodes":"15","size_leaf_vector":"1"}},{"base_weights":[-1.5052924E-3,-1.367693E-1,1.0089846E-1,5.6480106E-2,-7.160685E-1,3.381907E-1,-1.5719098E-1,-1.3802977E-1,4.5479757E-1,-1.0888269E0,2.1991292E-1,7.8964853E-1,9.575497E-2,-3.517376E-1,3.012802E-1,-2.06624E-3,-5.5298477E-2,-3.9299164E-2,3.3654504E-2,9.557832E-3,-5.9833515E-2,4.1939177E-2,-2.6771387E-2,7.3479205E-2,2.0287825E-2,4.590377E-2,-5.2510616E-3,-4.244206E-2,-8.37457E-3,3.605434E-2,-4.166409E-2],"categories":[],"categories_nodes":[],"categories_segments":[],"categories_sizes":[],"default_left":[0,0,0,0,0,0,0,0,0,0,0,0,0,0,0,0,0,0,0,0,0,0,0,0,0,0,0,0,0,0,0],"id":51,"left_children":[1,3,5,7,9,11,13,15,17,19,21,23,25,27,29,-1,-1,-1,-1,-1,-1,-1,-1,-1,-1,-1,-1,-1,-1,-1,-1],"loss_changes":[2.9012382E0,1.0142952E1,7.3541517E0,5.3773026E0,8.140761E0,6.7569747E0,5.260258E0,4.340223E0,6.688044E0,2.4876652E0,3.8532548E0,5.060831E0,6.99008E0,3.6159945E0,9.057325E0,0E0,0E0,0E0,0E0,0E0,0E0,0E0,0E0,0E0,0E0,0E0,0E0,0E0,0E0,0E0,0E0],"parents":[2147483647,0,0,1,1,2,2,3,3,4,4,5,5,6,6,7,7,8,8,9,9,10,10,11,11,12,12,13,13,14,14],"right_children":[2,4,6,8,10,12,14,16,18,20,22,24,26,28,30,-1,-1,-1,-1,-1,-1,-1,-1,-1,-1,-1,-1,-1,-1,-1,-1],"split_conditions":[7.3171425E1,6.0264286E1,1.8616405E-1,2.8750873E-1,-2E0,-9.498479E-3,3.6223477E-1,9.506066E-2,1.7071428E0,-3.6870543E-2,-5.5969963E-3,-2.8208178E-2,8.912143E1,-4E0,2.766813E-1,-2.06624E-3,-5.5298477E-2,-3.9299164E-2,3.3654504E-2,9.557832E-3,-5.9833515E-2,4.1939177E-2,-2.6771387E-2,7.3479205E-2,2.0287825E-2,4.590377E-2,-5.2510616E-3,-4.244206E-2,-8.37457E-3,3.605434E-2,-4.166409E-2],"split_indices":[2,2,7,7,8,5,9,7,2,1,7,1,2,8,1,0,0,0,0,0,0,0,0,0,0,0,0,0,0,0,0],"split_type":[0,0,0,0,0,0,0,0,0,0,0,0,0,0,0,0,0,0,0,0,0,0,0,0,0,0,0,0,0,0,0],"sum_hessian":[2.0745609E2,8.9241875E1,1.1821421E2,6.7595184E1,2.1646688E1,6.1426853E1,5.6787357E1,4.58559E1,2.1739286E1,1.536444E1,6.2822495E0,2.0672985E1,4.0753872E1,4.0032753E1,1.6754602E1,4.263865E1,3.2172503E0,2.8633463E0,1.887594E1,1.1338885E0,1.4230551E1,3.392343E0,2.8899066E0,6.4394855E0,1.4233499E1,7.2965827E0,3.3457287E1,9.849987E0,3.0182766E1,1.24955E1,4.2591033E0],"tree_param":{"num_deleted":"0","num_feature":"14","num_nodes":"31","size_leaf_vector":"1"}},{"base_weights":[-1.58417E-3,-7.5931466E-1,1.6181353E-2,-1.1092829E-2,-4.4615697E-2,-4.0517E-1,4.93436E-2,6.989029E-1,-8.4802467E-1,4.766936E-1,-8.440263E-3,5.9084352E-2,-2.4670048E-3,-6.622647E-3,-5.1129915E-2,4.4817116E-2,-6.348391E-3,-3.7325819E-3,1.8808467E-2],"categories":[],"categories_nodes":[],"categories_segments":[],"categories_sizes":[],"default_left":[0,0,0,0,0,0,0,0,0,0,0,0,0,0,0,0,0,0,0],"id":52,"left_children":[1,3,5,-1,-1,7,9,11,13,15,17,-1,-1,-1,-1,-1,-1,-1,-1],"loss_changes":[2.8096387E0,1.4381361E-1,2.8707952E0,0E0,0E0,7.9241505E0,4.696571E0,1.807003E0,1.2578688E0,5.852016E0,4.3158875E0,0E0,0E0,0E0,0E0,0E0,0E0,0E0,0E0],"parents":[2147483647,0,0,1,1,2,2,5,5,6,6,7,7,8,8,9,9,10,10],"right_children":[2,4,6,-1,-1,8,10,12,14,16,18,-1,-1,-1,-1,-1,-1,-1,-1],"split_conditions":[3.3435428E-1,0E0,-4.0334576E-1,-1.1092829E-2,-4.4615697E-2,-9.6290775E-2,-1.7248872E-1,-6.110609E-1,5.3579813E-1,7.180232E1,7.235169E1,5.9084352E-2,-2.4670048E-3,-6.622647E-3,-5.1129915E-2,4.4817116E-2,-6.348391E-3,-3.7325819E-3,1.8808467E-2],"split_indices":[11,8,5,0,0,1,5,5,6,0,0,0,0,0,0,0,0,0,0],"split_type":[0,0,0,0,0,0,0,0,0,0,0,0,0,0,0,0,0,0,0],"sum_hessian":[2.068042E2,3.7813678E0,2.0302283E2,1.2793881E0,2.5019798E0,1.399449E1,1.8902835E2,3.8408246E0,1.0153666E1,2.1651505E1,1.6737685E2,1.9824308E0,1.8583938E0,2.3362343E0,7.817431E0,1.2486437E1,9.165068E0,1.4348201E2,2.3894833E1],"tree_param":{"num_deleted":"0","num_feature":"14","num_nodes":"19","size_leaf_vector":"1"}},{"base_weights":[-1.5431008E-3,-6.086046E-1,2.0525036E-2,6.8325675E-3,-4.3020215E-2,4.966607E-2,3.6222897E-3,-1.8251763E-1,9.640192E-2,1.2479604E-3,-3.201426E-2,-1.2678442E-3,2.6180172E-2],"categories":[],"categories_nodes":[],"categories_segments":[],"categories_sizes":[],"default_left":[0,0,0,0,0,0,0,0,0,0,0,0,0],"id":53,"left_children":[1,3,5,-1,-1,-1,7,9,11,-1,-1,-1,-1],"loss_changes":[2.7916627E0,1.4892328E0,3.3037689E0,0E0,0E0,0E0,3.449326E0,6.3266335E0,6.9451804E0,0E0,0E0,0E0,0E0],"parents":[2147483647,0,0,1,1,2,2,6,6,7,7,8,8],"right_children":[2,4,6,-1,-1,-1,8,10,12,-1,-1,-1,-1],"split_conditions":[-7.880639E-1,2.5481957E-1,-7.630854E-1,6.8325675E-3,-4.3020215E-2,4.966607E-2,6.28295E-1,4.9706265E-1,2.7648696E-1,1.2479604E-3,-3.201426E-2,-1.2678442E-3,2.6180172E-2],"split_indices":[7,6,7,0,0,0,6,6,10,0,0,0,0],"split_type":[0,0,0,0,0,0,0,0,0,0,0,0,0],"sum_hessian":[2.0645164E2,6.309457E0,2.0014218E2,1.7088993E0,4.600558E0,2.4315815E0,1.977106E2,6.5444595E1,1.32266E2,4.5684296E1,1.9760303E1,1.0366155E2,2.8604446E1],"tree_param":{"num_deleted":"0","num_feature":"14","num_nodes":"13","size_leaf_vector":"1"}},{"base_weights":[-1.4512576E-3,-1.4042498E-2,5.33535E-2,1.5421764E-2,-8.0680776E-1,-1.0995055E-1,1.6529869E-1,-1.037341E0,5.0744796E-3,-1.1397949E-2,1.3827211E-2,3.887638E-2,3.617524E-3,-5.1370417E-3,-6.082815E-2],"categories":[],"categories_nodes":[],"categories_segments":[],"categories_sizes":[],"default_left":[0,0,0,0,0,0,0,0,0,0,0,0,0,0,0],"id":54,"left_children":[1,3,-1,5,7,9,11,13,-1,-1,-1,-1,-1,-1,-1],"loss_changes":[2.8017628E0,4.817427E0,0E0,3.7634447E0,1.6527405E0,5.040509E0,5.1327457E0,8.7722397E-1,0E0,0E0,0E0,0E0,0E0,0E0,0E0],"parents":[2147483647,0,0,1,1,3,3,4,4,5,5,6,6,7,7],"right_children":[2,4,-1,6,8,10,12,14,-1,-1,-1,-1,-1,-1,-1],"split_conditions":[8.696539E-1,5.113608E-1,5.33535E-2,1.12950966E-1,1.1397983E0,4.0472668E-1,3.6193112E-1,3.5140988E-1,5.0744796E-3,-1.1397949E-2,1.3827211E-2,3.887638E-2,3.617524E-3,-5.1370417E-3,-6.082815E-2],"split_indices":[1,1,0,1,6,11,11,9,0,0,0,0,0,0,0],"split_type":[0,0,0,0,0,0,0,0,0,0,0,0,0,0,0],"sum_hessian":[2.061337E2,2.0470831E2,1.4253836E0,1.9831808E2,6.39023E0,1.0813193E2,9.018616E1,4.9833446E0,1.4068856E0,8.315301E1,2.497892E1,1.0916495E1,7.926967E1,1.0550044E0,3.9283402E0],"tree_param":{"num_deleted":"0","num_feature":"14","num_nodes":"15","size_leaf_vector":"1"}},{"base_weights":[-1.2058964E-3,4.3439228E-2,-1.6413378E-2,-8.0322134E-1,6.044839E-3,-5.731454E-2,-2.0755187E-1,2.1371763E-2,-4.5902085E-2,1.4458907E-2,-3.3122655E-2,3.1450249E-3,-1.8483963E-2],"categories":[],"categories_nodes":[],"categories_segments":[],"categories_sizes":[],"default_left":[0,0,0,0,0,0,0,0,0,0,0,0,0],"id":55,"left_children":[1,-1,3,5,7,-1,9,11,-1,-1,-1,-1,-1],"loss_changes":[2.7514567E0,0E0,3.6151576E0,9.223108E-1,2.8471627E0,0E0,9.363354E-1,3.2283063E0,0E0,0E0,0E0,0E0,0E0],"parents":[2147483647,0,0,2,2,3,3,4,4,6,6,7,7],"right_children":[2,-1,4,6,8,-1,10,12,-1,-1,-1,-1,-1],"split_conditions":[-1.1E1,4.3439228E-2,-8E0,3.9485055E-1,4.0206637E0,-5.731454E-2,1.2728188E0,1.7706934E-1,-4.5902085E-2,1.4458907E-2,-3.3122655E-2,3.1450249E-3,-1.8483963E-2],"split_indices":[8,0,8,11,7,0,6,5,0,0,0,0,0],"split_type":[0,0,0,0,0,0,0,0,0,0,0,0,0],"sum_hessian":[2.058875E2,2.5728178E0,2.0331468E2,4.6774745E0,1.986372E2,2.381501E0,2.2959735E0,1.9635728E2,2.2799146E0,1.2716736E0,1.0243E0,1.7826509E2,1.80922E1],"tree_param":{"num_deleted":"0","num_feature":"14","num_nodes":"13","size_leaf_vector":"1"}},{"base_weights":[-1.6098848E-3,-1.3831819E-2,5.195151E-2,1.4443644E-2,-7.782554E-1,-5.350965E-2,2.7449936E-1,-1.0029706E0,4.932456E-3,-2.8829518E-4,-3.0400345E-2,-4.01934E-3,2.5090767E-2,-5.0867717E-3,-5.8843333E-2],"categories":[],"categories_nodes":[],"categories_segments":[],"categories_sizes":[],"default_left":[0,0,0,0,0,0,0,0,0,0,0,0,0,0,0],"id":56,"left_children":[1,3,-1,5,7,9,11,13,-1,-1,-1,-1,-1,-1,-1],"loss_changes":[2.6444836E0,4.4503775E0,0E0,3.5319517E0,1.5461125E0,4.196227E0,3.3798783E0,8.1049156E-1,0E0,0E0,0E0,0E0,0E0,0E0,0E0],"parents":[2147483647,0,0,1,1,3,3,4,4,5,5,6,6,7,7],"right_children":[2,4,-1,6,8,10,12,14,-1,-1,-1,-1,-1,-1,-1],"split_conditions":[8.696539E-1,5.113608E-1,5.195151E-2,1.3456429E2,1E0,7.787115E1,3.7368424E-2,3.5140988E-1,4.932456E-3,-2.8829518E-4,-3.0400345E-2,-4.01934E-3,2.5090767E-2,-5.0867717E-3,-5.8843333E-2],"split_indices":[1,1,0,2,4,0,1,9,0,0,0,0,0,0,0],"split_type":[0,0,0,0,0,0,0,0,0,0,0,0,0,0,0],"sum_hessian":[2.05792E2,2.0437837E2,1.4136403E0,1.9803433E2,6.3440385E0,1.5763745E2,4.0396877E1,4.9355054E0,1.4085333E0,1.4607076E2,1.1566697E1,1.6024992E1,2.4371885E1,1.0546585E0,3.8808467E0],"tree_param":{"num_deleted":"0","num_feature":"14","num_nodes":"15","size_leaf_vector":"1"}},{"base_weights":[-1.6160617E-3,5.9873134E-1,-2.2488505E-2,-3.796647E-2,9.617052E-1,-4.9164844E-1,1.681278E-2,5.8265932E-2,3.3716876E-3,-8.8087475E-1,5.1695973E-2,1.1111506E0,-9.036287E-3,-5.475946E-2,1.4421021E-2,1.8859172E-2,6.4322576E-2,1.0328837E-3,-3.3546228E-2],"categories":[],"categories_nodes":[],"categories_segments":[],"categories_sizes":[],"default_left":[0,0,0,0,0,0,0,0,0,0,0,0,0,0,0,0,0,0,0],"id":57,"left_children":[1,3,5,-1,7,9,11,-1,-1,13,-1,15,17,-1,-1,-1,-1,-1,-1],"loss_changes":[2.6014364E0,4.168726E0,3.7062135E0,0E0,1.0040064E0,1.0135216E1,5.2721004E0,0E0,0E0,3.5528355E0,0E0,6.810951E-2,3.6050406E0,0E0,0E0,0E0,0E0,0E0,0E0],"parents":[2147483647,0,0,1,1,2,2,4,4,5,5,6,6,9,9,11,11,12,12],"right_children":[2,4,6,-1,8,10,12,-1,-1,14,-1,16,18,-1,-1,-1,-1,-1,-1],"split_conditions":[2.1096548E-1,4.3285713E0,2.3194323E-1,-3.796647E-2,-4.034142E-2,-1E0,2.3365958E-1,5.8265932E-2,3.3716876E-3,4.1141582E-1,5.1695973E-2,-2.8208178E-2,2.628983E0,-5.475946E-2,1.4421021E-2,1.8859172E-2,6.4322576E-2,1.0328837E-3,-3.3546228E-2],"split_indices":[10,2,10,0,1,8,10,0,0,9,0,1,7,0,0,0,0,0,0],"split_type":[0,0,0,0,0,0,0,0,0,0,0,0,0,0,0,0,0,0,0],"sum_hessian":[2.0553023E2,5.9754353E0,1.995548E2,1.0299453E0,4.9454904E0,1.453486E1,1.8501993E2,3.78142E0,1.1640701E0,1.1917004E1,2.6178565E0,3.3006017E0,1.8171933E2,1.0124677E1,1.7923267E0,1.2439482E0,2.0566535E0,1.7484418E2,6.8751564E0],"tree_param":{"num_deleted":"0","num_feature":"14","num_nodes":"19","size_leaf_vector":"1"}},{"base_weights":[-1.1368479E-3,-5.848874E-1,1.9850843E-2,-1.449285E-1,-4.3046307E-2,4.845033E-2,3.2652153E-3,-3.3854008E-2,1.797429E-2,3.949163E-2,-4.3571478E-1,-1.3937544E-3,1.6402977E-2,-3.4265842E-2,3.8943294E-2],"categories":[],"categories_nodes":[],"categories_segments":[],"categories_sizes":[],"default_left":[0,0,0,0,0,0,0,0,0,0,0,0,0,0,0],"id":58,"left_children":[1,3,5,7,-1,-1,9,-1,-1,11,13,-1,-1,-1,-1],"loss_changes":[2.5381155E0,7.483895E-1,3.1457615E0,1.3101947E0,0E0,0E0,3.1595292E0,0E0,0E0,3.575401E0,5.125618E0,0E0,0E0,0E0,0E0],"parents":[2147483647,0,0,1,1,2,2,3,3,6,6,9,9,10,10],"right_children":[2,4,6,8,-1,-1,10,-1,-1,12,14,-1,-1,-1,-1],"split_conditions":[-7.880639E-1,3.55532E-1,-7.630854E-1,-1.3992483E-2,-4.3046307E-2,4.845033E-2,3.5875615E-1,-3.3854008E-2,1.797429E-2,2.8130364E-1,2.3622858E2,-1.3937544E-3,1.6402977E-2,-3.4265842E-2,3.8943294E-2],"split_indices":[7,9,7,1,0,0,10,0,0,10,2,0,0,0,0],"split_type":[0,0,0,0,0,0,0,0,0,0,0,0,0,0,0],"sum_hessian":[2.0521877E2,6.1897326E0,1.9902904E2,2.9742742E0,3.2154586E0,2.4319146E0,1.9659712E2,1.2807679E0,1.6935062E0,1.8245059E2,1.4146527E1,1.4865111E2,3.3799477E1,1.20964155E1,2.0501115E0],"tree_param":{"num_deleted":"0","num_feature":"14","num_nodes":"15","size_leaf_vector":"1"}},{"base_weights":[-1.055645E-3,-1.773084E-2,7.288615E-1,2.408746E-2,-5.9305626E-1,-4.1787336E-3,5.013437E-2,-8.473606E-2,1.8721983E-1,-1.2330325E-1,-9.8411524E-1,1.300542E-3,-3.1105712E-2,4.8030138E-2,3.1673182E-3,-3.0878225E-2,3.0711267E-2,-1.0944213E-2,-6.031583E-2],"categories":[],"categories_nodes":[],"categories_segments":[],"categories_sizes":[],"default_left":[0,0,0,0,0,0,0,0,0,0,0,0,0,0,0,0,0,0,0],"id":59,"left_children":[1,3,5,7,9,-1,-1,11,13,15,17,-1,-1,-1,-1,-1,-1,-1,-1],"loss_changes":[2.5195622E0,4.8819194E0,1.1123719E0,3.3812535E0,2.4042559E0,0E0,0E0,6.824611E0,7.2362394E0,3.072857E0,9.873128E-1,0E0,0E0,0E0,0E0,0E0,0E0,0E0,0E0],"parents":[2147483647,0,0,1,1,2,2,3,3,4,4,7,7,8,8,9,9,10,10],"right_children":[2,4,6,8,10,-1,-1,12,14,16,18,-1,-1,-1,-1,-1,-1,-1,-1],"split_conditions":[3.4120865E0,2.3220906E0,4.8700958E-1,9.144153E-1,2.4471049E-1,-4.1787336E-3,5.013437E-2,7.9852545E-1,1.03474E0,1.3605225E0,1.2257679E0,1.300542E-3,-3.1105712E-2,4.8030138E-2,3.1673182E-3,-3.0878225E-2,3.0711267E-2,-1.0944213E-2,-6.031583E-2],"split_indices":[6,6,7,6,10,0,0,6,6,7,7,0,0,0,0,0,0,0,0],"split_type":[0,0,0,0,0,0,0,0,0,0,0,0,0,0,0,0,0,0,0],"sum_hessian":[2.0494313E2,2.0131963E2,3.6235037E0,1.8857121E2,1.274842E1,1.0885589E0,2.5349448E0,1.1340245E2,7.5168755E1,6.3890214E0,6.359398E0,9.4814064E1,1.858839E1,9.44511E0,6.572365E1,3.9227877E0,2.466234E0,1.877751E0,4.481647E0],"tree_param":{"num_deleted":"0","num_feature":"14","num_nodes":"19","size_leaf_vector":"1"}},{"base_weights":[-1.046795E-3,-1.2954632E-2,5.064961E-2,1.4028378E-2,-7.4582136E-1,-1.0323005E-1,1.5388013E-1,-9.709763E-1,6.0923514E-3,-1.0712351E-2,1.3040018E-2,3.6609866E-2,3.3290223E-3,-4.9821283E-3,-5.701811E-2],"categories":[],"categories_nodes":[],"categories_segments":[],"categories_sizes":[],"default_left":[0,0,0,0,0,0,0,0,0,0,0,0,0,0,0],"id":60,"left_children":[1,3,-1,5,7,9,11,13,-1,-1,-1,-1,-1,-1,-1],"loss_changes":[2.497334E0,4.0511007E0,0E0,3.2637763E0,1.5394473E0,4.4338293E0,4.531816E0,7.5527287E-1,0E0,0E0,0E0,0E0,0E0,0E0,0E0],"parents":[2147483647,0,0,1,1,3,3,4,4,5,5,6,6,7,7],"right_children":[2,4,-1,6,8,10,12,14,-1,-1,-1,-1,-1,-1,-1],"split_conditions":[8.696539E-1,5.113608E-1,5.064961E-2,1.12950966E-1,1E0,4.0472668E-1,3.6193112E-1,3.5140988E-1,6.0923514E-3,-1.0712351E-2,1.3040018E-2,3.6609866E-2,3.3290223E-3,-4.9821283E-3,-5.701811E-2],"split_indices":[1,1,0,1,4,11,11,9,0,0,0,0,0,0,0],"split_type":[0,0,0,0,0,0,0,0,0,0,0,0,0,0,0],"sum_hessian":[2.0473161E2,2.0333113E2,1.4004883E0,1.9705667E2,6.274461E0,1.0732886E2,8.972781E1,4.8871975E0,1.3872634E0,8.2561775E1,2.4767088E1,1.0799476E1,7.892834E1,1.0539345E0,3.833263E0],"tree_param":{"num_deleted":"0","num_feature":"14","num_nodes":"15","size_leaf_vector":"1"}},{"base_weights":[-8.2142244E-4,4.1604567E-2,-1.522955E-2,-7.81769E-1,6.510829E-3,-5.6283634E-2,-1.9283207E-1,9.687196E-2,-1.5682526E-1,1.4029756E-2,-3.1709827E-2,1.6973399E-2,-2.2989286E-3,-1.7829582E-2,9.512836E-3],"categories":[],"categories_nodes":[],"categories_segments":[],"categories_sizes":[],"default_left":[0,0,0,0,0,0,0,0,0,0,0,0,0,0,0],"id":61,"left_children":[1,-1,3,5,7,-1,9,11,13,-1,-1,-1,-1,-1,-1],"loss_changes":[2.4785094E0,0E0,3.3874276E0,9.1833234E-1,2.942781E0,0E0,8.6193985E-1,4.4626923E0,4.992859E0,0E0,0E0,0E0,0E0,0E0,0E0],"parents":[2147483647,0,0,2,2,3,3,4,4,6,6,7,7,8,8],"right_children":[2,-1,4,6,8,-1,10,12,14,-1,-1,-1,-1,-1,-1],"split_conditions":[-1.1E1,4.1604567E-2,-8E0,3.9485055E-1,3.8720584E-1,-5.6283634E-2,1.2728188E0,-1.608637E-2,4.0472668E-1,1.4029756E-2,-3.1709827E-2,1.6973399E-2,-2.2989286E-3,-1.7829582E-2,9.512836E-3],"split_indices":[8,0,8,11,11,0,6,5,11,0,0,0,0,0,0],"split_type":[0,0,0,0,0,0,0,0,0,0,0,0,0,0,0],"sum_hessian":[2.0447421E2,2.5119262E0,2.019623E2,4.6058626E0,1.9735643E2,2.332474E0,2.2733884E0,1.2732458E2,7.0031845E1,1.2725983E0,1.0007902E0,4.667772E1,8.064686E1,4.443148E1,2.5600367E1],"tree_param":{"num_deleted":"0","num_feature":"14","num_nodes":"15","size_leaf_vector":"1"}},{"base_weights":[-9.2070276E-4,-7.180459E-1,1.5347996E-2,-9.1977585E-3,-4.2778082E-2,1.0229532E-1,-1.2967525E-1,6.2555707E-1,3.2106586E-2,-1.091363E0,-5.888693E-2,-4.3707542E-2,4.1613575E-2,-3.9310426E-2,4.148084E-3,-1.3995128E-2,-6.449546E-2,3.2562133E-2,-6.55812E-3],"categories":[],"categories_nodes":[],"categories_segments":[],"categories_sizes":[],"default_left":[0,0,0,0,0,0,0,0,0,0,0,0,0,0,0,0,0,0,0],"id":62,"left_children":[1,3,5,-1,-1,7,9,11,13,15,17,-1,-1,-1,-1,-1,-1,-1,-1],"loss_changes":[2.4062011E0,1.786344E-1,2.5569015E0,0E0,0E0,4.6322737E0,5.113062E0,5.3553452E0,4.7572002E0,4.6984196E-1,3.7754092E0,0E0,0E0,0E0,0E0,0E0,0E0,0E0,0E0],"parents":[2147483647,0,0,1,1,2,2,5,5,6,6,7,7,8,8,9,9,10,10],"right_children":[2,4,6,-1,-1,8,10,12,14,16,18,-1,-1,-1,-1,-1,-1,-1,-1],"split_conditions":[3.3435428E-1,0E0,3.8720584E-1,-9.1977585E-3,-4.2778082E-2,2.5305808E-1,3.8770282E-1,4.282143E1,2.572975E-1,1.2805784E0,3.8868013E-1,-4.3707542E-2,4.1613575E-2,-3.9310426E-2,4.148084E-3,-1.3995128E-2,-6.449546E-2,3.2562133E-2,-6.55812E-3],"split_indices":[11,8,11,0,0,10,11,2,10,6,11,0,0,0,0,0,0,0,0],"split_type":[0,0,0,0,0,0,0,0,0,0,0,0,0,0,0,0,0,0,0],"sum_hessian":[2.0430074E2,3.5750635E0,2.0072566E2,1.2106767E0,2.3643868E0,1.2567377E2,7.5051895E1,1.3927893E1,1.1174587E2,4.157213E0,7.0894684E1,1.2960799E0,1.2631813E1,5.6922045E0,1.0605367E2,1.2909297E0,