{"learner":{"attributes":{"scikit_learn":"{\"_estimator_type\": \"classifier\"}"},"feature_names":[],"feature_types":[],"gradient_booster":{"model":{"cats":{"enc":[],"feature_segments":[],"sorted_idx":[]},"gbtree_model_param":{"num_parallel_tree":"1","num_trees":"450"},"iteration_indptr":[0,3,6,9,12,15,18,21,24,27,30,33,36,39,42,45,48,51,54,57,60,63,66,69,72,75,78,81,84,87,90,93,96,99,102,105,108,111,114,117,120,123,126,129,132,135,138,141,144,147,150,153,156,159,162,165,168,171,174,177,180,183,186,189,192,195,198,201,204,207,210,213,216,219,222,225,228,231,234,237,240,243,246,249,252,255,258,261,264,267,270,273,276,279,282,285,288,291,294,297,300,303,306,309,312,315,318,321,324,327,330,333,336,339,342,345,348,351,354,357,360,363,366,369,372,375,378,381,384,387,390,393,396,399,402,405,408,411,414,417,420,423,426,429,432,435,438,441,444,447,450],"tree_info":[0,1,2,0,1,2,0,1,2,0,1,2,0,1,2,0,1,2,0,1,2,0,1,2,0,1,2,0,1,2,0,1,2,0,1,2,0,1,2,0,1,2,0,1,2,0,1,2,0,1,2,0,1,2,0,1,2,0,1,2,0,1,2,0,1,2,0,1,2,0,1,2,0,1,2,0,1,2,0,1,2,0,1,2,0,1,2,0,1,2,0,1,2,0,1,2,0,1,2,0,1,2,0,1,2,0,1,2,0,1,2,0,1,2,0,1,2,0,1,2,0,1,2,0,1,2,0,1,2,0,1,2,0,1,2,0,1,2,0,1,2,0,1,2,0,1,2,0,1,2,0,1,2,0,1,2,0,1,2,0,1,2,0,1,2,0,1,2,0,1,2,0,1,2,0,1,2,0,1,2,0,1,2,0,1,2,0,1,2,0,1,2,0,1,2,0,1,2,0,1,2,0,1,2,0,1,2,0,1,2,0,1,2,0,1,2,0,1,2,0,1,2,0,1,2,0,1,2,0,1,2,0,1,2,0,1,2,0,1,2,0,1,2,0,1,2,0,1,2,0,1,2,0,1,2,0,1,2,0,1,2,0,1,2,0,1,2,0,1,2,0,1,2,0,1,2,0,1,2,0,1,2,0,1,2,0,1,2,0,1,2,0,1,2,0,1,2,0,1,2,0,1,2,0,1,2,0,1,2,0,1,2,0,1,2,0,1,2,0,1,2,0,1,2,0,1,2,0,1,2,0,1,2,0,1,2,0,1,2,0,1,2,0,1,2,0,1,2,0,1,2,0,1,2,0,1,2,0,1,2,0,1,2,0,1,2,0,1,2,0,1,2,0,1,2,0,1,2,0,1,2,0,1,2,0,1,2,0,1,2,0,1,2,0,1,2,0,1,2,0,1,2,0,1,2,0,1,2,0,1,2,0,1,2,0,1,2,0,1,2,0,1,2,0,1,2,0,1,2,0,1,2,0,1,2,0,1,2,0,1,2,0,1,2,0,1,2,0,1,2],"trees":[{"base_weights":[-1.6609554E-6,-1.3378653E-1,1.7094966E-2,-3.8490713E-1,-1.1523299E-1,-9.643918E-3,3.850531E-2,-4.4808385E-1,-3.2083046E-1,-1.883072E-1,-9.8623715E-2,-1.5234411E-2,4.1782424E-2,2.5290117E-2,4.9070787E-2,-4.5423537E-1,7.1320154E-2,-3.3266935E-1,-1.9155574E-1,-1.891286E-1,8.049591E-1,-1.220529E-1,-7.903859E-2,-3.2817658E-2,-2.70022E-3,3.5281036E-2,1.9200976E-1,2.4610523E-2,1.7988423E-1,4.7347914E-2,1.6853905E-1,-5.0277287E-1,-4.3036717E-1,5.0660634E-1,-3.1475285E-1,-3.8406163E-1,-3.0820993E-1,-2.1606682E-1,4.142682E-1,-2.0408446E-1,-1.384449E-1,4.1142866E-2,-2.4041224E-3,-1.6768233E-1,-1.0341581E-1,-7.78032E-2,-3.8360992E-1,5.4048696E-3,-3.844228E-2,4.5342255E-2,-5.317053E-3,1.962736E-2,8.3498634E-2,2.9624805E-1,9.7270675E-2,1.8116385E-2,3.879342E-2,1.2514533E-1,4.67007E-1,4.6717502E-2,2.2307903E-1,3.9954916E-1,1.1642982E-1,-3.0777429E-3,-1.5260374E-2,-1.2703467E-2,-1.6438529E-2,2.5023295E-2,-1.1617522E-2,-1.5328558E-2,3.3089984E-3,-1.1762871E-2,4.918705E-3,-7.7130254E-3,-1.1067583E-2,-4.01709E-3,-9.695776E-3,-1.0830877E-2,2.7143108E-2,-7.062089E-3,-5.048918E-3,-4.313062E-3,6.713285E-3,-7.3954323E-3,-4.7082966E-3,-3.3649928E-3,-1.4447529E-3,-2.872898E-3,-1.7898167E-3,-1.2356094E-2,1.3545417E-2,2.2081546E-3,-4.55411E-4,-1.3985978E-3,-1.9535124E-4,2.083401E-3,-1.2582852E-4,-3.011766E-4,3.2518338E-4,2.0246873E-4,2.2810593E-3,2.9490108E-3,-1.1161667E-3,2.069184E-3,1.1331506E-2,2.4578045E-3,2.1163989E-2,3.510432E-4,9.0906414E-4,-1.0822251E-3,1.2664716E-3,5.1434073E-3,-3.299083E-3,2.2880217E-2,8.593152E-3,2.4084859E-3,1.3576827E-3,1.0682336E-3,8.324315E-3,2.5552351E-2,8.704671E-3,7.527275E-3,2.8596013E-3],"categories":[],"categories_nodes":[],"categories_segments":[],"categories_sizes":[],"default_left":[0,0,0,0,0,0,0,0,0,0,0,0,0,0,0,0,0,0,0,0,0,0,0,0,0,0,0,0,0,0,0,0,0,0,0,0,0,0,0,0,0,0,0,0,0,0,0,0,0,0,0,0,0,0,0,0,0,0,0,0,0,0,0,0,0,0,0,0,0,0,0,0,0,0,0,0,0,0,0,0,0,0,0,0,0,0,0,0,0,0,0,0,0,0,0,0,0,0,0,0,0,0,0,0,0,0,0,0,0,0,0,0,0,0,0,0,0,0,0,0,0,0,0],"id":0,"left_children":[1,3,5,7,9,11,13,15,17,19,21,23,25,27,29,31,33,35,37,39,41,43,45,47,49,51,53,55,57,59,61,63,65,67,69,71,73,75,77,79,81,-1,-1,83,85,87,89,91,93,95,97,99,101,103,105,107,109,111,113,115,117,119,121,-1,-1,-1,-1,-1,-1,-1,-1,-1,-1,-1,-1,-1,-1,-1,-1,-1,-1,-1,-1,-1,-1,-1,-1,-1,-1,-1,-1,-1,-1,-1,-1,-1,-1,-1,-1,-1,-1,-1,-1,-1,-1,-1,-1,-1,-1,-1,-1,-1,-1,-1,-1,-1,-1,-1,-1,-1,-1,-1,-1],"loss_changes":[7.3584924E2,1.6980157E2,1.6330911E2,1.0007416E1,4.1183777E1,3.6468914E1,2.2117416E1,4.058731E0,1.8470154E0,5.280731E0,1.2683685E1,2.5214987E1,1.2140833E1,7.3902245E0,1.8111572E1,1.226593E0,2.7834365E0,1.3175964E0,1.6798527E0,4.7332764E0,2.8094466E0,1.0692078E1,5.6404953E0,1.023679E1,8.397823E0,8.997538E0,5.064026E0,6.4538116E0,4.7806845E0,9.603561E0,1.5013779E1,9.042206E-1,4.5281982E-1,2.5836973E0,7.978726E-1,1.6682625E0,2.3224106E0,8.68515E-1,2.040737E0,5.3942566E0,2.7981663E0,0E0,0E0,3.051712E0,4.319313E0,4.8853683E0,1.6167583E0,8.577388E0,1.0837887E1,4.120372E0,4.8330755E0,6.539012E0,5.2237797E0,4.5113506E0,2.4772847E0,3.7572937E0,5.64056E0,2.8488421E0,2.3940458E0,4.238098E0,3.1509304E0,1.1123234E1,2.8780231E0,0E0,0E0,0E0,0E0,0E0,0E0,0E0,0E0,0E0,0E0,0E0,0E0,0E0,0E0,0E0,0E0,0E0,0E0,0E0,0E0,0E0,0E0,0E0,0E0,0E0,0E0,0E0,0E0,0E0,0E0,0E0,0E0,0E0,0E0,0E0,0E0,0E0,0E0,0E0,0E0,0E0,0E0,0E0,0E0,0E0,0E0,0E0,0E0,0E0,0E0,0E0,0E0,0E0,0E0,0E0,0E0,0E0,0E0,0E0,0E0],"parents":[2147483647,0,0,1,1,2,2,3,3,4,4,5,5,6,6,7,7,8,8,9,9,10,10,11,11,12,12,13,13,14,14,15,15,16,16,17,17,18,18,19,19,20,20,21,21,22,22,23,23,24,24,25,25,26,26,27,27,28,28,29,29,30,30,31,31,32,32,33,33,34,34,35,35,36,36,37,37,38,38,39,39,40,40,43,43,44,44,45,45,46,46,47,47,48,48,49,49,50,50,51,51,52,52,53,53,54,54,55,55,56,56,57,57,58,58,59,59,60,60,61,61,62,62],"right_children":[2,4,6,8,10,12,14,16,18,20,22,24,26,28,30,32,34,36,38,40,42,44,46,48,50,52,54,56,58,60,62,64,66,68,70,72,74,76,78,80,82,-1,-1,84,86,88,90,92,94,96,98,100,102,104,106,108,110,112,114,116,118,120,122,-1,-1,-1,-1,-1,-1,-1,-1,-1,-1,-1,-1,-1,-1,-1,-1,-1,-1,-1,-1,-1,-1,-1,-1,-1,-1,-1,-1,-1,-1,-1,-1,-1,-1,-1,-1,-1,-1,-1,-1,-1,-1,-1,-1,-1,-1,-1,-1,-1,-1,-1,-1,-1,-1,-1,-1,-1,-1,-1,-1],"split_conditions":[8.792857E0,1.7071428E0,3.495714E1,1.1642857E0,3.6357143E0,1.9749978E0,5.7714287E1,5.540623E-2,2.2461727E0,5.324668E-2,6.1642857E0,1.8785715E1,6.644895E0,6.644895E0,2.8432858E2,-1E0,5.756266E-1,-6.7394013E-3,2.9280791E-2,1E0,2E0,5.26498E-1,2.5076023E-1,-4.5440648E-2,-9.6836984E-2,1E0,1.9807142E1,4.6192754E-2,5.305E1,6.644895E0,4.3260443E-1,-2.325323E-2,2.8028408E-2,1.0098343E-1,1.2922757E0,5.3392783E-2,4.5148735E-3,2.1807346E-3,2.750986E0,8.176683E-1,4.2487173E0,4.1142866E-2,-2.4041224E-3,2.1593988E-1,3E0,7.816404E-1,3.6504745E0,-1E0,4.16259E-2,3.0528572E1,4.8125666E-2,5.656485E-2,3.1685715E1,0E0,1.2215837E-1,9.8939407E-1,2.7435148E-1,4.9314285E1,5.455E1,-2.732346E-1,6.6435715E1,-3.7975705E-1,-4.8422962E-1,-3.0777429E-3,-1.5260374E-2,-1.2703467E-2,-1.6438529E-2,2.5023295E-2,-1.1617522E-2,-1.5328558E-2,3.3089984E-3,-1.1762871E-2,4.918705E-3,-7.7130254E-3,-1.1067583E-2,-4.01709E-3,-9.695776E-3,-1.0830877E-2,2.7143108E-2,-7.062089E-3,-5.048918E-3,-4.313062E-3,6.713285E-3,-7.3954323E-3,-4.7082966E-3,-3.3649928E-3,-1.4447529E-3,-2.872898E-3,-1.7898167E-3,-1.2356094E-2,1.3545417E-2,2.2081546E-3,-4.55411E-4,-1.3985978E-3,-1.9535124E-4,2.083401E-3,-1.2582852E-4,-3.011766E-4,3.2518338E-4,2.0246873E-4,2.2810593E-3,2.9490108E-3,-1.1161667E-3,2.069184E-3,1.1331506E-2,2.4578045E-3,2.1163989E-2,3.510432E-4,9.0906414E-4,-1.0822251E-3,1.2664716E-3,5.1434073E-3,-3.299083E-3,2.2880217E-2,8.593152E-3,2.4084859E-3,1.3576827E-3,1.0682336E-3,8.324315E-3,2.5552351E-2,8.704671E-3,7.527275E-3,2.8596013E-3],"split_indices":[2,2,2,2,2,6,2,5,6,1,2,2,6,6,2,8,6,1,5,4,8,6,5,1,1,4,2,1,2,6,6,1,5,5,6,5,1,1,6,6,6,0,0,6,8,6,6,8,1,2,1,1,2,5,1,6,6,2,2,5,2,5,5,0,0,0,0,0,0,0,0,0,0,0,0,0,0,0,0,0,0,0,0,0,0,0,0,0,0,0,0,0,0,0,0,0,0,0,0,0,0,0,0,0,0,0,0,0,0,0,0,0,0,0,0,0,0,0,0,0,0,0,0],"split_type":[0,0,0,0,0,0,0,0,0,0,0,0,0,0,0,0,0,0,0,0,0,0,0,0,0,0,0,0,0,0,0,0,0,0,0,0,0,0,0,0,0,0,0,0,0,0,0,0,0,0,0,0,0,0,0,0,0,0,0,0,0,0,0,0,0,0,0,0,0,0,0,0,0,0,0,0,0,0,0,0,0,0,0,0,0,0,0,0,0,0,0,0,0,0,0,0,0,0,0,0,0,0,0,0,0,0,0,0,0,0,0,0,0,0,0,0,0,0,0,0,0,0,0],"sum_hessian":[3.2171312E5,3.6453062E4,2.8526006E5,2.5066064E3,3.3946453E4,1.26845805E5,1.5841425E5,1.2591489E3,1.2474576E3,6.2849297E3,2.7661525E4,1.1440923E5,1.2436579E4,7.038315E4,8.803111E4,1.2445348E3,1.4614077E1,1.1413594E3,1.060982E2,6.280546E3,4.384223E0,1.2592365E4,1.5069159E4,4.7613832E4,6.679539E4,1.1921872E4,5.1470776E2,7.007625E4,3.0689563E2,8.6781016E4,1.2500881E3,4.036408E2,8.40894E2,6.7224755E0,7.8916016E0,3.6330594E2,7.7805347E2,1.0259082E2,3.5073786E0,4.8471973E3,1.4333486E3,2.3382523E0,2.0459707E0,3.6494272E3,8.942938E3,1.5009534E4,5.9625435E1,6.107807E3,4.1506023E4,3.4495068E3,6.3345887E4,9.001103E3,2.9207695E3,2.4405508E2,2.706527E2,4.806862E4,2.200763E4,2.5896146E2,4.7934174E1,8.647208E4,3.089416E2,2.2885645E2,1.0212317E3,6.1379123E0,3.975029E2,7.985132E2,4.238082E1,4.9687862E0,1.7536893E0,5.261068E0,2.630534E0,3.5833716E2,4.9687862E0,4.2526965E2,3.527838E2,5.9333153E1,4.3257668E1,1.4614077E0,2.0459707E0,2.5820151E3,2.265182E3,1.4131813E3,2.0167427E1,4.3491492E2,3.2145125E3,7.7194478E3,1.2234905E3,7.5405713E3,7.4689624E3,5.8164024E1,1.4614077E0,1.4155195E3,4.6922876E3,3.304301E4,8.463012E3,2.3201309E3,1.1293759E3,4.901912E4,1.4326765E4,7.3289595E3,1.6721427E3,2.6018901E3,3.1887915E2,6.4886505E1,1.7916858E2,2.6509937E2,5.553349E0,3.1492166E4,1.6576455E4,9.6160626E2,2.1046025E4,2.1658063E2,4.238082E1,1.695233E1,3.0981844E1,3.605585E3,8.286649E4,6.9855286E1,2.390863E2,4.3257668E1,1.8559877E2,1.3708005E2,8.841517E2],"tree_param":{"num_deleted":"0","num_feature":"9","num_nodes":"123","size_leaf_vector":"1"}},{"base_weights":[4.5726915E-7,2.9508527E-2,-7.341911E-3,3.6575298E-3,5.578202E-2,3.397739E-2,-1.1500594E-2,-1.2231025E-1,6.2603727E-3,2.0341672E-1,4.3552484E-2,-2.2708684E-2,4.1258145E-2,-7.956276E-3,-3.5866477E-2,-2.796186E-1,1.4971848E-2,1.4171497E-2,-9.644896E-3,2.5465018E-1,1.519094E-1,8.754818E-2,3.0183315E-2,5.3164676E-2,-4.0631194E-2,4.675525E-2,-7.585999E-3,-3.917152E-3,-3.2539908E-2,-3.850869E-2,4.9380682E-2,-3.955726E-1,-1.3147795E-1,8.189568E-2,-5.0567526E-2,-2.4387157E-3,2.4410766E-2,-2.3864847E-2,1.8809637E-2,2.3682679E-1,4.7874007E-1,2.3697174E-1,1.199236E-1,1.313189E-1,7.227753E-2,6.2837E-2,1.87838E-2,2.765215E-1,1.0890836E-2,2.917623E-1,-4.3968838E-2,4.882247E-2,-7.403441E-2,5.712061E-2,-2.4783008E-2,-1.1933612E-3,-1.9083284E-2,-3.0514253E-2,-9.3553655E-2,-4.2063665E-2,-4.928505E-4,1.4138104E-1,1.0877473E-2,-1.3034481E-2,3.8130877E-3,-5.6277323E-3,3.3176243E-3,3.959694E-3,-3.3490157E-3,-7.645703E-3,-4.4549673E-4,-7.7219243E-4,5.3949375E-4,9.0685295E-4,-1.0930944E-3,-2.217629E-4,-1.5475758E-3,6.3780916E-4,-8.184616E-3,8.055864E-3,4.2805006E-3,3.212996E-2,1.2255241E-2,6.1256E-3,1.2642391E-2,3.23927E-3,1.1212289E-2,1.7275691E-3,5.29266E-3,2.390286E-3,-1.2319849E-3,9.227381E-4,2.2611148E-3,8.961271E-4,-4.9917086E-4,1.47481775E-2,2.0376395E-3,-2.7314557E-3,2.3671258E-3,-8.478618E-3,1.2366716E-2,-3.8516736E-3,-9.915474E-4,1.5733923E-3,2.3954362E-5,-2.6573772E-3,1.1774437E-2,1.1424798E-4,5.150305E-3,-1.3939277E-3,5.9507176E-4,3.6804008E-4,-1.13661845E-4,-1.365182E-3,-3.2145804E-4,-3.5754716E-4,-1.1206779E-3,-2.5372866E-3,-1.21693155E-2,-1.0715544E-3,-1.8044473E-3,-6.6699847E-3,2.0271286E-4,-9.809697E-3,4.86585E-3,4.8296194E-4,-1.204296E-2],"categories":[],"categories_nodes":[],"categories_segments":[],"categories_sizes":[],"default_left":[0,0,0,0,0,0,0,0,0,0,0,0,0,0,0,0,0,0,0,0,0,0,0,0,0,0,0,0,0,0,0,0,0,0,0,0,0,0,0,0,0,0,0,0,0,0,0,0,0,0,0,0,0,0,0,0,0,0,0,0,0,0,0,0,0,0,0,0,0,0,0,0,0,0,0,0,0,0,0,0,0,0,0,0,0,0,0,0,0,0,0,0,0,0,0,0,0,0,0,0,0,0,0,0,0,0,0,0,0,0,0,0,0,0,0,0,0,0,0,0,0,0,0,0,0,0,0],"id":1,"left_children":[1,3,5,7,9,11,13,15,17,19,21,23,25,27,29,31,33,35,37,39,41,43,45,47,49,51,53,55,57,59,61,63,65,67,69,71,73,75,77,79,81,83,85,87,89,91,93,95,97,99,101,103,105,107,109,111,113,115,117,119,121,123,125,-1,-1,-1,-1,-1,-1,-1,-1,-1,-1,-1,-1,-1,-1,-1,-1,-1,-1,-1,-1,-1,-1,-1,-1,-1,-1,-1,-1,-1,-1,-1,-1,-1,-1,-1,-1,-1,-1,-1,-1,-1,-1,-1,-1,-1,-1,-1,-1,-1,-1,-1,-1,-1,-1,-1,-1,-1,-1,-1,-1,-1,-1,-1,-1],"loss_changes":[1.1540208E2,7.208154E1,7.329021E1,1.754047E1,9.5021774E1,1.6097935E1,3.3465603E1,2.3392895E1,6.595211E0,1.0586029E1,2.858828E1,6.039769E0,9.280716E0,3.3592304E1,1.1086052E1,8.618401E0,2.5449324E0,5.9533176E0,7.0452228E0,7.94252E0,5.440933E0,7.562195E0,1.3876411E1,8.011641E0,3.9979696E0,7.7610703E0,3.8930428E0,1.2003067E1,5.8974686E0,6.450653E0,5.240511E0,5.803322E0,3.0513434E0,2.7970426E0,2.1362271E0,6.352942E0,7.6666155E0,5.301041E0,4.1525393E0,5.543831E0,5.7030563E0,3.2295113E0,4.3960667E0,9.729443E0,7.0476913E0,3.876316E0,1.0854103E1,6.0255814E0,4.96287E0,2.5964327E0,3.2742815E0,5.315918E0,3.5844934E0,4.4858184E0,2.6744604E0,8.606033E0,9.781118E0,5.8784294E0,4.262356E0,5.00663E0,6.567998E0,4.3085356E0,2.254642E0,0E0,0E0,0E0,0E0,0E0,0E0,0E0,0E0,0E0,0E0,0E0,0E0,0E0,0E0,0E0,0E0,0E0,0E0,0E0,0E0,0E0,0E0,0E0,0E0,0E0,0E0,0E0,0E0,0E0,0E0,0E0,0E0,0E0,0E0,0E0,0E0,0E0,0E0,0E0,0E0,0E0,0E0,0E0,0E0,0E0,0E0,0E0,0E0,0E0,0E0,0E0,0E0,0E0,0E0,0E0,0E0,0E0,0E0,0E0,0E0,0E0,0E0,0E0,0E0],"parents":[2147483647,0,0,1,1,2,2,3,3,4,4,5,5,6,6,7,7,8,8,9,9,10,10,11,11,12,12,13,13,14,14,15,15,16,16,17,17,18,18,19,19,20,20,21,21,22,22,23,23,24,24,25,25,26,26,27,27,28,28,29,29,30,30,31,31,32,32,33,33,34,34,35,35,36,36,37,37,38,38,39,39,40,40,41,41,42,42,43,43,44,44,45,45,46,46,47,47,48,48,49,49,50,50,51,51,52,52,53,53,54,54,55,55,56,56,57,57,58,58,59,59,60,60,61,61,62,62],"right_children":[2,4,6,8,10,12,14,16,18,20,22,24,26,28,30,32,34,36,38,40,42,44,46,48,50,52,54,56,58,60,62,64,66,68,70,72,74,76,78,80,82,84,86,88,90,92,94,96,98,100,102,104,106,108,110,112,114,116,118,120,122,124,126,-1,-1,-1,-1,-1,-1,-1,-1,-1,-1,-1,-1,-1,-1,-1,-1,-1,-1,-1,-1,-1,-1,-1,-1,-1,-1,-1,-1,-1,-1,-1,-1,-1,-1,-1,-1,-1,-1,-1,-1,-1,-1,-1,-1,-1,-1,-1,-1,-1,-1,-1,-1,-1,-1,-1,-1,-1,-1,-1,-1,-1,-1,-1,-1],"split_conditions":[1.3778571E1,1E0,2.892031E1,1.1642857E0,2.607143E0,-8.2716025E-2,6.9707306E1,3.7634407E1,6.980396E-4,1.7071428E0,5.714286E0,-3.7975705E-1,2E0,9.273572E1,1E0,-2E0,-2.4011392E-2,-1.2696603E-3,5.3504272E1,7E0,-1.2696603E-3,-4.5532707E-4,0E0,1.6820084E1,-7.732444E-1,2.0704286E2,-5.54344E-1,1E0,2.8432858E2,1.0098343E-1,-5.5960696E-3,3.5355525E0,5.703744E-3,1E0,1.2518501E-1,4.5905968E1,6.9707306E1,4.3137257E1,3.2938418E-1,4.0523466E-3,-2.1133307E-2,7.987679E1,6.1986186E-2,4.9122807E1,8.073491E1,4.3842365E1,1E0,-1E0,7.617857E1,-2.4160768E-1,2.3471428E1,1.1116222E-1,5.5226296E-1,-6.310865E-1,9.423421E-2,3.6810905E1,4.625E1,-1.1249017E-2,5E0,7.987679E1,1.6778572E1,1.5757143E1,5.5226296E-1,-1.3034481E-2,3.8130877E-3,-5.6277323E-3,3.3176243E-3,3.959694E-3,-3.3490157E-3,-7.645703E-3,-4.4549673E-4,-7.7219243E-4,5.3949375E-4,9.0685295E-4,-1.0930944E-3,-2.217629E-4,-1.5475758E-3,6.3780916E-4,-8.184616E-3,8.055864E-3,4.2805006E-3,3.212996E-2,1.2255241E-2,6.1256E-3,1.2642391E-2,3.23927E-3,1.1212289E-2,1.7275691E-3,5.29266E-3,2.390286E-3,-1.2319849E-3,9.227381E-4,2.2611148E-3,8.961271E-4,-4.9917086E-4,1.47481775E-2,2.0376395E-3,-2.7314557E-3,2.3671258E-3,-8.478618E-3,1.2366716E-2,-3.8516736E-3,-9.915474E-4,1.5733923E-3,2.3954362E-5,-2.6573772E-3,1.1774437E-2,1.1424798E-4,5.150305E-3,-1.3939277E-3,5.9507176E-4,3.6804008E-4,-1.13661845E-4,-1.365182E-3,-3.2145804E-4,-3.5754716E-4,-1.1206779E-3,-2.5372866E-3,-1.21693155E-2,-1.0715544E-3,-1.8044473E-3,-6.6699847E-3,2.0271286E-4,-9.809697E-3,4.86585E-3,4.8296194E-4,-1.204296E-2],"split_indices":[2,8,0,2,2,5,0,0,5,2,2,5,8,2,4,8,7,5,0,8,5,5,5,0,7,2,7,3,2,5,5,7,5,4,7,0,0,0,5,5,5,0,5,0,0,0,3,8,2,5,2,5,5,7,7,0,0,5,8,0,2,2,5,0,0,0,0,0,0,0,0,0,0,0,0,0,0,0,0,0,0,0,0,0,0,0,0,0,0,0,0,0,0,0,0,0,0,0,0,0,0,0,0,0,0,0,0,0,0,0,0,0,0,0,0,0,0,0,0,0,0,0,0,0,0,0,0],"split_type":[0,0,0,0,0,0,0,0,0,0,0,0,0,0,0,0,0,0,0,0,0,0,0,0,0,0,0,0,0,0,0,0,0,0,0,0,0,0,0,0,0,0,0,0,0,0,0,0,0,0,0,0,0,0,0,0,0,0,0,0,0,0,0,0,0,0,0,0,0,0,0,0,0,0,0,0,0,0,0,0,0,0,0,0,0,0,0,0,0,0,0,0,0,0,0,0,0,0,0,0,0,0,0,0,0,0,0,0,0,0,0,0,0,0,0,0,0,0,0,0,0,0,0,0,0,0,0],"sum_hessian":[5.3264156E5,1.0612705E5,4.265145E5,5.3494207E4,5.263284E4,3.9001484E4,3.87513E5,1.0820304E3,5.2412176E4,4.0251917E3,4.860765E4,4.4389375E3,3.4562547E4,3.3830384E5,4.9209152E4,5.0375385E2,5.782765E2,3.500242E4,1.7409752E4,2.0159832E3,2.0092084E3,1.1326961E4,3.7280688E4,8.478163E2,3.5911213E3,3.1066271E4,3.4962742E3,2.9056484E5,4.7739023E4,4.7730312E4,1.4788394E3,2.816376E2,2.2211624E2,2.8599283E2,2.922837E2,1.3348751E4,2.1653672E4,1.1608599E4,5.801154E3,1.8693574E3,1.4662576E2,5.47306E2,1.4619023E3,2.927676E3,8.399285E3,9.645846E3,2.7634842E4,1.34044E2,7.137723E2,3.4841763E1,3.5562795E3,3.0544129E4,5.221426E2,7.3361273E2,2.7626616E3,2.4632644E5,4.4238395E4,4.620647E4,1.5325537E3,4.3648504E4,4.0818096E3,4.3552206E2,1.0433173E3,2.6228107E2,1.9356535E1,1.804997E2,4.161655E1,2.274393E2,5.855352E1,4.2584377E1,2.4969931E2,6.23474E3,7.1140107E3,1.9764475E4,1.8891979E3,7.2824126E3,4.3261855E3,5.7537305E3,4.742351E1,1.397058E3,4.7229947E2,1.4033488E1,1.3259227E2,4.6649252E2,8.081354E1,1.3975419E3,6.436048E1,1.112033E3,1.8156431E3,7.884885E3,5.1439996E2,2.7108828E3,6.934963E3,2.1047328E4,6.587513E3,6.532831E1,6.87157E1,2.855089E2,4.2826337E2,5.8069606E0,2.9034803E1,4.0600333E2,3.1502761E3,2.8400877E4,2.1432524E3,5.0714124E2,1.5001315E1,5.0133426E2,2.3227843E2,1.8591952E3,9.034663E2,3.981494E4,2.0651148E5,1.063932E4,3.3599074E4,1.2428348E4,3.377812E4,1.4909371E3,4.161655E1,3.23138E4,1.1334703E4,1.2823705E2,3.9535725E3,1.7904795E1,4.1761725E2,1.0312195E3,1.2097835E1],"tree_param":{"num_deleted":"0","num_feature":"9","num_nodes":"127","size_leaf_vector":"1"}},{"base_weights":[4.2226088E-7,4.536593E-2,-5.131642E-3,9.3392186E-2,-4.1495473E-3,-3.7254322E-2,3.1449618E-3,4.102659E-1,8.038805E-2,1.9953044E-2,-2.4927475E-2,-6.526172E-2,-2.5775058E-2,1.4691093E-2,-2.7480328E-3,5.602992E-1,2.7882668E-1,1.473589E-1,5.9144817E-2,-3.4966663E-2,2.717359E-2,-8.391578E-2,-3.116407E-3,-1.0272265E-1,-5.6618493E-2,-2.996574E-2,4.030605E-2,1.938825E-2,-1.3823354E-2,-4.232869E-2,-1.6874247E-3,7.2933805E-1,4.3348992E-1,1.7371228E-1,4.2066962E-1,1.805813E-1,1.1311964E-1,2.1365458E-2,7.398392E-2,1.5162477E-1,-5.758828E-2,3.1813025E-2,-3.3992004E-2,-1.1342372E-1,-3.920969E-2,-3.8864142E-3,4.574792E-1,-1.4740314E-2,-1.23148136E-1,-3.0517543E-2,-6.76268E-2,2.026148E-2,-3.2433808E-2,4.273717E-2,-3.0560914E-1,1.3834045E-2,3.671496E-2,-1.2116688E-2,-1.0317116E-1,-9.605476E-2,-2.7983334E-2,-5.178059E-3,7.659385E-3,2.297306E-2,7.7796164E-3,1.1049174E-2,1.8940162E-2,3.8850685E-3,1.3647594E-2,1.390691E-2,4.4362764E-3,1.6738564E-2,5.2902633E-3,-1.5408675E-3,3.8268787E-3,9.909597E-4,-3.678871E-3,2.1595403E-3,1.0099372E-2,6.5908725E-3,-1.3056202E-2,-1.5419172E-3,-1.4364746E-2,8.553008E-4,2.3770742E-3,-2.323452E-3,2.8186764E-3,-2.8263235E-3,-7.0042475E-3,-1.7255648E-3,3.052807E-3,2.9850213E-4,-8.091038E-4,1.9274067E-2,-6.136773E-4,-1.0100137E-3,6.342899E-3,-1.3464109E-2,-3.621019E-3,2.9428586E-4,-1.7176463E-3,-3.2157688E-3,-1.8287413E-3,1.4367746E-3,-9.53933E-4,-2.9379714E-4,-1.140582E-3,4.4591795E-3,1.1053034E-3,7.625944E-3,-1.1680325E-2,7.7416346E-4,1.2743588E-4,3.0218526E-3,9.5268444E-4,-3.8107022E-4,1.0418813E-2,1.9202987E-3,-5.0104978E-3,-5.678308E-3,-1.88299E-3,-9.248561E-4,6.074461E-3,-2.5886617E-4,3.6531E-4,-1.8130857E-4,4.857723E-4],"categories":[],"categories_nodes":[],"categories_segments":[],"categories_sizes":[],"default_left":[0,0,0,0,0,0,0,0,0,0,0,0,0,0,0,0,0,0,0,0,0,0,0,0,0,0,0,0,0,0,0,0,0,0,0,0,0,0,0,0,0,0,0,0,0,0,0,0,0,0,0,0,0,0,0,0,0,0,0,0,0,0,0,0,0,0,0,0,0,0,0,0,0,0,0,0,0,0,0,0,0,0,0,0,0,0,0,0,0,0,0,0,0,0,0,0,0,0,0,0,0,0,0,0,0,0,0,0,0,0,0,0,0,0,0,0,0,0,0,0,0,0,0,0,0,0,0],"id":2,"left_children":[1,3,5,7,9,11,13,15,17,19,21,23,25,27,29,31,33,35,37,39,41,43,45,47,49,51,53,55,57,59,61,63,65,67,69,71,73,75,77,79,81,83,85,87,89,91,93,95,97,99,101,103,105,107,109,111,113,115,117,119,121,123,125,-1,-1,-1,-1,-1,-1,-1,-1,-1,-1,-1,-1,-1,-1,-1,-1,-1,-1,-1,-1,-1,-1,-1,-1,-1,-1,-1,-1,-1,-1,-1,-1,-1,-1,-1,-1,-1,-1,-1,-1,-1,-1,-1,-1,-1,-1,-1,-1,-1,-1,-1,-1,-1,-1,-1,-1,-1,-1,-1,-1,-1,-1,-1,-1],"loss_changes":[1.2415882E2,1.28885E2,1.2737359E2,1.13337555E2,1.3364948E1,3.155423E1,2.5919548E1,2.1227127E1,3.7591675E1,4.9003997E0,1.8439163E1,9.232697E0,1.9280384E1,1.7241411E1,1.0587721E1,1.0516602E1,8.574173E0,7.218567E0,1.1247894E1,6.0704207E0,3.0999212E0,5.0991287E0,3.7130282E0,9.608803E0,6.6599274E0,8.116299E0,3.5048738E0,1.0635551E1,2.774993E0,5.0701237E0,8.014105E0,3.485405E0,3.52314E0,4.10361E0,2.8117714E0,5.0659485E0,7.4580383E0,9.513059E0,7.541252E0,6.3094215E0,3.3174667E0,1.5877228E0,4.290712E0,5.3521748E0,3.9800346E0,3.3372424E0,1.5579739E0,4.325269E0,3.4051208E0,7.4187174E0,4.296173E0,4.413096E0,7.891014E0,2.568593E0,1.4630847E0,9.60461E0,8.512695E0,3.765093E0,3.651685E0,4.291232E0,3.413536E0,1.0710829E1,7.8097596E0,0E0,0E0,0E0,0E0,0E0,0E0,0E0,0E0,0E0,0E0,0E0,0E0,0E0,0E0,0E0,0E0,0E0,0E0,0E0,0E0,0E0,0E0,0E0,0E0,0E0,0E0,0E0,0E0,0E0,0E0,0E0,0E0,0E0,0E0,0E0,0E0,0E0,0E0,0E0,0E0,0E0,0E0,0E0,0E0,0E0,0E0,0E0,0E0,0E0,0E0,0E0,0E0,0E0,0E0,0E0,0E0,0E0,0E0,0E0,0E0,0E0,0E0,0E0,0E0],"parents":[2147483647,0,0,1,1,2,2,3,3,4,4,5,5,6,6,7,7,8,8,9,9,10,10,11,11,12,12,13,13,14,14,15,15,16,16,17,17,18,18,19,19,20,20,21,21,22,22,23,23,24,24,25,25,26,26,27,27,28,28,29,29,30,30,31,31,32,32,33,33,34,34,35,35,36,36,37,37,38,38,39,39,40,40,41,41,42,42,43,43,44,44,45,45,46,46,47,47,48,48,49,49,50,50,51,51,52,52,53,53,54,54,55,55,56,56,57,57,58,58,59,59,60,60,61,61,62,62],"right_children":[2,4,6,8,10,12,14,16,18,20,22,24,26,28,30,32,34,36,38,40,42,44,46,48,50,52,54,56,58,60,62,64,66,68,70,72,74,76,78,80,82,84,86,88,90,92,94,96,98,100,102,104,106,108,110,112,114,116,118,120,122,124,126,-1,-1,-1,-1,-1,-1,-1,-1,-1,-1,-1,-1,-1,-1,-1,-1,-1,-1,-1,-1,-1,-1,-1,-1,-1,-1,-1,-1,-1,-1,-1,-1,-1,-1,-1,-1,-1,-1,-1,-1,-1,-1,-1,-1,-1,-1,-1,-1,-1,-1,-1,-1,-1,-1,-1,-1,-1,-1,-1,-1,-1,-1,-1,-1],"split_conditions":[8.135715E0,1E0,3.660044E1,1.1642857E0,5.2135544E1,2.5712145E1,2.72E1,3.7634407E1,3.6357143E0,2.5243578E1,0E0,-3E0,1E0,1E0,-2.732346E-1,-3E0,7.7218527E-1,2.607143E0,3.743772E1,1.1642857E0,5.540623E-2,5.714286E0,4.0308794E-1,-2.1133307E-2,2.6135714E1,1.0557143E1,2.8432858E2,1E0,7.280295E1,-1E0,6.343026E1,2.6578069E0,1E0,1E0,1E0,-1.1E1,2.0943563E1,2.8547404E0,1.756432E-1,2.0366926E-2,5E0,3.4234554E-2,4.743384E1,8.404256E1,7.839321E1,7.4132313E-3,1.0189584E0,4.714615E0,-1.2E1,8.842997E-1,1.5234657E1,1.1778297E0,-2.3721285E-2,1.0107142E1,2.8571428E1,5.2135544E1,4.22447E1,7.2413795E1,-2E0,4.1702437E-1,7E0,5.1487383E-2,0E0,2.297306E-2,7.7796164E-3,1.1049174E-2,1.8940162E-2,3.8850685E-3,1.3647594E-2,1.390691E-2,4.4362764E-3,1.6738564E-2,5.2902633E-3,-1.5408675E-3,3.8268787E-3,9.909597E-4,-3.678871E-3,2.1595403E-3,1.0099372E-2,6.5908725E-3,-1.3056202E-2,-1.5419172E-3,-1.4364746E-2,8.553008E-4,2.3770742E-3,-2.323452E-3,2.8186764E-3,-2.8263235E-3,-7.0042475E-3,-1.7255648E-3,3.052807E-3,2.9850213E-4,-8.091038E-4,1.9274067E-2,-6.136773E-4,-1.0100137E-3,6.342899E-3,-1.3464109E-2,-3.621019E-3,2.9428586E-4,-1.7176463E-3,-3.2157688E-3,-1.8287413E-3,1.4367746E-3,-9.53933E-4,-2.9379714E-4,-1.140582E-3,4.4591795E-3,1.1053034E-3,7.625944E-3,-1.1680325E-2,7.7416346E-4,1.2743588E-4,3.0218526E-3,9.5268444E-4,-3.8107022E-4,1.0418813E-2,1.9202987E-3,-5.0104978E-3,-5.678308E-3,-1.88299E-3,-9.248561E-4,6.074461E-3,-2.5886617E-4,3.6531E-4,-1.8130857E-4,4.857723E-4],"split_indices":[2,8,0,2,0,0,2,0,2,0,5,8,3,4,5,8,6,2,0,2,5,2,5,5,2,2,2,3,0,8,0,6,4,4,3,8,0,6,5,5,8,5,0,0,0,5,6,6,8,6,0,6,5,2,0,0,0,0,8,6,8,5,8,0,0,0,0,0,0,0,0,0,0,0,0,0,0,0,0,0,0,0,0,0,0,0,0,0,0,0,0,0,0,0,0,0,0,0,0,0,0,0,0,0,0,0,0,0,0,0,0,0,0,0,0,0,0,0,0,0,0,0,0,0,0,0,0],"split_type":[0,0,0,0,0,0,0,0,0,0,0,0,0,0,0,0,0,0,0,0,0,0,0,0,0,0,0,0,0,0,0,0,0,0,0,0,0,0,0,0,0,0,0,0,0,0,0,0,0,0,0,0,0,0,0,0,0,0,0,0,0,0,0,0,0,0,0,0,0,0,0,0,0,0,0,0,0,0,0,0,0,0,0,0,0,0,0,0,0,0,0,0,0,0,0,0,0,0,0,0,0,0,0,0,0,0,0,0,0,0,0,0,0,0,0,0,0,0,0,0,0,0,0,0,0,0,0],"sum_hessian":[5.332835E5,5.419676E4,4.7908672E5,2.7511656E4,2.6685105E4,9.814981E4,3.8093694E5,1.0833345E3,2.6428322E4,1.235418E4,1.4330926E4,2.8532006E4,6.9617805E4,1.2872494E5,2.5221198E5,5.04361E2,5.7897345E2,6.362894E3,2.0065428E4,1.435079E3,1.0919101E4,3.8677366E3,1.0463189E4,5.346905E3,2.3185102E4,6.5466637E4,4.151167E3,1.1051949E5,1.8205445E4,6.5809175E3,2.4563106E5,2.141475E2,2.9021347E2,3.3381818E2,2.4515529E2,3.227232E3,3.135662E3,5.6594053E3,1.4406022E4,1.5455443E2,1.2805245E3,1.014972E4,7.693806E2,2.3289753E3,1.5387612E3,1.0446716E4,1.6472885E1,1.007753E3,4.339152E3,6.8788833E3,1.6306219E4,3.0658945E3,6.2400742E4,4.1230664E3,2.8100803E1,8.3692914E4,2.6826578E4,1.7865328E4,3.4011664E2,1.3856604E3,5.1952573E3,1.7884175E5,6.678931E4,1.9815912E2,1.5988389E1,2.2044597E2,6.976752E1,2.8972897E2,4.408919E1,2.1124052E2,3.3914764E1,3.439926E1,3.1928328E3,2.5290724E2,2.882755E3,5.235955E3,4.2345004E2,1.4298464E4,1.0755825E2,1.3905054E2,1.5503892E1,1.2630826E3,1.744188E1,9.49032E3,6.593999E2,5.74613E2,1.9476764E2,2.0092075E3,3.1976776E2,1.3624045E3,1.7635677E2,6.5319834E3,3.9147327E3,1.1627919E1,4.8449664E0,9.30718E2,7.7034966E1,3.1007784E1,4.308144E3,2.7427354E3,4.1361475E3,2.3498086E3,1.395641E4,2.002909E3,1.0629856E3,1.234885E4,5.0051895E4,2.160855E2,3.9069807E3,3.3914764E0,2.4709328E1,3.721564E4,4.6477277E4,1.9273275E3,2.489925E4,1.7837229E4,2.8100803E1,9.399235E1,2.4612428E2,3.6337247E2,1.0222879E3,5.1327573E3,6.2500065E1,1.491799E5,2.9661852E4,2.5630355E4,4.1158957E4],"tree_param":{"num_deleted":"0","num_feature":"9","num_nodes":"127","size_leaf_vector":"1"}},{"base_weights":[-2.357291E-6,-1.3994792E-1,1.576723E-2,-3.8108325E-1,-1.2004961E-1,-1.0917288E-2,3.7740786E-2,-4.4438034E-1,-3.170837E-1,-1.8546022E-1,-1.02883965E-1,-1.8999394E-2,2.2921525E-2,2.4786733E-2,4.80917E-2,-4.5056087E-1,7.177464E-2,-3.289161E-1,-1.882513E-1,-1.8627837E-1,7.889487E-1,-1.3296545E-1,-8.469943E-2,-4.916204E-2,-9.9921115E-3,1.9468809E-2,1.8255325E-1,2.4118103E-2,1.7643191E-1,4.640644E-2,1.6459797E-1,-4.6820366E-1,-3.640047E-1,-1.7531237E-1,2.7964026E-2,-3.803416E-1,-3.044794E-1,-2.126885E-1,4.092519E-1,-2.0115481E-1,-1.3592337E-1,1.1705027E0,-9.8192245E-3,-1.5627253E-1,-1.0640014E-1,-4.783092E-2,-1.0411416E-1,-5.617302E-2,-1.3629603E-2,1.36231985E-2,-1.613133E-2,1.1966642E-1,1.5389394E-2,2.724121E-1,9.550922E-2,1.7724957E-2,3.807501E-2,1.2278867E-1,4.5607576E-1,4.578685E-2,2.185313E-1,3.8950947E-1,1.13591895E-1,-5.5860663E-3,-1.4184821E-2,-1.4253089E-3,-1.1694141E-2,-9.971708E-3,5.8233016E-3,-1.1651752E-2,4.8758322E-3,-7.603807E-3,-1.0956381E-2,-3.930568E-3,-9.5871175E-3,-1.0760846E-2,2.6604725E-2,-6.9686454E-3,-4.9688453E-3,-9.854021E-3,-3.7760246E-3,9.8315E-3,4.9257528E-2,-4.9087703E-3,-1.5067485E-3,-3.5707317E-3,-1.1914877E-3,3.1238722E-3,-1.6580418E-3,-3.2347355E-3,6.086312E-4,-4.4724866E-4,-1.9776346E-3,-8.503409E-3,-3.3568774E-4,2.401137E-3,2.883156E-4,1.0602544E-3,-5.789557E-4,4.4564577E-3,-3.719422E-4,2.152234E-4,1.5703124E-3,7.306749E-4,1.0945172E-2,2.41226E-3,2.0646442E-2,3.4249295E-4,8.9112035E-4,-1.0696603E-3,1.2432069E-3,5.04373E-3,-3.2602805E-3,1.7286014E-2,8.904294E-4,1.4881439E-3,1.0030194E-3,6.102782E-3,2.7566837E-2,2.4716694E-2,8.498814E-3,7.3526697E-3,2.786748E-3],"categories":[],"categories_nodes":[],"categories_segments":[],"categories_sizes":[],"default_left":[0,0,0,0,0,0,0,0,0,0,0,0,0,0,0,0,0,0,0,0,0,0,0,0,0,0,0,0,0,0,0,0,0,0,0,0,0,0,0,0,0,0,0,0,0,0,0,0,0,0,0,0,0,0,0,0,0,0,0,0,0,0,0,0,0,0,0,0,0,0,0,0,0,0,0,0,0,0,0,0,0,0,0,0,0,0,0,0,0,0,0,0,0,0,0,0,0,0,0,0,0,0,0,0,0,0,0,0,0,0,0,0,0,0,0,0,0,0,0,0,0,0,0],"id":3,"left_children":[1,3,5,7,9,11,13,15,17,19,21,23,25,27,29,31,33,35,37,39,41,43,45,47,49,51,53,55,57,59,61,63,65,67,-1,69,71,73,75,77,79,81,-1,83,85,87,89,91,93,95,97,99,101,103,105,107,109,111,113,115,117,119,121,-1,-1,-1,-1,-1,-1,-1,-1,-1,-1,-1,-1,-1,-1,-1,-1,-1,-1,-1,-1,-1,-1,-1,-1,-1,-1,-1,-1,-1,-1,-1,-1,-1,-1,-1,-1,-1,-1,-1,-1,-1,-1,-1,-1,-1,-1,-1,-1,-1,-1,-1,-1,-1,-1,-1,-1,-1,-1,-1,-1],"loss_changes":[7.099878E2,1.5628265E2,1.6953542E2,9.918243E0,3.3776093E1,3.5710236E1,2.1260101E1,4.006958E0,1.8256149E0,5.134018E0,1.3031845E1,2.8634533E1,1.3871332E1,7.1368027E0,1.7297394E1,1.7099304E0,3.4807904E0,1.3076248E0,1.6419883E0,4.655365E0,2.6996698E0,5.544449E0,1.0634125E1,6.0369797E0,1.1767183E1,1.007051E1,4.141716E0,6.2560616E0,4.5794554E0,9.255646E0,1.4368095E1,1.2410736E0,1.7205696E0,8.1685627E-1,0E0,1.6401253E0,2.302185E0,8.5693264E-1,1.9781224E0,5.2965393E0,2.7248745E0,1.1591992E0,0E0,3.7207947E0,3.5314522E0,5.8022146E0,4.4958572E0,8.141506E0,2.627232E0,4.462265E0,1.050231E1,3.6783419E0,7.188376E0,5.98983E0,2.3809123E0,3.634081E0,5.4670563E0,2.7533503E0,2.5115213E0,4.081238E0,3.106964E0,1.0462849E1,2.7686443E0,0E0,0E0,0E0,0E0,0E0,0E0,0E0,0E0,0E0,0E0,0E0,0E0,0E0,0E0,0E0,0E0,0E0,0E0,0E0,0E0,0E0,0E0,0E0,0E0,0E0,0E0,0E0,0E0,0E0,0E0,0E0,0E0,0E0,0E0,0E0,0E0,0E0,0E0,0E0,0E0,0E0,0E0,0E0,0E0,0E0,0E0,0E0,0E0,0E0,0E0,0E0,0E0,0E0,0E0,0E0,0E0,0E0,0E0,0E0,0E0],"parents":[2147483647,0,0,1,1,2,2,3,3,4,4,5,5,6,6,7,7,8,8,9,9,10,10,11,11,12,12,13,13,14,14,15,15,16,16,17,17,18,18,19,19,20,20,21,21,22,22,23,23,24,24,25,25,26,26,27,27,28,28,29,29,30,30,31,31,32,32,33,33,35,35,36,36,37,37,38,38,39,39,40,40,41,41,43,43,44,44,45,45,46,46,47,47,48,48,49,49,50,50,51,51,52,52,53,53,54,54,55,55,56,56,57,57,58,58,59,59,60,60,61,61,62,62],"right_children":[2,4,6,8,10,12,14,16,18,20,22,24,26,28,30,32,34,36,38,40,42,44,46,48,50,52,54,56,58,60,62,64,66,68,-1,70,72,74,76,78,80,82,-1,84,86,88,90,92,94,96,98,100,102,104,106,108,110,112,114,116,118,120,122,-1,-1,-1,-1,-1,-1,-1,-1,-1,-1,-1,-1,-1,-1,-1,-1,-1,-1,-1,-1,-1,-1,-1,-1,-1,-1,-1,-1,-1,-1,-1,-1,-1,-1,-1,-1,-1,-1,-1,-1,-1,-1,-1,-1,-1,-1,-1,-1,-1,-1,-1,-1,-1,-1,-1,-1,-1,-1,-1,-1],"split_conditions":[8.135715E0,1.7071428E0,3.495714E1,1.1642857E0,3.6357143E0,1.4045844E0,5.7714287E1,5.540623E-2,2.2461727E0,5.324668E-2,6.2655324E-1,1.3542857E1,6.644895E0,6.644895E0,2.8432858E2,8.404256E1,7.000951E1,-6.7394013E-3,2.9280791E-2,1E0,7.168E1,6.1642857E0,4.2602497E1,3.901454E-2,-4.2544726E-2,1.8098627E1,1.9807142E1,4.6192754E-2,5.305E1,6.644895E0,4.3260443E-1,-2.2583455E-2,2.4463388E-1,8.8332735E-2,2.7964026E-2,5.3392783E-2,4.5148735E-3,2.1807346E-3,2.750986E0,8.176683E-1,-4.350598E-2,6.1950058E1,-9.8192245E-3,7.319056E1,3.4234554E-2,-4.643504E-2,3.6504745E0,3.617021E1,2.5712145E1,-1.4014386E-1,-8.2716025E-2,-1.5367946E-2,4.9115922E-2,0E0,1.2215837E-1,9.8939407E-1,2.7435148E-1,4.9314285E1,7.839321E1,2.688353E-2,2.8361252E-1,-3.7975705E-1,-4.8422962E-1,-5.5860663E-3,-1.4184821E-2,-1.4253089E-3,-1.1694141E-2,-9.971708E-3,5.8233016E-3,-1.1651752E-2,4.8758322E-3,-7.603807E-3,-1.0956381E-2,-3.930568E-3,-9.5871175E-3,-1.0760846E-2,2.6604725E-2,-6.9686454E-3,-4.9688453E-3,-9.854021E-3,-3.7760246E-3,9.8315E-3,4.9257528E-2,-4.9087703E-3,-1.5067485E-3,-3.5707317E-3,-1.1914877E-3,3.1238722E-3,-1.6580418E-3,-3.2347355E-3,6.086312E-4,-4.4724866E-4,-1.9776346E-3,-8.503409E-3,-3.3568774E-4,2.401137E-3,2.883156E-4,1.0602544E-3,-5.789557E-4,4.4564577E-3,-3.719422E-4,2.152234E-4,1.5703124E-3,7.306749E-4,1.0945172E-2,2.41226E-3,2.0646442E-2,3.4249295E-4,8.9112035E-4,-1.0696603E-3,1.2432069E-3,5.04373E-3,-3.2602805E-3,1.7286014E-2,8.904294E-4,1.4881439E-3,1.0030194E-3,6.102782E-3,2.7566837E-2,2.4716694E-2,8.498814E-3,7.3526697E-3,2.786748E-3],"split_indices":[2,2,2,2,2,6,2,5,6,1,6,2,6,6,2,0,0,1,5,4,0,2,0,1,1,0,2,1,2,6,6,1,6,5,0,5,1,1,6,6,5,0,0,0,5,1,6,0,0,1,5,1,1,5,1,6,6,2,0,5,5,5,5,0,0,0,0,0,0,0,0,0,0,0,0,0,0,0,0,0,0,0,0,0,0,0,0,0,0,0,0,0,0,0,0,0,0,0,0,0,0,0,0,0,0,0,0,0,0,0,0,0,0,0,0,0,0,0,0,0,0,0,0],"split_type":[0,0,0,0,0,0,0,0,0,0,0,0,0,0,0,0,0,0,0,0,0,0,0,0,0,0,0,0,0,0,0,0,0,0,0,0,0,0,0,0,0,0,0,0,0,0,0,0,0,0,0,0,0,0,0,0,0,0,0,0,0,0,0,0,0,0,0,0,0,0,0,0,0,0,0,0,0,0,0,0,0,0,0,0,0,0,0,0,0,0,0,0,0,0,0,0,0,0,0,0,0,0,0,0,0,0,0,0,0,0,0,0,0,0,0,0,0,0,0,0,0,0,0],"sum_hessian":[3.2171312E5,3.257974E4,2.8913338E5,2.4821335E3,3.0097605E4,1.305703E5,1.5856308E5,1.2449272E3,1.2372063E3,6.2545405E3,2.3843064E4,1.0539747E5,2.517283E4,7.04274E4,8.813568E4,1.2303223E3,1.4605035E1,1.1317126E3,1.0549357E2,6.2501016E3,4.4390483E0,8.980653E3,1.4862412E4,2.4235549E4,8.116192E4,2.4640984E4,5.3184436E2,7.011939E4,3.0800974E2,8.688036E4,1.2553218E3,1.0183435E3,2.1197873E2,1.1965028E1,2.6400075E0,3.5985544E2,7.7185724E2,1.0196726E2,3.5263064E0,4.822416E3,1.4276857E3,3.2720227E0,1.1670256E0,4.781084E3,4.1995693E3,5.1279375E3,9.734475E3,2.0241145E4,3.994403E3,1.6745797E4,6.441612E4,9.6287E2,2.3678115E4,2.6064307E2,2.7120132E2,4.8092332E4,2.2027055E4,2.596424E2,4.836734E1,8.657E4,3.1035712E2,2.3083177E2,1.0244901E3,1.7093346E1,1.0012502E3,1.6191797E1,1.9578693E2,8.465677E0,3.4993508E0,3.5487756E2,4.9778724E0,4.2228726E2,3.4956998E2,5.906273E1,4.2904533E1,1.447544E0,2.0787625E0,2.5671677E3,2.2552483E3,6.92904E1,1.3583953E3,1.7817765E0,1.4902463E0,4.4705596E3,3.1052432E2,3.5304226E3,6.69147E2,2.3865244E2,4.889285E3,9.452676E3,2.8179874E2,3.8684004E3,1.6372745E4,3.4766304E1,3.9596367E3,9.530308E2,1.5792766E4,3.7332522E3,6.068287E4,7.8997876E2,1.728912E2,1.9372607E4,4.3055083E3,7.1096695E1,1.8954636E2,2.6557095E2,5.6303744E0,3.150357E4,1.6588764E4,9.6106146E2,2.1065992E4,2.1734575E2,4.2296635E1,3.7462112E1,1.0905226E1,6.612842E4,2.0441582E4,3.0506796E2,5.289151E0,4.402599E1,1.8680579E2,1.3786604E2,8.86624E2],"tree_param":{"num_deleted":"0","num_feature":"9","num_nodes":"123","size_leaf_vector":"1"}},{"base_weights":[6.9388807E-7,2.8952586E-2,-7.205046E-3,3.7338731E-3,5.4571904E-2,3.3014633E-2,-1.1254789E-2,-1.18486665E-1,6.255556E-3,1.9865634E-1,4.26216E-2,1.7416049E-2,5.0661523E-2,-7.7835084E-3,-3.5123542E-2,-2.7251455E-1,1.5569446E-2,3.2144763E-2,-1.2370493E-3,2.485805E-1,1.4842547E-1,8.547081E-2,2.9594185E-2,3.287886E-2,-1.0867495E-2,5.278298E-2,-9.652228E-2,-3.8196028E-3,-3.1913985E-2,-3.7719842E-2,4.8595205E-2,-3.863553E-1,-1.2743293E-1,1.6923007E-1,-7.4287355E-2,1.6051877E-2,7.9936326E-2,5.737641E-4,-8.411902E-2,2.343854E-1,5.2019125E-1,3.7595856E-1,1.3905779E-1,1.5089002E-1,7.620972E-2,3.93902E-2,1.1044963E-3,2.860599E-1,3.1050283E-2,-6.75338E-3,-1.39418E-1,8.439973E-2,4.5153197E-2,2.2632663E-1,-1.2199235E-1,-4.5813466E-3,7.957874E-2,-3.4603883E-2,7.637368E-2,-1.8799942E-2,-4.9518745E-2,-6.600555E-2,6.8369776E-2,-1.2790163E-2,3.289156E-3,3.2607592E-3,-7.467731E-3,-3.014342E-4,7.784253E-3,4.4020478E-4,-4.101527E-3,3.6376933E-4,5.536395E-3,-2.4413369E-3,2.6666883E-3,-6.929586E-4,2.4131675E-4,2.119249E-2,-2.8018013E-3,1.5870664E-2,6.6172453E-3,1.6425071E-2,-1.68955E-2,6.1868913E-3,1.4786486E-2,1.5465559E-3,5.2167648E-3,1.9562978E-2,4.366121E-3,1.5454764E-3,3.13482E-3,-1.3281849E-4,1.3882245E-3,3.6900493E-4,-1.7287976E-3,-4.375916E-4,1.1799356E-2,-5.582414E-4,1.1621645E-3,-2.4014884E-3,-7.3656214E-5,-3.1604194E-3,-1.41416835E-2,2.4880318E-3,2.3287658E-2,-4.2898708E-4,1.554601E-3,-1.2817467E-2,1.174104E-2,-1.33384E-3,-8.117107E-3,-7.1560375E-5,-9.645621E-4,4.1756355E-3,1.2366993E-3,-6.445422E-4,-1.9330432E-3,-2.2497703E-3,2.9247832E-3,-1.5985913E-3,-2.8770303E-4,-1.8021729E-3,-6.27565E-4,-4.513333E-3,4.6972525E-3,1.4872926E-2,1.7731496E-3],"categories":[],"categories_nodes":[],"categories_segments":[],"categories_sizes":[],"default_left":[0,0,0,0,0,0,0,0,0,0,0,0,0,0,0,0,0,0,0,0,0,0,0,0,0,0,0,0,0,0,0,0,0,0,0,0,0,0,0,0,0,0,0,0,0,0,0,0,0,0,0,0,0,0,0,0,0,0,0,0,0,0,0,0,0,0,0,0,0,0,0,0,0,0,0,0,0,0,0,0,0,0,0,0,0,0,0,0,0,0,0,0,0,0,0,0,0,0,0,0,0,0,0,0,0,0,0,0,0,0,0,0,0,0,0,0,0,0,0,0,0,0,0,0,0,0,0],"id":4,"left_children":[1,3,5,7,9,11,13,15,17,19,21,23,25,27,29,31,33,35,37,39,41,43,45,47,49,51,53,55,57,59,61,63,65,67,69,71,73,75,77,79,81,83,85,87,89,91,93,95,97,99,101,103,105,107,109,111,113,115,117,119,121,123,125,-1,-1,-1,-1,-1,-1,-1,-1,-1,-1,-1,-1,-1,-1,-1,-1,-1,-1,-1,-1,-1,-1,-1,-1,-1,-1,-1,-1,-1,-1,-1,-1,-1,-1,-1,-1,-1,-1,-1,-1,-1,-1,-1,-1,-1,-1,-1,-1,-1,-1,-1,-1,-1,-1,-1,-1,-1,-1,-1,-1,-1,-1,-1,-1],"loss_changes":[1.11119896E2,6.858104E1,6.946752E1,1.6487572E1,9.065753E1,1.0738846E1,3.2104412E1,2.233408E1,1.0167036E1,1.0075592E1,2.7140388E1,9.058302E0,5.7208557E0,3.235703E1,1.0695206E1,8.263111E0,8.009133E0,9.046674E0,6.10095E0,7.6699524E0,4.2374268E0,6.8565216E0,1.0406906E1,6.19055E0,3.8711786E0,4.3493996E0,2.169308E0,1.8458836E1,1.3905331E1,1.065126E1,3.3590157E0,5.6295815E0,6.4177513E0,3.4650311E0,2.0354917E0,5.8207436E0,4.2870235E0,7.035033E0,6.4382677E0,7.7057343E0,3.2539768E0,1.4660492E0,5.888031E0,3.6738014E0,6.9318237E0,8.37014E0,6.274987E0,3.0979857E0,5.0771008E0,2.2351613E0,2.5178032E0,3.4911194E0,5.763796E0,2.259321E0,2.776324E0,1.743254E1,6.007118E0,1.8225208E1,3.7064872E0,5.8212514E0,8.869339E0,4.1271486E0,4.971445E0,0E0,0E0,0E0,0E0,0E0,0E0,0E0,0E0,0E0,0E0,0E0,0E0,0E0,0E0,0E0,0E0,0E0,0E0,0E0,0E0,0E0,0E0,0E0,0E0,0E0,0E0,0E0,0E0,0E0,0E0,0E0,0E0,0E0,0E0,0E0,0E0,0E0,0E0,0E0,0E0,0E0,0E0,0E0,0E0,0E0,0E0,0E0,0E0,0E0,0E0,0E0,0E0,0E0,0E0,0E0,0E0,0E0,0E0,0E0,0E0,0E0,0E0,0E0,0E0],"parents":[2147483647,0,0,1,1,2,2,3,3,4,4,5,5,6,6,7,7,8,8,9,9,10,10,11,11,12,12,13,13,14,14,15,15,16,16,17,17,18,18,19,19,20,20,21,21,22,22,23,23,24,24,25,25,26,26,27,27,28,28,29,29,30,30,31,31,32,32,33,33,34,34,35,35,36,36,37,37,38,38,39,39,40,40,41,41,42,42,43,43,44,44,45,45,46,46,47,47,48,48,49,49,50,50,51,51,52,52,53,53,54,54,55,55,56,56,57,57,58,58,59,59,60,60,61,61,62,62],"right_children":[2,4,6,8,10,12,14,16,18,20,22,24,26,28,30,32,34,36,38,40,42,44,46,48,50,52,54,56,58,60,62,64,66,68,70,72,74,76,78,80,82,84,86,88,90,92,94,96,98,100,102,104,106,108,110,112,114,116,118,120,122,124,126,-1,-1,-1,-1,-1,-1,-1,-1,-1,-1,-1,-1,-1,-1,-1,-1,-1,-1,-1,-1,-1,-1,-1,-1,-1,-1,-1,-1,-1,-1,-1,-1,-1,-1,-1,-1,-1,-1,-1,-1,-1,-1,-1,-1,-1,-1,-1,-1,-1,-1,-1,-1,-1,-1,-1,-1,-1,-1,-1,-1,-1,-1,-1,-1],"split_conditions":[1.3778571E1,1E0,2.892031E1,1.1642857E0,2.607143E0,-4.9577564E-2,6.9707306E1,3.7634407E1,-2.1238085E-2,1.7071428E0,5.714286E0,0E0,7.4379187E0,9.273572E1,1E0,-2E0,5.117527E-1,1E0,6.917003E-2,8E0,-2.3946265E-2,-2.2583455E-2,1.2320743E0,-8.068233E-1,4E0,1.9183674E1,2.4281225E0,2.4116552E-1,4.7665763E-1,3.901454E-2,2.0321428E1,3.295573E0,-6.7394013E-3,-2E0,3.8477604E-4,6.881072E1,-7.049604E-2,4.7642856E0,-6E0,-1.8582487E-2,3.6504745E0,2.1857142E0,4.3137257E1,-5.776384E-2,5.7362545E1,-3.7172694E-2,3.7321847E-2,-2E0,6.1846834E-1,-3.891281E-1,1.4934285E2,3.302112E-1,-5.907644E-1,1.4045844E0,3.9557144E1,1.0909646E-1,6.000714E1,8.032094E-2,3.4496933E-1,2.187857E1,7.916428E1,4.9115922E-2,2.11E1,-1.2790163E-2,3.289156E-3,3.2607592E-3,-7.467731E-3,-3.014342E-4,7.784253E-3,4.4020478E-4,-4.101527E-3,3.6376933E-4,5.536395E-3,-2.4413369E-3,2.6666883E-3,-6.929586E-4,2.4131675E-4,2.119249E-2,-2.8018013E-3,1.5870664E-2,6.6172453E-3,1.6425071E-2,-1.68955E-2,6.1868913E-3,1.4786486E-2,1.5465559E-3,5.2167648E-3,1.9562978E-2,4.366121E-3,1.5454764E-3,3.13482E-3,-1.3281849E-4,1.3882245E-3,3.6900493E-4,-1.7287976E-3,-4.375916E-4,1.1799356E-2,-5.582414E-4,1.1621645E-3,-2.4014884E-3,-7.3656214E-5,-3.1604194E-3,-1.41416835E-2,2.4880318E-3,2.3287658E-2,-4.2898708E-4,1.554601E-3,-1.2817467E-2,1.174104E-2,-1.33384E-3,-8.117107E-3,-7.1560375E-5,-9.645621E-4,4.1756355E-3,1.2366993E-3,-6.445422E-4,-1.9330432E-3,-2.2497703E-3,2.9247832E-3,-1.5985913E-3,-2.8770303E-4,-1.8021729E-3,-6.27565E-4,-4.513333E-3,4.6972525E-3,1.4872926E-2,1.7731496E-3],"split_indices":[2,8,0,2,2,1,0,0,1,2,2,8,7,2,4,8,6,4,1,8,1,1,6,7,8,0,6,1,1,1,2,7,1,8,1,0,1,2,8,1,6,2,0,1,0,1,1,8,6,1,2,1,7,6,2,1,2,1,6,2,2,1,2,0,0,0,0,0,0,0,0,0,0,0,0,0,0,0,0,0,0,0,0,0,0,0,0,0,0,0,0,0,0,0,0,0,0,0,0,0,0,0,0,0,0,0,0,0,0,0,0,0,0,0,0,0,0,0,0,0,0,0,0,0,0,0,0],"split_type":[0,0,0,0,0,0,0,0,0,0,0,0,0,0,0,0,0,0,0,0,0,0,0,0,0,0,0,0,0,0,0,0,0,0,0,0,0,0,0,0,0,0,0,0,0,0,0,0,0,0,0,0,0,0,0,0,0,0,0,0,0,0,0,0,0,0,0,0,0,0,0,0,0,0,0,0,0,0,0,0,0,0,0,0,0,0,0,0,0,0,0,0,0,0,0,0,0,0,0,0,0,0,0,0,0,0,0,0,0,0,0,0,0,0,0,0,0,0,0,0,0,0,0,0,0,0,0],"sum_hessian":[5.326411E5,1.0614776E5,4.2649334E5,5.349268E4,5.265508E4,3.901474E4,3.8747862E5,1.0804329E3,5.2412246E4,4.0315212E3,4.8623555E4,2.07103E4,1.8304438E4,3.3828278E5,4.9195832E4,5.0228467E2,5.7814825E2,1.1763281E4,4.0648965E4,2.0199529E3,2.0115684E3,1.1335096E4,3.728846E4,1.3389826E4,7.3204746E3,1.8044984E4,2.594526E2,2.9055462E5,4.7728156E4,4.7716586E4,1.4792451E3,2.8051266E2,2.21772E2,2.1300807E2,3.6514017E2,8.801038E3,2.9622432E3,3.9780824E4,8.681422E2,1.9213983E3,9.855446E1,7.7995384E1,1.933573E3,1.4037672E3,9.931328E3,2.774732E4,9.54114E3,9.489878E1,1.3294928E4,7.094476E3,2.2599825E2,3.5061057E3,1.4538879E4,1.8395266E1,2.4105736E2,2.8792572E5,2.6289114E3,4.6571973E4,1.1561812E3,1.8328646E4,2.9387941E4,2.1734053E2,1.2619045E3,2.597166E2,2.0796064E1,7.5377426E1,1.4639458E2,7.161958E1,1.4138849E2,1.5089091E2,2.1424925E2,8.601675E3,1.993628E2,1.5534021E2,2.806903E3,9.54169E3,3.0239135E4,9.195082E0,8.5894714E2,8.435924E1,1.8370392E3,9.661353E1,1.9409289E0,3.2941242E1,4.5054142E1,5.512591E2,1.3823138E3,1.3556353E1,1.3902108E3,5.303705E3,4.627623E3,3.7674211E3,2.3979898E4,8.0142134E3,1.5269265E3,2.5179684E1,6.97191E1,1.7822693E3,1.1512658E4,3.920068E2,6.7024697E3,2.0615736E2,1.9840878E1,3.499813E3,6.2926407E0,1.4658396E3,1.3073039E4,3.3883646E0,1.5006901E1,1.5925436E2,8.1802986E1,2.6668538E5,2.1240332E4,1.0282513E3,1.6006599E3,3.2347703E4,1.4224271E4,1.4125056E2,1.0149306E3,3.86211E3,1.4466535E4,2.1465744E4,7.9221978E3,1.5780081E2,5.953972E1,2.5660242E1,1.2362444E3],"tree_param":{"num_deleted":"0","num_feature":"9","num_nodes":"127","size_leaf_vector":"1"}},{"base_weights":[7.3755206E-7,4.4459935E-2,-5.0305347E-3,2.1021049E-1,3.780834E-2,-3.645074E-2,3.0625078E-3,4.06958E-1,9.722764E-2,-9.8216925E-3,4.7310635E-2,-6.386109E-2,-2.5219668E-2,1.4495261E-2,-2.6586985E-3,2.3657991E-1,5.03124E-1,1.3800772E-1,-4.8397955E-2,-5.204338E-2,1.008186E-2,6.8805605E-2,2.3194944E-2,-1.522856E-2,-6.984861E-2,-2.9319892E-2,3.939988E-2,8.94289E-3,3.556359E-2,-1.8786596E-3,-1.0037479E-1,3.4883505E-1,4.9103696E-2,5.11998E-1,-4.763505E-1,-4.1891715E-1,1.5035732E-1,1.8576896E-1,-1.1564148E-1,-4.3874796E-2,-2.4794067E-1,-2.3549438E-1,1.267215E-2,1.07730664E-1,4.7677748E-2,-1.2119062E-2,3.6729567E-2,-1.2377021E-1,9.355708E-3,-5.319823E-2,-9.2342235E-2,-2.3609892E-2,-5.7473775E-2,4.1792717E-2,-3.0170473E-1,7.708157E-3,7.013862E-2,9.5789894E-2,3.0900287E-2,-1.39449015E-2,1.2818545E-3,-1.2715673E-1,8.870477E-2,1.2615543E-2,2.7220924E-3,-2.2958182E-3,1.0292732E-2,1.6488805E-2,8.940565E-3,-1.8216068E-2,-2.991459E-3,1.1626243E-2,-2.0618519E-2,5.8634942E-3,2.0258084E-3,3.374445E-3,2.9583914E-2,1.4761766E-2,-3.93294E-3,-6.8754973E-3,-1.023474E-3,8.459394E-3,-9.471603E-3,1.698089E-2,-8.337279E-3,1.8431587E-3,6.7021574E-5,2.2328484E-3,4.74112E-3,4.5170484E-4,1.9615933E-3,-7.770881E-5,-3.1916187E-3,1.0391118E-3,9.286391E-3,-3.0444987E-4,-5.814949E-3,-1.0355342E-2,4.051522E-4,-6.1551586E-4,-2.0761467E-3,-3.6730953E-3,-2.396655E-3,3.292361E-4,-8.1401994E-4,-1.9235271E-3,-9.180999E-5,4.3809633E-3,1.079649E-3,7.5460095E-3,-1.1541296E-2,5.2621606E-4,-6.754083E-5,-4.9489904E-3,2.337425E-3,2.7802843E-3,1.7787308E-2,1.1683939E-3,-1.3956022E-5,-6.67564E-4,6.107829E-4,6.157389E-5,-1.0940068E-3,-3.548689E-3,-1.1224053E-2,-3.371873E-4,8.073164E-3],"categories":[],"categories_nodes":[],"categories_segments":[],"categories_sizes":[],"default_left":[0,0,0,0,0,0,0,0,0,0,0,0,0,0,0,0,0,0,0,0,0,0,0,0,0,0,0,0,0,0,0,0,0,0,0,0,0,0,0,0,0,0,0,0,0,0,0,0,0,0,0,0,0,0,0,0,0,0,0,0,0,0,0,0,0,0,0,0,0,0,0,0,0,0,0,0,0,0,0,0,0,0,0,0,0,0,0,0,0,0,0,0,0,0,0,0,0,0,0,0,0,0,0,0,0,0,0,0,0,0,0,0,0,0,0,0,0,0,0,0,0,0,0,0,0,0,0],"id":5,"left_children":[1,3,5,7,9,11,13,15,17,19,21,23,25,27,29,31,33,35,37,39,41,43,45,47,49,51,53,55,57,59,61,63,65,67,69,71,73,75,77,79,81,83,85,87,89,91,93,95,97,99,101,103,105,107,109,111,113,115,117,119,121,123,125,-1,-1,-1,-1,-1,-1,-1,-1,-1,-1,-1,-1,-1,-1,-1,-1,-1,-1,-1,-1,-1,-1,-1,-1,-1,-1,-1,-1,-1,-1,-1,-1,-1,-1,-1,-1,-1,-1,-1,-1,-1,-1,-1,-1,-1,-1,-1,-1,-1,-1,-1,-1,-1,-1,-1,-1,-1,-1,-1,-1,-1,-1,-1,-1],"loss_changes":[1.1928856E2,5.9763824E1,1.2182059E2,4.645208E1,2.359153E1,3.0205185E1,2.491758E1,1.237603E1,7.90425E0,7.2865787E0,2.2523949E1,8.303207E0,1.8443325E1,1.4862427E1,1.9352304E1,5.8129873E0,4.4731827E0,7.2103252E0,4.614272E0,4.434301E0,3.7517648E0,1.8889877E1,9.789356E0,8.346688E0,9.505089E0,1.0520706E1,3.4027014E0,7.597492E0,7.439625E0,9.605808E0,1.0193312E1,3.1646442E0,3.9012282E0,3.722763E0,1.802938E-1,5.202582E0,3.7867508E0,3.7284636E0,2.198774E0,4.816881E0,4.0752215E0,2.250242E0,2.9688747E0,1.3528976E1,8.602863E0,5.0976644E0,8.4417095E0,4.596241E0,3.757256E0,7.632679E0,4.0377045E0,6.632704E0,3.9893265E0,2.4908218E0,1.4310265E0,9.652397E0,3.6482286E0,2.8921757E0,6.2076073E0,1.4899541E1,5.8064685E0,3.813713E0,4.5115595E0,0E0,0E0,0E0,0E0,0E0,0E0,0E0,0E0,0E0,0E0,0E0,0E0,0E0,0E0,0E0,0E0,0E0,0E0,0E0,0E0,0E0,0E0,0E0,0E0,0E0,0E0,0E0,0E0,0E0,0E0,0E0,0E0,0E0,0E0,0E0,0E0,0E0,0E0,0E0,0E0,0E0,0E0,0E0,0E0,0E0,0E0,0E0,0E0,0E0,0E0,0E0,0E0,0E0,0E0,0E0,0E0,0E0,0E0,0E0,0E0,0E0,0E0,0E0,0E0],"parents":[2147483647,0,0,1,1,2,2,3,3,4,4,5,5,6,6,7,7,8,8,9,9,10,10,11,11,12,12,13,13,14,14,15,15,16,16,17,17,18,18,19,19,20,20,21,21,22,22,23,23,24,24,25,25,26,26,27,27,28,28,29,29,30,30,31,31,32,32,33,33,34,34,35,35,36,36,37,37,38,38,39,39,40,40,41,41,42,42,43,43,44,44,45,45,46,46,47,47,48,48,49,49,50,50,51,51,52,52,53,53,54,54,55,55,56,56,57,57,58,58,59,59,60,60,61,61,62,62],"right_children":[2,4,6,8,10,12,14,16,18,20,22,24,26,28,30,32,34,36,38,40,42,44,46,48,50,52,54,56,58,60,62,64,66,68,70,72,74,76,78,80,82,84,86,88,90,92,94,96,98,100,102,104,106,108,110,112,114,116,118,120,122,124,126,-1,-1,-1,-1,-1,-1,-1,-1,-1,-1,-1,-1,-1,-1,-1,-1,-1,-1,-1,-1,-1,-1,-1,-1,-1,-1,-1,-1,-1,-1,-1,-1,-1,-1,-1,-1,-1,-1,-1,-1,-1,-1,-1,-1,-1,-1,-1,-1,-1,-1,-1,-1,-1,-1,-1,-1,-1,-1,-1,-1,-1,-1,-1,-1],"split_conditions":[8.135715E0,1.1642857E0,3.660044E1,3.8245613E1,-2.1238085E-2,2.5712145E1,2.6928572E1,-6.7394013E-3,1E0,5.257143E0,5.3504272E1,-8.2716025E-2,1E0,1E0,4.7665763E-1,2.0112568E1,2.2227729E-2,-1.8582487E-2,5.700227E1,6.852941E1,9.812188E0,4.2285714E0,0E0,-3.7975705E-1,1.4045844E0,2.7968219E-2,2.8432858E2,8.073491E1,4.22447E1,-6.1673135E-2,7.987679E1,7.4132313E-3,3.0558538E1,1.7877991E0,3.173913E1,-3.1384245E-2,7.280295E1,1.2627935E0,-8.6180794E-1,1.31646385E1,-6.45426E-1,3.7616688E-1,-1.4289362E-2,1.5008134E-3,3.743772E1,8.278071E1,1.756432E-1,7.2542854E1,-7.732444E-1,2.6135714E1,1.6820084E1,-8.728761E-2,1.1138571E2,1.0107142E1,2.8571428E1,5.2647976E1,8.571428E0,4.616799E0,2.4617946E-2,4.797184E-2,3.302112E-1,7.839321E1,1.6276494E0,1.2615543E-2,2.7220924E-3,-2.2958182E-3,1.0292732E-2,1.6488805E-2,8.940565E-3,-1.8216068E-2,-2.991459E-3,1.1626243E-2,-2.0618519E-2,5.8634942E-3,2.0258084E-3,3.374445E-3,2.9583914E-2,1.4761766E-2,-3.93294E-3,-6.8754973E-3,-1.023474E-3,8.459394E-3,-9.471603E-3,1.698089E-2,-8.337279E-3,1.8431587E-3,6.7021574E-5,2.2328484E-3,4.74112E-3,4.5170484E-4,1.9615933E-3,-7.770881E-5,-3.1916187E-3,1.0391118E-3,9.286391E-3,-3.0444987E-4,-5.814949E-3,-1.0355342E-2,4.051522E-4,-6.1551586E-4,-2.0761467E-3,-3.6730953E-3,-2.396655E-3,3.292361E-4,-8.1401994E-4,-1.9235271E-3,-9.180999E-5,4.3809633E-3,1.079649E-3,7.5460095E-3,-1.1541296E-2,5.2621606E-4,-6.754083E-5,-4.9489904E-3,2.337425E-3,2.7802843E-3,1.7787308E-2,1.1683939E-3,-1.3956022E-5,-6.67564E-4,6.107829E-4,6.157389E-5,-1.0940068E-3,-3.548689E-3,-1.1224053E-2,-3.371873E-4,8.073164E-3],"split_indices":[2,2,0,0,1,0,2,1,3,2,0,5,3,3,1,0,1,1,0,0,0,2,5,5,6,1,2,0,0,1,0,5,0,7,0,1,0,7,7,0,7,6,5,1,0,0,5,2,7,2,0,5,2,2,0,0,2,7,5,5,1,0,6,0,0,0,0,0,0,0,0,0,0,0,0,0,0,0,0,0,0,0,0,0,0,0,0,0,0,0,0,0,0,0,0,0,0,0,0,0,0,0,0,0,0,0,0,0,0,0,0,0,0,0,0,0,0,0,0,0,0,0,0,0,0,0,0],"split_type":[0,0,0,0,0,0,0,0,0,0,0,0,0,0,0,0,0,0,0,0,0,0,0,0,0,0,0,0,0,0,0,0,0,0,0,0,0,0,0,0,0,0,0,0,0,0,0,0,0,0,0,0,0,0,0,0,0,0,0,0,0,0,0,0,0,0,0,0,0,0,0,0,0,0,0,0,0,0,0,0,0,0,0,0,0,0,0,0,0,0,0,0,0,0,0,0,0,0,0,0,0,0,0,0,0,0,0,0,0,0,0,0,0,0,0,0,0,0,0,0,0,0,0,0,0,0,0],"sum_hessian":[5.33283E5,5.4213523E4,4.790695E5,2.0904768E3,5.2123043E4,9.8121555E4,3.8094794E5,7.616109E2,1.3288658E3,8.669142E3,4.3453902E4,2.851753E4,6.960402E4,1.2705364E5,2.538943E5,2.7602866E2,4.8558224E2,1.03819E3,2.9067584E2,2.7768838E3,5.892258E3,2.2974371E4,2.0479533E4,3.1265205E3,2.539101E4,6.5451555E4,4.152469E3,1.0055475E5,2.6498887E4,2.518846E5,2.0097014E3,1.7211229E2,1.0391637E2,4.816954E2,3.8868616E0,2.1807861E1,1.0163821E3,6.445545E1,2.2622041E2,2.6669026E3,1.0998131E2,6.0563152E1,5.8316943E3,8.081418E3,1.4892952E4,5.674349E3,1.4805184E4,5.7662726E2,2.5498933E3,1.4592567E4,1.0798442E4,5.441689E4,1.1034664E4,4.124414E3,2.8055138E1,9.856711E4,1.9876416E3,1.9029427E3,2.4595943E4,5.2281258E4,1.9960333E5,1.7606445E3,2.4905695E2,1.3420856E2,3.790373E1,7.332272E1,3.0593643E1,4.083221E2,7.337329E1,2.4303317E0,1.45653E0,5.3341985E0,1.6473663E1,6.572295E2,3.5915262E2,6.009336E1,4.3620872E0,4.8462553E0,2.2137415E2,1.3229715E2,2.5346055E3,1.2113555E1,9.786775E1,2.4233594E0,5.8139793E1,1.0272988E3,4.8043955E3,4.863995E3,3.2174229E3,5.2408013E3,9.652151E3,5.154366E3,5.199832E2,1.469361E4,1.1157329E2,2.2037679E2,3.5625046E2,2.8547234E1,2.521346E3,4.79823E3,9.794337E3,3.1581025E3,7.6403394E3,5.032033E3,4.938486E4,9.833795E3,1.2008689E3,2.1627383E2,3.9081401E3,3.3952274E0,2.465991E1,4.959976E4,4.8967348E4,6.2984905E1,1.9246566E3,1.8922767E3,1.0665964E1,1.957431E4,5.0216343E3,4.208918E4,1.019208E4,1.9561105E5,3.9922874E3,1.7010516E3,5.9592815E1,1.6087036E2,8.818658E1],"tree_param":{"num_deleted":"0","num_feature":"9","num_nodes":"127","size_leaf_vector":"1"}},{"base_weights":[-3.3654721E-6,-1.3772286E-1,1.54548315E-2,-3.773624E-1,-1.1807749E-1,-1.0725952E-2,3.6988266E-2,-4.4071192E-1,-3.1353334E-1,-1.8276483E-1,-1.01135276E-1,-1.8672628E-2,2.2514537E-2,2.4303937E-2,4.7117796E-2,-4.4692785E-1,7.347185E-2,-3.3592317E-1,-1.4210577E-1,-1.8358022E-1,7.754408E-1,-1.30894E-1,-8.316394E-2,-4.825179E-2,-9.849004E-3,1.9119555E-2,1.7896019E-1,2.3647368E-2,1.727244E-1,4.5463685E-2,1.6118939E-1,-4.6462178E-1,-3.6037883E-1,-1.7186889E-1,9.123313E-1,-3.503623E-1,-2.2877444E-1,5.2100305E-2,-2.1613097E-1,-2.0880905E-1,-1.5458286E-1,1.1453357E0,-9.765062E-3,-1.5396187E-1,-1.04630135E-1,-4.6807263E-2,-1.0233306E-1,-5.5159476E-2,-1.3275953E-2,1.3400818E-2,-1.5896779E-2,1.171005E-1,1.5120301E-2,2.6672953E-1,9.366118E-2,1.73761E-2,3.733173E-2,7.8172915E-2,3.2543457E-1,4.4854976E-2,2.1398637E-1,3.8030985E-1,1.1123683E-1,-5.4824804E-3,-1.4078173E-2,-1.351955E-3,-1.158728E-2,-9.854875E-3,5.7674595E-3,3.7035175E-2,3.7973954E-3,-1.20646525E-2,-9.771941E-3,-7.7307755E-3,1.6228902E-3,-2.572565E-3,1.0139154E-2,-7.4974666E-3,6.728782E-3,-8.61057E-3,-5.978253E-3,-2.8998717E-3,-5.3301933E-3,9.716638E-3,4.793562E-2,-4.8376066E-3,-1.47115E-3,-3.514049E-3,-1.1602312E-3,3.0806942E-3,-1.6244205E-3,-3.5287468E-3,-2.1330016E-3,-4.397674E-4,-1.9421969E-3,-2.4013795E-4,-6.483648E-3,2.3598366E-3,2.835699E-4,1.0437493E-3,-5.705687E-4,4.360971E-3,-3.767706E-4,1.1682708E-3,8.499928E-5,7.1498525E-4,1.0699411E-2,2.364136E-3,2.0137034E-2,3.353254E-4,8.7425276E-4,-1.0570751E-3,1.2191627E-3,4.55878E-3,-3.2643566E-3,8.269385E-3,2.6943138E-2,2.3243933E-3,1.302991E-3,4.243941E-3,1.0921124E-2,2.3956023E-2,8.310843E-3,2.686337E-3,1.1924664E-2],"categories":[],"categories_nodes":[],"categories_segments":[],"categories_sizes":[],"default_left":[0,0,0,0,0,0,0,0,0,0,0,0,0,0,0,0,0,0,0,0,0,0,0,0,0,0,0,0,0,0,0,0,0,0,0,0,0,0,0,0,0,0,0,0,0,0,0,0,0,0,0,0,0,0,0,0,0,0,0,0,0,0,0,0,0,0,0,0,0,0,0,0,0,0,0,0,0,0,0,0,0,0,0,0,0,0,0,0,0,0,0,0,0,0,0,0,0,0,0,0,0,0,0,0,0,0,0,0,0,0,0,0,0,0,0,0,0,0,0,0,0,0,0,0,0],"id":6,"left_children":[1,3,5,7,9,11,13,15,17,19,21,23,25,27,29,31,33,35,37,39,41,43,45,47,49,51,53,55,57,59,61,63,65,67,69,71,73,75,77,79,81,83,-1,85,87,89,91,93,95,97,99,101,103,105,107,109,111,113,115,117,119,121,123,-1,-1,-1,-1,-1,-1,-1,-1,-1,-1,-1,-1,-1,-1,-1,-1,-1,-1,-1,-1,-1,-1,-1,-1,-1,-1,-1,-1,-1,-1,-1,-1,-1,-1,-1,-1,-1,-1,-1,-1,-1,-1,-1,-1,-1,-1,-1,-1,-1,-1,-1,-1,-1,-1,-1,-1,-1,-1,-1,-1,-1,-1],"loss_changes":[6.848967E2,1.5280109E2,1.6306763E2,9.806671E0,3.286862E1,3.448236E1,2.0390991E1,3.9701538E0,4.6677246E0,5.0075073E0,1.2707855E1,2.7496151E1,1.3373964E1,6.863182E0,1.6642578E1,1.6967316E0,3.3618739E0,1.5998764E0,2.076473E0,4.5198517E0,2.6067774E0,5.4078827E0,1.0330872E1,5.8475227E0,1.141037E1,9.658443E0,3.9791718E0,6.0205E0,4.4536877E0,8.912994E0,1.3758667E1,1.2346191E0,1.7040119E0,7.98317E-1,7.759702E-1,1.0873795E0,1.0923743E0,1.6230843E0,1.6065669E0,2.4217834E0,3.8597336E0,1.0910726E0,0E0,3.637062E0,3.4507904E0,5.6257334E0,4.629059E0,7.8421974E0,4.2684574E0,4.3157845E0,1.0192059E1,3.5444021E0,6.933157E0,5.7369366E0,2.287757E0,3.5086832E0,5.2926216E0,2.6780224E0,3.1256418E0,4.017288E0,3.3521729E0,9.871815E0,6.3489914E0,0E0,0E0,0E0,0E0,0E0,0E0,0E0,0E0,0E0,0E0,0E0,0E0,0E0,0E0,0E0,0E0,0E0,0E0,0E0,0E0,0E0,0E0,0E0,0E0,0E0,0E0,0E0,0E0,0E0,0E0,0E0,0E0,0E0,0E0,0E0,0E0,0E0,0E0,0E0,0E0,0E0,0E0,0E0,0E0,0E0,0E0,0E0,0E0,0E0,0E0,0E0,0E0,0E0,0E0,0E0,0E0,0E0,0E0,0E0,0E0,0E0,0E0],"parents":[2147483647,0,0,1,1,2,2,3,3,4,4,5,5,6,6,7,7,8,8,9,9,10,10,11,11,12,12,13,13,14,14,15,15,16,16,17,17,18,18,19,19,20,20,21,21,22,22,23,23,24,24,25,25,26,26,27,27,28,28,29,29,30,30,31,31,32,32,33,33,34,34,35,35,36,36,37,37,38,38,39,39,40,40,41,41,43,43,44,44,45,45,46,46,47,47,48,48,49,49,50,50,51,51,52,52,53,53,54,54,55,55,56,56,57,57,58,58,59,59,60,60,61,61,62,62],"right_children":[2,4,6,8,10,12,14,16,18,20,22,24,26,28,30,32,34,36,38,40,42,44,46,48,50,52,54,56,58,60,62,64,66,68,70,72,74,76,78,80,82,84,-1,86,88,90,92,94,96,98,100,102,104,106,108,110,112,114,116,118,120,122,124,-1,-1,-1,-1,-1,-1,-1,-1,-1,-1,-1,-1,-1,-1,-1,-1,-1,-1,-1,-1,-1,-1,-1,-1,-1,-1,-1,-1,-1,-1,-1,-1,-1,-1,-1,-1,-1,-1,-1,-1,-1,-1,-1,-1,-1,-1,-1,-1,-1,-1,-1,-1,-1,-1,-1,-1,-1,-1,-1,-1,-1,-1],"split_conditions":[8.135715E0,1.7071428E0,3.495714E1,1.1642857E0,3.6357143E0,1.4045844E0,5.7714287E1,5.540623E-2,2.2635658E0,5.324668E-2,6.2655324E-1,1.3542857E1,6.644895E0,6.644895E0,2.8432858E2,8.404256E1,7.000951E1,4E0,2.9049287E0,8.176683E-1,7.168E1,6.1642857E0,4.2602497E1,3.901454E-2,-4.2544726E-2,1.8098627E1,1.9807142E1,4.6192754E-2,1.0411835E1,6.644895E0,4.3260443E-1,-2.2583455E-2,2.4463388E-1,8.8332735E-2,8.533979E-3,-6.7394013E-3,1.6983724E0,2E0,2.8028408E-2,-2.2353755E-2,3.7025562E1,6.1950058E1,-9.765062E-3,7.319056E1,3.4234554E-2,-4.643504E-2,2E0,3.617021E1,5E0,-1.4014386E-1,-8.2716025E-2,-1.5367946E-2,4.5238757E-1,0E0,1.2215837E-1,9.8939407E-1,2.7435148E-1,8.274107E-3,5.61E1,-2.732346E-1,1.0411835E1,-3.7975705E-1,1.2991157E0,-5.4824804E-3,-1.4078173E-2,-1.351955E-3,-1.158728E-2,-9.854875E-3,5.7674595E-3,3.7035175E-2,3.7973954E-3,-1.20646525E-2,-9.771941E-3,-7.7307755E-3,1.6228902E-3,-2.572565E-3,1.0139154E-2,-7.4974666E-3,6.728782E-3,-8.61057E-3,-5.978253E-3,-2.8998717E-3,-5.3301933E-3,9.716638E-3,4.793562E-2,-4.8376066E-3,-1.47115E-3,-3.514049E-3,-1.1602312E-3,3.0806942E-3,-1.6244205E-3,-3.5287468E-3,-2.1330016E-3,-4.397674E-4,-1.9421969E-3,-2.4013795E-4,-6.483648E-3,2.3598366E-3,2.835699E-4,1.0437493E-3,-5.705687E-4,4.360971E-3,-3.767706E-4,1.1682708E-3,8.499928E-5,7.1498525E-4,1.0699411E-2,2.364136E-3,2.0137034E-2,3.353254E-4,8.7425276E-4,-1.0570751E-3,1.2191627E-3,4.55878E-3,-3.2643566E-3,8.269385E-3,2.6943138E-2,2.3243933E-3,1.302991E-3,4.243941E-3,1.0921124E-2,2.3956023E-2,8.310843E-3,2.686337E-3,1.1924664E-2],"split_indices":[2,2,2,2,2,6,2,5,7,1,6,2,6,6,2,0,0,8,7,6,0,2,0,1,1,0,2,1,7,6,6,1,6,5,7,1,6,8,5,5,0,0,0,0,5,1,8,0,8,1,5,1,7,5,1,6,6,5,2,5,7,5,7,0,0,0,0,0,0,0,0,0,0,0,0,0,0,0,0,0,0,0,0,0,0,0,0,0,0,0,0,0,0,0,0,0,0,0,0,0,0,0,0,0,0,0,0,0,0,0,0,0,0,0,0,0,0,0,0,0,0,0,0,0,0],"split_type":[0,0,0,0,0,0,0,0,0,0,0,0,0,0,0,0,0,0,0,0,0,0,0,0,0,0,0,0,0,0,0,0,0,0,0,0,0,0,0,0,0,0,0,0,0,0,0,0,0,0,0,0,0,0,0,0,0,0,0,0,0,0,0,0,0,0,0,0,0,0,0,0,0,0,0,0,0,0,0,0,0,0,0,0,0,0,0,0,0,0,0,0,0,0,0,0,0,0,0,0,0,0,0,0,0,0,0,0,0,0,0,0,0,0,0,0,0,0,0,0,0,0,0,0,0],"sum_hessian":[3.2171266E5,3.2465402E4,2.8924725E5,2.4584436E3,3.0006957E4,1.30537555E5,1.587097E5,1.2308937E3,1.2275499E3,6.22591E3,2.3781049E4,1.05351914E5,2.518564E4,7.046985E4,8.823984E4,1.2163204E3,1.457324E1,1.0848944E3,1.4265553E2,6.2214243E3,4.485723E0,8.951682E3,1.4829366E4,2.4205176E4,8.114674E4,2.46518E4,5.3383954E2,7.016064E4,3.0921097E2,8.697998E4,1.2598663E3,1.00623846E3,2.1008202E2,1.1890693E1,2.682548E0,9.540576E2,1.3083678E2,3.945114E1,1.0320439E2,3.3235796E3,2.8978447E3,3.327445E0,1.1582778E0,4.763225E3,4.1884565E3,5.120718E3,9.708648E3,2.0212629E4,3.9925479E3,1.6750514E4,6.4396227E4,9.656353E2,2.3686164E4,2.620615E2,2.71778E2,4.8113473E4,2.204717E4,1.9190417E2,1.173068E2,8.6668195E4,3.117811E2,2.3266248E2,1.027204E3,1.6986593E1,9.8925183E2,1.6133698E1,1.9394832E2,8.382674E0,3.508018E0,1.4974478E0,1.1851001E0,3.0254764E2,6.5150995E2,1.1878257E2,1.2054208E1,2.708857E1,1.2362573E1,9.625342E1,6.9509726E0,3.5796597E2,2.9656135E3,8.274429E2,2.0704019E3,1.7913632E0,1.5360818E0,4.453211E3,3.10014E2,3.5202593E3,6.6819727E2,2.3904527E2,4.8816724E3,6.5157437E3,3.1929053E3,3.867131E3,1.6345497E4,3.8924346E3,1.0011334E2,9.545664E2,1.5795946E4,3.7357861E3,6.066044E4,7.9270746E2,1.7292783E2,8.0590615E3,1.5627104E4,7.114381E1,1.909177E2,2.6607047E2,5.7075615E0,3.151313E4,1.6600344E4,9.6051605E2,2.1086654E4,1.3773831E2,5.4165863E1,1.0928667E2,8.020139E0,3.617421E3,8.305077E4,2.1150215E2,1.0027896E2,4.4744503E1,1.8791797E2,9.560658E2,7.113815E1],"tree_param":{"num_deleted":"0","num_feature":"9","num_nodes":"125","size_leaf_vector":"1"}},{"base_weights":[1.0851342E-6,6.6230115E-3,-1.8674597E-2,-3.4240955E-3,1.2950677E-2,3.1819146E-2,-2.3161944E-2,2.3999484E-2,-8.6559905E-3,1.472635E-3,2.4498517E-2,7.294953E-2,1.796631E-2,-1.646268E-2,-4.703983E-2,-3.0585967E-2,3.1696644E-2,-7.7641495E-2,-6.9531756E-3,2.7393162E-2,-1.9441625E-3,1.02149405E-1,2.31134E-2,5.9615377E-2,2.5573987E-1,-1.127219E-2,2.8424641E-2,-7.3033804E-3,-3.2809455E-2,-5.3932168E-2,1.3262579E-2,5.542214E-2,-5.608234E-2,4.3879535E-2,8.552328E-3,3.3248615E-2,-9.289655E-2,-3.0680872E-3,-2.7441107E-2,-2.4186681E-1,2.9269075E-2,4.346463E-2,-3.125741E-3,9.896144E-2,7.7982587E-1,2.7389454E-2,1.300125E-4,1.862265E-1,4.087145E-2,6.9920135E-1,2.2992358E-1,1.7210516E-1,-1.9102467E-2,-1.177516E-1,3.1508233E-2,-1.2637567E-2,2.3260586E-2,-4.2849455E-2,2.5233468E-2,2.6318126E-3,-6.067482E-2,4.7955323E-2,-2.9891582E-2,7.0221666E-3,1.2229382E-4,8.500742E-3,-1.8460167E-3,1.7075771E-3,5.0584663E-4,-1.4630293E-4,1.5602405E-3,-2.5399223E-3,3.418793E-3,-3.529532E-3,-6.1304186E-4,3.2418353E-5,-7.131997E-4,-1.5603959E-3,-4.5495617E-4,-1.3555433E-3,-1.4863799E-2,6.6817785E-4,2.5843543E-3,1.4904013E-3,-5.5388547E-3,-4.1273328E-5,-1.0128506E-3,3.183056E-3,-5.3103664E-3,2.836568E-2,-2.8906502E-3,7.932683E-4,4.801184E-3,3.4797526E-4,-1.1570367E-3,1.1983568E-2,4.045595E-3,-4.557624E-3,1.5250111E-3,3.442899E-3,2.4677694E-2,4.6093003E-3,1.2415418E-2,-3.9742375E-3,9.545721E-3,-7.547763E-4,6.2850653E-3,1.3126704E-3,-4.9435725E-3,8.719258E-4,5.2108914E-3,-3.5043695E-4,-3.6956884E-3,2.0508788E-4,1.8147236E-3,-1.5143658E-3,-7.026862E-4,-1.2929438E-4,1.8031711E-3,-1.227192E-4,5.404914E-3,-1.475793E-3,-2.5675811E-3,9.299325E-4,5.0280397E-3,7.4623944E-4,-2.2586975E-3],"categories":[],"categories_nodes":[],"categories_segments":[],"categories_sizes":[],"default_left":[0,0,0,0,0,0,0,0,0,0,0,0,0,0,0,0,0,0,0,0,0,0,0,0,0,0,0,0,0,0,0,0,0,0,0,0,0,0,0,0,0,0,0,0,0,0,0,0,0,0,0,0,0,0,0,0,0,0,0,0,0,0,0,0,0,0,0,0,0,0,0,0,0,0,0,0,0,0,0,0,0,0,0,0,0,0,0,0,0,0,0,0,0,0,0,0,0,0,0,0,0,0,0,0,0,0,0,0,0,0,0,0,0,0,0,0,0,0,0,0,0,0,0,0,0,0,0],"id":7,"left_children":[1,3,5,7,9,11,13,15,17,19,21,23,25,27,29,31,33,35,37,39,41,43,45,47,49,51,53,55,57,59,61,63,65,67,69,71,73,75,77,79,81,83,85,87,89,91,93,95,97,99,101,103,105,107,109,111,113,115,117,119,121,123,125,-1,-1,-1,-1,-1,-1,-1,-1,-1,-1,-1,-1,-1,-1,-1,-1,-1,-1,-1,-1,-1,-1,-1,-1,-1,-1,-1,-1,-1,-1,-1,-1,-1,-1,-1,-1,-1,-1,-1,-1,-1,-1,-1,-1,-1,-1,-1,-1,-1,-1,-1,-1,-1,-1,-1,-1,-1,-1,-1,-1,-1,-1,-1,-1],"loss_changes":[6.5871315E1,2.4998724E1,3.1592056E1,2.1801699E1,3.197913E1,6.48256E0,2.0482033E1,1.0229614E1,1.4989365E1,1.0716479E1,1.2933113E1,6.9720716E0,2.6037786E0,1.4971302E1,1.1660473E1,6.601921E0,6.015871E0,5.202881E0,9.912497E0,7.125309E0,5.7362328E0,4.475704E0,1.1612698E1,6.3363104E0,2.0671453E0,3.2251062E0,2.83045E0,1.0448632E1,2.0926311E1,9.602165E0,4.3106885E0,6.315284E0,4.313505E0,4.9237328E0,4.2950096E0,3.5543225E0,4.844986E0,8.992378E0,5.987075E0,4.8461223E0,5.5674934E0,3.8530865E0,5.5862236E0,4.1544037E0,1.5025582E0,1.2513077E1,8.227514E0,3.7190619E0,4.482312E0,6.4227724E-1,2.537342E0,4.135046E0,2.9860137E0,9.929874E-1,2.1295366E0,5.7674074E0,5.822822E0,4.5360527E0,5.4562407E0,3.2020783E0,6.42984E0,3.2328928E0,3.1926718E0,0E0,0E0,0E0,0E0,0E0,0E0,0E0,0E0,0E0,0E0,0E0,0E0,0E0,0E0,0E0,0E0,0E0,0E0,0E0,0E0,0E0,0E0,0E0,0E0,0E0,0E0,0E0,0E0,0E0,0E0,0E0,0E0,0E0,0E0,0E0,0E0,0E0,0E0,0E0,0E0,0E0,0E0,0E0,0E0,0E0,0E0,0E0,0E0,0E0,0E0,0E0,0E0,0E0,0E0,0E0,0E0,0E0,0E0,0E0,0E0,0E0,0E0,0E0,0E0],"parents":[2147483647,0,0,1,1,2,2,3,3,4,4,5,5,6,6,7,7,8,8,9,9,10,10,11,11,12,12,13,13,14,14,15,15,16,16,17,17,18,18,19,19,20,20,21,21,22,22,23,23,24,24,25,25,26,26,27,27,28,28,29,29,30,30,31,31,32,32,33,33,34,34,35,35,36,36,37,37,38,38,39,39,40,40,41,41,42,42,43,43,44,44,45,45,46,46,47,47,48,48,49,49,50,50,51,51,52,52,53,53,54,54,55,55,56,56,57,57,58,58,59,59,60,60,61,61,62,62],"right_children":[2,4,6,8,10,12,14,16,18,20,22,24,26,28,30,32,34,36,38,40,42,44,46,48,50,52,54,56,58,60,62,64,66,68,70,72,74,76,78,80,82,84,86,88,90,92,94,96,98,100,102,104,106,108,110,112,114,116,118,120,122,124,126,-1,-1,-1,-1,-1,-1,-1,-1,-1,-1,-1,-1,-1,-1,-1,-1,-1,-1,-1,-1,-1,-1,-1,-1,-1,-1,-1,-1,-1,-1,-1,-1,-1,-1,-1,-1,-1,-1,-1,-1,-1,-1,-1,-1,-1,-1,-1,-1,-1,-1,-1,-1,-1,-1,-1,-1,-1,-1,-1,-1,-1,-1,-1,-1],"split_conditions":[4.4338144E-2,-3.460854E-2,3.7634407E1,2.8218603E1,0E0,-2E0,7.0647606E1,-8.728761E-2,-3.891281E-1,2.892031E1,2.1712976E1,2.2381094E-1,-2.9748867E-3,1.0909646E-1,1.0098343E-1,-3.7975705E-1,0E0,-4.672783E-1,1E0,-1.1E1,-5E0,4.0308794E-1,2.943325E-2,2.3671217E1,2.0112568E1,-6.764635E-1,4.5263585E-2,1E0,2.9200983E-1,-1.0992316E-1,8.670836E-2,1.8098627E1,-7.4622643E-1,6.980396E-4,-5.4101996E-2,3.8047634E1,3.583693E-1,4.9743794E-2,4.6079937E1,-4.962922E-3,2.364283E-2,4.16259E-2,8.4757656E-2,1.0588348E-1,2.0112568E1,9.087908E1,1E0,-3.425876E-2,-1.647311E-1,-2.8432477E-1,6.438364E-2,6.013752E-2,3.743772E1,2.7442781E1,4.0308794E-1,3.2938418E-1,5.6821194E1,2.9280791E-2,0E0,1E0,7.987679E1,-3.0280318E-2,1.756432E-1,7.0221666E-3,1.2229382E-4,8.500742E-3,-1.8460167E-3,1.7075771E-3,5.0584663E-4,-1.4630293E-4,1.5602405E-3,-2.5399223E-3,3.418793E-3,-3.529532E-3,-6.1304186E-4,3.2418353E-5,-7.131997E-4,-1.5603959E-3,-4.5495617E-4,-1.3555433E-3,-1.4863799E-2,6.6817785E-4,2.5843543E-3,1.4904013E-3,-5.5388547E-3,-4.1273328E-5,-1.0128506E-3,3.183056E-3,-5.3103664E-3,2.836568E-2,-2.8906502E-3,7.932683E-4,4.801184E-3,3.4797526E-4,-1.1570367E-3,1.1983568E-2,4.045595E-3,-4.557624E-3,1.5250111E-3,3.442899E-3,2.4677694E-2,4.6093003E-3,1.2415418E-2,-3.9742375E-3,9.545721E-3,-7.547763E-4,6.2850653E-3,1.3126704E-3,-4.9435725E-3,8.719258E-4,5.2108914E-3,-3.5043695E-4,-3.6956884E-3,2.0508788E-4,1.8147236E-3,-1.5143658E-3,-7.026862E-4,-1.2929438E-4,1.8031711E-3,-1.227192E-4,5.404914E-3,-1.475793E-3,-2.5675811E-3,9.299325E-4,5.0280397E-3,7.4623944E-4,-2.2586975E-3],"split_indices":[1,1,0,0,8,8,0,5,1,0,0,1,5,1,5,5,8,7,3,8,8,5,1,0,0,7,1,4,1,5,7,0,7,5,1,0,7,5,0,1,1,1,5,5,0,0,3,5,5,7,5,1,0,0,5,5,0,5,8,4,0,7,5,0,0,0,0,0,0,0,0,0,0,0,0,0,0,0,0,0,0,0,0,0,0,0,0,0,0,0,0,0,0,0,0,0,0,0,0,0,0,0,0,0,0,0,0,0,0,0,0,0,0,0,0,0,0,0,0,0,0,0,0,0,0,0,0],"split_type":[0,0,0,0,0,0,0,0,0,0,0,0,0,0,0,0,0,0,0,0,0,0,0,0,0,0,0,0,0,0,0,0,0,0,0,0,0,0,0,0,0,0,0,0,0,0,0,0,0,0,0,0,0,0,0,0,0,0,0,0,0,0,0,0,0,0,0,0,0,0,0,0,0,0,0,0,0,0,0,0,0,0,0,0,0,0,0,0,0,0,0,0,0,0,0,0,0,0,0,0,0,0,0,0,0,0,0,0,0,0,0,0,0,0,0,0,0,0,0,0,0,0,0,0,0,0,0],"sum_hessian":[5.326402E5,3.9321622E5,1.3942394E5,1.5194981E5,2.412664E5,1.1378753E4,1.2804518E5,2.4344055E4,1.27605766E5,1.2099943E5,1.2026698E5,2.865764E3,8.512989E3,9.999259E4,2.8052584E4,3.0081785E3,2.1335877E4,3.0728274E3,1.2453294E5,1.4091488E4,1.06907945E5,2.1064182E3,1.1816056E5,2.6721619E3,1.9360216E2,2.2427695E3,6.270219E3,6.408591E4,3.5906684E4,2.5175252E4,2.8773318E3,6.8757526E2,2.320603E3,1.3977429E4,7.3584478E3,3.7146216E2,2.7013652E3,1.046832E5,1.9849732E4,9.660988E1,1.3994879E4,2.7103848E3,1.0419756E5,2.097696E3,8.722056E0,9.962514E4,1.8535418E4,3.4343027E2,2.3287314E3,9.215658E0,1.843865E2,9.098608E1,2.1517834E3,1.2876968E2,6.1414497E3,5.4563742E4,9.522169E3,3.061185E4,5.294835E3,2.6814255E3,2.2493826E4,1.5949772E3,1.2823546E3,1.5270407E2,5.3487115E2,3.5874916E1,2.2847283E3,9.426706E3,4.5507227E3,5.621978E3,1.7364695E3,1.5092441E2,2.2053775E2,2.0130425E3,6.8832263E2,8.720994E4,1.7473266E4,6.6118555E3,1.3237878E4,5.507384E1,4.153604E1,1.2463145E4,1.5317338E3,2.6392488E3,7.113594E1,9.8568266E4,5.6292964E3,2.0453901E3,5.230596E1,7.2683744E0,1.4536817E0,9.892001E4,7.0512976E2,1.4298403E4,4.237015E3,6.536334E1,2.7806693E2,1.1372109E2,2.2150105E3,1.9429301E0,7.2727284E0,1.3162988E2,5.275661E1,2.9523823E1,6.1462254E1,2.0971118E3,5.467177E1,2.9058266E1,9.971141E1,6.0388535E3,1.0259608E2,5.409688E4,4.6686163E2,6.608135E3,2.914034E3,2.1978592E4,8.633258E3,2.866907E3,2.4279282E3,2.584536E3,9.6889465E1,1.5399217E4,7.094609E3,1.3980841E3,1.9689307E2,5.814161E2,7.0093854E2],"tree_param":{"num_deleted":"0","num_feature":"9","num_nodes":"127","size_leaf_vector":"1"}},{"base_weights":[9.4672185E-7,6.914943E-2,-3.109878E-3,1.4328086E-1,-8.1726685E-3,-3.302704E-2,4.6015037E-3,3.9134753E-1,1.1782692E-1,2.2671586E-2,-4.4472322E-2,-6.0258035E-2,-2.1762926E-2,1.6673222E-2,-2.6186109E-3,5.314027E-1,2.680685E-1,-1.4153863E-2,1.3376537E-1,-8.473091E-3,7.277374E-2,-1.12085804E-1,-1.7831724E-2,-9.069052E-2,-5.1085018E-2,2.629733E-2,-2.7356254E-2,2.7115934E-2,7.4422774E-3,-1.8558499E-3,-9.824461E-2,6.9291925E-1,4.0993762E-1,1.8412076E-1,3.3953783E-1,-4.9554367E-2,1.6590628E-1,1.8645896E-1,1.089883E-1,1.6633248E-2,-4.8027005E-2,9.292689E-2,-1.1777103E-2,-5.3072017E-2,-1.5252215E-1,-2.2985762E-2,2.713508E-1,-3.639697E-1,-8.664407E-2,-2.8966846E-2,-6.330149E-2,-1.0515598E-1,3.3020508E-2,-3.1188253E-2,3.3975374E-2,6.983286E-2,2.0719264E-2,3.177334E-5,2.89467E-2,-1.36583345E-2,1.2352135E-3,-1.2457634E-1,8.739475E-2,2.185636E-2,6.5311235E-3,5.0572613E-3,1.5955774E-2,7.000085E-3,-2.9341315E-3,1.9992718E-2,9.162899E-3,-3.0815538E-3,7.727426E-4,6.8149683E-3,-8.670483E-3,9.24407E-3,5.148705E-3,9.209066E-3,2.9867014E-3,3.5193635E-4,9.258864E-3,-3.2053501E-3,-4.9759063E-4,-1.1825202E-2,2.9385735E-3,7.6851733E-3,-1.0896587E-3,2.8933605E-4,-6.2802895E-3,7.567954E-3,-4.8552933E-3,-1.3719347E-3,4.5404988E-4,2.9071097E-3,1.768288E-2,-2.2965398E-2,-9.427398E-3,-6.2442455E-3,-2.3902035E-3,-7.360944E-4,-2.7993175E-3,5.779532E-4,-2.050246E-3,-1.8761802E-2,-2.6042156E-3,9.161638E-4,9.706353E-3,-7.6343026E-4,-1.7470054E-3,1.0934937E-3,-8.920215E-3,3.2674978E-4,2.3221031E-3,9.071736E-4,1.7660586E-5,-2.137029E-3,4.507105E-5,7.3644763E-4,2.7300837E-3,-6.5501477E-4,6.0281454E-4,-5.357936E-4,1.0134157E-4,-3.4740025E-3,-1.1079157E-2,1.72127E-3,2.5913913E-2],"categories":[],"categories_nodes":[],"categories_segments":[],"categories_sizes":[],"default_left":[0,0,0,0,0,0,0,0,0,0,0,0,0,0,0,0,0,0,0,0,0,0,0,0,0,0,0,0,0,0,0,0,0,0,0,0,0,0,0,0,0,0,0,0,0,0,0,0,0,0,0,0,0,0,0,0,0,0,0,0,0,0,0,0,0,0,0,0,0,0,0,0,0,0,0,0,0,0,0,0,0,0,0,0,0,0,0,0,0,0,0,0,0,0,0,0,0,0,0,0,0,0,0,0,0,0,0,0,0,0,0,0,0,0,0,0,0,0,0,0,0,0,0,0,0,0,0],"id":8,"left_children":[1,3,5,7,9,11,13,15,17,19,21,23,25,27,29,31,33,35,37,39,41,43,45,47,49,51,53,55,57,59,61,63,65,67,69,71,73,75,77,79,81,83,85,87,89,91,93,95,97,99,101,103,105,107,109,111,113,115,117,119,121,123,125,-1,-1,-1,-1,-1,-1,-1,-1,-1,-1,-1,-1,-1,-1,-1,-1,-1,-1,-1,-1,-1,-1,-1,-1,-1,-1,-1,-1,-1,-1,-1,-1,-1,-1,-1,-1,-1,-1,-1,-1,-1,-1,-1,-1,-1,-1,-1,-1,-1,-1,-1,-1,-1,-1,-1,-1,-1,-1,-1,-1,-1,-1,-1,-1],"loss_changes":[1.14714066E2,1.3159828E2,1.17733635E2,7.396384E1,1.2583789E1,3.2077873E1,3.5364304E1,1.868312E1,2.2366455E1,9.482252E0,9.297793E0,8.538086E0,1.9888489E1,1.46377945E1,1.8518621E1,9.7100525E0,3.4288063E0,7.3161573E0,1.2364822E1,3.7227418E0,3.9702759E0,3.4737453E0,5.5281324E0,7.804657E0,6.352436E0,6.8202E0,1.5576145E1,1.9467175E1,1.2844981E1,9.189289E0,9.83189E0,3.518776E0,8.538654E0,3.7660637E0,3.2877083E0,3.841941E0,5.321573E0,5.4212112E0,1.2022125E1,3.2791638E0,2.6898947E0,4.6435394E0,2.9638588E0,5.831523E0,3.3055954E0,3.157596E0,3.546948E0,1.817627E0,5.898487E0,2.383462E0,6.305111E0,3.5304346E0,5.281232E0,9.682404E0,3.2061186E0,4.139744E0,1.1876146E1,6.2828135E0,5.6363125E0,1.4425757E1,8.167504E0,3.7372723E0,5.781062E0,0E0,0E0,0E0,0E0,0E0,0E0,0E0,0E0,0E0,0E0,0E0,0E0,0E0,0E0,0E0,0E0,0E0,0E0,0E0,0E0,0E0,0E0,0E0,0E0,0E0,0E0,0E0,0E0,0E0,0E0,0E0,0E0,0E0,0E0,0E0,0E0,0E0,0E0,0E0,0E0,0E0,0E0,0E0,0E0,0E0,0E0,0E0,0E0,0E0,0E0,0E0,0E0,0E0,0E0,0E0,0E0,0E0,0E0,0E0,0E0,0E0,0E0,0E0,0E0],"parents":[2147483647,0,0,1,1,2,2,3,3,4,4,5,5,6,6,7,7,8,8,9,9,10,10,11,11,12,12,13,13,14,14,15,15,16,16,17,17,18,18,19,19,20,20,21,21,22,22,23,23,24,24,25,25,26,26,27,27,28,28,29,29,30,30,31,31,32,32,33,33,34,34,35,35,36,36,37,37,38,38,39,39,40,40,41,41,42,42,43,43,44,44,45,45,46,46,47,47,48,48,49,49,50,50,51,51,52,52,53,53,54,54,55,55,56,56,57,57,58,58,59,59,60,60,61,61,62,62],"right_children":[2,4,6,8,10,12,14,16,18,20,22,24,26,28,30,32,34,36,38,40,42,44,46,48,50,52,54,56,58,60,62,64,66,68,70,72,74,76,78,80,82,84,86,88,90,92,94,96,98,100,102,104,106,108,110,112,114,116,118,120,122,124,126,-1,-1,-1,-1,-1,-1,-1,-1,-1,-1,-1,-1,-1,-1,-1,-1,-1,-1,-1,-1,-1,-1,-1,-1,-1,-1,-1,-1,-1,-1,-1,-1,-1,-1,-1,-1,-1,-1,-1,-1,-1,-1,-1,-1,-1,-1,-1,-1,-1,-1,-1,-1,-1,-1,-1,-1,-1,-1,-1,-1,-1,-1,-1,-1],"split_conditions":[4.7642856E0,1E0,3.660044E1,1.1642857E0,5.7362545E1,2.5712145E1,2.6928572E1,3.7634407E1,-2.057551E-2,-2.721505E-4,0E0,1.6820084E1,1.0557143E1,1E0,4.7665763E-1,-3E0,9.85507E-4,2.8028408E-2,2.607143E0,1.9194493E-1,4.2285714E0,6.825428E1,3.901454E-2,-4.9613E-1,2.6928572E1,-5.4101996E-2,1E0,7.492857E0,1E0,-6.1673135E-2,7.987679E1,3.5355525E0,-6.7394013E-3,8.558707E1,4.1875637E1,-1E0,1E0,1.6820084E1,-5.281677E-2,1.6619226E-1,2.607143E0,-8.728761E-2,-4.571964E-2,-9.35043E-3,-8.068233E-1,1.0601389E-2,8.073491E1,-7.116207E-1,-7E0,3.295573E0,-3.3337748E-1,-1.2458575E-1,5.545063E-2,2.720992E-2,2.8432858E2,-2.5351878E-2,3.0946733E-2,5.257143E0,6.779715E-2,4.797184E-2,-2E0,7.839321E1,1.1E1,2.185636E-2,6.5311235E-3,5.0572613E-3,1.5955774E-2,7.000085E-3,-2.9341315E-3,1.9992718E-2,9.162899E-3,-3.0815538E-3,7.727426E-4,6.8149683E-3,-8.670483E-3,9.24407E-3,5.148705E-3,9.209066E-3,2.9867014E-3,3.5193635E-4,9.258864E-3,-3.2053501E-3,-4.9759063E-4,-1.1825202E-2,2.9385735E-3,7.6851733E-3,-1.0896587E-3,2.8933605E-4,-6.2802895E-3,7.567954E-3,-4.8552933E-3,-1.3719347E-3,4.5404988E-4,2.9071097E-3,1.768288E-2,-2.2965398E-2,-9.427398E-3,-6.2442455E-3,-2.3902035E-3,-7.360944E-4,-2.7993175E-3,5.779532E-4,-2.050246E-3,-1.8761802E-2,-2.6042156E-3,9.161638E-4,9.706353E-3,-7.6343026E-4,-1.7470054E-3,1.0934937E-3,-8.920215E-3,3.2674978E-4,2.3221031E-3,9.071736E-4,1.7660586E-5,-2.137029E-3,4.507105E-5,7.3644763E-4,2.7300837E-3,-6.5501477E-4,6.0281454E-4,-5.357936E-4,1.0134157E-4,-3.4740025E-3,-1.1079157E-2,1.72127E-3,2.5913913E-2],"split_indices":[2,8,0,2,0,0,2,0,1,1,5,0,2,8,1,8,1,5,2,7,2,0,1,1,2,1,3,2,3,1,0,7,1,0,0,8,3,0,5,7,2,5,5,5,7,1,0,5,8,7,1,5,1,1,2,1,1,2,1,5,8,0,8,0,0,0,0,0,0,0,0,0,0,0,0,0,0,0,0,0,0,0,0,0,0,0,0,0,0,0,0,0,0,0,0,0,0,0,0,0,0,0,0,0,0,0,0,0,0,0,0,0,0,0,0,0,0,0,0,0,0,0,0,0,0,0,0],"split_type":[0,0,0,0,0,0,0,0,0,0,0,0,0,0,0,0,0,0,0,0,0,0,0,0,0,0,0,0,0,0,0,0,0,0,0,0,0,0,0,0,0,0,0,0,0,0,0,0,0,0,0,0,0,0,0,0,0,0,0,0,0,0,0,0,0,0,0,0,0,0,0,0,0,0,0,0,0,0,0,0,0,0,0,0,0,0,0,0,0,0,0,0,0,0,0,0,0,0,0,0,0,0,0,0,0,0,0,0,0,0,0,0,0,0,0,0,0,0,0,0,0,0,0,0,0,0,0],"sum_hessian":[5.33282E5,2.295733E4,5.1032466E5,1.1720049E4,1.123728E4,1.0458238E5,4.0574228E5,1.0893356E3,1.0630713E4,6.075354E3,5.1619263E3,3.0600744E4,7.398163E4,1.5185162E5,2.5389064E5,5.08419E2,5.8091656E2,1.1454833E3,9.4852295E3,3.7469763E3,2.328378E3,1.4580946E3,3.7038318E3,7.08537E3,2.3515375E4,7.712117E3,6.6269516E4,7.124838E4,8.060325E4,2.5188252E5,2.0081224E3,2.162108E2,2.922082E2,2.68782E2,3.1213452E2,9.5788434E2,1.8759889E2,3.0315293E3,6.4537007E3,2.2924517E3,1.4545247E3,1.8801377E3,4.4824014E2,5.9380023E2,8.642943E2,3.6398794E3,6.3952274E1,1.0208472E2,6.983285E3,8.368111E3,1.5147263E4,3.7453183E2,7.3375854E3,6.237295E4,3.8965696E3,9.278267E3,6.1970113E4,5.9946473E4,2.0656775E4,5.227594E4,1.9960658E5,1.7589551E3,2.4916737E2,2.0063635E2,1.5574456E1,9.886752E1,1.9334067E2,2.2898132E2,3.98007E1,2.773985E1,2.8439468E2,5.6129474E2,3.965896E2,1.6577629E2,2.1822596E1,3.273026E2,2.7042268E3,2.9203256E2,6.161668E3,2.2556243E3,3.682735E1,5.0583298E2,9.486917E2,1.8409086E1,1.8617286E3,3.6822453E1,4.114177E2,4.2440942E2,1.6939082E2,1.8867363E1,8.4542694E2,2.2795486E3,1.3603309E3,4.2143646E1,2.1808626E1,9.662086E0,9.242264E1,3.773437E2,6.605942E3,7.8303374E3,5.3777386E2,8.7126666E2,1.4275996E4,1.1632604E1,3.6289923E2,7.276533E3,6.1052357E1,5.145347E4,1.0919479E4,3.8685674E3,2.8002228E1,1.0563589E3,8.221907E3,4.207304E4,1.9897074E4,1.2110428E3,5.873543E4,1.9290863E4,1.3659124E3,4.2082918E4,1.0193025E4,2.0139008E4,1.7946758E5,1.6994829E3,5.9472195E1,2.4092603E2,8.241344E0],"tree_param":{"num_deleted":"0","num_feature":"9","num_nodes":"127","size_leaf_vector":"1"}},{"base_weights":[-4.3207647E-6,-1.2761894E-1,1.6128043E-2,-3.7385616E-1,-1.0979035E-1,-9.121551E-3,3.6276847E-2,-4.3719134E-1,-3.102812E-1,-1.8021847E-1,-9.389063E-2,-1.4494603E-2,4.015862E-2,2.75454E-2,5.0441377E-2,-4.4344157E-1,7.5120345E-2,-3.2211694E-1,-1.8204461E-1,-1.8103108E-1,7.628959E-1,-1.1649391E-1,-7.5048275E-2,-3.1315036E-2,-2.525713E-3,3.3990655E-2,1.81342E-1,2.7001316E-2,1.5208256E-1,4.815116E-2,1.57742E-1,-4.6114606E-1,-3.5715508E-1,-1.6875628E-1,2.6882745E-2,-3.7363374E-1,-2.9770568E-1,-2.0646623E-1,4.0603694E-1,-2.0606907E-1,-1.5228646E-1,3.846048E-2,-2.417439E-3,-1.7059113E-1,-1.0160017E-1,-7.382291E-2,-3.790254E-1,5.7710493E-3,-3.678217E-2,3.171745E-2,-5.9100864E-3,7.008927E-2,1.4673976E-2,2.786955E-1,9.19458E-2,2.1734925E-2,3.9367456E-2,-2.1778849E-1,1.6449495E-1,4.7405537E-2,2.7025703E-1,3.7135428E-1,1.0880427E-1,-5.38467E-3,-1.3974681E-2,-1.318281E-3,-1.1490811E-2,-9.7617535E-3,5.7748165E-3,-1.14530595E-2,5.0369077E-3,-7.3957904E-3,-1.0763768E-2,-7.221335E-3,1.1421904E-3,-1.0694174E-2,2.6197053E-2,-5.718827E-3,-7.739113E-3,-2.8406298E-3,-5.2582375E-3,-5.341559E-3,-8.68165E-4,-3.3300149E-3,-1.24075E-3,-2.7381678E-3,-1.6868454E-3,6.664959E-3,-1.3870215E-2,2.1801477E-3,-4.3389766E-4,-1.3399E-3,-1.8222815E-4,2.5188331E-3,4.7042593E-4,-2.6440085E-4,1.1704243E-3,1.6100818E-3,4.3056156E-3,-9.784457E-5,2.1427518E-3,2.0065573E-3,1.0595642E-2,1.3025212E-2,2.0340695E-3,1.1394422E-3,5.4071465E-4,-1.0240459E-3,1.2530193E-3,-9.863772E-3,1.3407159E-2,-1.0473579E-3,5.4875035E-3,1.5864165E-3,1.0406189E-3,1.5722895E-2,5.858686E-3,2.3230873E-2,8.126715E-3,7.1002734E-3,2.6583276E-3],"categories":[],"categories_nodes":[],"categories_segments":[],"categories_sizes":[],"default_left":[0,0,0,0,0,0,0,0,0,0,0,0,0,0,0,0,0,0,0,0,0,0,0,0,0,0,0,0,0,0,0,0,0,0,0,0,0,0,0,0,0,0,0,0,0,0,0,0,0,0,0,0,0,0,0,0,0,0,0,0,0,0,0,0,0,0,0,0,0,0,0,0,0,0,0,0,0,0,0,0,0,0,0,0,0,0,0,0,0,0,0,0,0,0,0,0,0,0,0,0,0,0,0,0,0,0,0,0,0,0,0,0,0,0,0,0,0,0,0,0,0],"id":9,"left_children":[1,3,5,7,9,11,13,15,17,19,21,23,25,27,29,31,33,35,37,39,41,43,45,47,49,51,53,55,57,59,61,63,65,67,-1,69,71,73,75,77,79,-1,-1,81,83,85,87,89,91,93,95,97,99,101,103,105,107,109,111,113,115,117,119,-1,-1,-1,-1,-1,-1,-1,-1,-1,-1,-1,-1,-1,-1,-1,-1,-1,-1,-1,-1,-1,-1,-1,-1,-1,-1,-1,-1,-1,-1,-1,-1,-1,-1,-1,-1,-1,-1,-1,-1,-1,-1,-1,-1,-1,-1,-1,-1,-1,-1,-1,-1,-1,-1,-1,-1,-1,-1],"loss_changes":[6.623202E2,1.5846265E2,1.4530345E2,9.678009E0,3.768509E1,3.356475E1,1.9644623E1,3.935028E0,1.7927017E0,4.8896484E0,1.1690643E1,2.3010796E1,1.0846161E1,6.6548157E0,1.4878571E1,1.674469E0,3.2628756E0,1.291481E0,1.5970993E0,4.427536E0,2.5243592E0,1.0043396E1,5.5533524E0,9.634819E0,7.739581E0,8.326085E0,4.5123615E0,6.37146E0,1.9973707E0,9.809677E0,1.3188551E1,1.2277374E0,1.6800671E0,7.8825665E-1,0E0,1.6266022E0,2.2929459E0,8.618989E-1,1.9280028E0,2.602295E0,3.8074646E0,0E0,0E0,2.842163E0,5.5414658E0,4.577156E0,3.10392E0,8.26657E0,1.0022415E1,5.0311866E0,7.9271393E0,5.0110683E0,7.919588E0,3.9069386E0,2.2288418E0,4.136898E0,5.156288E0,1.20227E0,1.5270357E0,4.1144714E0,3.6699972E0,9.323616E0,2.6412745E0,0E0,0E0,0E0,0E0,0E0,0E0,0E0,0E0,0E0,0E0,0E0,0E0,0E0,0E0,0E0,0E0,0E0,0E0,0E0,0E0,0E0,0E0,0E0,0E0,0E0,0E0,0E0,0E0,0E0,0E0,0E0,0E0,0E0,0E0,0E0,0E0,0E0,0E0,0E0,0E0,0E0,0E0,0E0,0E0,0E0,0E0,0E0,0E0,0E0,0E0,0E0,0E0,0E0,0E0,0E0,0E0,0E0,0E0],"parents":[2147483647,0,0,1,1,2,2,3,3,4,4,5,5,6,6,7,7,8,8,9,9,10,10,11,11,12,12,13,13,14,14,15,15,16,16,17,17,18,18,19,19,20,20,21,21,22,22,23,23,24,24,25,25,26,26,27,27,28,28,29,29,30,30,31,31,32,32,33,33,35,35,36,36,37,37,38,38,39,39,40,40,43,43,44,44,45,45,46,46,47,47,48,48,49,49,50,50,51,51,52,52,53,53,54,54,55,55,56,56,57,57,58,58,59,59,60,60,61,61,62,62],"right_children":[2,4,6,8,10,12,14,16,18,20,22,24,26,28,30,32,34,36,38,40,42,44,46,48,50,52,54,56,58,60,62,64,66,68,-1,70,72,74,76,78,80,-1,-1,82,84,86,88,90,92,94,96,98,100,102,104,106,108,110,112,114,116,118,120,-1,-1,-1,-1,-1,-1,-1,-1,-1,-1,-1,-1,-1,-1,-1,-1,-1,-1,-1,-1,-1,-1,-1,-1,-1,-1,-1,-1,-1,-1,-1,-1,-1,-1,-1,-1,-1,-1,-1,-1,-1,-1,-1,-1,-1,-1,-1,-1,-1,-1,-1,-1,-1,-1,-1,-1,-1,-1],"split_conditions":[8.792857E0,1.7071428E0,3.495714E1,1.1642857E0,3.6357143E0,1.9749978E0,7.2542854E1,5.540623E-2,2.2461727E0,5.324668E-2,6.1642857E0,1.8785715E1,6.644895E0,6.644895E0,2.8432858E2,8.404256E1,7.000951E1,-6.7394013E-3,2.9280791E-2,8.176683E-1,2E0,4.4789818E-1,2.5076023E-1,-4.5440648E-2,-7.7367164E-2,3.8047634E1,1.9807142E1,5.324668E-2,-1.5296304E-1,6.644895E0,4.3260443E-1,-2.2583455E-2,2.4463388E-1,8.8332735E-2,2.6882745E-2,5.3392783E-2,4.5148735E-3,4E0,2.750986E0,1E0,3.7025562E1,3.846048E-2,-2.417439E-3,7.449291E1,3E0,7.816404E-1,3.1160221E1,-1E0,4.16259E-2,3.254944E1,7.3601326E1,3.0487763E-2,5.324668E-2,0E0,-5.827155E-2,3.3073322E1,2.5265768E-1,1.7744157E-1,3.6907143E1,6.980396E-4,8.0207146E1,-3.7975705E-1,-4.8422962E-1,-5.38467E-3,-1.3974681E-2,-1.318281E-3,-1.1490811E-2,-9.7617535E-3,5.7748165E-3,-1.14530595E-2,5.0369077E-3,-7.3957904E-3,-1.0763768E-2,-7.221335E-3,1.1421904E-3,-1.0694174E-2,2.6197053E-2,-5.718827E-3,-7.739113E-3,-2.8406298E-3,-5.2582375E-3,-5.341559E-3,-8.68165E-4,-3.3300149E-3,-1.24075E-3,-2.7381678E-3,-1.6868454E-3,6.664959E-3,-1.3870215E-2,2.1801477E-3,-4.3389766E-4,-1.3399E-3,-1.8222815E-4,2.5188331E-3,4.7042593E-4,-2.6440085E-4,1.1704243E-3,1.6100818E-3,4.3056156E-3,-9.784457E-5,2.1427518E-3,2.0065573E-3,1.0595642E-2,1.3025212E-2,2.0340695E-3,1.1394422E-3,5.4071465E-4,-1.0240459E-3,1.2530193E-3,-9.863772E-3,1.3407159E-2,-1.0473579E-3,5.4875035E-3,1.5864165E-3,1.0406189E-3,1.5722895E-2,5.858686E-3,2.3230873E-2,8.126715E-3,7.1002734E-3,2.6583276E-3],"split_indices":[2,2,2,2,2,6,2,5,6,1,2,2,6,6,2,0,0,1,5,6,8,6,5,1,1,0,2,1,5,6,6,1,6,5,0,5,1,8,6,3,0,0,0,0,8,6,0,8,1,0,0,5,1,5,5,0,6,1,2,5,2,5,5,0,0,0,0,0,0,0,0,0,0,0,0,0,0,0,0,0,0,0,0,0,0,0,0,0,0,0,0,0,0,0,0,0,0,0,0,0,0,0,0,0,0,0,0,0,0,0,0,0,0,0,0,0,0,0,0,0,0],"split_type":[0,0,0,0,0,0,0,0,0,0,0,0,0,0,0,0,0,0,0,0,0,0,0,0,0,0,0,0,0,0,0,0,0,0,0,0,0,0,0,0,0,0,0,0,0,0,0,0,0,0,0,0,0,0,0,0,0,0,0,0,0,0,0,0,0,0,0,0,0,0,0,0,0,0,0,0,0,0,0,0,0,0,0,0,0,0,0,0,0,0,0,0,0,0,0,0,0,0,0,0,0,0,0,0,0,0,0,0,0,0,0,0,0,0,0,0,0,0,0,0,0],"sum_hessian":[3.2171172E5,3.6104125E4,2.856076E5,2.4362468E3,3.366788E4,1.2675915E5,1.5884844E5,1.217481E3,1.2187659E3,6.198992E3,2.7468887E4,1.14297875E5,1.2461271E4,9.827294E4,6.05755E4,1.2029393E3,1.4541514E1,1.1143992E3,1.0436666E2,6.194463E3,4.52921E0,1.2485771E4,1.4983116E4,4.751759E4,6.678029E4,1.1940846E4,5.204262E2,9.784668E4,4.262609E2,5.931102E4,1.2644812E3,9.945341E2,2.0840526E2,1.1823642E1,2.7178724E0,3.536858E2,7.607134E2,1.00828415E2,3.5382476E0,3.3073916E3,2.8870713E3,2.481839E0,2.0473714E0,2.693167E3,9.7926045E3,1.4924198E4,5.8918285E1,6.1049365E3,4.1412656E4,6.005737E3,6.0774547E4,4.1614263E3,7.7794194E3,2.4811195E2,2.7231427E2,6.862429E4,2.922239E4,1.3303051E1,4.1295786E2,5.9113785E4,1.9723463E2,2.3446356E2,1.0300177E3,1.6886751E1,9.776474E2,1.610709E1,1.9229817E2,8.316798E0,3.506843E0,3.4874197E2,4.9438157E0,4.166626E2,3.4405078E2,8.845671E1,1.23717E1,1.4343154E0,2.1039324E0,2.5526187E3,7.547729E2,8.250227E2,2.0620486E3,2.558171E3,1.3499605E2,8.470065E3,1.3225392E3,7.49095E3,7.4332476E3,6.968435E0,5.1949852E1,1.417076E3,4.6878604E3,3.2954457E4,8.458196E3,1.4095381E3,4.5961987E3,5.7086105E4,3.6884446E3,3.4023591E3,7.5906714E2,5.9119614E3,1.8674579E3,6.504957E1,1.830624E2,1.6826054E1,2.5548822E2,1.2758935E4,5.586535E4,9.235281E2,2.8298861E4,1.1832389E1,1.4706626E0,3.4848263E1,3.781096E2,4.132209E4,1.7791693E4,4.3603264E1,1.5363136E2,4.5446808E1,1.8901675E2,1.3901357E2,8.9100415E2],"tree_param":{"num_deleted":"0","num_feature":"9","num_nodes":"121","size_leaf_vector":"1"}},{"base_weights":[1.557339E-6,2.8116848E-2,-6.9985115E-3,3.7003246E-3,5.2907214E-2,3.128846E-2,-1.0856535E-2,-1.139886E-1,6.123907E-3,1.9270042E-1,4.1296043E-2,-2.30276E-2,3.825827E-2,-7.497638E-3,-3.3960003E-2,-2.6358768E-1,1.5714232E-2,1.3871747E-2,-9.455808E-3,2.4096647E-1,1.4409138E-1,8.2834885E-2,2.8659817E-2,5.0630085E-2,-4.0442847E-2,4.034631E-2,-8.218007E-2,-3.6291978E-3,-3.1052774E-2,-3.6504142E-2,4.802366E-2,-3.7536433E-1,-1.215436E-1,1.6690592E-1,-7.281665E-2,-2.4626262E-3,2.3939382E-2,-2.3551358E-2,1.8745901E-2,2.2387646E-1,4.5528826E-1,2.2613783E-1,1.1320413E-1,1.2500955E-1,6.811122E-2,6.0737632E-2,1.7458439E-2,2.6530194E-1,9.87061E-3,-1.2762126E-1,-2.911911E-2,4.558874E-2,-6.3727605E-3,-9.775751E-2,4.1895983E-1,-1.0369148E-3,-1.8067593E-2,-2.9093968E-2,-9.009969E-2,-3.9969295E-2,5.362578E-4,1.3802381E-1,1.03226155E-2,-1.7544346E-2,-9.919205E-3,-5.3065727E-3,3.4949908E-3,-2.7540603E-4,7.661847E-3,-1.286998E-2,-1.7529828E-3,-7.6756784E-4,5.3402025E-4,8.173349E-4,-2.3800393E-3,-9.957206E-4,9.912925E-4,6.344213E-4,-8.029443E-3,7.645082E-3,3.9565684E-3,3.0933512E-2,1.1606754E-2,4.836851E-3,1.0851834E-2,3.0445487E-3,1.08561795E-2,1.6281212E-3,5.046422E-3,2.2623497E-3,-1.3133E-3,1.9832635E-3,-7.525759E-4,9.5919357E-4,-3.000701E-4,1.4272663E-2,1.8248049E-3,-2.716944E-3,2.304672E-3,2.5891732E-5,-6.0517406E-3,2.4524794E-4,-1.716389E-3,1.4740061E-3,-4.208834E-5,2.8629734E-3,-7.411303E-4,-1.9717634E-2,-2.638734E-3,1.8817447E-2,-8.049962E-3,1.4213497E-3,-5.1205498E-5,-1.3118158E-3,-2.983298E-4,-3.2466036E-4,-1.0745268E-3,-5.6564794E-3,-2.5077816E-4,-1.0169918E-3,-1.7182571E-3,-6.547541E-3,2.3031134E-4,-9.67746E-3,4.752942E-3,4.6429003E-4,-1.19222645E-2],"categories":[],"categories_nodes":[],"categories_segments":[],"categories_sizes":[],"default_left":[0,0,0,0,0,0,0,0,0,0,0,0,0,0,0,0,0,0,0,0,0,0,0,0,0,0,0,0,0,0,0,0,0,0,0,0,0,0,0,0,0,0,0,0,0,0,0,0,0,0,0,0,0,0,0,0,0,0,0,0,0,0,0,0,0,0,0,0,0,0,0,0,0,0,0,0,0,0,0,0,0,0,0,0,0,0,0,0,0,0,0,0,0,0,0,0,0,0,0,0,0,0,0,0,0,0,0,0,0,0,0,0,0,0,0,0,0,0,0,0,0,0,0,0,0,0,0],"id":10,"left_children":[1,3,5,7,9,11,13,15,17,19,21,23,25,27,29,31,33,35,37,39,41,43,45,47,49,51,53,55,57,59,61,63,65,67,69,71,73,75,77,79,81,83,85,87,89,91,93,95,97,99,101,103,105,107,109,111,113,115,117,119,121,123,125,-1,-1,-1,-1,-1,-1,-1,-1,-1,-1,-1,-1,-1,-1,-1,-1,-1,-1,-1,-1,-1,-1,-1,-1,-1,-1,-1,-1,-1,-1,-1,-1,-1,-1,-1,-1,-1,-1,-1,-1,-1,-1,-1,-1,-1,-1,-1,-1,-1,-1,-1,-1,-1,-1,-1,-1,-1,-1,-1,-1,-1,-1,-1,-1],"loss_changes":[1.0482853E2,6.4269554E1,6.299388E1,1.5258746E1,8.5510376E1,1.4780083E1,3.0064655E1,2.0948833E1,6.3271766E0,9.444321E0,2.5532143E1,5.6980624E0,8.704498E0,3.0821655E1,1.0258732E1,7.914032E0,7.7635813E0,5.7569237E0,6.921053E0,7.317993E0,5.0819206E0,7.03714E0,1.3402037E1,7.4309006E0,3.5421162E0,8.330292E0,4.6465087E0,1.0874263E1,5.51606E0,6.121876E0,5.0221844E0,2.4301987E0,2.9485016E0,3.3394928E0,1.8497287E0,6.2554936E0,7.3948317E0,6.333775E0,3.9962814E0,5.315338E0,5.455139E0,4.7842045E0,4.2361393E0,8.960621E0,6.8748016E0,4.451828E0,1.1020704E1,5.803067E0,4.815042E0,3.928801E0,3.332509E0,5.09391E0,6.407814E0,3.0838466E0,2.7414975E0,7.989275E0,9.217417E0,5.6734085E0,1.2323319E1,4.57946E0,6.377941E0,4.158993E0,2.2010372E0,0E0,0E0,0E0,0E0,0E0,0E0,0E0,0E0,0E0,0E0,0E0,0E0,0E0,0E0,0E0,0E0,0E0,0E0,0E0,0E0,0E0,0E0,0E0,0E0,0E0,0E0,0E0,0E0,0E0,0E0,0E0,0E0,0E0,0E0,0E0,0E0,0E0,0E0,0E0,0E0,0E0,0E0,0E0,0E0,0E0,0E0,0E0,0E0,0E0,0E0,0E0,0E0,0E0,0E0,0E0,0E0,0E0,0E0,0E0,0E0,0E0,0E0,0E0,0E0],"parents":[2147483647,0,0,1,1,2,2,3,3,4,4,5,5,6,6,7,7,8,8,9,9,10,10,11,11,12,12,13,13,14,14,15,15,16,16,17,17,18,18,19,19,20,20,21,21,22,22,23,23,24,24,25,25,26,26,27,27,28,28,29,29,30,30,31,31,32,32,33,33,34,34,35,35,36,36,37,37,38,38,39,39,40,40,41,41,42,42,43,43,44,44,45,45,46,46,47,47,48,48,49,49,50,50,51,51,52,52,53,53,54,54,55,55,56,56,57,57,58,58,59,59,60,60,61,61,62,62],"right_children":[2,4,6,8,10,12,14,16,18,20,22,24,26,28,30,32,34,36,38,40,42,44,46,48,50,52,54,56,58,60,62,64,66,68,70,72,74,76,78,80,82,84,86,88,90,92,94,96,98,100,102,104,106,108,110,112,114,116,118,120,122,124,126,-1,-1,-1,-1,-1,-1,-1,-1,-1,-1,-1,-1,-1,-1,-1,-1,-1,-1,-1,-1,-1,-1,-1,-1,-1,-1,-1,-1,-1,-1,-1,-1,-1,-1,-1,-1,-1,-1,-1,-1,-1,-1,-1,-1,-1,-1,-1,-1,-1,-1,-1,-1,-1,-1,-1,-1,-1,-1,-1,-1,-1,-1,-1,-1],"split_conditions":[1.3778571E1,1E0,2.892031E1,1.1642857E0,2.607143E0,-8.2716025E-2,6.9707306E1,3.7634407E1,6.980396E-4,1.7071428E0,5.714286E0,-3.7975705E-1,2.0704286E2,9.273572E1,1E0,-2E0,5.117527E-1,-1.2696603E-3,5.3504272E1,7E0,-1.2696603E-3,-4.5532707E-4,0E0,1.6820084E1,2.3471428E1,2E0,5.5226296E-1,1E0,2.8432858E2,1.0098343E-1,-5.5960696E-3,-1.1249017E-2,5.703744E-3,-2E0,-3.2603968E-2,4.5905968E1,7.771415E1,1.7506827E0,3.2938418E-1,4.0523466E-3,-2.1133307E-2,1.1881818E0,6.1986186E-2,4.9122807E1,8.073491E1,2.5751991E0,1.0115622E0,-1E0,7.617857E1,1.7528572E1,5.942143E1,1.1116222E-1,4.4789818E-1,-6.729934E-2,1.4368201E0,-5E0,4.625E1,-1.1249017E-2,6.105301E-1,7.987679E1,1.6778572E1,1.5757143E1,5.5226296E-1,-1.7544346E-2,-9.919205E-3,-5.3065727E-3,3.4949908E-3,-2.7540603E-4,7.661847E-3,-1.286998E-2,-1.7529828E-3,-7.6756784E-4,5.3402025E-4,8.173349E-4,-2.3800393E-3,-9.957206E-4,9.912925E-4,6.344213E-4,-8.029443E-3,7.645082E-3,3.9565684E-3,3.0933512E-2,1.1606754E-2,4.836851E-3,1.0851834E-2,3.0445487E-3,1.08561795E-2,1.6281212E-3,5.046422E-3,2.2623497E-3,-1.3133E-3,1.9832635E-3,-7.525759E-4,9.5919357E-4,-3.000701E-4,1.4272663E-2,1.8248049E-3,-2.716944E-3,2.304672E-3,2.5891732E-5,-6.0517406E-3,2.4524794E-4,-1.716389E-3,1.4740061E-3,-4.208834E-5,2.8629734E-3,-7.411303E-4,-1.9717634E-2,-2.638734E-3,1.8817447E-2,-8.049962E-3,1.4213497E-3,-5.1205498E-5,-1.3118158E-3,-2.983298E-4,-3.2466036E-4,-1.0745268E-3,-5.6564794E-3,-2.5077816E-4,-1.0169918E-3,-1.7182571E-3,-6.547541E-3,2.3031134E-4,-9.67746E-3,4.752942E-3,4.6429003E-4,-1.19222645E-2],"split_indices":[2,8,0,2,2,5,0,0,5,2,2,5,2,2,4,8,6,5,0,8,5,5,5,0,2,8,5,3,2,5,5,5,5,8,5,0,0,6,5,5,5,6,5,0,0,6,6,8,2,2,2,5,6,5,6,8,0,5,6,0,2,2,5,0,0,0,0,0,0,0,0,0,0,0,0,0,0,0,0,0,0,0,0,0,0,0,0,0,0,0,0,0,0,0,0,0,0,0,0,0,0,0,0,0,0,0,0,0,0,0,0,0,0,0,0,0,0,0,0,0,0,0,0,0,0,0,0],"split_type":[0,0,0,0,0,0,0,0,0,0,0,0,0,0,0,0,0,0,0,0,0,0,0,0,0,0,0,0,0,0,0,0,0,0,0,0,0,0,0,0,0,0,0,0,0,0,0,0,0,0,0,0,0,0,0,0,0,0,0,0,0,0,0,0,0,0,0,0,0,0,0,0,0,0,0,0,0,0,0,0,0,0,0,0,0,0,0,0,0,0,0,0,0,0,0,0,0,0,0,0,0,0,0,0,0,0,0,0,0,0,0,0,0,0,0,0,0,0,0,0,0,0,0,0,0,0,0],"sum_hessian":[5.32639E5,1.0617829E5,4.2646072E5,5.3493062E4,5.2685223E4,3.9038285E4,3.8742244E5,1.0784329E3,5.241463E4,4.0392236E3,4.8646E4,4.4394136E3,3.459887E4,3.3824762E5,4.917481E4,5.0032568E2,5.7810724E2,3.5006098E4,1.740853E4,2.0247765E3,2.014447E3,1.1345286E4,3.7300715E4,8.485536E2,3.5908599E3,3.4009906E4,5.8896533E2,2.9053456E5,4.771309E4,4.7695273E4,1.479537E3,2.7907483E2,2.2125087E2,2.1317126E2,3.6493594E2,1.3348842E4,2.1657258E4,1.1607252E4,5.8012773E3,1.8771382E3,1.4763837E2,5.492203E2,1.4652268E3,2.9338982E3,8.411389E3,9.652903E3,2.764781E4,1.3452562E2,7.1402795E2,4.1162195E2,3.1792378E3,3.0578646E4,3.4312595E3,5.7199054E2,1.6974838E1,2.4631245E5,4.4222098E4,4.6182535E4,1.530554E3,4.361498E4,4.0802908E3,4.36016E2,1.043521E3,4.698129E1,2.3209352E2,1.7972414E2,4.152674E1,7.159637E1,1.415749E2,1.3046459E1,3.518895E2,6.2343755E3,7.114467E3,2.098636E4,6.708978E2,9.918345E3,1.6889076E3,5.7539556E3,4.7322E1,1.4031395E3,4.739987E2,1.41801605E1,1.334582E2,3.728967E2,1.763236E2,1.4006266E3,6.460018E1,1.1133174E3,1.8205808E3,7.896486E3,5.149026E2,9.084586E3,5.6831757E2,1.8087375E4,9.560436E3,6.563987E1,6.888575E1,2.8545694E2,4.2857104E2,1.5092639E2,2.6069556E2,1.3662616E3,1.8129763E3,2.8433715E4,2.1449316E3,5.2293164E2,2.908328E3,8.708799E0,5.6328174E2,1.3093982E1,3.8808565E0,3.3608247E3,2.4295162E5,1.0632379E4,3.358972E4,1.2423414E4,3.375912E4,6.9371936E2,8.3683466E2,3.229232E4,1.1322661E4,1.2802895E2,3.9522617E3,1.7870306E1,4.181457E2,1.0314456E3,1.2075415E1],"tree_param":{"num_deleted":"0","num_feature":"9","num_nodes":"127","size_leaf_vector":"1"}},{"base_weights":[1.0524295E-6,6.741235E-2,-3.033416E-3,2.0061034E-1,5.402596E-2,9.96033E-3,-1.0585003E-2,1.3611066E-1,4.9521863E-1,-4.6514403E-2,6.507649E-2,1.6389396E-2,-1.9208029E-2,-7.4041337E-3,-2.9205762E-2,1.7468235E-1,-3.4072194E-2,1.2850082E-1,5.3374094E-1,-2.6510736E-1,-3.670182E-2,7.823944E-2,2.0497255E-2,1.1353238E-2,3.3979896E-2,3.354922E-2,-2.8795376E-2,-6.5500336E-3,-6.910797E-2,-3.3551328E-2,-4.15108E-3,3.7880894E-2,2.1916991E-1,4.5149496E-1,-6.4586096E-2,-2.0073572E-2,4.325479E-1,1.0229506E0,5.100835E-1,2.1563862E-2,-2.8974617E-1,2.0115279E-1,-4.840573E-2,6.1158333E-2,1.05534025E-1,3.963599E-2,-4.2152815E-2,1.42381545E-2,-1.2977538E-2,4.1007336E-2,1.680307E-2,-1.941135E-2,5.9843194E-2,-1.3646846E-2,-5.0337616E-2,-1.2814605E-2,2.8550413E-3,-1.0563145E-1,-2.8579839E-2,-5.7396967E-2,-2.937542E-2,2.49747E-3,-9.653533E-2,2.094654E-3,-1.0824005E-2,1.0656155E-2,5.7155504E-3,1.8251637E-2,-6.2061357E-3,-6.964177E-3,1.6123039E-4,6.18707E-3,-1.1562647E-2,1.7414598E-2,-6.891962E-3,8.905721E-3,3.2425158E-2,1.5994474E-2,2.9527608E-3,-9.533139E-3,1.1659622E-2,1.4495144E-2,-4.7374857E-3,-9.053261E-3,-1.1787022E-3,4.079302E-3,1.4919167E-3,3.7314754E-3,1.8464715E-3,1.126343E-3,1.5173864E-2,-2.0424332E-3,6.2797563E-3,9.986636E-4,3.718169E-4,-1.0429787E-3,1.0379224E-4,6.6630385E-4,1.5547576E-3,-4.789386E-3,5.7101477E-4,6.0753003E-3,-8.0781104E-4,-2.1256523E-3,2.0706044E-3,-4.534649E-4,5.7976064E-3,-1.4178766E-3,-7.4160374E-3,-3.288948E-4,-1.2335078E-3,-2.5328882E-6,7.8136765E-4,-4.219064E-3,1.555319E-4,1.1989235E-2,-1.0015661E-3,-1.0544334E-3,-2.9614149E-3,-1.2329596E-3,-5.867532E-4,7.6137064E-4,-6.420107E-4,-1.9463314E-2,-2.5566448E-3],"categories":[],"categories_nodes":[],"categories_segments":[],"categories_sizes":[],"default_left":[0,0,0,0,0,0,0,0,0,0,0,0,0,0,0,0,0,0,0,0,0,0,0,0,0,0,0,0,0,0,0,0,0,0,0,0,0,0,0,0,0,0,0,0,0,0,0,0,0,0,0,0,0,0,0,0,0,0,0,0,0,0,0,0,0,0,0,0,0,0,0,0,0,0,0,0,0,0,0,0,0,0,0,0,0,0,0,0,0,0,0,0,0,0,0,0,0,0,0,0,0,0,0,0,0,0,0,0,0,0,0,0,0,0,0,0,0,0,0,0,0,0,0,0,0],"id":11,"left_children":[1,3,5,7,9,11,13,15,17,19,21,23,25,27,29,31,33,35,37,39,41,43,45,47,49,51,53,55,57,59,61,63,65,67,69,71,73,75,77,-1,79,81,83,85,87,89,91,93,95,97,99,101,103,105,107,109,111,113,115,117,119,121,123,-1,-1,-1,-1,-1,-1,-1,-1,-1,-1,-1,-1,-1,-1,-1,-1,-1,-1,-1,-1,-1,-1,-1,-1,-1,-1,-1,-1,-1,-1,-1,-1,-1,-1,-1,-1,-1,-1,-1,-1,-1,-1,-1,-1,-1,-1,-1,-1,-1,-1,-1,-1,-1,-1,-1,-1,-1,-1,-1,-1,-1,-1],"loss_changes":[1.09086876E2,4.0947845E1,5.0073566E1,3.978797E1,2.3195515E1,3.517426E1,1.9115913E1,1.1310064E1,5.2478867E0,4.4255385E0,1.1034859E1,1.3615112E1,1.7135685E1,1.4526963E1,5.126648E0,8.536701E0,4.756018E0,1.6842656E0,3.4160385E0,2.3578935E0,5.521965E0,6.7632065E0,5.1441965E0,8.387222E0,4.128544E0,7.2562604E0,9.354427E0,1.601967E1,5.567688E0,3.9941406E0,4.2758875E0,4.4281416E0,4.0610466E0,2.0871766E0,3.5300384E0,2.2186387E0,1.3306272E0,2.970295E-1,3.0481415E0,0E0,1.7817392E0,9.499649E0,4.3487997E0,7.6314354E0,4.6248703E0,3.1841235E0,6.5612884E0,3.752678E0,4.536474E0,4.935177E0,3.913065E0,2.8896441E0,4.1809015E0,5.117819E0,7.153179E0,8.550911E0,7.409939E0,7.6777916E0,3.6872663E0,5.492836E0,3.9293995E0,3.5519867E0,2.8647394E0,0E0,0E0,0E0,0E0,0E0,0E0,0E0,0E0,0E0,0E0,0E0,0E0,0E0,0E0,0E0,0E0,0E0,0E0,0E0,0E0,0E0,0E0,0E0,0E0,0E0,0E0,0E0,0E0,0E0,0E0,0E0,0E0,0E0,0E0,0E0,0E0,0E0,0E0,0E0,0E0,0E0,0E0,0E0,0E0,0E0,0E0,0E0,0E0,0E0,0E0,0E0,0E0,0E0,0E0,0E0,0E0,0E0,0E0,0E0,0E0,0E0,0E0],"parents":[2147483647,0,0,1,1,2,2,3,3,4,4,5,5,6,6,7,7,8,8,9,9,10,10,11,11,12,12,13,13,14,14,15,15,16,16,17,17,18,18,19,19,20,20,21,21,22,22,23,23,24,24,25,25,26,26,27,27,28,28,29,29,30,30,31,31,32,32,33,33,34,34,35,35,36,36,37,37,38,38,40,40,41,41,42,42,43,43,44,44,45,45,46,46,47,47,48,48,49,49,50,50,51,51,52,52,53,53,54,54,55,55,56,56,57,57,58,58,59,59,60,60,61,61,62,62],"right_children":[2,4,6,8,10,12,14,16,18,20,22,24,26,28,30,32,34,36,38,40,42,44,46,48,50,52,54,56,58,60,62,64,66,68,70,72,74,76,78,-1,80,82,84,86,88,90,92,94,96,98,100,102,104,106,108,110,112,114,116,118,120,122,124,-1,-1,-1,-1,-1,-1,-1,-1,-1,-1,-1,-1,-1,-1,-1,-1,-1,-1,-1,-1,-1,-1,-1,-1,-1,-1,-1,-1,-1,-1,-1,-1,-1,-1,-1,-1,-1,-1,-1,-1,-1,-1,-1,-1,-1,-1,-1,-1,-1,-1,-1,-1,-1,-1,-1,-1,-1,-1,-1,-1,-1,-1],"split_conditions":[4.7642856E0,1.1642857E0,2.6657143E1,1E0,-2.1238085E-2,1E0,1E0,1E0,-7.887652E-1,-4.4456527E-2,1E0,1E0,7.492857E0,3.8280916E-1,5.3392783E-2,-6.7394013E-3,-8.29224E-1,5.131071E-3,-3.2603968E-2,1.7071428E0,-3.9804973E-2,6.9339634E-3,1.3456454E0,1.7877991E0,6.55793E-3,-1.22490125E-2,9.8939407E-1,2.7968219E-2,7.384202E-1,-1.02282576E-1,2.0923188E-1,-7.342517E-3,-2.5859172E-3,5.26498E-1,0E0,-2.721505E-4,1.4965223E-2,-1.4121498E-2,1.3688301E-2,2.1563862E-2,1.535394E-1,7.916326E-1,1.7071428E0,1.7071428E0,2.2227729E-2,1.535394E-1,2.8699316E-2,6.8285713E0,-6.1574355E-3,0E0,5.007143E0,2.2651E-1,-7.4622643E-1,9.8223495E-1,6.644895E0,2.100229E0,1.1138571E2,2.0704286E2,-6.938447E-1,-1.3498731E-1,4.4692856E1,9.40901E-1,3.5271427E1,2.094654E-3,-1.0824005E-2,1.0656155E-2,5.7155504E-3,1.8251637E-2,-6.2061357E-3,-6.964177E-3,1.6123039E-4,6.18707E-3,-1.1562647E-2,1.7414598E-2,-6.891962E-3,8.905721E-3,3.2425158E-2,1.5994474E-2,2.9527608E-3,-9.533139E-3,1.1659622E-2,1.4495144E-2,-4.7374857E-3,-9.053261E-3,-1.1787022E-3,4.079302E-3,1.4919167E-3,3.7314754E-3,1.8464715E-3,1.126343E-3,1.5173864E-2,-2.0424332E-3,6.2797563E-3,9.986636E-4,3.718169E-4,-1.0429787E-3,1.0379224E-4,6.6630385E-4,1.5547576E-3,-4.789386E-3,5.7101477E-4,6.0753003E-3,-8.0781104E-4,-2.1256523E-3,2.0706044E-3,-4.534649E-4,5.7976064E-3,-1.4178766E-3,-7.4160374E-3,-3.288948E-4,-1.2335078E-3,-2.5328882E-6,7.8136765E-4,-4.219064E-3,1.555319E-4,1.1989235E-2,-1.0015661E-3,-1.0544334E-3,-2.9614149E-3,-1.2329596E-3,-5.867532E-4,7.6137064E-4,-6.420107E-4,-1.9463314E-2,-2.5566448E-3],"split_indices":[2,2,2,4,1,4,4,3,7,1,3,3,2,1,5,1,7,1,5,2,1,1,6,7,5,1,6,1,6,1,1,1,1,6,5,1,1,1,1,0,5,6,2,2,1,5,1,2,1,5,2,6,7,6,6,6,2,2,7,1,2,6,2,0,0,0,0,0,0,0,0,0,0,0,0,0,0,0,0,0,0,0,0,0,0,0,0,0,0,0,0,0,0,0,0,0,0,0,0,0,0,0,0,0,0,0,0,0,0,0,0,0,0,0,0,0,0,0,0,0,0,0,0,0,0],"split_type":[0,0,0,0,0,0,0,0,0,0,0,0,0,0,0,0,0,0,0,0,0,0,0,0,0,0,0,0,0,0,0,0,0,0,0,0,0,0,0,0,0,0,0,0,0,0,0,0,0,0,0,0,0,0,0,0,0,0,0,0,0,0,0,0,0,0,0,0,0,0,0,0,0,0,0,0,0,0,0,0,0,0,0,0,0,0,0,0,0,0,0,0,0,0,0,0,0,0,0,0,0,0,0,0,0,0,0,0,0,0,0,0,0,0,0,0,0,0,0,0,0,0,0,0,0],"sum_hessian":[5.332803E5,2.2970268E4,5.1031006E5,2.0964148E3,2.0873854E4,1.8756805E5,3.22742E5,1.7210754E3,3.7533942E2,2.0667617E3,1.880709E4,1.5369272E5,3.387533E4,2.7565497E5,4.7087035E4,1.4030499E3,3.1802557E2,3.6092075E1,3.3924734E2,8.767288E1,1.9790889E3,1.4519232E4,4.2878584E3,1.1948565E5,3.4207082E4,5.2089614E3,2.8666367E4,2.7189256E5,3.762411E3,4.012695E4,6.960085E3,3.4475696E2,1.0582928E3,1.7987911E1,3.0003766E2,2.4872139E1,1.1219937E1,1.3700295E1,3.2554706E2,1.4535824E0,8.62193E1,9.2057076E1,1.8870319E3,8.932479E3,5.5867534E3,3.284773E3,1.0030856E3,1.06820305E5,1.2665342E4,2.427445E4,9.932631E3,1.7282438E3,3.4807175E3,1.6831834E4,1.1834534E4,1.6319236E5,1.087002E5,1.9781338E3,1.7842771E3,5.978011E3,3.4148938E4,6.4937285E3,4.6635645E2,3.1994867E2,2.4808279E1,1.8213478E2,8.7615814E2,1.45875225E1,3.4003887E0,8.769431E1,2.1234335E2,1.5627458E1,9.244681E0,9.272229E0,1.9477079E0,1.4641001E0,1.2236195E1,3.0799463E2,1.7552425E1,8.3309326E1,2.909973E0,5.1366978E1,4.0690098E1,6.4418365E1,1.8226134E3,1.1821259E3,7.750353E3,3.9095857E3,1.6771681E3,3.2711787E3,1.3594186E1,9.099914E2,9.309415E1,9.426837E3,9.739347E4,5.445693E3,7.2196494E3,8.868171E3,1.5406278E4,1.2312425E2,9.809507E3,5.576233E1,1.6724814E3,2.279224E2,3.2527952E3,1.671412E4,1.1771566E2,1.1653739E4,1.8079463E2,1.5317362E5,1.0018729E4,9.647296E4,1.2227239E4,1.5030787E3,4.7505502E2,1.8889973E1,1.7653871E3,3.8868098E3,2.0912014E3,1.5561972E4,1.8586965E4,3.31737E3,3.1763584E3,8.231334E0,4.581251E2],"tree_param":{"num_deleted":"0","num_feature":"9","num_nodes":"125","size_leaf_vector":"1"}},{"base_weights":[-5.9486565E-6,-1.3352671E-1,1.4870909E-2,-3.7009495E-1,-1.1438708E-1,-1.0339397E-2,3.5559263E-2,-4.335837E-1,-3.0656147E-1,-1.7753549E-1,-9.791565E-2,-3.2198317E-2,-1.985696E-4,2.3305824E-2,4.5335744E-2,-4.3986675E-1,7.628099E-2,-3.290624E-1,-1.3513412E-1,-1.9229747E-1,-1.2763211E-1,-7.3743165E-2,-1.11371554E-1,6.185847E-3,-4.122584E-2,3.0912152E-2,-4.94926E-3,2.051646E-2,5.0713502E-2,4.3749675E-2,1.541258E-1,-4.5770103E-1,-3.5309517E-1,-1.6589938E-1,8.788111E-1,-3.4362024E-1,-2.2131513E-1,5.8279008E-2,-2.0927152E-1,-6.465732E-2,-1.996842E-1,-3.2105693E-1,-1.17586665E-1,-7.752468E-2,4.342612E-2,-1.209861E-1,-6.439468E-2,-5.0987024E-4,1.2734865E-1,-4.7462348E-2,3.8781476E-3,2.6485268E-2,1.3774261E-1,-8.296388E-3,3.535584E-2,2.6037429E-2,7.1346387E-3,4.4799305E-2,1.5414664E-1,4.333171E-2,2.117144E-1,3.6121088E-1,1.1864677E-1,-1.42970225E-2,-1.1522318E-2,-6.663284E-4,-1.1205259E-2,-1.1481473E-2,3.045881E-3,3.57231E-2,3.5633545E-3,-9.565015E-3,-1.1750895E-2,-3.272915E-3,-8.905491E-3,-2.3620147E-3,1.0179721E-2,-7.292E-3,6.767665E-3,-3.725172E-3,6.6317935E-3,-8.21023E-3,-5.711563E-3,1.2166915E-2,-1.0655983E-2,-5.41464E-3,-2.7476724E-3,-2.2664052E-3,-1.01158675E-2,2.4072388E-3,-1.0730829E-2,-4.5013013E-3,-3.0041153E-3,-4.1439016E-3,-1.1069512E-3,-1.6674794E-3,2.9509928E-4,2.7754602E-3,1.3764391E-2,-2.0388924E-3,-1.1624016E-3,-2.5222235E-4,2.6435368E-3,8.9575927E-4,-1.4537625E-3,5.564093E-3,1.1226693E-3,-2.6418173E-4,7.793551E-3,6.739338E-4,2.5022442E-3,3.6196917E-4,1.0105429E-3,1.9554423E-4,2.3608258E-2,2.8227872E-4,1.7588496E-3,3.3348564E-3,8.6033875E-3,1.212859E-3,1.7571675E-3,7.740422E-3,-6.4261053E-3,2.2909264E-3,1.3792342E-2,3.132959E-3,1.0397887E-2],"categories":[],"categories_nodes":[],"categories_segments":[],"categories_sizes":[],"default_left":[0,0,0,0,0,0,0,0,0,0,0,0,0,0,0,0,0,0,0,0,0,0,0,0,0,0,0,0,0,0,0,0,0,0,0,0,0,0,0,0,0,0,0,0,0,0,0,0,0,0,0,0,0,0,0,0,0,0,0,0,0,0,0,0,0,0,0,0,0,0,0,0,0,0,0,0,0,0,0,0,0,0,0,0,0,0,0,0,0,0,0,0,0,0,0,0,0,0,0,0,0,0,0,0,0,0,0,0,0,0,0,0,0,0,0,0,0,0,0,0,0,0,0,0,0,0,0],"id":12,"left_children":[1,3,5,7,9,11,13,15,17,19,21,23,25,27,29,31,33,35,37,39,41,43,45,47,49,51,53,55,57,59,61,63,65,67,69,71,73,75,77,79,81,83,85,87,89,91,93,95,97,99,101,103,105,107,109,111,113,115,117,119,121,123,125,-1,-1,-1,-1,-1,-1,-1,-1,-1,-1,-1,-1,-1,-1,-1,-1,-1,-1,-1,-1,-1,-1,-1,-1,-1,-1,-1,-1,-1,-1,-1,-1,-1,-1,-1,-1,-1,-1,-1,-1,-1,-1,-1,-1,-1,-1,-1,-1,-1,-1,-1,-1,-1,-1,-1,-1,-1,-1,-1,-1,-1,-1,-1,-1],"loss_changes":[6.390399E2,1.4598767E2,1.5097148E2,9.602661E0,3.1019592E1,2.8921469E1,1.9045181E1,3.8931274E0,4.621956E0,4.5220184E0,7.690216E0,1.4327595E1,1.3172774E1,5.393173E0,1.5252045E1,1.6803589E0,3.161869E0,1.6003113E0,2.0492678E0,4.4758453E0,2.7055855E0,3.7547874E0,6.858612E0,6.387735E0,9.41626E0,5.5801935E0,1.0431279E1,4.731331E0,3.9796867E0,6.109955E0,9.290564E0,1.1837006E0,1.3919563E0,7.78838E-1,7.491455E-1,9.948883E-1,1.0696864E0,1.5726696E0,1.567306E0,4.481364E0,3.0439606E0,1.8590145E0,2.1808872E0,4.1871796E0,3.9472568E0,7.6295013E0,5.235795E0,4.252659E0,4.718345E0,5.2519455E0,4.210001E0,2.8679686E0,2.2413034E0,9.756835E0,3.670834E0,4.843748E0,8.987984E0,3.0170975E0,1.975338E0,3.8445587E0,4.3167505E0,5.16625E0,3.48279E0,0E0,0E0,0E0,0E0,0E0,0E0,0E0,0E0,0E0,0E0,0E0,0E0,0E0,0E0,0E0,0E0,0E0,0E0,0E0,0E0,0E0,0E0,0E0,0E0,0E0,0E0,0E0,0E0,0E0,0E0,0E0,0E0,0E0,0E0,0E0,0E0,0E0,0E0,0E0,0E0,0E0,0E0,0E0,0E0,0E0,0E0,0E0,0E0,0E0,0E0,0E0,0E0,0E0,0E0,0E0,0E0,0E0,0E0,0E0,0E0,0E0,0E0,0E0,0E0],"parents":[2147483647,0,0,1,1,2,2,3,3,4,4,5,5,6,6,7,7,8,8,9,9,10,10,11,11,12,12,13,13,14,14,15,15,16,16,17,17,18,18,19,19,20,20,21,21,22,22,23,23,24,24,25,25,26,26,27,27,28,28,29,29,30,30,31,31,32,32,33,33,34,34,35,35,36,36,37,37,38,38,39,39,40,40,41,41,42,42,43,43,44,44,45,45,46,46,47,47,48,48,49,49,50,50,51,51,52,52,53,53,54,54,55,55,56,56,57,57,58,58,59,59,60,60,61,61,62,62],"right_children":[2,4,6,8,10,12,14,16,18,20,22,24,26,28,30,32,34,36,38,40,42,44,46,48,50,52,54,56,58,60,62,64,66,68,70,72,