{"learner":{"attributes":{"scikit_learn":"{\"_estimator_type\": \"classifier\"}"},"feature_names":["rsi_14","ema_dist","atr_14","fvg_bull","fvg_bear","oi_delta","rvol_20","vol_accel","delta_streak"],"feature_types":["float","float","float","int","int","float","float","float","float"],"gradient_booster":{"model":{"cats":{"enc":[],"feature_segments":[],"sorted_idx":[]},"gbtree_model_param":{"num_parallel_tree":"1","num_trees":"450"},"iteration_indptr":[0,3,6,9,12,15,18,21,24,27,30,33,36,39,42,45,48,51,54,57,60,63,66,69,72,75,78,81,84,87,90,93,96,99,102,105,108,111,114,117,120,123,126,129,132,135,138,141,144,147,150,153,156,159,162,165,168,171,174,177,180,183,186,189,192,195,198,201,204,207,210,213,216,219,222,225,228,231,234,237,240,243,246,249,252,255,258,261,264,267,270,273,276,279,282,285,288,291,294,297,300,303,306,309,312,315,318,321,324,327,330,333,336,339,342,345,348,351,354,357,360,363,366,369,372,375,378,381,384,387,390,393,396,399,402,405,408,411,414,417,420,423,426,429,432,435,438,441,444,447,450],"tree_info":[0,1,2,0,1,2,0,1,2,0,1,2,0,1,2,0,1,2,0,1,2,0,1,2,0,1,2,0,1,2,0,1,2,0,1,2,0,1,2,0,1,2,0,1,2,0,1,2,0,1,2,0,1,2,0,1,2,0,1,2,0,1,2,0,1,2,0,1,2,0,1,2,0,1,2,0,1,2,0,1,2,0,1,2,0,1,2,0,1,2,0,1,2,0,1,2,0,1,2,0,1,2,0,1,2,0,1,2,0,1,2,0,1,2,0,1,2,0,1,2,0,1,2,0,1,2,0,1,2,0,1,2,0,1,2,0,1,2,0,1,2,0,1,2,0,1,2,0,1,2,0,1,2,0,1,2,0,1,2,0,1,2,0,1,2,0,1,2,0,1,2,0,1,2,0,1,2,0,1,2,0,1,2,0,1,2,0,1,2,0,1,2,0,1,2,0,1,2,0,1,2,0,1,2,0,1,2,0,1,2,0,1,2,0,1,2,0,1,2,0,1,2,0,1,2,0,1,2,0,1,2,0,1,2,0,1,2,0,1,2,0,1,2,0,1,2,0,1,2,0,1,2,0,1,2,0,1,2,0,1,2,0,1,2,0,1,2,0,1,2,0,1,2,0,1,2,0,1,2,0,1,2,0,1,2,0,1,2,0,1,2,0,1,2,0,1,2,0,1,2,0,1,2,0,1,2,0,1,2,0,1,2,0,1,2,0,1,2,0,1,2,0,1,2,0,1,2,0,1,2,0,1,2,0,1,2,0,1,2,0,1,2,0,1,2,0,1,2,0,1,2,0,1,2,0,1,2,0,1,2,0,1,2,0,1,2,0,1,2,0,1,2,0,1,2,0,1,2,0,1,2,0,1,2,0,1,2,0,1,2,0,1,2,0,1,2,0,1,2,0,1,2,0,1,2,0,1,2,0,1,2,0,1,2,0,1,2,0,1,2,0,1,2,0,1,2,0,1,2,0,1,2,0,1,2,0,1,2,0,1,2,0,1,2,0,1,2,0,1,2],"trees":[{"base_weights":[3.5199744E-7,-8.404974E-3,7.7621855E-2,8.7806016E-2,-1.0417379E-2,1.2631163E-1,4.5361556E-2,1.9033799E-1,6.157053E-2,5.733414E-3,-2.3462126E-2,1.07957624E-1,2.2517185E-1,2.8405985E-2,1.119008E-1,-7.654008E-2,2.2083975E-1,1.6381831E-1,4.6674658E-2,-9.521944E-3,2.993456E-2,1.088533E-2,-3.308051E-2,9.0670794E-2,1.6289641E-1,3.4448326E-1,1.9953963E-1,-6.682217E-3,4.036195E-2,8.962683E-2,2.0038652E-1,-3.0213296E-1,1.327909E-1,3.2364035E-1,1.4708573E-1,7.026841E-1,1.5722308E-1,7.059214E-2,2.2438675E-2,-1.601571E-1,-8.070494E-3,6.190981E-2,1.6663948E-2,1.3244334E-1,7.5862925E-3,-4.154854E-2,-1.262231E-2,7.0696E-2,1.4502782E-1,2.1111369E-1,1.0828925E-1,4.06625E-1,1.6981205E-1,1.6406782E-1,2.6922378E-1,-1.18877545E-1,-2.2671742E-3,4.9482178E-2,-1.2625005E-2,1.03744715E-1,-3.0981642E-3,2.1096218E-1,1.1035836E-2,5.038197E-3,-1.118627E-2,7.6979753E-3,-1.4573616E-2,1.4462477E-2,7.45386E-3,3.6576134E-3,8.725949E-3,2.6159703E-3,3.2481056E-2,7.5662574E-3,3.9039403E-3,2.4797171E-3,1.8322891E-4,3.9701952E-4,5.763479E-3,2.9362788E-2,-4.9292766E-3,3.416848E-4,-5.182375E-4,4.176721E-3,1.4566074E-3,1.2301377E-3,8.503218E-5,8.013999E-3,2.1052253E-3,7.0223096E-4,-3.516179E-4,-8.756255E-4,-1.7326319E-3,-4.2715057E-4,2.5601394E-3,-5.2267197E-3,2.2412161E-3,7.570473E-3,3.8286338E-3,7.296587E-3,4.5108125E-3,-1.5548526E-3,3.486993E-3,1.2986161E-2,8.630541E-4,9.108005E-3,1.4702247E-4,4.5768814E-3,1.3170758E-2,9.756363E-3,5.1489375E-3,-9.552051E-3,-3.450214E-4,-2.6800527E-4,1.8173654E-3,2.5155891E-3,1.0087147E-3,3.2253207E-3,-1.3172368E-3,4.037001E-3,2.3092977E-3,-3.3452015E-4,1.2420114E-2,5.7050907E-3,8.810082E-3,-1.5882786E-2,3.1077373E-3],"categories":[],"categories_nodes":[],"categories_segments":[],"categories_sizes":[],"default_left":[0,0,0,0,0,0,0,0,0,0,0,0,0,0,0,0,0,0,0,0,0,0,0,0,0,0,0,0,0,0,0,0,0,0,0,0,0,0,0,0,0,0,0,0,0,0,0,0,0,0,0,0,0,0,0,0,0,0,0,0,0,0,0,0,0,0,0,0,0,0,0,0,0,0,0,0,0,0,0,0,0,0,0,0,0,0,0,0,0,0,0,0,0,0,0,0,0,0,0,0,0,0,0,0,0,0,0,0,0,0,0,0,0,0,0,0,0,0,0,0,0,0,0,0,0,0,0],"id":0,"left_children":[1,3,5,7,9,11,13,15,17,19,21,23,25,27,29,31,33,35,37,39,41,43,45,47,49,51,53,55,57,59,61,63,65,67,69,71,73,75,77,79,81,83,85,87,89,91,93,95,97,99,101,103,105,107,109,111,113,115,117,119,121,123,125,-1,-1,-1,-1,-1,-1,-1,-1,-1,-1,-1,-1,-1,-1,-1,-1,-1,-1,-1,-1,-1,-1,-1,-1,-1,-1,-1,-1,-1,-1,-1,-1,-1,-1,-1,-1,-1,-1,-1,-1,-1,-1,-1,-1,-1,-1,-1,-1,-1,-1,-1,-1,-1,-1,-1,-1,-1,-1,-1,-1,-1,-1,-1,-1],"loss_changes":[3.2608145E2,8.731373E1,7.6698E1,2.4842026E1,9.306329E1,3.528595E1,3.313617E1,1.5336731E1,1.119972E1,7.286672E1,8.072807E1,1.557486E1,9.247391E0,9.820972E0,1.1737854E1,9.190853E0,1.2759911E1,3.2134953E0,3.7222443E0,2.6466503E1,3.237915E1,2.1437263E1,3.307112E1,1.35492935E1,1.0318527E1,5.7633743E0,6.1599274E0,2.9471917E0,8.438452E0,6.240616E0,2.3980484E0,3.174221E0,7.875421E0,8.275612E0,3.5299225E0,2.483224E0,2.3481922E0,2.5146828E0,4.983247E0,5.6239624E0,2.1476116E1,2.3104454E1,1.8153381E1,1.1827549E1,1.5898753E1,2.704451E1,8.848505E0,8.9869E0,6.235283E0,4.029854E0,2.351263E0,3.91111E0,3.1473236E0,5.202732E0,4.5618706E0,4.822531E0,2.3994746E0,8.116817E0,9.643759E0,3.402916E0,2.1234891E0,1.8963776E0,3.2794538E0,0E0,0E0,0E0,0E0,0E0,0E0,0E0,0E0,0E0,0E0,0E0,0E0,0E0,0E0,0E0,0E0,0E0,0E0,0E0,0E0,0E0,0E0,0E0,0E0,0E0,0E0,0E0,0E0,0E0,0E0,0E0,0E0,0E0,0E0,0E0,0E0,0E0,0E0,0E0,0E0,0E0,0E0,0E0,0E0,0E0,0E0,0E0,0E0,0E0,0E0,0E0,0E0,0E0,0E0,0E0,0E0,0E0,0E0,0E0,0E0,0E0,0E0,0E0,0E0],"parents":[2147483647,0,0,1,1,2,2,3,3,4,4,5,5,6,6,7,7,8,8,9,9,10,10,11,11,12,12,13,13,14,14,15,15,16,16,17,17,18,18,19,19,20,20,21,21,22,22,23,23,24,24,25,25,26,26,27,27,28,28,29,29,30,30,31,31,32,32,33,33,34,34,35,35,36,36,37,37,38,38,39,39,40,40,41,41,42,42,43,43,44,44,45,45,46,46,47,47,48,48,49,49,50,50,51,51,52,52,53,53,54,54,55,55,56,56,57,57,58,58,59,59,60,60,61,61,62,62],"right_children":[2,4,6,8,10,12,14,16,18,20,22,24,26,28,30,32,34,36,38,40,42,44,46,48,50,52,54,56,58,60,62,64,66,68,70,72,74,76,78,80,82,84,86,88,90,92,94,96,98,100,102,104,106,108,110,112,114,116,118,120,122,124,126,-1,-1,-1,-1,-1,-1,-1,-1,-1,-1,-1,-1,-1,-1,-1,-1,-1,-1,-1,-1,-1,-1,-1,-1,-1,-1,-1,-1,-1,-1,-1,-1,-1,-1,-1,-1,-1,-1,-1,-1,-1,-1,-1,-1,-1,-1,-1,-1,-1,-1,-1,-1,-1,-1,-1,-1,-1,-1,-1,-1,-1,-1,-1,-1],"split_conditions":[1.9737011E0,-2.776941E-1,2.5507143E1,-7.228698E-1,2.9035715E1,4.2518625E0,3.9092057E0,2.3657143E1,3.2622343E-1,8.387101E-1,-7.774491E-2,1E0,-2E0,-4.5202123E-3,6.647258E0,-8.445581E-4,5.0439936E-1,-5.0209606E-1,7.366428E1,1.1357143E0,-1.9177573E-2,-5.0209606E-1,8.072831E-2,3.0139014E-2,-1.5350185E-2,-9.764739E-3,2.863366E-2,-3.8630772E-1,1.0087143E2,6.0591146E-2,1.6333681E-1,-6.621091E-2,1.902143E1,-2.2556064E-1,1E0,2.0882143E2,-1E0,1.1007129E0,2.854643E2,-4.1696787E-2,-1.7245606E-2,-2E0,9.964286E0,5.380116E-1,7.859286E1,5.0692856E1,2.3352142E2,1.1357143E0,8.285714E0,1.7792856E1,2.1285715E0,2.4185715E1,5.399365E0,6E0,1.8285715E1,-1.869895E-1,4E0,-3.897976E-2,-2.2556064E-1,-1.5350185E-2,5.5514145E-1,7.6542854E1,4.7485714E1,5.038197E-3,-1.118627E-2,7.6979753E-3,-1.4573616E-2,1.4462477E-2,7.45386E-3,3.6576134E-3,8.725949E-3,2.6159703E-3,3.2481056E-2,7.5662574E-3,3.9039403E-3,2.4797171E-3,1.8322891E-4,3.9701952E-4,5.763479E-3,2.9362788E-2,-4.9292766E-3,3.416848E-4,-5.182375E-4,4.176721E-3,1.4566074E-3,1.2301377E-3,8.503218E-5,8.013999E-3,2.1052253E-3,7.0223096E-4,-3.516179E-4,-8.756255E-4,-1.7326319E-3,-4.2715057E-4,2.5601394E-3,-5.2267197E-3,2.2412161E-3,7.570473E-3,3.8286338E-3,7.296587E-3,4.5108125E-3,-1.5548526E-3,3.486993E-3,1.2986161E-2,8.630541E-4,9.108005E-3,1.4702247E-4,4.5768814E-3,1.3170758E-2,9.756363E-3,5.1489375E-3,-9.552051E-3,-3.450214E-4,-2.6800527E-4,1.8173654E-3,2.5155891E-3,1.0087147E-3,3.2253207E-3,-1.3172368E-3,4.037001E-3,2.3092977E-3,-3.3452015E-4,1.2420114E-2,5.7050907E-3,8.810082E-3,-1.5882786E-2,3.1077373E-3],"split_indices":[6,5,2,5,2,6,6,2,6,6,1,4,8,5,6,1,6,1,2,2,1,1,1,1,1,1,1,5,2,5,1,1,2,1,3,2,8,6,2,1,1,8,2,6,2,2,2,2,2,2,2,2,6,8,2,1,8,1,1,1,5,2,2,0,0,0,0,0,0,0,0,0,0,0,0,0,0,0,0,0,0,0,0,0,0,0,0,0,0,0,0,0,0,0,0,0,0,0,0,0,0,0,0,0,0,0,0,0,0,0,0,0,0,0,0,0,0,0,0,0,0,0,0,0,0,0,0],"split_type":[0,0,0,0,0,0,0,0,0,0,0,0,0,0,0,0,0,0,0,0,0,0,0,0,0,0,0,0,0,0,0,0,0,0,0,0,0,0,0,0,0,0,0,0,0,0,0,0,0,0,0,0,0,0,0,0,0,0,0,0,0,0,0,0,0,0,0,0,0,0,0,0,0,0,0,0,0,0,0,0,0,0,0,0,0,0,0,0,0,0,0,0,0,0,0,0,0,0,0,0,0,0,0,0,0,0,0,0,0,0,0,0,0,0,0,0,0,0,0,0,0,0,0,0,0,0,0],"sum_hessian":[4.9979028E5,4.5095862E5,4.8831637E4,9.238392E3,4.4172025E5,1.9459266E4,2.937237E4,1.8809845E3,7.357407E3,1.9736356E5,2.4435669E5,1.6414E4,3.045267E3,2.3408762E4,5.9636084E3,1.9277466E2,1.6882098E3,9.342891E2,6.423118E3,1.2105581E5,7.630775E4,5.345775E4,1.9089894E5,1.2487408E4,3.9265908E3,5.363335E2,2.5089336E3,5.9492935E3,1.7459469E4,4.7659243E3,1.1976842E3,9.2570015E1,1.0020465E2,7.038184E2,9.843914E2,1.0020465E1,9.242686E2,3.2318386E3,3.1912795E3,1.1542622E3,1.1990155E5,2.2379994E4,5.3927758E4,1.4114541E3,5.2046297E4,1.3501336E5,5.5885566E4,9.133415E3,3.353993E3,2.0837795E3,1.8428113E3,3.9461548E2,1.41718E2,1.6648287E3,8.441049E2,2.2426756E2,5.725026E3,1.489566E4,2.5638076E3,4.1360664E3,6.298578E2,1.1342212E3,6.3462948E1,1.1929126E1,8.0640884E1,8.398104E1,1.622361E1,2.2474472E2,4.7907367E2,8.3933325E2,1.4505817E2,4.294485E0,5.7259803E0,2.032723E2,7.2099634E2,2.7222263E3,5.0961224E2,3.028089E3,1.6319043E2,3.3401551E0,1.150922E3,3.8500535E4,8.140101E4,3.2953015E3,1.9084691E4,1.9537998E4,3.4389758E4,4.4519495E2,9.6625916E2,2.8605088E4,2.3441209E4,7.6594055E4,5.8419312E4,5.497943E4,9.0613635E2,1.4648965E2,8.986926E3,4.6619022E2,2.8878027E3,1.3613518E3,7.2242786E2,8.684403E1,1.7559673E3,3.6884854E2,2.576691E1,7.77779E1,6.3940113E1,1.5994572E3,6.5371605E1,5.34902E2,3.0920294E2,7.77779E1,1.4648965E2,5.176763E3,5.482626E2,4.701507E3,1.0194153E4,5.29176E2,2.0346316E3,1.9205892E3,2.215477E3,6.18883E2,1.0974795E1,9.089993E2,2.252219E2,8.58897E0,5.4873978E1],"tree_param":{"num_deleted":"0","num_feature":"9","num_nodes":"127","size_leaf_vector":"1"}},{"base_weights":[-2.6953109E-7,9.17822E-3,-6.9018915E-2,1.4764387E-2,-9.514512E-3,-7.9964496E-2,-9.641638E-3,-6.698353E-4,2.5395235E-2,-3.1613312E-3,-4.0442105E-2,1.21855624E-1,-8.413242E-2,-3.7645997E-4,-1.5438415E-1,-3.3815935E-2,1.3089214E-3,-7.125563E-2,2.821208E-2,-7.2611235E-3,3.2304734E-2,2.4134856E-1,-4.3952473E-2,-4.5197837E-2,2.1273965E-1,-6.5552965E-2,-1.2970783E-1,-2.1621385E-1,3.2385057E-3,-1.2563534E-1,-3.2280672E-1,-1.8954706E-1,-2.4064563E-2,4.5348283E-2,8.878878E-5,1.2994091E-1,-9.59177E-2,5.8879428E-2,2.3881529E-2,1.4668708E-2,-1.0987112E-2,3.230255E-1,3.0197052E-2,7.839149E-1,2.061239E-1,-6.82076E-2,-1.8959837E-2,-5.8652557E-2,7.6018465E-1,1.7591853E-1,5.0651145E-1,-7.056693E-2,4.5000847E-2,-1.6707616E-1,-9.8702274E-2,-3.1089726E-1,5.787909E-1,1.6224135E-2,-3.0560616E-2,-1.6511479E-1,1.114917E-2,-3.568376E-1,1.9948559E-2,-1.1321843E-2,1.7500821E-3,-7.575836E-4,1.1650446E-2,3.1270483E-4,2.4081708E-3,-3.915605E-4,1.2754787E-4,1.6142616E-2,3.2252166E-3,-5.0982246E-3,-2.2988508E-3,2.2395155E-3,8.058192E-4,7.7851396E-4,-5.51999E-4,-2.4370258E-3,6.7156175E-4,-5.748111E-4,1.5229554E-4,2.9417347E-2,8.020388E-3,9.951941E-4,-5.312522E-3,6.747586E-3,3.6411628E-2,-7.6898118E-3,7.1772053E-3,3.979317E-4,-2.2866766E-3,1.8304981E-5,-1.4450083E-3,-1.1904015E-3,-1.689238E-2,1.0037423E-2,3.1103807E-2,7.6594357E-3,2.3656553E-3,2.0247648E-2,2.044213E-3,4.2582882E-4,-2.2140658E-3,5.1832674E-3,7.8111625E-5,-4.632932E-3,-7.863812E-3,-1.9910557E-3,-4.5377603E-3,-4.781555E-3,-1.3449875E-2,1.8035794E-3,2.6321543E-2,-1.7475393E-3,7.4170885E-4,9.203926E-4,-1.5532511E-3,-5.5374946E-3,2.9364475E-3,4.405915E-3,-1.10883545E-2,1.9084151E-3,-1.2309104E-2],"categories":[],"categories_nodes":[],"categories_segments":[],"categories_sizes":[],"default_left":[0,0,0,0,0,0,0,0,0,0,0,0,0,0,0,0,0,0,0,0,0,0,0,0,0,0,0,0,0,0,0,0,0,0,0,0,0,0,0,0,0,0,0,0,0,0,0,0,0,0,0,0,0,0,0,0,0,0,0,0,0,0,0,0,0,0,0,0,0,0,0,0,0,0,0,0,0,0,0,0,0,0,0,0,0,0,0,0,0,0,0,0,0,0,0,0,0,0,0,0,0,0,0,0,0,0,0,0,0,0,0,0,0,0,0,0,0,0,0,0,0,0,0,0,0],"id":1,"left_children":[1,3,5,7,9,11,13,15,17,19,21,23,25,27,29,31,33,35,37,39,41,43,45,47,49,51,53,55,57,59,61,63,65,67,69,71,73,75,77,79,81,83,85,87,89,91,93,95,97,99,101,103,105,107,109,111,113,115,117,119,121,123,-1,-1,-1,-1,-1,-1,-1,-1,-1,-1,-1,-1,-1,-1,-1,-1,-1,-1,-1,-1,-1,-1,-1,-1,-1,-1,-1,-1,-1,-1,-1,-1,-1,-1,-1,-1,-1,-1,-1,-1,-1,-1,-1,-1,-1,-1,-1,-1,-1,-1,-1,-1,-1,-1,-1,-1,-1,-1,-1,-1,-1,-1,-1],"loss_changes":[2.802271E2,4.076958E1,3.3744415E1,4.9322517E1,1.7651031E1,3.6887634E1,1.0839363E1,8.041408E0,4.8462395E1,1.0836466E1,1.5153858E1,1.3483609E1,3.6363525E1,5.928562E0,2.3138723E0,1.0484247E1,6.216903E0,2.5025917E1,2.296872E1,5.45872E0,4.7221518E0,3.441248E0,9.165195E0,3.4419916E0,6.130087E0,1.6918808E1,1.4395172E1,9.601574E0,3.2805371E0,2.2536845E0,2.5990891E0,1.896709E1,3.1955862E0,3.8035283E0,6.1584835E0,4.9860716E0,6.3997765E0,1.080481E1,1.325856E1,7.1820498E0,7.4972076E0,1.7690992E0,4.7361383E0,2.4025187E0,2.793127E0,5.011734E0,4.2576265E0,2.9377365E0,2.6802516E-1,3.9289618E0,4.6423206E0,8.006454E0,7.1751747E0,6.73732E0,1.1546364E1,2.2709808E0,2.0643373E0,3.4194293E0,2.6969137E0,1.6752415E0,4.929019E0,1.5676022E0,0E0,0E0,0E0,0E0,0E0,0E0,0E0,0E0,0E0,0E0,0E0,0E0,0E0,0E0,0E0,0E0,0E0,0E0,0E0,0E0,0E0,0E0,0E0,0E0,0E0,0E0,0E0,0E0,0E0,0E0,0E0,0E0,0E0,0E0,0E0,0E0,0E0,0E0,0E0,0E0,0E0,0E0,0E0,0E0,0E0,0E0,0E0,0E0,0E0,0E0,0E0,0E0,0E0,0E0,0E0,0E0,0E0,0E0,0E0,0E0,0E0,0E0,0E0],"parents":[2147483647,0,0,1,1,2,2,3,3,4,4,5,5,6,6,7,7,8,8,9,9,10,10,11,11,12,12,13,13,14,14,15,15,16,16,17,17,18,18,19,19,20,20,21,21,22,22,23,23,24,24,25,25,26,26,27,27,28,28,29,29,30,30,31,31,32,32,33,33,34,34,35,35,36,36,37,37,38,38,39,39,40,40,41,41,42,42,43,43,44,44,45,45,46,46,47,47,48,48,49,49,50,50,51,51,52,52,53,53,54,54,55,55,56,56,57,57,58,58,59,59,60,60,61,61],"right_children":[2,4,6,8,10,12,14,16,18,20,22,24,26,28,30,32,34,36,38,40,42,44,46,48,50,52,54,56,58,60,62,64,66,68,70,72,74,76,78,80,82,84,86,88,90,92,94,96,98,100,102,104,106,108,110,112,114,116,118,120,122,124,-1,-1,-1,-1,-1,-1,-1,-1,-1,-1,-1,-1,-1,-1,-1,-1,-1,-1,-1,-1,-1,-1,-1,-1,-1,-1,-1,-1,-1,-1,-1,-1,-1,-1,-1,-1,-1,-1,-1,-1,-1,-1,-1,-1,-1,-1,-1,-1,-1,-1,-1,-1,-1,-1,-1,-1,-1,-1,-1,-1,-1,-1,-1],"split_conditions":[6.964755E1,5.8069084E1,8.312857E1,2.6571428E1,3E0,1.6571429E0,6E0,2.1758957E1,-2.776941E-1,1E0,2.1285715E0,1E0,7.90285E1,-7.228698E-1,1E1,1.1357143E0,-7.7241236E-1,2.428256E1,2.826008E1,-3.7912864E-2,1.6571429E0,-3.4399845E-2,3.3114285E1,6.0486054E0,8E0,1E0,2.4185715E1,8.7659645E1,4.022186E-1,1.5013571E2,3.5326982E0,-1E0,5E0,1E0,8.078571E0,9.812188E0,-7.228698E-1,0E0,1.5602856E2,5.8801796E1,7.7057113E-3,-8.6090076E-1,2.3599079E0,-5.079487E-2,-1.5227652E-2,5.3285713E0,6.470588E1,3.6263645E-2,8.065934E1,1.1357143E0,1.759386E-3,-1.5459834E-1,-1.2092726E-2,9.08686E1,1E0,1.2813571E2,1.1138571E2,-5.9004414E-1,-2.5037432E-2,9.08686E1,2.3352142E2,-4.6151128E-1,1.9948559E-2,-1.1321843E-2,1.7500821E-3,-7.575836E-4,1.1650446E-2,3.1270483E-4,2.4081708E-3,-3.915605E-4,1.2754787E-4,1.6142616E-2,3.2252166E-3,-5.0982246E-3,-2.2988508E-3,2.2395155E-3,8.058192E-4,7.7851396E-4,-5.51999E-4,-2.4370258E-3,6.7156175E-4,-5.748111E-4,1.5229554E-4,2.9417347E-2,8.020388E-3,9.951941E-4,-5.312522E-3,6.747586E-3,3.6411628E-2,-7.6898118E-3,7.1772053E-3,3.979317E-4,-2.2866766E-3,1.8304981E-5,-1.4450083E-3,-1.1904015E-3,-1.689238E-2,1.0037423E-2,3.1103807E-2,7.6594357E-3,2.3656553E-3,2.0247648E-2,2.044213E-3,4.2582882E-4,-2.2140658E-3,5.1832674E-3,7.8111625E-5,-4.632932E-3,-7.863812E-3,-1.9910557E-3,-4.5377603E-3,-4.781555E-3,-1.3449875E-2,1.8035794E-3,2.6321543E-2,-1.7475393E-3,7.4170885E-4,9.203926E-4,-1.5532511E-3,-5.5374946E-3,2.9364475E-3,4.405915E-3,-1.10883545E-2,1.9084151E-3,-1.2309104E-2],"split_indices":[0,0,2,2,8,2,8,0,5,4,2,8,0,5,8,2,7,0,0,5,2,5,2,7,8,4,2,0,7,2,7,8,8,8,2,0,5,8,2,0,5,7,7,5,5,2,0,5,0,2,5,5,5,0,3,2,2,7,5,0,2,7,0,0,0,0,0,0,0,0,0,0,0,0,0,0,0,0,0,0,0,0,0,0,0,0,0,0,0,0,0,0,0,0,0,0,0,0,0,0,0,0,0,0,0,0,0,0,0,0,0,0,0,0,0,0,0,0,0,0,0,0,0,0,0],"split_type":[0,0,0,0,0,0,0,0,0,0,0,0,0,0,0,0,0,0,0,0,0,0,0,0,0,0,0,0,0,0,0,0,0,0,0,0,0,0,0,0,0,0,0,0,0,0,0,0,0,0,0,0,0,0,0,0,0,0,0,0,0,0,0,0,0,0,0,0,0,0,0,0,0,0,0,0,0,0,0,0,0,0,0,0,0,0,0,0,0,0,0,0,0,0,0,0,0,0,0,0,0,0,0,0,0,0,0,0,0,0,0,0,0,0,0,0,0,0,0,0,0,0,0,0,0],"sum_hessian":[4.4235456E5,3.904334E5,5.1921176E4,3.006014E5,8.9832E4,4.383948E4,8.0816953E3,1.2260307E5,1.7799833E5,7.452424E4,1.5307751E4,8.864694E2,4.295301E4,7.596439E3,4.8525647E2,6.90593E3,1.1569714E5,5.040079E3,1.7295825E5,6.68028E4,7.721448E3,1.8751425E2,1.5120237E4,3.1252374E2,5.739457E2,3.051541E4,1.2437601E4,1.2416484E2,7.472274E3,4.1599445E2,6.9262024E1,4.0585855E2,6.500072E3,3.1180579E3,1.1257908E5,5.4987286E2,4.490206E3,2.1399854E4,1.5155839E5,9.701328E3,5.710147E4,5.448049E1,7.666968E3,1.0135905E1,1.7737834E2,7.672458E3,7.447779E3,3.0830045E2,4.223294E0,5.114409E2,6.250475E1,2.919183E4,1.3235803E3,5.6380977E3,6.7995034E3,1.1149496E2,1.2669882E1,5.3986367E3,2.0736375E3,3.2265967E2,9.333479E1,6.75727E1,1.6893176E0,2.3059184E2,1.752667E2,6.482334E3,1.7737835E1,1.5596625E3,1.5583955E3,2.7083139E4,8.549594E4,2.745141E1,5.2242145E2,9.265907E2,3.5636155E3,1.4336816E4,7.0630366E3,1.444886E5,7.069794E3,7.217609E2,8.979567E3,3.784536E4,1.925611E4,2.9563057E0,5.1524185E1,7.559274E3,1.0769399E2,5.0679526E0,5.0679526E0,1.1402894E1,1.6597545E2,6.8712994E2,6.985328E3,4.4602207E3,2.987558E3,2.9816455E2,1.0135905E1,2.5339763E0,1.6893176E0,2.8042673E2,2.3101418E2,4.4766914E1,1.7737835E1,1.073139E3,2.8118691E4,3.289946E2,9.9458575E2,4.978419E3,6.596785E2,4.2110464E3,2.5884568E3,5.4058163E1,5.74368E1,5.0679526E0,7.601929E0,5.5240686E2,4.84623E3,5.3340204E2,1.5402354E3,3.0069852E2,2.1961128E1,6.9262024E1,2.4072775E1,7.601929E0,5.9970776E1],"tree_param":{"num_deleted":"0","num_feature":"9","num_nodes":"125","size_leaf_vector":"1"}},{"base_weights":[-1.7703437E-7,-7.3722266E-2,1.7483952E-2,-4.942645E-2,-1.2270238E-1,2.193332E-2,-1.2227482E-2,2.3012176E-1,-5.1668562E-2,-1.5161018E-1,-7.5316235E-2,2.483297E-3,2.5818951E-2,-4.4009306E-2,-3.074248E-3,4.63605E-1,2.3568578E-2,-8.1660114E-2,-3.4129445E-2,2.818199E-1,-1.5496452E-1,-9.891634E-2,-2.9032025E-2,-2.4187937E-3,3.6530033E-2,3.6995455E-3,2.969111E-2,-5.733561E-2,-1.2327447E-3,-6.692019E-2,-3.5273973E-4,2.6940075E-1,5.223804E-1,8.396778E-2,-2.9050443E-1,-5.5048592E-2,-1.0345063E-1,-4.0327154E-2,3.723251E-2,4.5807296E-1,-3.3448778E-2,-1.7506486E-1,-1.0663619E-1,-8.6308934E-2,-1.7580809E-1,-5.627074E-2,1.343908E-2,-6.0294045E-4,-8.111614E-2,4.308158E-2,-9.41746E-2,3.732985E-2,-2.0843003E-2,-3.2065246E-2,3.1260476E-2,-4.2088624E-2,-1.0345661E-1,1.7353599E-1,-8.964875E-3,-1.0112559E-1,4.72778E-3,-3.525337E-3,5.6878377E-2,1.3933351E-2,-5.4358193E-3,8.745907E-3,1.853632E-2,3.285017E-2,1.7736079E-3,-6.0260785E-3,-1.8775726E-2,1.1640987E-3,-1.9162566E-3,-3.8707794E-3,-1.7376012E-3,-5.6094455E-4,-1.6158101E-3,-1.9977652E-3,1.5973593E-3,9.964405E-3,2.3732662E-2,-6.85345E-3,5.295792E-3,-6.9931764E-3,-4.7354586E-3,-1.8634856E-3,-4.056043E-3,-5.5814213E-3,-2.292166E-3,-6.9695646E-3,-3.9241426E-3,-1.4579936E-3,-6.3148485E-3,1.0168109E-3,-6.337853E-3,-5.226696E-3,7.4587383E-6,-1.672356E-3,-7.229782E-3,-1.5666499E-3,1.529708E-3,-4.71827E-3,6.154927E-5,7.5443583E-3,9.717176E-4,-1.7121054E-3,-4.451772E-5,-2.4299666E-3,4.3199878E-5,9.572378E-4,-1.7975129E-3,4.69437E-3,-1.3428963E-3,1.8135838E-2,-3.1813579E-3,3.0242307E-3,2.123542E-2,-9.422522E-3,-1.4599322E-4,-4.5554624E-3,-4.617744E-4,-1.8823698E-4,1.7343298E-2,7.2583333E-3,-1.2648094E-4,2.1734708E-3,-3.7964215E-3],"categories":[],"categories_nodes":[],"categories_segments":[],"categories_sizes":[],"default_left":[0,0,0,0,0,0,0,0,0,0,0,0,0,0,0,0,0,0,0,0,0,0,0,0,0,0,0,0,0,0,0,0,0,0,0,0,0,0,0,0,0,0,0,0,0,0,0,0,0,0,0,0,0,0,0,0,0,0,0,0,0,0,0,0,0,0,0,0,0,0,0,0,0,0,0,0,0,0,0,0,0,0,0,0,0,0,0,0,0,0,0,0,0,0,0,0,0,0,0,0,0,0,0,0,0,0,0,0,0,0,0,0,0,0,0,0,0,0,0,0,0,0,0,0,0,0,0],"id":2,"left_children":[1,3,5,7,9,11,13,15,17,19,21,23,25,27,29,31,33,35,37,39,41,43,45,47,49,51,53,55,57,59,61,63,65,67,69,71,73,75,77,79,81,83,85,87,89,91,93,95,97,99,101,103,105,107,109,111,113,115,117,119,121,123,125,-1,-1,-1,-1,-1,-1,-1,-1,-1,-1,-1,-1,-1,-1,-1,-1,-1,-1,-1,-1,-1,-1,-1,-1,-1,-1,-1,-1,-1,-1,-1,-1,-1,-1,-1,-1,-1,-1,-1,-1,-1,-1,-1,-1,-1,-1,-1,-1,-1,-1,-1,-1,-1,-1,-1,-1,-1,-1,-1,-1,-1,-1,-1,-1],"loss_changes":[5.7122974E2,1.0109131E2,4.7355118E1,3.5605637E1,3.8573303E1,2.3546112E1,1.3572742E1,2.1788979E1,2.963211E1,2.547754E1,1.1657188E1,8.658659E0,2.2241425E1,5.947098E0,6.2944274E0,2.2806091E0,4.594217E0,1.2048904E1,1.5724693E1,7.50027E0,1.6845245E1,6.837929E0,4.1727066E0,6.4806266E0,5.5953894E0,3.1932484E1,2.1419296E1,5.5893154E0,3.3516831E0,3.630086E0,6.30899E0,4.5970516E0,3.386383E0,5.030488E0,1.0489893E0,7.7570305E0,1.3300232E1,9.573502E0,4.7272806E0,3.3632774E0,2.0562148E0,1.2213196E1,6.4798813E0,5.9868774E0,2.4997444E0,2.5893211E0,6.4874806E0,6.553954E0,4.1352587E0,4.6897116E0,1.894671E0,1.7256517E1,1.568597E1,8.980246E0,1.2724579E1,3.1828423E0,3.684906E0,4.0121527E0,2.9684868E0,4.3571405E0,3.0287755E0,5.5826855E0,5.22149E0,0E0,0E0,0E0,0E0,0E0,0E0,0E0,0E0,0E0,0E0,0E0,0E0,0E0,0E0,0E0,0E0,0E0,0E0,0E0,0E0,0E0,0E0,0E0,0E0,0E0,0E0,0E0,0E0,0E0,0E0,0E0,0E0,0E0,0E0,0E0,0E0,0E0,0E0,0E0,0E0,0E0,0E0,0E0,0E0,0E0,0E0,0E0,0E0,0E0,0E0,0E0,0E0,0E0,0E0,0E0,0E0,0E0,0E0,0E0,0E0,0E0,0E0,0E0,0E0],"parents":[2147483647,0,0,1,1,2,2,3,3,4,4,5,5,6,6,7,7,8,8,9,9,10,10,11,11,12,12,13,13,14,14,15,15,16,16,17,17,18,18,19,19,20,20,21,21,22,22,23,23,24,24,25,25,26,26,27,27,28,28,29,29,30,30,31,31,32,32,33,33,34,34,35,35,36,36,37,37,38,38,39,39,40,40,41,41,42,42,43,43,44,44,45,45,46,46,47,47,48,48,49,49,50,50,51,51,52,52,53,53,54,54,55,55,56,56,57,57,58,58,59,59,60,60,61,61,62,62],"right_children":[2,4,6,8,10,12,14,16,18,20,22,24,26,28,30,32,34,36,38,40,42,44,46,48,50,52,54,56,58,60,62,64,66,68,70,72,74,76,78,80,82,84,86,88,90,92,94,96,98,100,102,104,106,108,110,112,114,116,118,120,122,124,126,-1,-1,-1,-1,-1,-1,-1,-1,-1,-1,-1,-1,-1,-1,-1,-1,-1,-1,-1,-1,-1,-1,-1,-1,-1,-1,-1,-1,-1,-1,-1,-1,-1,-1,-1,-1,-1,-1,-1,-1,-1,-1,-1,-1,-1,-1,-1,-1,-1,-1,-1,-1,-1,-1,-1,-1,-1,-1,-1,-1,-1,-1,-1,-1],"split_conditions":[3.5751297E1,1.2920709E0,1E0,1.1357143E0,2.9301626E1,4.31473E1,4.133912E1,-1E0,2.7880121E1,1.1357143E0,4.882857E1,1E0,1.0814285E1,5.417143E1,-1.4416707E-1,-2.747871E-3,3E0,6.9782066E-1,1E0,-1E0,0E0,3.2546585E0,0E0,2.750986E0,1.2813571E2,1E0,-2.4488041E-1,1.5055598E0,-5E0,8.387101E-1,1.1138571E2,-1.1106712E-2,4.6339965E-1,1.7281455E-1,7.864053E-1,4.3714285E0,4.929286E1,5.835088E-1,7.864286E0,1.685049E1,1.936197E0,1.685049E1,1.7781776E0,-4E0,2.002143E1,1.778775E-1,3.4364312E0,-7.228698E-1,4.868583E-2,5.55E0,8.549716E-1,1.1357143E0,5.3285713E0,5.22999E-1,5.399365E0,2.1285715E0,1.6571429E0,1.0228127E-1,2.6067138E-1,5.8429832E1,2.854643E2,1.1357143E0,2.3352142E2,1.3933351E-2,-5.4358193E-3,8.745907E-3,1.853632E-2,3.285017E-2,1.7736079E-3,-6.0260785E-3,-1.8775726E-2,1.1640987E-3,-1.9162566E-3,-3.8707794E-3,-1.7376012E-3,-5.6094455E-4,-1.6158101E-3,-1.9977652E-3,1.5973593E-3,9.964405E-3,2.3732662E-2,-6.85345E-3,5.295792E-3,-6.9931764E-3,-4.7354586E-3,-1.8634856E-3,-4.056043E-3,-5.5814213E-3,-2.292166E-3,-6.9695646E-3,-3.9241426E-3,-1.4579936E-3,-6.3148485E-3,1.0168109E-3,-6.337853E-3,-5.226696E-3,7.4587383E-6,-1.672356E-3,-7.229782E-3,-1.5666499E-3,1.529708E-3,-4.71827E-3,6.154927E-5,7.5443583E-3,9.717176E-4,-1.7121054E-3,-4.451772E-5,-2.4299666E-3,4.3199878E-5,9.572378E-4,-1.7975129E-3,4.69437E-3,-1.3428963E-3,1.8135838E-2,-3.1813579E-3,3.0242307E-3,2.123542E-2,-9.422522E-3,-1.4599322E-4,-4.5554624E-3,-4.617744E-4,-1.8823698E-4,1.7343298E-2,7.2583333E-3,-1.2648094E-4,2.1734708E-3,-3.7964215E-3],"split_indices":[0,6,4,2,0,0,0,8,0,2,2,3,2,2,5,5,8,6,3,8,8,6,8,6,2,8,5,6,8,6,2,5,6,6,6,2,2,6,2,0,6,0,6,8,2,5,6,5,5,2,6,2,2,6,6,2,2,5,6,0,2,2,2,0,0,0,0,0,0,0,0,0,0,0,0,0,0,0,0,0,0,0,0,0,0,0,0,0,0,0,0,0,0,0,0,0,0,0,0,0,0,0,0,0,0,0,0,0,0,0,0,0,0,0,0,0,0,0,0,0,0,0,0,0,0,0,0],"split_type":[0,0,0,0,0,0,0,0,0,0,0,0,0,0,0,0,0,0,0,0,0,0,0,0,0,0,0,0,0,0,0,0,0,0,0,0,0,0,0,0,0,0,0,0,0,0,0,0,0,0,0,0,0,0,0,0,0,0,0,0,0,0,0,0,0,0,0,0,0,0,0,0,0,0,0,0,0,0,0,0,0,0,0,0,0,0,0,0,0,0,0,0,0,0,0,0,0,0,0,0,0,0,0,0,0,0,0,0,0,0,0,0,0,0,0,0,0,0,0,0,0,0,0,0,0,0,0],"sum_hessian":[4.4316675E5,8.4953945E4,3.582128E5,5.6787438E4,2.8166512E4,3.1155662E5,4.665619E4,4.5102975E2,5.6336406E4,1.7492846E4,1.0673665E4,5.1877727E4,2.5967889E5,1.0431649E4,3.6224543E4,2.111293E2,2.3990044E2,2.078714E4,3.5549266E4,1.3370113E2,1.7359145E4,7.068389E3,3.6052761E3,4.5349223E4,6.5285073E3,3.868659E4,2.209923E5,7.9535244E3,2.478125E3,1.4800206E3,3.4744523E4,5.0349472E1,1.6077983E2,2.01821E2,3.8079433E1,9.359925E3,1.1427215E4,3.2708965E4,2.8403027E3,8.546717E1,4.823395E1,1.2258193E4,5.1009517E3,6.074516E3,9.938732E2,2.1963372E3,1.4089391E3,4.432742E4,1.02179816E3,6.2175254E3,3.1098206E2,1.6321269E4,2.236532E4,5.4762456E3,2.1551606E5,5.978894E3,1.9746302E3,1.04083786E2,2.3740413E3,1.00148914E3,4.7853156E2,3.2920516E4,1.8240049E3,3.51177E1,1.5231773E1,4.823395E1,1.1254588E2,3.8079433E0,1.9801306E2,3.1309757E1,6.769677E0,8.0432227E2,8.555603E3,7.3159053E3,4.1113096E3,1.2589907E4,2.0119057E4,3.7910193E2,2.4612007E3,6.3465725E1,2.2001451E1,2.4963184E1,2.3270765E1,2.801377E3,9.456815E3,1.9949392E3,3.1060125E3,5.470745E2,5.5274414E3,4.387597E2,5.551135E2,2.0935227E3,1.0281447E2,1.2921621E3,1.1677693E2,2.1536035E2,4.4112062E4,8.830198E2,1.3877838E2,4.7599292E2,5.741532E3,1.8743544E2,1.2354661E2,3.6683188E2,1.5954437E4,7.7885137E3,1.4576808E4,2.2251082E3,3.2511375E3,2.1399711E5,1.5189463E3,7.8697495E1,5.900197E3,6.3465724E0,1.9682837E3,9.265996E1,1.142383E1,3.0463547E1,2.3435776E3,6.2873376E2,3.7275534E2,4.7049255E2,8.038992E0,9.139064E1,3.2829125E4,1.6818417E3,1.4216322E2],"tree_param":{"num_deleted":"0","num_feature":"9","num_nodes":"127","size_leaf_vector":"1"}},{"base_weights":[5.4439573E-7,-8.236397E-3,7.601116E-2,3.0560715E-2,-1.7462613E-2,1.2371859E-1,4.4381645E-2,6.1788555E-2,9.497635E-3,-2.3242706E-2,2.0082932E-2,2.101384E-1,1.0064953E-1,2.7766403E-2,1.0954048E-1,2.203802E-2,9.251784E-2,3.7831433E-2,-1.7631385E-2,9.989544E-2,-2.5465067E-2,3.2300446E-2,-4.8916824E-2,2.418351E-1,1.2688392E-1,6.4827845E-2,1.7269623E-1,9.3012236E-2,1.7230557E-2,8.7711364E-2,1.9618492E-1,7.785918E-2,1.1818788E-2,1.1516999E-1,3.671719E-2,2.5125042E-1,3.374153E-2,1.5249093E-1,-1.9391928E-2,8.9458734E-2,3.4951997E-1,1.2862898E-3,-2.9264847E-2,-1.8237251E-1,3.495608E-2,-6.485878E-2,3.9042585E-2,2.2094467E-1,3.0855483E-1,8.911677E-2,2.4485472E-1,1.23041846E-1,4.4490926E-2,9.9375755E-2,2.0895483E-1,-2.4498889E-1,1.0067791E-1,2.3584118E-2,-4.9284633E-2,1.4331673E-1,6.301293E-2,2.8779024E-1,1.5751314E-1,8.172236E-3,1.7972451E-3,-2.303355E-3,4.8801032E-4,4.5215874E-3,2.8171118E-3,-3.391505E-3,1.2862942E-3,1.6478881E-2,5.664012E-3,1.9301514E-3,5.46481E-4,8.7192893E-4,9.39688E-3,-9.4742514E-4,6.157373E-5,5.5164834E-3,2.1293666E-3,1.27963545E-2,5.9708324E-4,-3.0027793E-5,4.297677E-3,-4.8110005E-4,-1.2127592E-3,-1.23801185E-2,-2.5119488E-3,7.680984E-4,2.73332E-3,-1.2852325E-3,-3.5569833E-3,9.686296E-3,5.642323E-4,7.4888295E-3,4.915492E-3,1.0914131E-2,7.0736017E-3,-2.8871072E-3,3.2146059E-3,6.85901E-3,2.7094211E-2,2.7956483E-3,6.253978E-3,9.451235E-4,3.471966E-3,2.6250763E-3,1.2272801E-2,5.348673E-3,9.217015E-3,-1.2698931E-2,1.2680365E-3,3.867105E-3,1.0025495E-3,3.5774594E-4,1.8831413E-3,2.8519589E-3,-1.9005667E-3,2.1038104E-3,5.8296025E-3,8.7384315E-4,2.868949E-3,-1.530189E-2,9.003766E-3,3.762289E-3,9.759877E-3],"categories":[],"categories_nodes":[],"categories_segments":[],"categories_sizes":[],"default_left":[0,0,0,0,0,0,0,0,0,0,0,0,0,0,0,0,0,0,0,0,0,0,0,0,0,0,0,0,0,0,0,0,0,0,0,0,0,0,0,0,0,0,0,0,0,0,0,0,0,0,0,0,0,0,0,0,0,0,0,0,0,0,0,0,0,0,0,0,0,0,0,0,0,0,0,0,0,0,0,0,0,0,0,0,0,0,0,0,0,0,0,0,0,0,0,0,0,0,0,0,0,0,0,0,0,0,0,0,0,0,0,0,0,0,0,0,0,0,0,0,0,0,0,0,0,0,0],"id":3,"left_children":[1,3,5,7,9,11,13,15,17,19,21,23,25,27,29,31,33,35,37,39,41,43,45,47,49,51,53,55,57,59,61,63,65,67,69,71,73,75,77,79,81,83,85,87,89,91,93,95,97,99,101,103,105,107,109,111,113,115,117,119,121,123,125,-1,-1,-1,-1,-1,-1,-1,-1,-1,-1,-1,-1,-1,-1,-1,-1,-1,-1,-1,-1,-1,-1,-1,-1,-1,-1,-1,-1,-1,-1,-1,-1,-1,-1,-1,-1,-1,-1,-1,-1,-1,-1,-1,-1,-1,-1,-1,-1,-1,-1,-1,-1,-1,-1,-1,-1,-1,-1,-1,-1,-1,-1,-1,-1],"loss_changes":[3.1291705E2,1.6140999E2,7.372992E1,5.6982094E1,7.9058716E1,3.8815857E1,3.1810452E1,4.262332E1,3.9769577E1,8.639487E1,4.0972816E1,1.0798279E1,3.9676865E1,1.609506E1,1.1274887E1,8.67898E0,2.4872452E1,2.2081158E1,7.9193354E0,1.4549767E1,3.1521408E1,2.3545982E1,1.0255054E1,4.072754E0,5.0289917E0,1.2156391E1,1.3554138E1,8.45912E0,8.521695E0,6.542835E0,4.2080307E0,8.205927E0,5.0703807E0,1.0568283E1,5.248142E0,8.750553E0,1.1794987E1,5.3642106E0,6.83825E0,9.363407E0,5.685316E0,1.2524211E1,4.0086166E1,1.1430885E1,2.1419193E1,7.3147297E0,6.440561E0,3.6701355E0,2.7522125E0,2.8864293E0,2.7229252E0,6.761753E0,7.0414524E0,6.184452E0,1.0239517E1,3.730445E0,6.0399513E0,8.408167E0,3.5764565E0,5.460676E0,3.6503544E0,3.6488342E0,4.519476E0,0E0,0E0,0E0,0E0,0E0,0E0,0E0,0E0,0E0,0E0,0E0,0E0,0E0,0E0,0E0,0E0,0E0,0E0,0E0,0E0,0E0,0E0,0E0,0E0,0E0,0E0,0E0,0E0,0E0,0E0,0E0,0E0,0E0,0E0,0E0,0E0,0E0,0E0,0E0,0E0,0E0,0E0,0E0,0E0,0E0,0E0,0E0,0E0,0E0,0E0,0E0,0E0,0E0,0E0,0E0,0E0,0E0,0E0,0E0,0E0,0E0,0E0,0E0,0E0],"parents":[2147483647,0,0,1,1,2,2,3,3,4,4,5,5,6,6,7,7,8,8,9,9,10,10,11,11,12,12,13,13,14,14,15,15,16,16,17,17,18,18,19,19,20,20,21,21,22,22,23,23,24,24,25,25,26,26,27,27,28,28,29,29,30,30,31,31,32,32,33,33,34,34,35,35,36,36,37,37,38,38,39,39,40,40,41,41,42,42,43,43,44,44,45,45,46,46,47,47,48,48,49,49,50,50,51,51,52,52,53,53,54,54,55,55,56,56,57,57,58,58,59,59,60,60,61,61,62,62],"right_children":[2,4,6,8,10,12,14,16,18,20,22,24,26,28,30,32,34,36,38,40,42,44,46,48,50,52,54,56,58,60,62,64,66,68,70,72,74,76,78,80,82,84,86,88,90,92,94,96,98,100,102,104,106,108,110,112,114,116,118,120,122,124,126,-1,-1,-1,-1,-1,-1,-1,-1,-1,-1,-1,-1,-1,-1,-1,-1,-1,-1,-1,-1,-1,-1,-1,-1,-1,-1,-1,-1,-1,-1,-1,-1,-1,-1,-1,-1,-1,-1,-1,-1,-1,-1,-1,-1,-1,-1,-1,-1,-1,-1,-1,-1,-1,-1,-1,-1,-1,-1,-1,-1,-1,-1,-1,-1],"split_conditions":[1.9737011E0,3.6633663E1,2.5507143E1,2.6307142E1,6.9353294E1,2.9641693E1,3.9092057E0,7.0660704E-1,-5.5488706E-2,-2.776941E-1,8.56E1,-1.2850771E-2,6.792453E1,2.480091E1,6.647258E0,-4.6528563E-2,-3.1962376E-3,-7.228698E-1,-3.8630772E-1,2.854643E2,-7.774491E-2,1.1357143E0,3.8835987E-1,4.2518625E0,3.650986E0,3.7870853E1,1.8111307E-2,-3.8630772E-1,1.2185714E2,2.9641693E1,2.480091E1,8.707143E0,1.6571429E0,1.0385715E1,1.6571429E0,3.8503128E-1,5.0692856E1,8.432046E-2,9.1448843E-1,3.2622343E-1,4.810181E-1,2.854643E2,2.6842857E1,3.2642618E-4,1.4697306E0,2.1143577E-1,-7.228698E-1,1.8035715E1,2.1758957E1,1.6571429E0,4.7213193E-2,3.4364312E0,1E0,6.647258E0,4.2518625E0,-2.2556064E-1,8.312857E1,7.125648E1,-1.8162604E-1,-1.08877264E-1,6.637537E1,-2.776941E-1,8.551476E1,8.172236E-3,1.7972451E-3,-2.303355E-3,4.8801032E-4,4.5215874E-3,2.8171118E-3,-3.391505E-3,1.2862942E-3,1.6478881E-2,5.664012E-3,1.9301514E-3,5.46481E-4,8.7192893E-4,9.39688E-3,-9.4742514E-4,6.157373E-5,5.5164834E-3,2.1293666E-3,1.27963545E-2,5.9708324E-4,-3.0027793E-5,4.297677E-3,-4.8110005E-4,-1.2127592E-3,-1.23801185E-2,-2.5119488E-3,7.680984E-4,2.73332E-3,-1.2852325E-3,-3.5569833E-3,9.686296E-3,5.642323E-4,7.4888295E-3,4.915492E-3,1.0914131E-2,7.0736017E-3,-2.8871072E-3,3.2146059E-3,6.85901E-3,2.7094211E-2,2.7956483E-3,6.253978E-3,9.451235E-4,3.471966E-3,2.6250763E-3,1.2272801E-2,5.348673E-3,9.217015E-3,-1.2698931E-2,1.2680365E-3,3.867105E-3,1.0025495E-3,3.5774594E-4,1.8831413E-3,2.8519589E-3,-1.9005667E-3,2.1038104E-3,5.8296025E-3,8.7384315E-4,2.868949E-3,-1.530189E-2,9.003766E-3,3.762289E-3,9.759877E-3],"split_indices":[6,0,2,2,0,0,6,6,1,5,2,1,0,0,6,1,1,5,5,2,1,2,1,6,6,0,1,5,2,0,0,2,2,2,2,6,2,1,6,6,1,2,2,1,6,1,5,2,0,2,1,6,4,6,6,1,2,0,5,1,0,5,0,0,0,0,0,0,0,0,0,0,0,0,0,0,0,0,0,0,0,0,0,0,0,0,0,0,0,0,0,0,0,0,0,0,0,0,0,0,0,0,0,0,0,0,0,0,0,0,0,0,0,0,0,0,0,0,0,0,0,0,0,0,0,0,0],"split_type":[0,0,0,0,0,0,0,0,0,0,0,0,0,0,0,0,0,0,0,0,0,0,0,0,0,0,0,0,0,0,0,0,0,0,0,0,0,0,0,0,0,0,0,0,0,0,0,0,0,0,0,0,0,0,0,0,0,0,0,0,0,0,0,0,0,0,0,0,0,0,0,0,0,0,0,0,0,0,0,0,0,0,0,0,0,0,0,0,0,0,0,0,0,0,0,0,0,0,0,0,0,0,0,0,0,0,0,0,0,0,0,0,0,0,0,0,0,0,0,0,0,0,0,0,0,0,0],"sum_hessian":[4.9978972E5,4.5092572E5,4.8863977E4,8.6631164E4,3.6429456E5,1.9479598E4,2.9384379E4,3.4894746E4,5.1736418E4,3.156942E5,4.8600383E4,4.1025996E3,1.5376998E4,2.3415059E4,5.96932E3,1.5214898E4,1.9679848E4,2.5306098E4,2.6430318E4,5.5957715E3,3.100984E5,4.128988E4,7.3105044E3,2.9699668E3,1.1326329E3,1.0271767E4,5.1052314E3,3.254282E3,2.0160777E4,4.769667E3,1.1996528E3,2.3533618E3,1.2861536E4,1.399681E4,5.6830376E3,4.7470416E2,2.4831395E4,2.698405E2,2.6160479E4,5.3725073E3,2.2326408E2,3.856839E4,2.7153003E5,5.0371167E2,4.0786168E4,6.1890503E3,1.1214545E3,2.265069E3,7.0489764E2,8.5929407E2,2.733389E2,2.6580637E3,7.6137026E3,1.6905068E3,3.4147246E3,7.148191E1,3.1828E3,1.8403512E4,1.7572657E3,1.4654932E3,3.3041738E3,3.5419568E2,8.454572E2,1.9760387E2,2.1557578E3,6.1409357E2,1.2247443E4,5.236749E3,8.760061E3,2.2380106E2,5.4592363E3,8.0884285E1,3.938199E2,8.357574E3,1.647382E4,1.5330365E2,1.1653686E2,1.6679459E4,9.481019E3,8.778944E2,4.494613E3,1.8073558E2,4.2528507E1,3.795786E4,6.1053107E2,1.2425571E5,1.4727431E5,1.5009633E2,3.5361536E2,3.4964184E4,5.8219834E3,4.390806E3,1.7982441E3,7.363403E1,1.0478204E3,1.5054164E3,7.5965283E2,3.984062E2,3.0649146E2,7.581812E1,7.8347595E2,2.6808035E2,5.2585435E0,1.9712517E3,6.868121E2,6.4409946E3,1.1727081E3,1.629328E3,6.1178734E1,2.6047773E3,8.099473E2,4.3812565E1,2.7669346E1,2.2413127E3,9.414872E2,1.4184538E4,4.218973E3,1.5553523E2,1.6017305E3,6.02821E2,8.626722E2,1.6215624E3,1.6826113E3,4.778368E0,3.494173E2,7.111586E2,1.3429858E2],"tree_param":{"num_deleted":"0","num_feature":"9","num_nodes":"127","size_leaf_vector":"1"}},{"base_weights":[-1.6367296E-7,9.013325E-3,-6.785286E-2,1.4475297E-2,-9.271465E-3,-4.512163E-2,-1.3638012E-1,-4.7190118E-4,2.4937075E-2,1.1514948E-2,-2.6886389E-2,-6.0355538E-3,-6.630895E-2,-1.7370285E-1,-9.4507106E-2,9.642495E-4,-5.883668E-2,-7.492265E-2,2.674743E-2,1.9101919E-1,9.558542E-3,1.0502819E-2,-3.6624204E-2,1.8023172E-1,-1.1402644E-2,-8.560101E-2,-4.9439194E-3,-1.0857224E-1,-2.1398379E-1,-1.1502856E-1,-2.6993336E-2,9.477302E-3,-1.0487279E-2,1.0105542E-2,-9.2042655E-2,-1.5343122E-1,2.0723684E-2,6.04992E-2,2.2024428E-2,7.12894E-2,3.9718643E-1,1.6842807E-2,-1.8775323E-2,3.3254918E-2,-3.6653817E-2,-2.2292048E-2,-5.8534045E-2,3.6913857E-1,4.653292E-2,-2.9873306E-2,1.702108E-2,-1.8476284E-1,-7.736328E-2,7.3334546E-4,-1.3901484E-1,2.218496E-1,-1.17746234E-1,-2.974911E-1,-1.6588059E-1,-6.868295E-2,-1.461832E-1,1.1075368E-2,-8.232938E-2,-8.414286E-5,7.028077E-4,-1.3146155E-3,-1.8878617E-4,2.3771191E-3,-1.3904641E-3,-9.2816735E-3,-2.4276513E-3,-2.6955835E-3,-6.9773835E-3,3.3328077E-3,-6.880351E-4,2.2488385E-3,9.394169E-4,-7.5401054E-5,7.6843495E-4,2.2783767E-2,1.4835977E-3,1.6274495E-2,5.492387E-3,-1.1252775E-3,6.233214E-4,2.2931423E-3,-7.9339487E-4,4.5287528E-4,2.5831228E-3,-2.6888638E-3,-3.4332176E-4,-3.458844E-4,-1.5815751E-3,-2.3118204E-3,-8.2220935E-4,9.195305E-3,3.6019556E-2,-2.8663084E-3,6.185561E-3,6.0061715E-4,-1.4908056E-3,-2.3864685E-3,1.0450237E-3,-3.7438849E-3,-9.317194E-3,-2.5254635E-3,1.9281993E-3,-1.4328946E-3,4.074494E-4,6.575113E-3,-5.8640465E-3,1.09736E-2,-5.182383E-3,-6.19429E-3,-3.1026672E-3,-7.217353E-3,-1.0316497E-2,-3.8768805E-3,-8.141541E-3,-1.5735704E-3,-6.6207307E-3,-5.11737E-3,-2.6229364E-3,1.376612E-5,1.1498114E-2,-8.120649E-4,-5.450067E-3],"categories":[],"categories_nodes":[],"categories_segments":[],"categories_sizes":[],"default_left":[0,0,0,0,0,0,0,0,0,0,0,0,0,0,0,0,0,0,0,0,0,0,0,0,0,0,0,0,0,0,0,0,0,0,0,0,0,0,0,0,0,0,0,0,0,0,0,0,0,0,0,0,0,0,0,0,0,0,0,0,0,0,0,0,0,0,0,0,0,0,0,0,0,0,0,0,0,0,0,0,0,0,0,0,0,0,0,0,0,0,0,0,0,0,0,0,0,0,0,0,0,0,0,0,0,0,0,0,0,0,0,0,0,0,0,0,0,0,0,0,0,0,0,0,0,0,0],"id":4,"left_children":[1,3,5,7,9,11,13,15,17,19,21,23,25,27,29,31,33,35,37,39,41,43,45,47,49,51,53,55,57,59,61,63,65,67,69,71,73,75,77,79,81,83,85,87,89,91,93,95,97,99,101,103,105,107,109,111,113,115,117,119,121,123,125,-1,-1,-1,-1,-1,-1,-1,-1,-1,-1,-1,-1,-1,-1,-1,-1,-1,-1,-1,-1,-1,-1,-1,-1,-1,-1,-1,-1,-1,-1,-1,-1,-1,-1,-1,-1,-1,-1,-1,-1,-1,-1,-1,-1,-1,-1,-1,-1,-1,-1,-1,-1,-1,-1,-1,-1,-1,-1,-1,-1,-1,-1,-1,-1],"loss_changes":[2.7054044E2,3.899822E1,8.079468E1,4.701704E1,3.2886395E1,3.22574E1,2.0175186E1,1.0376837E1,3.19775E1,1.4466801E1,1.770129E1,1.3691859E1,2.9903656E1,1.789537E1,8.435902E0,1.1779062E1,6.8071766E0,2.3654495E1,2.7692078E1,1.0934965E1,8.41211E0,1.0780189E1,1.2110741E1,9.670728E0,6.9889297E0,1.5684265E1,4.5996695E0,7.9437523E0,1.6898254E1,6.7341385E0,2.9946804E0,1.1874105E1,7.203088E0,3.7791467E0,4.8253517E0,8.684402E0,5.6079946E0,8.998589E0,1.3425392E1,4.202863E0,4.96994E0,6.9342813E0,6.0903215E0,6.502839E0,4.3661995E0,7.6360006E0,8.793846E0,7.90296E0,5.140468E0,7.980041E0,9.022855E0,1.1076683E1,1.7144135E1,3.6136014E0,5.006972E0,4.0905256E0,3.209526E0,3.9853668E0,1.0325142E1,4.625616E0,3.9873352E0,3.3301558E0,3.1753771E0,0E0,0E0,0E0,0E0,0E0,0E0,0E0,0E0,0E0,0E0,0E0,0E0,0E0,0E0,0E0,0E0,0E0,0E0,0E0,0E0,0E0,0E0,0E0,0E0,0E0,0E0,0E0,0E0,0E0,0E0,0E0,0E0,0E0,0E0,0E0,0E0,0E0,0E0,0E0,0E0,0E0,0E0,0E0,0E0,0E0,0E0,0E0,0E0,0E0,0E0,0E0,0E0,0E0,0E0,0E0,0E0,0E0,0E0,0E0,0E0,0E0,0E0,0E0,0E0],"parents":[2147483647,0,0,1,1,2,2,3,3,4,4,5,5,6,6,7,7,8,8,9,9,10,10,11,11,12,12,13,13,14,14,15,15,16,16,17,17,18,18,19,19,20,20,21,21,22,22,23,23,24,24,25,25,26,26,27,27,28,28,29,29,30,30,31,31,32,32,33,33,34,34,35,35,36,36,37,37,38,38,39,39,40,40,41,41,42,42,43,43,44,44,45,45,46,46,47,47,48,48,49,49,50,50,51,51,52,52,53,53,54,54,55,55,56,56,57,57,58,58,59,59,60,60,61,61,62,62],"right_children":[2,4,6,8,10,12,14,16,18,20,22,24,26,28,30,32,34,36,38,40,42,44,46,48,50,52,54,56,58,60,62,64,66,68,70,72,74,76,78,80,82,84,86,88,90,92,94,96,98,100,102,104,106,108,110,112,114,116,118,120,122,124,126,-1,-1,-1,-1,-1,-1,-1,-1,-1,-1,-1,-1,-1,-1,-1,-1,-1,-1,-1,-1,-1,-1,-1,-1,-1,-1,-1,-1,-1,-1,-1,-1,-1,-1,-1,-1,-1,-1,-1,-1,-1,-1,-1,-1,-1,-1,-1,-1,-1,-1,-1,-1,-1,-1,-1,-1,-1,-1,-1,-1,-1,-1,-1,-1],"split_conditions":[6.964755E1,5.8069084E1,1.723053E0,2.6842857E1,1.9446703E-2,1.6165564E-2,3.6564285E1,8.072831E-2,-3.9510408E-1,1.6571429E0,-1E0,1.1357143E0,7.187143E1,2.5711881E-2,9.3921425E1,8.387101E-1,-1E0,8.3334273E-1,2.826008E1,4.4460217E-3,3E0,1.04308836E-1,9.6096265E-1,1.4364955E-3,3.3114285E1,6.614286E0,6E0,1.1357143E0,1.5828571E1,7.2463244E-2,8.065934E1,1E0,4.8714285E0,4.660117E1,3.177388E1,2.0882143E2,-1E0,0E0,-1.2696311E-1,-2.0536877E-2,1.1159815E-2,5.861394E1,5.3285713E0,1E0,5.3164288E1,1.1953557E-1,4.792143E1,8E0,2E0,6.1928573E0,-1.15480706E-1,8.065934E1,1E0,8.312857E1,7.2463244E-2,1.2379092E-2,7.125648E1,7.701909E1,8.269434E1,5.399365E0,1.9910891E0,2.854643E2,4E0,-8.414286E-5,7.028077E-4,-1.3146155E-3,-1.8878617E-4,2.3771191E-3,-1.3904641E-3,-9.2816735E-3,-2.4276513E-3,-2.6955835E-3,-6.9773835E-3,3.3328077E-3,-6.880351E-4,2.2488385E-3,9.394169E-4,-7.5401054E-5,7.6843495E-4,2.2783767E-2,1.4835977E-3,1.6274495E-2,5.492387E-3,-1.1252775E-3,6.233214E-4,2.2931423E-3,-7.9339487E-4,4.5287528E-4,2.5831228E-3,-2.6888638E-3,-3.4332176E-4,-3.458844E-4,-1.5815751E-3,-2.3118204E-3,-8.2220935E-4,9.195305E-3,3.6019556E-2,-2.8663084E-3,6.185561E-3,6.0061715E-4,-1.4908056E-3,-2.3864685E-3,1.0450237E-3,-3.7438849E-3,-9.317194E-3,-2.5254635E-3,1.9281993E-3,-1.4328946E-3,4.074494E-4,6.575113E-3,-5.8640465E-3,1.09736E-2,-5.182383E-3,-6.19429E-3,-3.1026672E-3,-7.217353E-3,-1.0316497E-2,-3.8768805E-3,-8.141541E-3,-1.5735704E-3,-6.6207307E-3,-5.11737E-3,-2.6229364E-3,1.376612E-5,1.1498114E-2,-8.120649E-4,-5.450067E-3],"split_indices":[0,0,6,2,1,1,2,1,1,2,8,2,2,1,2,6,8,6,0,1,8,1,6,1,2,2,8,2,2,1,0,8,2,0,0,2,8,8,1,1,1,0,2,4,2,1,2,8,8,2,1,0,4,2,1,1,0,0,0,6,7,2,8,0,0,0,0,0,0,0,0,0,0,0,0,0,0,0,0,0,0,0,0,0,0,0,0,0,0,0,0,0,0,0,0,0,0,0,0,0,0,0,0,0,0,0,0,0,0,0,0,0,0,0,0,0,0,0,0,0,0,0,0,0,0,0,0],"split_type":[0,0,0,0,0,0,0,0,0,0,0,0,0,0,0,0,0,0,0,0,0,0,0,0,0,0,0,0,0,0,0,0,0,0,0,0,0,0,0,0,0,0,0,0,0,0,0,0,0,0,0,0,0,0,0,0,0,0,0,0,0,0,0,0,0,0,0,0,0,0,0,0,0,0,0,0,0,0,0,0,0,0,0,0,0,0,0,0,0,0,0,0,0,0,0,0,0,0,0,0,0,0,0,0,0,0,0,0,0,0,0,0,0,0,0,0,0,0,0,0,0,0,0,0,0,0,0],"sum_hessian":[4.423542E5,3.9048356E5,5.1870605E4,3.0066897E5,8.981462E4,3.89516E4,1.2919007E4,1.2379648E5,1.7687248E5,4.119866E4,4.8615957E4,1.3692731E4,2.525887E4,6.828976E3,6.0900312E3,1.208244E5,2.9720774E3,3.1487053E3,1.7372378E5,4.431387E2,4.0755523E4,1.0045456E4,3.85705E4,3.8257886E2,1.3310152E4,1.9217E4,6.04187E3,2.6109695E3,4.2180063E3,4.669874E3,1.4201569E3,6.930403E4,5.1520367E4,9.6637854E2,2.0056989E3,1.7289454E3,1.4197599E3,2.1324152E4,1.5239962E5,2.811874E2,1.6195131E2,3.2420934E4,8.334589E3,6.776318E3,3.2691382E3,2.331874E4,1.5251759E4,1.5782394E2,2.2475491E2,8.067547E3,5.2426055E3,1.4723322E3,1.7744668E4,5.7973735E3,2.4449661E2,6.990762E1,2.541062E3,1.5397719E3,2.6782346E3,1.8785496E3,2.7913247E3,8.418214E2,5.783354E2,3.6855277E4,3.2448752E4,5.7572954E3,4.5763074E4,4.342318E2,5.321467E2,9.632445E1,1.9093744E3,9.599606E2,7.689848E2,4.6196814E2,9.5779175E2,1.4257576E4,7.066576E3,1.9451395E4,1.3294823E5,7.6089883E0,2.735784E2,9.556529E1,6.638602E1,2.1879631E3,3.023297E4,6.207665E2,7.7138228E3,5.044354E3,1.7319639E3,1.0532716E3,2.2158667E3,1.7226742E4,6.091999E3,9.560145E3,5.6916147E3,1.4804222E2,9.781709E0,1.1913599E2,1.0561892E2,2.2936584E3,5.773888E3,8.158989E2,4.4267065E3,9.9842926E2,4.7390286E2,1.6930008E4,8.146592E2,1.213656E3,4.5837173E3,3.2895977E1,2.1160063E2,5.1276463E1,1.8631159E1,3.5132993E2,2.189732E3,6.9425885E2,8.45513E2,1.9893694E3,6.888653E2,1.6985343E3,1.8001529E2,1.9709966E3,8.2032806E2,8.194487E2,2.237273E1,3.7243176E2,2.0590366E2],"tree_param":{"num_deleted":"0","num_feature":"9","num_nodes":"127","size_leaf_vector":"1"}},{"base_weights":[-4.5020656E-7,-7.2436854E-2,1.715599E-2,-4.8629694E-2,-1.20492905E-1,-1.5333117E-3,2.5947383E-2,2.241589E-1,-5.0827716E-2,-1.4898767E-1,-7.383541E-2,-1.1864604E-1,1.612693E-3,2.7441785E-2,-2.7050909E-2,-1.6918688E-1,3.184916E-1,-8.033619E-2,-3.358266E-2,2.7502635E-1,-1.5229128E-1,-1.04746595E-1,-3.973263E-2,-2.9995593E-1,-1.0761111E-1,-1.5841948E-2,1.1494458E-2,2.336961E-2,5.2779943E-2,-4.8401985E-2,2.2086475E-2,1.331086E-1,-2.2180142E-1,8.960556E-1,3.0086708E-1,-4.9936768E-2,-9.8818064E-2,-3.9693084E-2,3.671017E-2,-1.13388956E-1,3.432233E-1,-2.0965178E-1,-1.3680246E-1,-8.959765E-2,-1.8565965E-1,-5.312704E-2,1.0619379E-2,-5.7827854E-1,-1.3972637E-1,-1.5143579E-1,-6.145526E-2,-2.1613088E-2,2.8515378E-2,-2.1331076E-2,1.5380332E-2,2.7755642E-2,2.143983E-3,-3.3649415E-2,5.6712918E-2,-2.6111238E-2,-1.1634441E-1,-4.4218585E-2,4.5782026E-2,-1.0543405E-2,1.8002205E-2,-1.9539215E-2,-4.543409E-3,3.362691E-2,-1.2010806E-2,1.0053113E-2,1.638477E-3,-1.7519E-3,2.4750335E-3,-3.670674E-3,-1.7024367E-3,-5.524039E-4,-1.5904163E-3,-1.970503E-3,1.574439E-3,-1.336737E-2,5.0810594E-3,1.5155993E-2,4.7648577E-3,-2.8572613E-3,-6.949157E-3,-5.561751E-3,-3.4597688E-3,-3.1824938E-3,-1.5404201E-3,2.154052E-3,-5.883934E-3,-1.9190785E-3,1.0211841E-3,1.3095548E-3,-3.7872572E-3,-9.607059E-4,-1.8149551E-2,-1.5194635E-2,-2.7116213E-3,-4.2294133E-3,-9.915259E-3,-2.0387808E-3,9.971759E-3,-1.6286041E-3,-4.1731104E-4,-1.485855E-3,1.5254767E-3,-3.640812E-3,-4.6947267E-4,1.7980099E-4,7.7144237E-4,-1.172823E-3,8.6082186E-4,3.682666E-6,3.5227449E-3,-3.8016683E-3,3.7274903E-4,1.7566431E-3,-3.1372418E-3,-2.5558772E-3,8.14749E-5,-4.814527E-3,-1.4272835E-3,-2.7869514E-3,3.8544817E-3,4.1361022E-4,4.2558094E-3],"categories":[],"categories_nodes":[],"categories_segments":[],"categories_sizes":[],"default_left":[0,0,0,0,0,0,0,0,0,0,0,0,0,0,0,0,0,0,0,0,0,0,0,0,0,0,0,0,0,0,0,0,0,0,0,0,0,0,0,0,0,0,0,0,0,0,0,0,0,0,0,0,0,0,0,0,0,0,0,0,0,0,0,0,0,0,0,0,0,0,0,0,0,0,0,0,0,0,0,0,0,0,0,0,0,0,0,0,0,0,0,0,0,0,0,0,0,0,0,0,0,0,0,0,0,0,0,0,0,0,0,0,0,0,0,0,0,0,0,0,0,0,0,0,0,0,0],"id":5,"left_children":[1,3,5,7,9,11,13,15,17,19,21,23,25,27,29,31,33,35,37,39,41,43,45,47,49,51,53,55,57,59,61,63,65,67,69,71,73,75,77,79,81,83,85,87,89,91,93,95,97,99,101,103,105,107,109,111,113,115,117,119,121,123,125,-1,-1,-1,-1,-1,-1,-1,-1,-1,-1,-1,-1,-1,-1,-1,-1,-1,-1,-1,-1,-1,-1,-1,-1,-1,-1,-1,-1,-1,-1,-1,-1,-1,-1,-1,-1,-1,-1,-1,-1,-1,-1,-1,-1,-1,-1,-1,-1,-1,-1,-1,-1,-1,-1,-1,-1,-1,-1,-1,-1,-1,-1,-1,-1],"loss_changes":[5.507479E2,9.708493E1,5.887127E1,3.4039276E1,3.73656E1,4.2232937E1,1.9300262E1,1.6892673E1,2.8646286E1,2.4489563E1,1.1234703E1,5.967308E0,1.9254255E1,2.4452423E1,7.012574E0,1.4360874E0,3.4598541E0,1.1661682E1,1.5264236E1,3.6224642E0,1.5357971E1,6.837513E0,3.420393E0,7.566284E0,5.7114906E0,1.033065E1,9.092145E0,1.9008698E1,1.1156166E1,7.0531197E0,3.1835983E0,3.3187528E0,2.1888182E0,3.463767E0,2.9917717E0,8.803663E0,1.2779793E1,9.2662735E0,4.593586E0,2.043957E0,3.3643465E0,9.235779E0,1.4211868E1,2.9657707E0,2.388977E0,3.7875776E0,4.8260174E0,8.8996315E-1,1.9473538E0,2.6683006E0,3.555448E0,8.98605E0,8.100834E0,4.2864437E0,6.182514E0,1.0616638E1,8.1478E0,6.1288204E0,9.32991E0,5.9776316E0,3.4851446E0,4.498444E0,4.5855904E0,0E0,0E0,0E0,0E0,0E0,0E0,0E0,0E0,0E0,0E0,0E0,0E0,0E0,0E0,0E0,0E0,0E0,0E0,0E0,0E0,0E0,0E0,0E0,0E0,0E0,0E0,0E0,0E0,0E0,0E0,0E0,0E0,0E0,0E0,0E0,0E0,0E0,0E0,0E0,0E0,0E0,0E0,0E0,0E0,0E0,0E0,0E0,0E0,0E0,0E0,0E0,0E0,0E0,0E0,0E0,0E0,0E0,0E0,0E0,0E0,0E0,0E0,0E0,0E0],"parents":[2147483647,0,0,1,1,2,2,3,3,4,4,5,5,6,6,7,7,8,8,9,9,10,10,11,11,12,12,13,13,14,14,15,15,16,16,17,17,18,18,19,19,20,20,21,21,22,22,23,23,24,24,25,25,26,26,27,27,28,28,29,29,30,30,31,31,32,32,33,33,34,34,35,35,36,36,37,37,38,38,39,39,40,40,41,41,42,42,43,43,44,44,45,45,46,46,47,47,48,48,49,49,50,50,51,51,52,52,53,53,54,54,55,55,56,56,57,57,58,58,59,59,60,60,61,61,62,62],"right_children":[2,4,6,8,10,12,14,16,18,20,22,24,26,28,30,32,34,36,38,40,42,44,46,48,50,52,54,56,58,60,62,64,66,68,70,72,74,76,78,80,82,84,86,88,90,92,94,96,98,100,102,104,106,108,110,112,114,116,118,120,122,124,126,-1,-1,-1,-1,-1,-1,-1,-1,-1,-1,-1,-1,-1,-1,-1,-1,-1,-1,-1,-1,-1,-1,-1,-1,-1,-1,-1,-1,-1,-1,-1,-1,-1,-1,-1,-1,-1,-1,-1,-1,-1,-1,-1,-1,-1,-1,-1,-1,-1,-1,-1,-1,-1,-1,-1,-1,-1,-1,-1,-1,-1,-1,-1,-1],"split_conditions":[3.5751297E1,1.2920709E0,-1.7890727E-2,1.1357143E0,2.9301626E1,5.9785714E0,2.9643363E-1,-1.0990792E-2,2.7880121E1,1.1357143E0,3.53E1,-4.3572217E-2,4.506569E1,1.128881E-1,7.161235E1,-2.187797E-2,-4.3774225E-2,6.3468647E-1,1E0,-1.2850771E-2,1.685049E1,3.1035852E0,3.4875326E-2,4.8714285E0,4.8791298E1,1E0,3.1050992E-1,1.4697306E0,-2.776941E-1,4.810181E-1,-1.4162559E-2,1.5234657E1,-1.7245606E-2,1.0341759E0,1.3933412E-2,1.0228127E-1,4.929286E1,5.835088E-1,7.864286E0,9.812188E0,1.7834225E0,-3.6172338E-2,2.1557142E1,3.3866997E1,3.5285714E0,3.403816E-2,1.778775E-1,-4.3774225E-2,-3.1062303E-2,6.289284E-2,1.24072276E-1,1.8285715E1,-1.18996345E-1,-1.8162604E-1,-5.194435E-2,-2.1931799E-1,1.1637857E2,5.2664288E1,2.0882143E2,9.728571E1,7.339873E-1,1.9204286E2,1E0,-1.0543405E-2,1.8002205E-2,-1.9539215E-2,-4.543409E-3,3.362691E-2,-1.2010806E-2,1.0053113E-2,1.638477E-3,-1.7519E-3,2.4750335E-3,-3.670674E-3,-1.7024367E-3,-5.524039E-4,-1.5904163E-3,-1.970503E-3,1.574439E-3,-1.336737E-2,5.0810594E-3,1.5155993E-2,4.7648577E-3,-2.8572613E-3,-6.949157E-3,-5.561751E-3,-3.4597688E-3,-3.1824938E-3,-1.5404201E-3,2.154052E-3,-5.883934E-3,-1.9190785E-3,1.0211841E-3,1.3095548E-3,-3.7872572E-3,-9.607059E-4,-1.8149551E-2,-1.5194635E-2,-2.7116213E-3,-4.2294133E-3,-9.915259E-3,-2.0387808E-3,9.971759E-3,-1.6286041E-3,-4.1731104E-4,-1.485855E-3,1.5254767E-3,-3.640812E-3,-4.6947267E-4,1.7980099E-4,7.7144237E-4,-1.172823E-3,8.6082186E-4,3.682666E-6,3.5227449E-3,-3.8016683E-3,3.7274903E-4,1.7566431E-3,-3.1372418E-3,-2.5558772E-3,8.14749E-5,-4.814527E-3,-1.4272835E-3,-2.7869514E-3,3.8544817E-3,4.1361022E-4,4.2558094E-3],"split_indices":[0,6,1,2,0,2,1,1,0,2,2,1,0,1,0,1,5,6,3,1,0,6,5,2,0,3,6,6,5,1,5,0,1,6,5,5,2,6,2,0,7,5,2,0,2,1,5,5,5,5,5,2,1,5,1,5,2,2,2,2,6,2,3,0,0,0,0,0,0,0,0,0,0,0,0,0,0,0,0,0,0,0,0,0,0,0,0,0,0,0,0,0,0,0,0,0,0,0,0,0,0,0,0,0,0,0,0,0,0,0,0,0,0,0,0,0,0,0,0,0,0,0,0,0,0,0,0],"split_type":[0,0,0,0,0,0,0,0,0,0,0,0,0,0,0,0,0,0,0,0,0,0,0,0,0,0,0,0,0,0,0,0,0,0,0,0,0,0,0,0,0,0,0,0,0,0,0,0,0,0,0,0,0,0,0,0,0,0,0,0,0,0,0,0,0,0,0,0,0,0,0,0,0,0,0,0,0,0,0,0,0,0,0,0,0,0,0,0,0,0,0,0,0,0,0,0,0,0,0,0,0,0,0,0,0,0,0,0,0,0,0,0,0,0,0,0,0,0,0,0,0,0,0,0,0,0,0],"sum_hessian":[4.431664E5,8.4862836E4,3.5830356E5,5.6750453E4,2.8112385E4,1.1462572E5,2.4367783E5,4.5281003E2,5.6297645E4,1.745192E4,1.0660466E4,2.9976829E3,1.1162804E5,2.3699572E5,6.682123E3,8.743454E1,3.653755E2,2.0764053E4,3.553359E4,1.3428566E2,1.7317633E4,5.5908115E3,5.069654E3,1.7047656E2,2.8272063E3,4.0351906E4,7.127613E4,2.041828E5,3.281292E4,4.658107E3,2.0240164E3,1.2735155E1,7.469939E1,9.343493E0,3.5603198E2,7.852226E3,1.2911827E4,3.2692158E4,2.8414326E3,1.9957153E1,1.1432851E2,3.6793137E3,1.363832E4,4.7109175E3,8.798943E2,4.0043738E3,1.0652802E3,6.1332123E1,1.0914444E2,1.4490562E3,1.3781503E3,3.5706766E4,4.64514E3,7.544048E3,6.3732082E4,1.6921595E5,3.496684E4,1.427837E3,3.1385086E4,3.508434E3,1.149673E3,5.326593E2,1.491357E3,6.3712654E0,6.36389E0,9.351575E0,6.534781E1,8.077905E0,1.265589E0,3.122575E2,4.3774494E1,7.3812812E3,4.7094437E2,8.278309E3,4.6335195E3,1.2587053E4,2.0105105E4,3.7881595E2,2.4626165E3,8.911678E0,1.1045475E1,5.993792E1,5.4390583E1,5.939558E2,3.085358E3,4.1781143E3,9.460206E3,3.2908303E3,1.4200869E3,3.4159584E1,8.4573474E2,3.5616257E3,4.4274823E2,8.587063E2,2.0657384E2,2.9612768E0,5.8370846E1,1.1843118E1,9.730132E1,1.3708075E3,7.824867E1,1.3565748E3,2.1575384E1,6.81072E3,2.8896045E4,1.0332635E3,3.6118765E3,4.0439853E2,7.1396494E3,3.339777E4,3.0334314E4,2.3419666E3,1.6687398E5,3.4365312E4,6.015284E2,4.7220526E2,9.5563184E2,3.1031355E4,3.5373047E2,1.1498066E3,2.3586274E3,6.9941223E2,4.502607E2,4.1589258E2,1.1676671E2,1.1196471E3,3.7171E2],"tree_param":{"num_deleted":"0","num_feature":"9","num_nodes":"127","size_leaf_vector":"1"}},{"base_weights":[7.1905157E-7,-8.059273E-3,7.432167E-2,2.98104E-2,-1.7069295E-2,1.20943025E-1,4.339081E-2,6.0343657E-2,9.206083E-3,-2.2716966E-2,1.960028E-2,2.0519146E-1,9.84311E-2,2.7078971E-2,1.0732132E-1,2.1541102E-2,9.031956E-2,3.7023388E-2,-1.7439611E-2,9.810417E-2,-2.489962E-2,3.1561922E-2,-4.800249E-2,2.3627257E-1,1.2349337E-1,6.3503444E-2,1.6860588E-1,9.091334E-2,1.6764298E-2,8.58965E-2,1.9229683E-1,7.643763E-2,1.148669E-2,1.1255386E-1,3.551802E-2,2.4662337E-1,3.3000965E-2,2.8041217E-2,-2.3845747E-2,8.7860845E-2,3.4265766E-1,1.7385556E-3,-2.8557116E-2,-1.787899E-1,3.4158774E-2,-6.369413E-2,3.851226E-2,2.9879847E-1,1.9635601E-1,8.637856E-2,2.3931713E-1,1.202752E-1,4.365536E-2,9.715688E-2,2.0390217E-1,-2.4207157E-1,9.844767E-2,2.2990517E-2,-4.8457656E-2,1.3778584E-1,6.038449E-2,2.82119E-1,1.5434569E-1,8.024428E-3,1.7635636E-3,-2.2460087E-3,4.745312E-4,4.4228393E-3,2.7505003E-3,2.0109718E-3,2.2892324E-4,1.6167238E-2,5.557639E-3,1.8935101E-3,5.3144887E-4,-4.5976937E-3,1.0413737E-3,4.864156E-3,-7.74109E-4,5.4152873E-3,2.0914243E-3,8.098214E-3,2.0820338E-2,-1.7282631E-5,4.23109E-3,-4.688142E-4,-1.1829438E-3,-1.2158572E-2,-2.4627612E-3,7.5061346E-4,2.6697486E-3,-1.2595833E-3,-3.5001545E-3,9.5219845E-3,5.577605E-4,1.1766008E-2,6.748584E-3,6.0736123E-3,-4.4818847E-3,2.9155908E-2,2.453667E-3,6.7005795E-3,2.6562953E-2,2.7314448E-3,6.1149313E-3,-2.5957383E-3,1.4533768E-3,2.5643385E-3,1.203659E-2,5.214707E-3,9.006643E-3,-2.0880105E-2,-3.7000775E-3,3.7858104E-3,9.6872926E-4,1.3106802E-3,-9.019972E-5,2.805322E-3,-1.8692514E-3,2.3006406E-3,5.348199E-3,7.08313E-4,2.804477E-3,-1.5161492E-2,8.827208E-3,3.6859E-3,9.560506E-3],"categories":[],"categories_nodes":[],"categories_segments":[],"categories_sizes":[],"default_left":[0,0,0,0,0,0,0,0,0,0,0,0,0,0,0,0,0,0,0,0,0,0,0,0,0,0,0,0,0,0,0,0,0,0,0,0,0,0,0,0,0,0,0,0,0,0,0,0,0,0,0,0,0,0,0,0,0,0,0,0,0,0,0,0,0,0,0,0,0,0,0,0,0,0,0,0,0,0,0,0,0,0,0,0,0,0,0,0,0,0,0,0,0,0,0,0,0,0,0,0,0,0,0,0,0,0,0,0,0,0,0,0,0,0,0,0,0,0,0,0,0,0,0,0,0,0,0],"id":6,"left_children":[1,3,5,7,9,11,13,15,17,19,21,23,25,27,29,31,33,35,37,39,41,43,45,47,49,51,53,55,57,59,61,63,65,67,69,71,73,75,77,79,81,83,85,87,89,91,93,95,97,99,101,103,105,107,109,111,113,115,117,119,121,123,125,-1,-1,-1,-1,-1,-1,-1,-1,-1,-1,-1,-1,-1,-1,-1,-1,-1,-1,-1,-1,-1,-1,-1,-1,-1,-1,-1,-1,-1,-1,-1,-1,-1,-1,-1,-1,-1,-1,-1,-1,-1,-1,-1,-1,-1,-1,-1,-1,-1,-1,-1,-1,-1,-1,-1,-1,-1,-1,-1,-1,-1,-1,-1,-1],"loss_changes":[2.9938736E2,1.538477E2,7.050827E1,5.4518257E1,7.5432304E1,3.6967346E1,3.0653439E1,4.0610893E1,3.8353706E1,8.323569E1,3.9310493E1,1.0410675E1,3.771498E1,1.5420755E1,1.0862633E1,8.399324E0,2.3998032E1,2.1335476E1,7.70096E0,1.400016E1,3.0205322E1,2.2568295E1,9.924252E0,7.371887E0,4.8591156E0,1.15764885E1,1.28780365E1,8.197693E0,8.190138E0,6.3117523E0,4.055435E0,7.9286013E0,4.812437E0,1.0185394E1,4.9974008E0,8.447725E0,1.1434126E1,3.952442E0,8.439989E0,9.027592E0,5.556656E0,1.2068122E1,3.832762E1,1.1001806E1,2.0442242E1,7.1102448E0,6.2312555E0,7.8998947E0,3.8674927E0,3.4206686E0,2.6379309E0,6.482277E0,4.75461E0,5.9778433E0,9.862854E0,3.8151174E0,5.8453407E0,9.90627E0,3.4619637E0,3.877016E0,3.8955488E0,3.54636E0,4.345625E0,0E0,0E0,0E0,0E0,0E0,0E0,0E0,0E0,0E0,0E0,0E0,0E0,0E0,0E0,0E0,0E0,0E0,0E0,0E0,0E0,0E0,0E0,0E0,0E0,0E0,0E0,0E0,0E0,0E0,0E0,0E0,0E0,0E0,0E0,0E0,0E0,0E0,0E0,0E0,0E0,0E0,0E0,0E0,0E0,0E0,0E0,0E0,0E0,0E0,0E0,0E0,0E0,0E0,0E0,0E0,0E0,0E0,0E0,0E0,0E0,0E0,0E0,0E0,0E0],"parents":[2147483647,0,0,1,1,2,2,3,3,4,4,5,5,6,6,7,7,8,8,9,9,10,10,11,11,12,12,13,13,14,14,15,15,16,16,17,17,18,18,19,19,20,20,21,21,22,22,23,23,24,24,25,25,26,26,27,27,28,28,29,29,30,30,31,31,32,32,33,33,34,34,35,35,36,36,37,37,38,38,39,39,40,40,41,41,42,42,43,43,44,44,45,45,46,46,47,47,48,48,49,49,50,50,51,51,52,52,53,53,54,54,55,55,56,56,57,57,58,58,59,59,60,60,61,61,62,62],"right_children":[2,4,6,8,10,12,14,16,18,20,22,24,26,28,30,32,34,36,38,40,42,44,46,48,50,52,54,56,58,60,62,64,66,68,70,72,74,76,78,80,82,84,86,88,90,92,94,96,98,100,102,104,106,108,110,112,114,116,118,120,122,124,126,-1,-1,-1,-1,-1,-1,-1,-1,-1,-1,-1,-1,-1,-1,-1,-1,-1,-1,-1,-1,-1,-1,-1,-1,-1,-1,-1,-1,-1,-1,-1,-1,-1,-1,-1,-1,-1,-1,-1,-1,-1,-1,-1,-1,-1,-1,-1,-1,-1,-1,-1,-1,-1,-1,-1,-1,-1,-1,-1,-1,-1,-1,-1,-1],"split_conditions":[1.9737011E0,3.6633663E1,2.5507143E1,2.6307142E1,6.9353294E1,2.9641693E1,3.9092057E0,7.0660704E-1,-5.5488706E-2,-2.776941E-1,8.56E1,-1.2850771E-2,6.792453E1,2.480091E1,6.647258E0,-4.6528563E-2,-3.1962376E-3,-7.228698E-1,-3E0,2.854643E2,-7.963486E-2,1.1357143E0,3.8835987E-1,-2E0,3.650986E0,3.7870853E1,1.8111307E-2,-3.8630772E-1,1.2185714E2,3.0907326E1,2.480091E1,8.707143E0,1.6571429E0,1.0385715E1,2.9965557E1,3.8503128E-1,5.0692856E1,1.31646385E1,-3.8630772E-1,3.2622343E-1,3E0,2.854643E2,2.6842857E1,3.2642618E-4,1.4697306E0,2.1143577E-1,-7.228698E-1,1.2335714E1,1.5534928E-1,-6.4480346E-1,4.7213193E-2,3.4364312E0,2.5285714E0,6.647258E0,4.2518625E0,-5.1442836E-3,8.312857E1,1.4608362E0,-1.8162604E-1,-1.08877264E-1,6.637537E1,-2.776941E-1,8.551476E1,8.024428E-3,1.7635636E-3,-2.2460087E-3,4.745312E-4,4.4228393E-3,2.7505003E-3,2.0109718E-3,2.2892324E-4,1.6167238E-2,5.557639E-3,1.8935101E-3,5.3144887E-4,-4.5976937E-3,1.0413737E-3,4.864156E-3,-7.74109E-4,5.4152873E-3,2.0914243E-3,8.098214E-3,2.0820338E-2,-1.7282631E-5,4.23109E-3,-4.688142E-4,-1.1829438E-3,-1.2158572E-2,-2.4627612E-3,7.5061346E-4,2.6697486E-3,-1.2595833E-3,-3.5001545E-3,9.5219845E-3,5.577605E-4,1.1766008E-2,6.748584E-3,6.0736123E-3,-4.4818847E-3,2.9155908E-2,2.453667E-3,6.7005795E-3,2.6562953E-2,2.7314448E-3,6.1149313E-3,-2.5957383E-3,1.4533768E-3,2.5643385E-3,1.203659E-2,5.214707E-3,9.006643E-3,-2.0880105E-2,-3.7000775E-3,3.7858104E-3,9.6872926E-4,1.3106802E-3,-9.019972E-5,2.805322E-3,-1.8692514E-3,2.3006406E-3,5.348199E-3,7.08313E-4,2.804477E-3,-1.5161492E-2,8.827208E-3,3.6859E-3,9.560506E-3],"split_indices":[6,0,2,2,0,0,6,6,1,5,2,1,0,0,6,1,1,5,8,2,1,2,1,8,6,0,1,5,2,0,0,2,2,2,0,6,2,0,5,6,8,2,2,1,6,1,5,2,5,7,1,6,2,6,6,7,2,7,5,1,0,5,0,0,0,0,0,0,0,0,0,0,0,0,0,0,0,0,0,0,0,0,0,0,0,0,0,0,0,0,0,0,0,0,0,0,0,0,0,0,0,0,0,0,0,0,0,0,0,0,0,0,0,0,0,0,0,0,0,0,0,0,0,0,0,0,0],"split_type":[0,0,0,0,0,0,0,0,0,0,0,0,0,0,0,0,0,0,0,0,0,0,0,0,0,0,0,0,0,0,0,0,0,0,0,0,0,0,0,0,0,0,0,0,0,0,0,0,0,0,0,0,0,0,0,0,0,0,0,0,0,0,0,0,0,0,0,0,0,0,0,0,0,0,0,0,0,0,0,0,0,0,0,0,0,0,0,0,0,0,0,0,0,0,0,0,0,0,0,0,0,0,0,0,0,0,0,0,0,0,0,0,0,0,0,0,0,0,0,0,0,0,0,0,0,0,0],"sum_hessian":[4.9978806E5,4.5089056E5,4.8897492E4,8.6658266E4,3.6423228E5,1.9501072E4,2.939642E4,3.4915516E4,5.1742754E4,3.156221E5,4.8610207E4,4.1103647E3,1.5390708E4,2.3421785E4,5.9746343E3,1.5218074E4,1.9697443E4,2.5314639E4,2.6428115E4,5.5998125E3,3.1002228E5,4.1302645E4,7.3075625E3,2.976208E3,1.1341569E3,1.0277338E4,5.11337E3,3.257054E3,2.016473E4,4.773185E3,1.2014493E3,2.3547373E3,1.2863336E4,1.4011562E4,5.685881E3,4.755288E2,2.483911E4,3.2624858E3,2.3165629E4,5.3759937E3,2.2381883E2,3.742802E4,2.7259425E5,5.0284656E2,4.0799797E4,6.1858633E3,1.1216992E3,1.1571482E3,1.8190598E3,8.6024414E2,2.739127E2,2.6609958E3,7.616342E3,1.6920226E3,3.4213477E3,7.137683E1,3.1856772E3,1.8408104E4,1.7566271E3,1.5718237E3,3.2013613E3,3.549427E2,8.465066E2,1.9797462E2,2.1567627E3,6.1356366E2,1.2249772E4,5.2435884E3,8.767974E3,2.668688E3,3.0171926E3,8.116723E1,3.9436157E2,8.361802E3,1.6477309E4,1.1500965E2,3.147476E3,2.4047545E2,2.2925152E4,8.790451E2,4.4969487E3,1.8690475E2,3.6914078E1,3.6817242E4,6.1077826E2,1.2452823E5,1.4806603E5,1.4949423E2,3.5335233E2,3.497277E4,5.8270293E3,4.3891626E3,1.796701E3,7.378344E1,1.0479158E3,5.090184E2,6.481298E2,1.7879418E3,3.111797E1,3.3491006E0,8.568951E2,2.6862115E2,5.291523E0,1.972962E3,6.8803375E2,2.6972293E2,7.346619E3,1.6306703E3,6.1352276E1,2.609315E3,8.1203253E2,1.3791083E1,5.7585743E1,2.243746E3,9.41931E2,1.024801E4,8.160094E3,1.5563498E2,1.6009922E3,6.276139E2,9.4420984E2,1.5172803E3,1.684081E3,4.7636003E0,3.5017908E2,7.1187897E2,1.3462766E2],"tree_param":{"num_deleted":"0","num_feature":"9","num_nodes":"127","size_leaf_vector":"1"}},{"base_weights":[3.281424E-9,8.81489E-3,-6.6446275E-2,1.2857316E-2,-1.5574228E-2,-1.7096704E-2,-8.8974334E-2,1.5968945E-2,-1.81074E-2,-2.944523E-3,-3.94529E-2,-1.7950498E-2,4.4861814E-1,-6.8723895E-2,-1.3435212E-1,-6.929057E-2,1.6827011E-2,-3.104444E-2,3.2030925E-2,-2.9768104E-2,1.484393E-2,-1.9826867E-2,-7.210396E-2,-9.254026E-2,-1.4292893E-2,7.294531E-1,6.5393515E-2,-5.212164E-2,-1.1157827E-1,-9.756836E-2,-1.7612779E-1,9.874182E-2,-9.123735E-2,-3.3806235E-2,1.7597534E-2,5.5308454E-2,-3.896774E-2,1.0353306E-1,1.12174405E-2,-1.6940945E-1,-2.4822002E-2,2.0461697E-2,-4.5429427E-2,9.244824E-3,-3.4851767E-2,-6.73396E-2,-2.1883821E-1,7.08056E-2,-1.3205512E-1,-2.3953933E-3,-3.450879E-2,8.8765323E-1,-1.3474105E-2,-3.4974664E-1,4.7342202E-1,-5.8348373E-2,4.460893E-2,-1.22546144E-1,-1.8161354E-3,7.209309E-2,-1.0860777E-1,-1.9403628E-1,-9.043697E-2,6.161408E-3,-4.6043392E-4,-3.355472E-3,-6.3044677E-4,3.7342394E-3,-1.5518997E-3,8.906547E-4,4.444647E-4,6.301851E-3,8.188003E-4,-6.3729094E-4,-1.7357628E-3,3.5460568E-3,-2.641664E-3,2.860124E-4,1.719123E-2,-4.2557647E-3,-1.25071565E-2,-1.6453861E-3,-2.1148828E-4,-5.316638E-4,8.3553477E-4,-5.4481317E-4,-3.7546263E-3,-1.6631043E-3,7.207644E-4,-1.1177548E-3,5.397888E-3,-1.3572356E-3,-3.0026622E-3,-9.289614E-3,-1.4749839E-4,-5.398148E-4,1.8455587E-2,1.0535052E-2,-4.359522E-3,1.4492749E-4,-1.6328013E-3,-1.4592792E-3,1.0405016E-3,1.5425602E-2,4.127195E-2,1.4261571E-2,-1.8024107E-2,-2.8126282E-3,2.9390937E-2,-1.9839895E-3,9.2270866E-4,-8.957892E-3,1.9880852E-3,-2.6052976E-3,-4.825192E-3,-4.074378E-4,1.0419957E-2,5.910438E-3,3.6603288E-4,-3.834733E-3,-1.3432462E-3,-4.402642E-3,-6.3614724E-3,-1.4473234E-3,-5.3128516E-3],"categories":[],"categories_nodes":[],"categories_segments":[],"categories_sizes":[],"default_left":[0,0,0,0,0,0,0,0,0,0,0,0,0,0,0,0,0,0,0,0,0,0,0,0,0,0,0,0,0,0,0,0,0,0,0,0,0,0,0,0,0,0,0,0,0,0,0,0,0,0,0,0,0,0,0,0,0,0,0,0,0,0,0,0,0,0,0,0,0,0,0,0,0,0,0,0,0,0,0,0,0,0,0,0,0,0,0,0,0,0,0,0,0,0,0,0,0,0,0,0,0,0,0,0,0,0,0,0,0,0,0,0,0,0,0,0,0,0,0,0,0,0,0,0,0],"id":7,"left_children":[1,3,5,7,9,11,13,15,17,19,21,23,25,27,29,31,33,35,37,39,41,43,45,47,49,51,53,55,57,59,61,63,65,67,69,71,73,75,77,79,81,83,85,87,89,91,93,95,97,99,101,103,-1,105,107,109,111,113,115,117,119,121,123,-1,-1,-1,-1,-1,-1,-1,-1,-1,-1,-1,-1,-1,-1,-1,-1,-1,-1,-1,-1,-1,-1,-1,-1,-1,-1,-1,-1,-1,-1,-1,-1,-1,-1,-1,-1,-1,-1,-1,-1,-1,-1,-1,-1,-1,-1,-1,-1,-1,-1,-1,-1,-1,-1,-1,-1,-1,-1,-1,-1,-1,-1],"loss_changes":[2.5909473E2,3.8504482E1,5.759871E1,3.227945E1,1.6746204E1,6.4653783E0,3.2678284E1,2.2272469E1,1.9844276E1,1.7330563E1,1.2308197E1,4.4213676E0,3.154757E0,1.7494858E1,1.6847778E1,1.1195727E1,1.1759209E1,1.6640526E1,9.337439E0,9.998557E0,7.3955145E0,5.2415447E0,5.0266495E0,4.8992653E0,3.7169979E0,3.5821218E0,2.4832602E0,1.0682259E1,8.267357E0,1.0943043E1,7.8665466E0,4.2724695E0,3.8818417E0,1.2824303E1,9.985771E0,8.856676E0,7.457222E0,3.986124E0,4.59313E0,3.3178034E0,7.4637566E0,5.637265E0,4.0462475E0,3.9107847E0,4.0960255E0,5.051239E0,4.3956404E0,7.1761284E0,3.9626646E0,3.6586478E0,5.6009965E0,2.0977592E0,0E0,1.8097203E0,2.1952891E0,1.1557621E1,7.9958773E0,8.522331E0,2.5717006E0,2.6707306E0,6.719017E0,3.5873108E0,3.2455053E0,0E0,0E0,0E0,0E0,0E0,0E0,0E0,0E0,0E0,0E0,0E0,0E0,0E0,0E0,0E0,0E0,0E0,0E0,0E0,0E0,0E0,0E0,0E0,0E0,0E0,0E0,0E0,0E0,0E0,0E0,0E0,0E0,0E0,0E0,0E0,0E0,0E0,0E0,0E0,0E0,0E0,0E0,0E0,0E0,0E0,0E0,0E0,0E0,0E0,0E0,0E0,0E0,0E0,0E0,0E0,0E0,0E0,0E0,0E0,0E0,0E0,0E0],"parents":[2147483647,0,0,1,1,2,2,3,3,4,4,5,5,6,6,7,7,8,8,9,9,10,10,11,11,12,12,13,13,14,14,15,15,16,16,17,17,18,18,19,19,20,20,21,21,22,22,23,23,24,24,25,25,26,26,27,27,28,28,29,29,30,30,31,31,32,32,33,33,34,34,35,35,36,36,37,37,38,38,39,39,40,40,41,41,42,42,43,43,44,44,45,45,46,46,47,47,48,48,49,49,50,50,51,51,53,53,54,54,55,55,56,56,57,57,58,58,59,59,60,60,61,61,62,62],"right_children":[2,4,6,8,10,12,14,16,18,20,22,24,26,28,30,32,34,36,38,40,42,44,46,48,50,52,54,56,58,60,62,64,66,68,70,72,74,76,78,80,82,84,86,88,90,92,94,96,98,100,102,104,-1,106,108,110,112,114,116,118,120,122,124,-1,-1,-1,-1,-1,-1,-1,-1,-1,-1,-1,-1,-1,-1,-1,-1,-1,-1,-1,-1,-1,-1,-1,-1,-1,-1,-1,-1,-1,-1,-1,-1,-1,-1,-1,-1,-1,-1,-1,-1,-1,-1,-1,-1,-1,-1,-1,-1,-1,-1,-1,-1,-1,-1,-1,-1,-1,-1,-1,-1,-1,-1],"split_conditions":[6.964755E1,1E0,1.6165564E-2,1.04308836E-1,1.6812827E-2,1.3E1,1E0,-3.9510408E-1,2.4427031E-1,-3.9856646E-2,3E0,-1.3141297E-1,5.7032136E-3,4.7600412E-1,7.763689E1,2.0155039E1,-2.776941E-1,3.6195183E1,4.6259052E1,-2.776941E-1,6.637537E1,5.3152557E1,7E0,-8.354598E-2,1E0,4.374371E-2,9.899714E-3,1E0,2.265427E-1,-1.11146584E-1,1.7079683E-1,-1E0,3.7976956E-1,2.428256E1,-1.6319226E-2,-3E0,5.662368E1,1.5076159E0,7E0,-6.053954E-2,4.5913044E1,4.0402424E1,6.871804E-1,2.5711881E-2,6.0486054E0,6.1302773E1,6.587356E1,-1.1817939E-1,-6.756138E-1,4.5350224E-2,2.6288226E-2,7.7057113E-3,-1.3474105E-2,-2.3721285E-2,1.5E1,1.1262063E-1,2.1465773E-2,7.589171E1,5.5514145E-1,-3.042978E-1,1.098722E-1,0E0,4E0,6.161408E-3,-4.6043392E-4,-3.355472E-3,-6.3044677E-4,3.7342394E-3,-1.5518997E-3,8.906547E-4,4.444647E-4,6.301851E-3,8.188003E-4,-6.3729094E-4,-1.7357628E-3,3.5460568E-3,-2.641664E-3,2.860124E-4,1.719123E-2,-4.2557647E-3,-1.25071565E-2,-1.6453861E-3,-2.1148828E-4,-5.316638E-4,8.3553477E-4,-5.4481317E-4,-3.7546263E-3,-1.6631043E-3,7.207644E-4,-1.1177548E-3,5.397888E-3,-1.3572356E-3,-3.0026622E-3,-9.289614E-3,-1.4749839E-4,-5.398148E-4,1.8455587E-2,1.0535052E-2,-4.359522E-3,1.4492749E-4,-1.6328013E-3,-1.4592792E-3,1.0405016E-3,1.5425602E-2,4.127195E-2,1.4261571E-2,-1.8024107E-2,-2.8126282E-3,2.9390937E-2,-1.9839895E-3,9.2270866E-4,-8.957892E-3,1.9880852E-3,-2.6052976E-3,-4.825192E-3,-4.074378E-4,1.0419957E-2,5.910438E-3,3.6603288E-4,-3.834733E-3,-1.3432462E-3,-4.402642E-3,-6.3614724E-3,-1.4473234E-3,-5.3128516E-3],"split_indices":[0,3,1,1,1,8,3,1,1,1,8,1,1,7,0,0,5,0,0,5,0,0,8,5,3,5,1,4,1,5,1,8,7,0,5,8,0,7,8,1,0,0,7,1,7,0,0,5,7,5,5,5,0,5,8,5,1,0,5,7,1,5,8,0,0,0,0,0,0,0,0,0,0,0,0,0,0,0,0,0,0,0,0,0,0,0,0,0,0,0,0,0,0,0,0,0,0,0,0,0,0,0,0,0,0,0,0,0,0,0,0,0,0,0,0,0,0,0,0,0,0,0,0,0,0],"split_type":[0,0,0,0,0,0,0,0,0,0,0,0,0,0,0,0,0,0,0,0,0,0,0,0,0,0,0,0,0,0,0,0,0,0,0,0,0,0,0,0,0,0,0,0,0,0,0,0,0,0,0,0,0,0,0,0,0,0,0,0,0,0,0,0,0,0,0,0,0,0,0,0,0,0,0,0,0,0,0,0,0,0,0,0,0,0,0,0,0,0,0,0,0,0,0,0,0,0,0,0,0,0,0,0,0,0,0,0,0,0,0,0,0,0,0,0,0,0,0,0,0,0,0,0,0],"sum_hessian":[4.4235325E5,3.9054384E5,5.1809406E4,3.3501634E5,5.552752E4,1.6238782E4,3.5570625E4,3.0442528E5,3.059106E4,3.6319066E4,1.9208451E4,1.6210026E4,2.87563E1,2.4596584E4,1.0974039E4,3.032465E3,3.013928E5,2.4317E4,6.274062E3,1.4481475E4,2.1837594E4,1.1998157E4,7.2102935E3,7.565875E2,1.5453438E4,1.60737E1,1.2682602E1,1.7730004E4,6.86658E3,5.8374556E3,5.136584E3,3.4991223E2,2.682553E3,4.517124E3,2.968757E5,2.0431827E3,2.2273816E4,1.4136542E3,4.8604077E3,4.9425034E2,1.3987224E4,1.9976361E4,1.8612327E3,4.088227E3,7.90993E3,6.9849556E3,2.2533804E2,1.4722002E2,6.0936755E2,9.728892E3,5.7245474E3,1.4389123E1,1.6845759E0,6.357318E0,6.3252835E0,1.6658088E4,1.0719161E3,6.242671E3,6.239092E2,3.5628503E2,5.4811704E3,4.247613E3,8.889713E2,1.8044856E2,1.6946367E2,2.0733806E3,6.0917224E2,4.588828E2,4.058241E3,5.552976E4,2.4134592E5,3.121872E2,1.7309955E3,1.1492746E4,1.078107E4,1.3134723E3,1.00182E2,4.8468994E3,1.3508399E1,4.4615826E2,4.8092083E1,5.200148E3,8.787076E3,3.238832E3,1.673753E4,1.3877842E3,4.7344855E2,7.5993317E2,3.328294E3,7.823095E3,8.683502E1,4.172097E3,2.812858E3,1.5787027E2,6.746778E1,1.274047E2,1.9815321E1,1.5597034E1,5.937705E2,8.543275E3,1.1856158E3,4.75379E3,9.707573E2,9.314995E0,5.0741286E0,1.2746087E0,5.0827093E0,3.3675094E0,2.9577744E0,1.5319933E4,1.3381549E3,6.2876236E1,1.0090399E3,3.2323083E3,3.0103628E3,6.045006E2,1.9408552E1,1.1471835E2,2.415667E2,4.2121226E3,1.2690476E3,1.1743164E3,3.0732964E3,5.9892035E2,2.9005093E2],"tree_param":{"num_deleted":"0","num_feature":"9","num_nodes":"125","size_leaf_vector":"1"}},{"base_weights":[-8.1664007E-7,-7.093796E-2,1.6774492E-2,-1.03981026E-1,-4.3968372E-2,-1.533033E-3,2.5382562E-2,2.3982903E-1,-1.0868222E-1,-1.05079725E-1,-3.6582515E-2,-1.1706305E-1,1.5660818E-3,2.6855785E-2,-2.6894769E-2,4.5421675E-1,-4.446409E-3,-1.290682E-1,-6.972821E-2,1.260119E-1,-1.112442E-1,-5.132209E-2,-6.4398316E-3,-2.9656455E-1,-1.0616294E-1,-5.2602928E-2,6.7405435E-3,2.2871984E-2,5.163218E-2,-4.795042E-2,2.1524094E-2,-1.4541848E-1,5.1861143E-1,-3.4018893E-2,7.190366E-1,-1.4931229E-1,-6.642614E-2,2.725296E-2,-7.604072E-2,-1.5383208E-1,4.9964216E-1,-1.4153886E-1,-8.43383E-2,-6.8682045E-2,-1.6226362E-2,-1.1332659E-2,6.8541214E-2,-5.7359844E-1,-1.379065E-1,-1.4949813E-1,-6.0568154E-2,-9.487308E-2,-1.1626766E-2,-5.526082E-3,2.0435775E-2,9.070042E-3,2.6915306E-2,4.0479768E-2,8.3502464E-2,-2.5992187E-2,-1.14953235E-1,-2.9041064E-3,9.335981E-2,-1.3700303E-2,1.2220047E-2,1.4329168E-2,3.9112777E-2,-8.171536E-3,1.212072E-3,3.857017E-2,3.2895587E-3,-5.180162E-3,-3.1441478E-3,-4.275592E-3,-1.2824197E-3,1.5936099E-2,1.8270161E-4,-4.0031755E-3,-1.9092703E-3,1.4131725E-2,-6.782393E-3,9.636073E-3,2.865815E-2,-6.242959E-3,-3.2857775E-3,-2.219625E-3,-6.5526944E-3,-1.7138036E-3,-3.8119352E-3,4.748851E-4,-1.29461E-3,-2.2455215E-4,-2.9635571E-3,2.978974E-3,-2.8686845E-3,-9.5501187E-4,-1.8008066E-2,-9.928927E-4,-1.1153993E-2,-4.17485E-3,-9.807792E-3,-2.0096302E-3,9.792029E-3,-3.8468188E-3,-2.1598516E-3,-8.3592726E-4,2.3735596E-3,-6.654058E-4,1.5962886E-4,2.7212303E-4,1.353922E-3,1.0683179E-3,-4.5620542E-4,1.3313336E-4,8.898743E-4,-1.5865822E-3,1.3455652E-3,2.604898E-3,-2.2972687E-3,-2.5278018E-3,7.221821E-5,-1.4578657E-2,-3.2016055E-3,-2.4390214E-3,6.776608E-4,1.7283859E-3,8.684582E-3],"categories":[],"categories_nodes":[],"categories_segments":[],"categories_sizes":[],"default_left":[0,0,0,0,0,0,0,0,0,0,0,0,0,0,0,0,0,0,0,0,0,0,0,0,0,0,0,0,0,0,0,0,0,0,0,0,0,0,0,0,0,0,0,0,0,0,0,0,0,0,0,0,0,0,0,0,0,0,0,0,0,0,0,0,0,0,0,0,0,0,0,0,0,0,0,0,0,0,0,0,0,0,0,0,0,0,0,0,0,0,0,0,0,0,0,0,0,0,0,0,0,0,0,0,0,0,0,0,0,0,0,0,0,0,0,0,0,0,0,0,0,0,0,0,0,0,0],"id":8,"left_children":[1,3,5,7,9,11,13,15,17,19,21,23,25,27,29,31,33,35,37,39,41,43,45,47,49,51,53,55,57,59,61,63,65,67,69,71,73,75,77,79,81,83,85,87,89,91,93,95,97,99,101,103,105,107,109,111,113,115,117,119,121,123,125,-1,-1,-1,-1,-1,-1,-1,-1,-1,-1,-1,-1,-1,-1,-1,-1,-1,-1,-1,-1,-1,-1,-1,-1,-1,-1,-1,-1,-1,-1,-1,-1,-1,-1,-1,-1,-1,-1,-1,-1,-1,-1,-1,-1,-1,-1,-1,-1,-1,-1,-1,-1,-1,-1,-1,-1,-1,-1,-1,-1,-1,-1,-1,-1],"loss_changes":[5.273657E2,7.552756E1,5.6482765E1,6.1590088E1,2.1060768E1,4.1041183E1,1.8776062E1,2.6925724E1,2.9830627E1,7.1819344E0,1.8499271E1,5.8276405E0,3.1290596E1,2.3401917E1,6.8135495E0,1.0648296E1,5.1869984E0,3.126941E1,7.9062576E0,1.379528E1,3.9832764E0,1.7036293E1,5.017887E0,7.431487E0,5.572136E0,1.68588E1,1.7118744E1,1.1398735E1,1.1669762E1,6.8492527E0,3.5553353E0,4.888864E0,7.3385696E0,4.140287E0,3.1465478E0,1.9362183E1,1.0851866E1,8.419707E0,8.618416E0,3.5277958E0,4.2804155E0,4.8866615E0,3.5901203E0,1.2614418E1,7.99016E0,4.3192153E0,4.2401342E0,8.754082E-1,2.6834717E0,2.6092834E0,3.445382E0,3.6468277E0,7.2867465E0,9.710749E0,1.3512346E1,2.9821396E1,9.755096E0,9.935001E0,4.5408745E0,5.8069725E0,3.4586163E0,3.0251677E0,3.5878096E0,0E0,0E0,0E0,0E0,0E0,0E0,0E0,0E0,0E0,0E0,0E0,0E0,0E0,0E0,0E0,0E0,0E0,0E0,0E0,0E0,0E0,0E0,0E0,0E0,0E0,0E0,0E0,0E0,0E0,0E0,0E0,0E0,0E0,0E0,0E0,0E0,0E0,0E0,0E0,0E0,0E0,0E0,0E0,0E0,0E0,0E0,0E0,0E0,0E0,0E0,0E0,0E0,0E0,0E0,0E0,0E0,0E0,0E0,0E0,0E0,0E0,0E0,0E0,0E0],"parents":[2147483647,0,0,1,1,2,2,3,3,4,4,5,5,6,6,7,7,8,8,9,9,10,10,11,11,12,12,13,13,14,14,15,15,16,16,17,17,18,18,19,19,20,20,21,21,22,22,23,23,24,24,25,25,26,26,27,27,28,28,29,29,30,30,31,31,32,32,33,33,34,34,35,35,36,36,37,37,38,38,39,39,40,40,41,41,42,42,43,43,44,44,45,45,46,46,47,47,48,48,49,49,50,50,51,51,52,52,53,53,54,54,55,55,56,56,57,57,58,58,59,59,60,60,61,61,62,62],"right_children":[2,4,6,8,10,12,14,16,18,20,22,24,26,28,30,32,34,36,38,40,42,44,46,48,50,52,54,56,58,60,62,64,66,68,70,72,74,76,78,80,82,84,86,88,90,92,94,96,98,100,102,104,106,108,110,112,114,116,118,120,122,124,126,-1,-1,-1,-1,-1,-1,-1,-1,-1,-1,-1,-1,-1,-1,-1,-1,-1,-1,-1,-1,-1,-1,-1,-1,-1,-1,-1,-1,-1,-1,-1,-1,-1,-1,-1,-1,-1,-1,-1,-1,-1,-1,-1,-1,-1,-1,-1,-1,-1,-1,-1,-1,-1,-1,-1,-1,-1,-1,-1,-1,-1,-1,-1,-1],"split_conditions":[3.5751297E1,2.826008E1,-1.7890727E-2,1.1357143E0,-3E0,5.9785714E0,2.9643363E-1,-1E0,-1.7890727E-2,2.8857143E0,5.117143E1,-4.3572217E-2,-2E0,1.128881E-1,7.161235E1,-1.5350185E-2,1.17894E-2,7.5578575E1,2.5285714E0,-8.445581E-4,-1.9177573E-2,-3.7861154E-3,1E0,4.8714285E0,4.8791298E1,3.8978573E1,-5.5488706E-2,1.125E1,2E0,4.810181E-1,3E0,9.812188E0,2.6219345E1,-1.0990792E-2,2.480091E1,0E0,1.8123138E1,-1E1,1.8123138E1,-2.9486185E-2,7.7057113E-3,2.6307142E1,1.160662E-1,1.0667757E0,1.952143E1,2.2841172E-1,1.3990715E2,-4.3774225E-2,2E0,6.289284E-2,1.24072276E-1,1.8535715E1,-3.4632534E-2,4.5406254E1,3.9285713E1,1E0,4.1525425E1,-2.776941E-1,4.0586057E-1,9.728571E1,5.6307144E1,9.552143E1,1.6588655E-1,-1.3700303E-2,1.2220047E-2,1.4329168E-2,3.9112777E-2,-8.171536E-3,1.212072E-3,3.857017E-2,3.2895587E-3,-5.180162E-3,-3.1441478E-3,-4.275592E-3,-1.2824197E-3,1.5936099E-2,1.8270161E-4,-4.0031755E-3,-1.9092703E-3,1.4131725E-2,-6.782393E-3,9.636073E-3,2.865815E-2,-6.242959E-3,-3.2857775E-3,-2.219625E-3,-6.5526944E-3,-1.7138036E-3,-3.8119352E-3,4.748851E-4,-1.29461E-3,-2.2455215E-4,-2.9635571E-3,2.978974E-3,-2.8686845E-3,-9.5501187E-4,-1.8008066E-2,-9.928927E-4,-1.1153993E-2,-4.17485E-3,-9.807792E-3,-2.0096302E-3,9.792029E-3,-3.8468188E-3,-2.1598516E-3,-8.3592726E-4,2.3735596E-3,-6.654058E-4,1.5962886E-4,2.7212303E-4,1.353922E-3,1.0683179E-3,-4.5620542E-4,1.3313336E-4,8.898743E-4,-1.5865822E-3,1.3455652E-3,2.604898E-3,-2.2972687E-3,-2.5278018E-3,7.221821E-5,-1.4578657E-2,-3.2016055E-3,-2.4390214E-3,6.776608E-4,1.7283859E-3,8.684582E-3],"split_indices":[0,0,1,2,8,2,1,8,1,2,2,1,8,1,0,1,1,2,2,1,1,1,3,2,0,2,1,2,8,1,8,0,0,1,0,8,0,8,0,5,5,2,1,7,2,5,2,5,8,5,5,2,1,0,2,8,0,5,5,2,2,2,5,0,0,0,0,0,0,0,0,0,0,0,0,0,0,0,0,0,0,0,0,0,0,0,0,0,0,0,0,0,0,0,0,0,0,0,0,0,0,0,0,0,0,0,0,0,0,0,0,0,0,0,0,0,0,0,0,0,0,0,0,0,0,0,0],"split_type":[0,0,0,0,0,0,0,0,0,0,0,0,0,0,0,0,0,0,0,0,0,0,0,0,0,0,0,0,0,0,0,0,0,0,0,0,0,0,0,0,0,0,0,0,0,0,0,0,0,0,0,0,0,0,0,0,0,0,0,0,0,0,0,0,0,0,0,0,0,0,0,0,0,0,0,0,0,0,0,0,0,0,0,0,0,0,0,0,0,0,0,0,0,0,0,0,0,0,0,0,0,0,0,0,0,0,0,0,0,0,0,0,0,0,0,0,0,0,0,0,0,0,0,0,0,0,0],"sum_hessian":[4.431653E5,8.475628E4,3.5840903E5,3.8088047E4,4.666823E4,1.1462562E5,2.437834E5,5.131088E2,3.7574938E4,5.0306753E3,4.1637555E4,2.9935647E3,1.11632055E5,2.3710214E5,6.6812744E3,2.7281445E2,2.4029436E2,2.4664725E4,1.2910216E4,1.3020369E2,4.900471E3,2.7963086E4,1.367447E4,1.698752E2,2.8236895E3,9.732973E3,1.01899086E5,2.042609E5,3.2841234E4,4.656386E3,2.0248882E3,2.6334312E1,2.4648015E2,2.3177354E2,8.5208025E0,1.8639574E4,6.02515E3,7.887702E2,1.2121445E4,7.4781586E1,5.542211E1,2.303071E3,2.5974004E3,1.87082E4,9.254887E3,1.283761E4,8.36859E2,6.0908E1,1.0896719E2,1.4465494E3,1.37714E3,4.790194E3,4.942779E3,5.375346E4,4.814562E4,4.6281523E4,1.5797939E5,2.4329756E4,8.511477E3,3.5080967E3,1.1482894E3,1.5117631E3,5.131252E2,1.6958633E1,9.375679E0,2.3578424E2,1.06959095E1,5.4512897E1,1.7726065E2,3.840204E0,4.6805983E0,1.2221967E4,6.4176074E3,1.4287477E3,4.5964023E3,3.0817408E1,7.579528E2,2.1514622E3,9.969983E3,7.1779094E0,6.7603676E1,4.105038E1,1.4371733E1,7.4616986E2,1.5569012E3,2.4127017E3,1.8469875E2,1.5618844E4,3.089355E3,4.2252773E3,5.02961E3,1.22976455E4,5.3996497E2,7.0513873E2,1.3172029E2,2.9606717E0,5.794733E1,7.60361E1,3.293109E1,1.3686028E3,7.7946724E1,1.3554805E3,2.1659504E1,1.9470117E3,2.8431821E3,4.1931694E3,7.4960925E2,2.1201104E4,3.2552357E4,3.297252E4,1.5173102E4,2.210973E4,2.4171791E4,1.720549E4,1.4077389E5,1.0879171E3,2.324184E4,8.338603E3,1.728735E2,1.148901E3,2.3591956E3,2.3669212E1,1.1246201E3,3.7042532E2,1.1413378E3,4.3511307E2,7.801213E1],"tree_param":{"num_deleted":"0","num_feature":"9","num_nodes":"127","size_leaf_vector":"1"}},{"base_weights":[8.297364E-7,-7.908649E-3,7.288711E-2,2.9008705E-2,-1.6696442E-2,1.1872129E-1,4.2463657E-2,5.7258084E-2,7.4456977E-3,-2.2209605E-2,1.9084195E-2,2.1531783E-1,9.987695E-2,2.6452778E-2,1.0517767E-1,1.9874863E-2,8.6518705E-2,3.871587E-2,-1.6493335E-2,9.6134976E-2,-2.4349717E-2,3.0846111E-2,-4.7426634E-2,2.5499177E-1,1.2337284E-1,7.001175E-2,1.6526145E-1,8.873616E-2,1.6381538E-2,8.413955E-2,1.8856086E-1,7.073617E-2,9.66337E-3,1.07024215E-1,3.5060797E-2,2.468274E-1,3.4055002E-2,1.6337812E-1,-1.8360537E-2,8.606487E-2,3.3618027E-1,1.2688595E-3,-2.799064E-2,-1.7645463E-1,3.340156E-2,-6.289152E-2,3.7782155E-2,3.0903706E-1,2.1858431E-1,-1.2921399E-1,1.405962E-1,1.269184E-1,4.3138374E-2,9.545451E-2,1.9971554E-1,-2.3902684E-1,9.613436E-2,2.2508588E-2,-4.7832217E-2,1.3483946E-1,5.9195604E-2,2.7643263E-1,1.513993E-1,7.855374E-3,1.6695367E-3,-2.3144085E-3,4.1284566E-4,4.3731974E-3,2.5950484E-3,1.8672285E-3,-1.1344895E-5,1.5842773E-2,5.618724E-3,2.144719E-3,6.3240045E-4,6.58685E-3,-5.017886E-3,9.0852036E-4,-7.494141E-4,5.3160074E-3,2.0460917E-3,1.234428E-2,3.9961553E-4,-2.7997317E-5,4.1294335E-3,-4.575566E-4,-1.1622738E-3,-1.200994E-2,-2.4328816E-3,1.7619996E-3,4.2774001E-4,2.3465822E-3,-2.1233757E-3,9.354187E-3,5.452079E-4,1.2729477E-2,6.686581E-3,2.0034514E-2,6.320476E-3,-6.10434E-3,1.1601942E-2,1.7652108E-3,5.5487365E-3,2.7250217E-3,5.8227666E-3,-2.5539168E-3,1.4356349E-3,2.518971E-3,1.18202455E-2,5.106104E-3,8.824412E-3,-1.2464729E-2,1.3256819E-3,3.6985187E-3,9.4052113E-4,3.3906175E-4,1.8043005E-3,2.754228E-3,-1.844106E-3,2.244994E-3,5.2373265E-3,2.167506E-3,-9.0215803E-4,-1.5016948E-2,8.650119E-3,3.6158047E-3,9.3701E-3],"categories":[],"categories_nodes":[],"categories_segments":[],"categories_sizes":[],"default_left":[0,0,0,0,0,0,0,0,0,0,0,0,0,0,0,0,0,0,0,0,0,0,0,0,0,0,0,0,0,0,0,0,0,0,0,0,0,0,0,0,0,0,0,0,0,0,0,0,0,0,0,0,0,0,0,0,0,0,0,0,0,0,0,0,0,0,0,0,0,0,0,0,0,0,0,0,0,0,0,0,0,0,0,0,0,0,0,0,0,0,0,0,0,0,0,0,0,0,0,0,0,0,0,0,0,0,0,0,0,0,0,0,0,0,0,0,0,0,0,0,0,0,0,0,0,0,0],"id":9,"left_children":[1,3,5,7,9,11,13,15,17,19,21,23,25,27,29,31,33,35,37,39,41,43,45,47,49,51,53,55,57,59,61,63,65,67,69,71,73,75,77,79,81,83,85,87,89,91,93,95,97,99,101,103,105,107,109,111,113,115,117,119,121,123,125,-1,-1,-1,-1,-1,-1,-1,-1,-1,-1,-1,-1,-1,-1,-1,-1,-1,-1,-1,-1,-1,-1,-1,-1,-1,-1,-1,-1,-1,-1,-1,-1,-1,-1,-1,-1,-1,-1,-1,-1,-1,-1,-1,-1,-1,-1,-1,-1,-1,-1,-1,-1,-1,-1,-1,-1,-1,-1,-1,-1,-1,-1,-1,-1],"loss_changes":[2.8812372E2,1.4626973E2,6.821985E1,5.2804855E1,7.1839E1,3.550885E1,2.952655E1,4.1046043E1,3.680317E1,7.992268E1,3.8037926E1,1.1588226E1,3.1885391E1,1.4694788E1,1.0475639E1,8.557151E0,2.2206985E1,2.066943E1,9.355418E0,1.352047E1,2.891063E1,2.1892864E1,9.630726E0,4.3090363E0,4.2037086E0,1.7144867E1,1.229744E1,7.930189E0,7.9363694E0,6.033985E0,3.890232E0,7.927429E0,4.883343E0,1.1956421E1,5.7788463E0,7.718174E0,1.012685E1,5.353321E0,8.876148E0,8.74715E0,5.4723415E0,1.1583383E1,3.7168945E1,1.0711612E1,1.9791351E1,6.8892803E0,6.0286427E0,8.772743E0,4.589016E0,2.4518886E0,3.2575054E0,8.700554E0,4.613036E0,5.7779818E0,9.502609E0,3.6300573E0,5.606228E0,7.7650175E0,3.3519526E0,3.741726E0,3.7358599E0,3.443575E0,4.178009E0,0E0,0E0,0E0,0E0,0E0,0E0,0E0,0E0,0E0,0E0,0E0,0E0,0E0,0E0,0E0,0E0,0E0,0E0,0E0,0E0,0E0,0E0,0E0,0E0,0E0,0E0,0E0,0E0,0E0,0E0,0E0,0E0,0E0,0E0,0E0,0E0,0E0,0E0,0E0,0E0,0E0,0E0,0E0,0E0,0E0,0E0,0E0,0E0,0E0,0E0,0E0,0E0,0E0,0E0,0E0,0E0,0E0,0E0,0E0,0E0,0E0,0E0,0E0,0E0],"parents":[2147483647,0,0,1,1,2,2,3,3,4,4,5,5,6,6,7,7,8,8,9,9,10,10,11,11,12,12,13,13,14,14,15,15,16,16,17,17,18,18,19,19,20,20,21,21,22,22,23,23,24,24,25,25,26,26,27,27,28,28,29,29,30,30,31,31,32,32,33,33,34,34,35,35,36,36,37,37,38,38,39,39,40,40,41,41,42,42,43,43,44,44,45,45,46,46,47,47,48,48,49,49,50,50,51,51,52,52,53,53,54,54,55,55,56,56,57,57,58,58,59,59,60,60,61,61,62,62],"right_children":[2,4,6,8,10,12,14,16,18,20,22,24,26,28,30,32,34,36,38,40,42,44,46,48,50,52,54,56,58,60,62,64,66,68,70,72,74,76,78,80,82,84,86,88,90,92,94,96,98,100,102,104,106,108,110,112,114,116,118,120,122,124,126,-1,-1,-1,-1,-1,-1,-1,-1,-1,-1,-1,-1,-1,-1,-1,-1,-1,-1,-1,-1,-1,-1,-1,-1,-1,-1,-1,-1,-1,-1,-1,-1,-1,-1,-1,-1,-1,-1,-1,-1,-1,-1,-1,-1,-1,-1,-1,-1,-1,-1,-1,-1,-1,-1,-1,-1,-1,-1,-1,-1,-1,-1,-1,-1],"split_conditions":[1.9737011E0,3.6633663E1,2.5507143E1,2.8464285E1,6.9353294E1,2.6666666E1,3.9092057E0,7.112469E-1,-7.081757E-2,-2.776941E-1,8.56E1,-1.5982147E-2,6.792453E1,2.480091E1,6.647258E0,-4.6528563E-2,-3.1962376E-3,-7.228698E-1,-3.8630772E-1,2.854643E2,-7.774491E-2,1.1357143E0,3.8835987E-1,-2E0,1.1357143E0,3.7870853E1,1.8111307E-2,-3.8630772E-1,1.2185714E2,3.0907326E1,2.480091E1,8.707143E0,1.6571429E0,1.0385715E1,3.1489176E1,3.8503128E-1,4.929286E1,1.0832245E0,-3E0,3.2622343E-1,4.810181E-1,2.854643E2,2.6842857E1,3.2642618E-4,2.3921429E1,-1.869895E-1,-7.228698E-1,1.2335714E1,-1.3141297E-1,1.3933412E-2,2.499177E0,3.1035852E0,2.5285714E0,6.647258E0,4.2518625E0,-2.2556064E-1,8.312857E1,7.125648E1,-1.8162604E-1,-1.08877264E-1,6.530914E-2,-2.776941E-1,8.551476E1,7.855374E-3,1.6695367E-3,-2.3144085E-3,4.1284566E-4,4.3731974E-3,2.5950484E-3,1.8672285E-3,-1.1344895E-5,1.5842773E-2,5.618724E-3,2.144719E-3,6.3240045E-4,6.58685E-3,-5.017886E-3,9.0852036E-4,-7.494141E-4,5.3160074E-3,2.0460917E-3,1.234428E-2,3.9961553E-4,-2.7997317E-5,4.1294335E-3,-4.575566E-4,-1.1622738E-3,-1.200994E-2,-2.4328816E-3,1.7619996E-3,4.2774001E-4,2.3465822E-3,-2.1233757E-3,9.354187E-3,5.452079E-4,1.2729477E-2,6.686581E-3,2.0034514E-2,6.320476E-3,-6.10434E-3,1.1601942E-2,1.7652108E-3,5.5487365E-3,2.7250217E-3,5.8227666E-3,-2.5539168E-3,1.4356349E-3,2.518971E-3,1.18202455E-2,5.106104E-3,8.824412E-3,-1.2464729E-2,1.3256819E-3,3.6985187E-3,9.4052113E-4,3.3906175E-4,1.8043005E-3,2.754228E-3,-1.844106E-3,2.244994E-3,5.2373265E-3,2.167506E-3,-9.0215803E-4,-1.5016948E-2,8.650119E-3,3.6158047E-3,9.3701E-3],"split_indices":[6,0,2,2,0,0,6,6,1,5,2,1,0,0,6,1,1,5,5,2,1,2,1,8,2,0,1,5,2,0,0,2,2,2,0,6,2,6,8,6,1,2,2,1,2,1,5,2,1,5,6,6,2,6,6,1,2,0,5,1,5,5,0,0,0,0,0,0,0,0,0,0,0,0,0,0,0,0,0,0,0,0,0,0,0,0,0,0,0,0,0,0,0,0,0,0,0,0,0,0,0,0,0,0,0,0,0,0,0,0,0,0,0,0,0,0,0,0,0,0,0,0,0,0,0,0,0],"split_type":[0,0,0,0,0,0,0,0,0,0,0,0,0,0,0,0,0,0,0,0,0,0,0,0,0,0,0,0,0,0,0,0,0,0,0,0,0,0,0,0,0,0,0,0,0,0,0,0,0,0,0,0,0,0,0,0,0,0,0,0,0,0,0,0,0,0,0,0,0,0,0,0,0,0,0,0,0,0,0,0,0,0,0,0,0,0,0,0,0,0,0,0,0,0,0,0,0,0,0,0,0,0,0,0,0,0,0,0,0,0,0,0,0,0,0,0,0,0,0,0,0,0,0,0,0,0,0],"sum_hessian":[4.9978547E5,4.508599E5,4.892556E4,8.668703E4,3.6417288E5,1.9517994E4,2.9407564E4,3.752475E4,4.916228E4,3.1555225E5,4.8620645E4,3.1843767E3,1.6333618E4,2.3427857E4,5.979706E3,1.647634E4,2.104841E4,2.1316785E4,2.7845498E4,5.60422E3,3.0994803E5,4.1314957E4,7.305689E3,2.2232703E3,9.6110645E2,1.1213692E4,5.1199253E3,3.2599014E3,2.0167957E4,4.7765586E3,1.2031478E3,2.7538855E3,1.3722453E4,1.5050029E4,5.998381E3,4.658149E2,2.0850969E4,2.8519873E2,2.7560299E4,5.3798877E3,2.243325E2,3.856864E4,2.7137938E5,5.0226926E2,4.0812688E4,6.1836543E3,1.1220345E3,8.9185736E2,1.3314128E3,6.0937237E1,9.001692E2,3.5957227E3,7.61797E3,1.6931759E3,3.4267495E3,7.126646E1,3.1886348E3,1.8411814E4,1.756141E3,1.5736415E3,3.202917E3,3.556777E2,8.474701E2,2.0027414E2,2.5536113E3,6.1780426E2,1.3104649E4,5.208909E3,9.84112E3,3.394324E3,2.604057E3,8.0001E1,3.858139E2,5.365586E3,1.5485384E4,2.4406276E2,4.1135963E1,3.300921E3,2.4259377E4,8.801618E2,4.499726E3,1.8168611E2,4.26464E1,3.7956746E4,6.1189246E2,1.2421361E5,1.4716578E5,1.4907721E2,3.5319205E2,1.7566158E4,2.324653E4,3.2687738E2,5.856777E3,7.393347E1,1.0481011E3,3.7976627E2,5.120911E2,2.1570442E1,1.3098424E3,5.3799137E1,7.1381035E0,3.174518E2,5.8271735E2,2.3407004E3,1.2550222E3,2.6955573E2,7.3484146E3,1.6316681E3,6.1507862E1,2.6129458E3,8.1380383E2,4.362062E1,2.7645838E1,2.2463352E3,9.422997E2,1.4188267E4,4.223549E3,1.557437E2,1.6003973E3,6.28086E2,9.455554E2,2.7944448E3,4.0847214E2,4.7478375E0,3.5092987E2,7.125342E2,1.3493593E2],"tree_param":{"num_deleted":"0","num_feature":"9","num_nodes":"127","size_leaf_vector":"1"}},{"base_weights":[2.9743464E-7,8.620154E-3,-6.506149E-2,1.2593404E-2,-1.5360633E-2,-4.3087464E-2,-1.3148513E-1,-1.4086768E-2,1.5483804E-2,-6.0485406E-3,-4.1646723E-2,1.2452265E-1,-4.638794E-2,-1.6802807E-1,-9.056375E-2,-4.142727E-2,2.1854201E-2,2.0822896E-2,-1.3205408E-3,-1.4005074E-1,-3.6961567E-3,2.4830127E-1,-4.3297894E-2,-4.7653243E-2,2.2915983E-1,-6.923415E-2,-2.5272753E-2,2.1947415E-1,-1.7209575E-1,-1.1061577E-1,-2.4728721E-2,-8.162264E-2,-2.189532E-2,1.349856E-1,1.4330283E-2,-3.6414724E-2,2.2823557E-2,-5.4124044E-3,3.163867E-2,5.725557E-1,-1.4513482E-1,-2.9449448E-2,4.7675734E-3,2.8786808E-1,-3.9010265E-1,-6.83389E-2,-2.2244122E-2,-2.7940951E-2,-1.657852E-2,1.8616024E-1,4.653754E-1,-4.657936E-2,-1.0722627E-1,-2.9084671E-2,7.712985E-2,-3.097269E-1,2.921877E-1,-1.4213556E-1,-2.3347898E-1,-1.4826441E-3,-1.2153926E-1,1.2472039E-2,-7.890391E-2,-3.5492575E-3,-1.4179378E-3,-5.7668256E-4,-4.1105743E-3,1.7243352E-2,3.557246E-3,1.2538898E-3,-4.950718E-4,2.252811E-3,-1.5220351E-3,2.3912107E-4,9.198243E-4,-5.520756E-5,-1.0692395E-3,7.302187E-4,3.2777824E-3,6.7678667E-3,2.7734244E-2,-8.049753E-3,-3.5679238E-3,1.5273797E-3,-1.091191E-3,-2.7236043E-4,6.483112E-4,1.2385802E-2,4.1341106E-3,-1.6134232E-2,1.2140165E-3,1.680309E-4,-2.3755303E-3,8.405243E-5,-1.6305215E-3,-2.8707616E-3,4.897108E-3,-6.2213084E-3,6.225091E-3,3.681453E-2,1.1289987E-2,-1.4483728E-3,8.06689E-3,-2.598172E-3,-5.6949467E-3,-1.2747167E-3,7.590488E-5,3.0159485E-3,-7.958828E-3,-1.4973789E-2,1.4240159E-2,-9.04783E-3,1.06317615E-2,-5.550726E-3,-3.3731314E-3,-7.947113E-3,-4.848393E-3,1.9504564E-2,-4.4673093E-4,-3.8770107E-3,-1.0414623E-4,6.0543876E-5,1.1312481E-2,-7.431487E-4,-5.2952603E-3],"categories":[],"categories_nodes":[],"categories_segments":[],"categories_sizes":[],"default_left":[0,0,0,0,0,0,0,0,0,0,0,0,0,0,0,0,0,0,0,0,0,0,0,0,0,0,0,0,0,0,0,0,0,0,0,0,0,0,0,0,0,0,0,0,0,0,0,0,0,0,0,0,0,0,0,0,0,0,0,0,0,0,0,0,0,0,0,0,0,0,0,0,0,0,0,0,0,0,0,0,0,0,0,0,0,0,0,0,0,0,0,0,0,0,0,0,0,0,0,0,0,0,0,0,0,0,0,0,0,0,0,0,0,0,0,0,0,0,0,0,0,0,0,0,0],"id":10,"left_children":[1,3,5,7,9,11,13,15,17,19,21,23,25,27,29,31,33,35,37,39,41,43,45,47,49,51,53,55,57,59,61,63,65,67,69,71,73,75,77,79,81,83,85,87,89,91,93,95,-1,97,99,101,103,105,107,109,111,113,115,117,119,121,123,-1,-1,-1,-1,-1,-1,-1,-1,-1,-1,-1,-1,-1,-1,-1,-1,-1,-1,-1,-1,-1,-1,-1,-1,-1,-1,-1,-1,-1,-1,-1,-1,-1,-1,-1,-1,-1,-1,-1,-1,-1,-1,-1,-1,-1,-1,-1,-1,-1,-1,-1,-1,-1,-1,-1,-1,-1,-1,-1,-1,-1,-1],"loss_changes":[2.4808238E2,3.7217583E1,7.55284E1,2.584082E1,1.3589599E1,2.1518028E1,1.9220886E1,3.2186207E1,2.7125343E1,1.2922743E1,6.963688E0,1.3545103E1,1.8395714E1,1.0746994E1,8.011002E0,1.4603296E1,1.2043945E1,2.6274315E1,9.83149E0,2.6454382E0,8.7822695E0,2.1932964E0,7.612196E0,2.8194408E0,4.6611633E0,1.5760658E1,7.7393847E0,2.8232913E0,1.2332916E1,5.5465927E0,2.859871E0,7.661968E0,3.8497257E0,6.30019E0,1.1238764E1,1.2377504E1,2.5805511E1,7.0023513E0,4.557987E0,4.2788208E-1,2.2375565E0,5.547002E0,7.0724006E0,1.4089885E0,3.5454392E-1,5.2896194E0,6.310129E0,3.5795245E0,0E0,3.3784695E0,4.375759E0,6.1669807E0,1.1637398E1,8.099564E0,5.7291775E0,1.5836179E0,2.4321275E0,5.737877E0,4.9344864E0,3.7174764E0,3.8419151E0,3.208219E0,3.0476987E0,0E0,0E0,0E0,0E0,0E0,0E0,0E0,0E0,0E0,0E0,0E0,0E0,0E0,0E0,0E0,0E0,0E0,0E0,0E0,0E0,0E0,0E0,0E0,0E0,0E0,0E0,0E0,0E0,0E0,0E0,0E0,0E0,0E0,0E0,0E0,0E0,0E0,0E0,0E0,0E0,0E0,0E0,0E0,0E0,0E0,0E0,0E0,0E0,0E0,0E0,0E0,0E0,0E0,0E0,0E0,0E0,0E0,0E0,0E0,0E0,0E0,0E0],"parents":[2147483647,0,0,1,1,2,2,3,3,4,4,5,5,6,6,7,7,8,8,9,9,10,10,11,11,12,12,13,13,14,14,15,15,16,16,17,17,18,18,19,19,20,20,21,21,22,22,23,23,24,24,25,25,26,26,27,27,28,28,29,29,30,30,31,31,32,32,33,33,34,34,35,35,36,36,37,37,38,38,39,39,40,40,41,41,42,42,43,43,44,44,45,45,46,46,47,47,49,49,50,50,51,51,52,52,53,53,54,54,55,55,56,56,57,57,58,58,59,59,60,60,61,61,62,62],"right_children":[2,4,6,8,10,12,14,16,18,20,22,24,26,28,30,32,34,36,38,40,42,44,46,48,50,52,54,56,58,60,62,64,66,68,70,72,74,76,78,80,82,84,86,88,90,92,94,96,-1,98,100,102,104,106,108,110,112,114,116,118,120,122,124,-1,-1,-1,-1,-1,-1,-1,-1,-1,-1,-1,-1,-1,-1,-1,-1,-1,-1,-1,-1,-1,-1,-1,-1,-1,-1,-1,-1,-1,-1,-1,-1,-1,-1,-1,-1,-1,-1,-1,-1,-1,-1,-1,-1,-1,-1,-1,-1,-1,-1,-1,-1,-1,-1,-1,-1,-1,-1,-1,-1,-1,-1],"split_conditions":[6.964755E1,1E0,1.723053E0,8.078571E0,6.1302773E1,1.6571429E0,3.6564285E1,1E0,5.662368E1,-2.776941E-1,1.6571429E0,1E0,3.3114285E1,1.1357143E0,9.3921425E1,4.107143E0,1.6571429E0,-1.9924547E-1,1E0,1.4666742E-1,4.297521E1,1.9737011E0,2.6307142E1,3.6263645E-2,7E0,9.6096265E-1,1E0,7.312688E1,8.065934E1,-7.145735E-2,8.065934E1,3.9443535E1,6.739525E1,-3.7912864E-2,7.814524E-1,2.428256E1,2.6842857E1,1.0275E2,1.2920709E0,3E0,3.7232545E-1,5.1E0,3.2514286E1,6.587356E1,6.6126656E1,5.3285713E0,3E0,5.41219E-5,-1.657852E-2,-2.8012903E-2,2.7498522E-1,1E1,8.1623055E1,8.56E1,1.778775E-1,1.2103527E-2,-1.983622E-2,1.46285715E1,1.759386E-3,6.995389E1,1.3818301E-1,2.854643E2,4E0,-3.5492575E-3,-1.4179378E-3,-5.7668256E-4,-4.1105743E-3,1.7243352E-2,3.557246E-3,1.2538898E-3,-4.950718E-4,2.252811E-3,-1.5220351E-3,2.3912107E-4,9.198243E-4,-5.520756E-5,-1.0692395E-3,7.302187E-4,3.2777824E-3,6.7678667E-3,2.7734244E-2,-8.049753E-3,-3.5679238E-3,1.5273797E-3,-1.091191E-3,-2.7236043E-4,6.483112E-4,1.2385802E-2,4.1341106E-3,-1.6134232E-2,1.2140165E-3,1.680309E-4,-2.3755303E-3,8.405243E-5,-1.6305215E-3,-2.8707616E-3,4.897108E-3,-6.2213084E-3,6.225091E-3,3.681453E-2,1.1289987E-2,-1.4483728E-3,8.06689E-3,-2.598172E-3,-5.6949467E-3,-1.2747167E-3,7.590488E-5,3.0159485E-3,-7.958828E-3,-1.4973789E-2,1.4240159E-2,-9.04783E-3,1.06317615E-2,-5.550726E-3,-3.3731314E-3,-7.947113E-3,-4.848393E-3,1.9504564E-2,-4.4673093E-4,-3.8770107E-3,-1.0414623E-4,6.0543876E-5,1.1312481E-2,-7.431487E-4,-5.2952603E-3],"split_indices":[0,3,6,2,0,2,2,8,0,5,2,8,2,2,2,2,2,5,4,6,0,6,2,5,8,6,4,0,0,5,0,0,0,5,6,0,2,2,6,8,6,2,2,0,0,2,8,5,0,5,6,8,0,2,5,5,5,2,5,0,5,2,8,0,0,0,0,0,0,0,0,0,0,0,0,0,0,0,0,0,0,0,0,0,0,0,0,0,0,0,0,0,0,0,0,0,0,0,0,0,0,0,0,0,0,0,0,0,0,0,0,0,0,0,0,0,0,0,0,0,0,0,0,0,0],"split_type":[0,0,0,0,0,0,0,0,0,0,0,0,0,0,0,0,0,0,0,0,0,0,0,0,0,0,0,0,0,0,0,0,0,0,0,0,0,0,0,0,0,0,0,0,0,0,0,0,0,0,0,0,0,0,0,0,0,0,0,0,0,0,0,0,0,0,0,0,0,0,0,0,0,0,0,0,0,0,0,0,0,0,0,0,0,0,0,0,0,0,0,0,0,0,0,0,0,0,0,0,0,0,0,0,0,0,0,0,0,0,0,0,0,0,0,0,0,0,0,0,0,0,0,0,0],"sum_hessian":[4.4235194E5,3.906029E5,5.174904E4,3.3508494E5,5.5517977E4,3.8886426E4,1.2862612E4,3.2752768E4,3.0233216E5,4.0995996E4,1.4521983E4,7.5023126E2,3.8136195E4,6.7931763E3,6.069436E3,1.860198E4,1.4150786E4,2.2943547E5,7.289669E4,7.0625146E2,4.0289742E4,8.1384415E1,1.4440599E4,2.8379825E2,4.6643298E2,1.831618E4,1.9820014E4,7.001837E1,6.723158E3,4.6518857E3,1.4175502E3,6.082156E3,1.2519825E4,8.8136945E2,1.3269417E4,7.748172E3,2.216873E5,6.4846836E4,8.0498545E3,4.212364E0,7.0203906E2,9.965231E3,3.0324512E4,7.715181E1,4.232611E0,6.594713E3,7.8458857E3,2.7415155E2,9.646728E0,3.9611426E2,7.031873E1,1.1475526E4,6.8406543E3,1.9109387E4,7.1062775E2,8.064716E0,6.195366E1,4.520223E3,2.2029348E3,4.233605E2,4.2285254E3,8.40897E2,5.7665326E2,2.9402493E3,3.1419065E3,1.2236916E4,2.8290955E2,3.0481016E1,8.508884E2,7.017661E3,6.2517554E3,8.812919E2,6.8668804E3,7.657236E4,1.4511494E5,5.7994664E4,6.852172E3,7.359239E3,6.9061584E2,2.9474707E0,1.2648935E0,1.2151824E2,5.805208E2,7.8994775E2,9.175283E3,1.6642984E4,1.3681527E4,4.1136814E1,3.601499E1,2.9660578E0,1.2665535E0,8.4363434E2,5.7510786E3,4.408104E3,3.437782E3,2.0278609E2,7.136545E1,1.9929028E1,3.761852E2,6.021551E0,6.429718E1,1.1414872E4,6.0654583E1,5.4757944E3,1.3648595E3,1.3418916E4,5.6904707E3,6.658303E2,4.4797413E1,6.7891135E0,1.2756028E0,5.5098653E0,5.644379E1,1.8472522E3,2.672971E3,1.5308525E3,6.7208234E2,7.578211E0,4.157823E2,3.969725E3,2.5880032E2,8.184367E2,2.2460217E1,3.7173834E2,2.049149E2],"tree_param":{"num_deleted":"0","num_feature":"9","num_nodes":"125","size_leaf_vector":"1"}},{"base_weights":[-1.2334968E-6,-2.873895E-2,1.7222935E-2,-1.5912205E-2,-9.461223E-2,2.3241319E-2,-1.4540078E-2,-1.2762705E-2,-1.1504393E-1,-1.7050403E-1,-7.3048554E-2,2.4015967E-2,-7.482446E-2,3.55603E-1,-1.7102703E-2,-1.093889E-1,-9.916091E-3,-1.3260068E-1,3.287382E-2,-1.4790395E-1,-2.8011012E-1,-4.3628417E-2,-1.2106788E-1,2.539761E-2,-2.6177475E-2,-2.6246774E-1,-5.9668455E-2,1.4176698E-1,4.5705292E-1,-1.1917427E-2,-1.0767142E-1,-2.99915E-1,-9.5889814E-2,-1.7434342E-2,2.603227E-2,-2.0450656E-1,-1.1558775E-1,2.2749582E-2,6.8440384E-1,-2.1946251E-1,-1.2680773E-1,-4.9631953E-1,-2.698942E-1,-6.966011E-2,-1.0793134E-2,-1.3469593E-1,-5.0113138E-2,2.0727871E-2,5.550945E-2,-5.800068E-2,8.117796E-3,-1.1783708E-1,-4.232263E-1,-2.7643254E-1,-5.000379E-2,3.663901E-2,3.360183E-1,2.084897E-1,5.5269325E-1,-3.201506E-3,-3.632818E-2,-1.5637891E-1,-3.8647596E-2,-1.6182534E-2,-5.7174214E-3,-3.3695705E-3,-3.3689322E-4,-1.7184806E-4,-9.957193E-4,-8.962253E-4,1.0547783E-3,-4.4070543E-3,-9.949791E-3,-4.0169703E-3,-1.8347696E-3,-1.4095952E-2,1.1892251E-3,3.1226395E-2,1.4800086E-3,-8.716753E-3,-4.7160857E-3,-3.2134696E-3,-5.097109E-3,-1.5390601E-2,1.4260095E-3,-1.1835847E-2,-7.6044872E-3,-3.407752E-3,-1.0379525E-3,-1.1691874E-3,1.055779E-3,-2.3271134E-3,-4.82774E-3,-1.4380573E-2,-1.3435784E-3,7.3255406E-4,7.2833136E-5,-6.011035E-4,1.789332E-3,-8.3400204E-4,-4.3844953E-3,-1.5427236E-3,8.1461197E-4,5.502231E-3,-7.838114E-3,-7.5562405E-3,-1.611303E-2,-1.0290615E-2,1.2003204E-2,1.8613877E-2,-1.664899E-3,-1.854041E-3,7.224168E-3,1.3056592E-2,-1.0989135E-2,1.3320078E-2,-3.8971656E-3,1.7398022E-2,-1.107726E-2,-4.2553684E-3,-4.6750785E-5,-1.579453E-3,-2.8569944E-5,-2.3432854E-3,-5.2793613E-3,5.7240785E-3,-1.6424321E-3],"categories":[],"categories_nodes":[],"categories_segments":[],"categories_sizes":[],"default_left":[0,0,0,0,0,0,0,0,0,0,0,0,0,0,0,0,0,0,0,0,0,0,0,0,0,0,0,0,0,0,0,0,0,0,0,0,0,0,0,0,0,0,0,0,0,0,0,0,0,0,0,0,0,0,0,0,0,0,0,0,0,0,0,0,0,0,0,0,0,0,0,0,0,0,0,0,0,0,0,0,0,0,0,0,0,0,0,0,0,0,0,0,0,0,0,0,0,0,0,0,0,0,0,0,0,0,0,0,0,0,0,0,0,0,0,0,0,0,0,0,0,0,0,0,0,0,0],"id":11,"left_children":[1,3,5,7,9,11,13,15,17,19,21,23,25,27,29,31,33,35,37,39,41,43,45,47,49,51,53,55,57,59,61,63,65,67,69,71,73,75,77,79,81,83,85,87,89,91,93,95,97,99,101,103,105,107,109,111,113,115,117,119,121,123,125,-1,-1,-1,-1,-1,-1,-1,-1,-1,-1,-1,-1,-1,-1,-1,-1,-1,-1,-1,-1,-1,-1,-1,-1,-1,-1,-1,-1,-1,-1,-1,-1,-1,-1,-1,-1,-1,-1,-1,-1,-1,-1,-1,-1,-1,-1,-1,-1,-1,-1,-1,-1,-1,-1,-1,-1,-1,-1,-1,-1,-1,-1,-1,-1],"loss_changes":[2.193595E2,1.4032256E2,5.2969345E1,4.339945E1,4.428334E1,1.7698257E1,4.1874146E1,3.7057453E1,1.11201935E1,1.4792343E1,2.9775093E1,1.6029144E1,5.1772346E0,6.520046E0,2.0585632E1,9.887241E0,3.5372074E1,4.657295E0,2.9853399E0,7.470085E0,2.1246643E0,1.1173494E1,7.736725E0,3.162796E1,6.758468E0,3.1161013E0,3.5283146E0,2.0118294E0,4.76812E0,8.8219185E0,7.9744225E0,6.56472E0,5.0085373E0,1.9963932E1,1.1552006E1,5.3041687E0,3.0780487E0,3.754828E0,1.5168047E0,4.953949E0,3.2391586E0,4.325962E-1,1.9016724E0,1.1227707E1,7.494369E0,1.0051979E1,2.9324994E0,1.3152145E1,9.434746E0,8.546641E0,3.3803773E0,3.2049553E0,1.1155214E0,3.3784332E0,5.9999614E0,1.3300235E0,2.575885E0,4.7345266E0,3.924389E0,6.960768E0,6.2984886E0,2.1206856E0,3.643253E0,0E0,0E0,0E0,0E0,0E0,0E0,0E0,0E0,0E0,0E0,0E0,0E0,0E0,0E0,0E0,0E0,0E0,0E0,0E0,0E0,0E0,0E0,0E0,0E0,0E0,0E0,0E0,0E0,0E0,0E0,0E0,0E0,0E0,0E0,0E0,0E0,0E0,0E0,0E0,0E0,0E0,0E0,0E0,0E0,0E0,0E0,0E0,0E0,0E0,0E0,0E0,0E0,0E0,0E0,0E0,0E0,0E0,0E0,0E0,0E0,0E0,0E0,0E0,0E0],"parents":[2147483647,0,0,1,1,2,2,3,3,4,4,5,5,6,6,7,7,8,8,9,9,10,10,11,11,12,12,13,13,14,14,15,15,16,16,17,17,18,18,19,19,20,20,21,21,22,22,23,23,24,24,25,25,26,26,27,27,28,28,29,29,30,30,31,31,32,32,33,33,34,34,35,35,36,36,37,37,38,38,39,39,40,40,41,41,42,42,43,43,44,44,45,45,46,46,47,47,48,48,49,49,50,50,51,51,52,52,53,53,54,54,55,55,56,56,57,57,58,58,59,59,60,60,61,61,62,62],"right_children":[2,4,6,8,10,12,14,16,18,20,22,24,26,28,30,32,34,36,38,40,42,44,46,48,50,52,54,56,58,60,62,64,66,68,70,72,74,76,78,80,82,84,86,88,90,92,94,96,98,100,102,104,106,108,110,112,114,116,118,120,122,124,126,-1,-1,-1,-1,-1,-1,-1,-1,-1,-1,-1,-1,-1,-1,-1,-1,-1,-1,-1,-1,-1,-1,-1,-1,-1,-1,-1,-1,-1,-1,-1,-1,-1,-1,-1,-1,-1,-1,-1,-1,-1,-1,-1,-1,-1,-1,-1,-1,-1,-1,-1,-1,-1,-1,-1,-1,-1,-1,-1,-1,-1,-1,-1,-1],"split_conditions":[-1.7890727E-2,1E0,1E0,2.750986E0,1.6328571E1,5.399365E0,1.1357143E0,6.1928573E0,1E0,2.2465098E0,1.5055598E0,2.9643363E-1,-2.6312263E-3,5.6418645E-1,2.4267924E0,-4.3572217E-2,1E0,1.6328571E1,2.2841172E-1,6.4071426E0,3.5285714E0,-5.6702405E-2,4.0617894E-2,1.128881E-1,7.339873E-1,6.647258E0,-1.04689546E-1,3.8518833E-3,-2.747871E-3,1.1007129E0,3.2214287E1,4.8714285E0,-1.9865965E-2,7.7642196E-1,-1.4145537E-1,4.2518625E0,-4.554176E-2,-1.6742384E-1,1.2583237E0,-2.6054224E-2,1.1672467E0,1.0411835E1,-1.3362817E-1,5.0692856E1,3.9985714E1,-2.747871E-3,-7.225903E-1,1.4697306E0,-2.4488041E-1,4.810181E-1,9.552143E1,-1.2850771E-2,1.3692857E1,1.3990715E2,-8.837106E-2,4.7841212E-1,5.4168034E-1,-1.1106712E-2,3.5326982E0,-3.2043442E-1,4.2585712E1,-7.267211E-3,-9.34201E-2,-1.6182534E-2,-5.7174214E-3,-3.3695705E-3,-3.3689322E-4,-1.7184806E-4,-9.957193E-4,-8.962253E-4,1.0547783E-3,-4.4070543E-3,-9.949791E-3,-4.0169703E-3,-1.8347696E-3,-1.4095952E-2,1.1892251E-3,3.1226395E-2,1.4800086E-3,-8.716753E-3,-4.7160857E-3,-3.2134696E-3,-5.097109E-3,-1.5390601E-2,1.4260095E-3,-1.1835847E-2,-7.6044872E-3,-3.407752E-3,-1.0379525E-3,-1.1691874E-3,1.055779E-3,-2.3271134E-3,-4.82774E-3,-1.4380573E-2,-1.3435784E-3,7.3255406E-4,7.2833136E-5,-6.011035E-4,1.789332E-3,-8.3400204E-4,-4.3844953E-3,-1.5427236E-3,8.1461197E-4,5.502231E-3,-7.838114E-3,-7.5562405E-3,-1.611303E-2,-1.0290615E-2,1.2003204E-2,1.8613877E-2,-1.664899E-3,-1.854041E-3,7.224168E-3,1.3056592E-2,-1.0989135E-2,1.3320078E-2,-3.8971656E-3,1.7398022E-2,-1.107726E-2,-4.2553684E-3,-4.6750785E-5,-1.579453E-3,-2.8569944E-5,-2.3432854E-3,-5.2793613E-3,5.7240785E-3,-1.6424321E-3],"split_indices":[1,4,4,6,2,6,2,2,3,6,6,1,1,6,6,1,3,2,5,2,2,1,5,1,6,6,5,1,5,6,2,2,1,6,1,6,1,7,7,1,6,7,7,2,2,5,7,6,5,1,2,1,2,2,5,6,6,5,7,5,2,5,5,0,0,0,0,0,0,0,0,0,0,0,0,0,0,0,0,0,0,0,0,0,0,0,0,0,0,0,0,0,0,0,0,0,0,0,0,0,0,0,0,0,0,0,0,0,0,0,0,0,0,0,0,0,0,0,0,0,0,0,0,0,0,0,0],"split_type":[0,0,0,0,0,0,0,0,0,0,0,0,0,0,0,0,0,0,0,0,0,0,0,0,0,0,0,0,0,0,0,0,0,0,0,0,0,0,0,0,0,0,0,0,0,0,0,0,0,0,0,0,0,0,0,0,0,0,0,0,0,0,0,0,0,0,0,0,0,0,0,0,0,0,0,0,0,0,0,0,0,0,0,0,0,0,0,0,0,0,0,0,0,0,0,0,0,0,0,0,0,0,0,0,0,0,0,0,0,0,0,0,0,0,0,0,0,0,0,0,0,0,0,0,0,0,0],"sum_hessian":[4.4316347E5,1.660748E5,2.7708866E5,1.3900852E5,2.7066283E4,2.3295008E5,4.413858E4,1.3472919E5,4.279334E3,5.987346E3,2.1078936E4,2.3112512E5,1.8249629E3,3.0253784E2,4.383604E4,3.8544734E3,1.3087471E5,3.8253916E3,4.5394208E2,4.9657827E3,1.0215636E3,1.307199E4,8.0069463E3,2.24934E5,6.1911265E3,1.3516728E2,1.6897957E3,9.8119354E1,2.0441849E2,4.1463297E4,2.3727417E3,2.5362291E2,3.6008506E3,1.0823825E5,2.263646E4,7.2980743E2,3.0955842E3,4.480152E2,5.9268694E0,1.1284988E3,3.8372842E3,4.394419E1,9.776194E2,7.290771E3,5.781219E3,6.716107E3,1.2908392E3,1.9473605E5,3.0197943E4,3.2109429E3,2.9801833E3,7.2065056E1,6.3102222E1,7.094746E1,1.6188481E3,6.443567E1,3.3683685E1,5.7683266E1,1.4673521E2,3.0554771E4,1.0908526E4,1.3903552E3,9.823865E2,7.825885E1,1.7536406E2,3.0153606E3,5.8549005E2,6.210155E4,4.61367E4,3.1765554E3,1.9459906E4,5.0374774E2,2.2605972E2,2.3152222E3,7.8036206E2,1.3963656E1,4.3405154E2,3.3868E0,2.5400693E0,5.2514984E2,6.0334894E2,2.6361958E3,1.2010883E3,4.2689972E1,1.25422E0,1.1107009E2,8.665493E2,3.2350623E3,4.055709E3,3.5846943E3,2.196525E3,2.114576E3,4.601531E3,1.4733103E1,1.2761061E3,1.6205411E5,3.2681936E4,1.5668834E3,2.863106E4,2.392551E3,8.1839185E2,7.215543E2,2.2586292E3,2.3155087E1,4.8909966E1,2.6475462E1,3.662676E1,6.503901E1,5.9084463E0,1.2244995E1,1.6066031E3,4.394471E1,2.0490955E1,2.9848036E1,3.8356504E0,3.3827946E1,2.3855318E1,1.4288432E2,3.8508997E0,3.568803E2,3.019789E4,7.464414E3,3.4441125E3,2.7943835E2,1.1109169E3,6.3701225E1,9.186853E2],"tree_param":{"num_deleted":"0","num_feature":"9","num_nodes":"127","size_leaf_vector":"1"}},{"base_weights":[6.986553E-7,5.44252E-2,-8.941083E-3,8.986903E-2,2.7355768E-2,-1.6057245E-2,3.4298748E-2,-4.5251507E-2,9.518232E-2,2.396571E-2,1.4651953E-1,9.5418684E-2,-1.8062422E-2,6.775423E-2,4.3153097E-3,-3.47851E-1,-3.0847542E-2,1.4488773E-1,7.82102E-2,8.085629E-2,1.8617425E-2,-2.8682724E-1,1.5657637E-1,8.525531E-2,3.3871156E-1,-6.3760644E-3,-2.7529601E-2,-1.6399829E-1,7.240115E-2,2.0613834E-2,-3.9695676E-2,3.1644143E-2,-4.435226E-1,3.1628374E-2,-3.650857E-2,1.3440126E-1,2.790903E-1,7.194085E-2,1.6095157E-1,-2.6501851E-2,1.0192906E-1,1.7748496E-1,1.686023E-2,-5.727966E-1,-6.2780805E-2,1.1998615E-1,2.8311992E-1,1.5972951E-1,6.9713585E-2,2.6623616E-1,6.859431E-1,2.7349161E-2,-1.363823E-2,-2.850997E-2,1.5202487E-1,1.6873245E-1,-2.0523112E-1,4.912376E-2,1.13352194E-1,4.7324514E-3,4.719676E-2,1.8255034E-1,-4.345056E-2,-1.7026525E-2,2.5147371E-2,-4.131908E-3,-1.6804295E-2,8.834712E-4,-2.6288733E-3,3.2354733E-3,5.0729252E-3,-4.5557987E-4,9.625922E-3,1.1513707E-3,2.4772428E-3,6.910518E-3,3.8801688E-3,-4.0937746E-3,4.8328936E-4,3.6295939E-3,3.582366E-4,6.8052933E-3,-2.9208865E-3,6.867236E-4,-5.628574E-4,-1.8884258E-2,-5.9378403E-3,4.582273E-3,-1.9279867E-2,4.225844E-3,-3.0671875E-3,1.0206974E-2,4.6995218E-4,-4.2383694E-3,6.0027055E-3,2.6605113E-3,7.500951E-4,5.3641098E-3,1.0628986E-2,-2.6999968E-3,2.1425689E-2,4.8573202E-4,1.7661278E-3,-5.241866E-3,-3.8581798E-4,-9.0322504E-4,4.910703E-4,5.1651285E-3,3.8166443E-5,-1.4262059E-2,1.2053662E-2,-6.7151017E-3,2.0597136E-2,8.538454E-4,2.9782106E-3,2.6829191E-3,4.709631E-3,1.004263E-4,8.686122E-3,-5.582042E-4,2.1125742E-3,2.4247956E-2,4.45139E-3,-1.738827E-3,-2.4869258E-4],"categories":[],"categories_nodes":[],"categories_segments":[],"categories_sizes":[],"default_left":[0,0,0,0,0,0,0,0,0,0,0,0,0,0,0,0,0,0,0,0,0,0,0,0,0,0,0,0,0,0,0,0,0,0,0,0,0,0,0,0,0,0,0,0,0,0,0,0,0,0,0,0,0,0,0,0,0,0,0,0,0,0,0,0,0,0,0,0,0,0,0,0,0,0,0,0,0,0,0,0,0,0,0,0,0,0,0,0,0,0,0,0,0,0,0,0,0,0,0,0,0,0,0,0,0,0,0,0,0,0,0,0,0,0,0,0,0,0,0,0,0,0,0,0,0],"id":12,"left_children":[1,3,5,7,9,11,13,15,17,19,21,23,25,27,29,31,33,35,37,39,41,43,45,47,49,51,53,55,57,59,61,63,65,-1,67,69,71,73,75,77,79,81,83,85,87,89,91,93,95,97,99,101,103,105,107,109,111,113,115,117,119,121,123,-1,-1,-1,-1,-1,-1,-1,-1,-1,-1,-1,-1,-1,-1,-1,-1,-1,-1,-1,-1,-1,-1,-1,-1,-1,-1,-1,-1,-1,-1,-1,-1,-1,-1,-1,-1,-1,-1,-1,-1,-1,-1,-1,-1,-1,-1,-1,-1,-1,-1,-1,-1,-1,-1,-1,-1,-1,-1,-1,-1,-1,-1],"loss_changes":[2.4322086E2,6.766312E1,1.3208398E2,2.1929016E1,1.6150618E1,8.239386E1,6.0850197E1,5.028287E0,2.4776794E1,1.1829397E1,4.86475E0,1.6076065E1,4.005977E1,3.0888504E1,2.2949131E1,1.9177318E0,6.824388E0,1.0486511E1,1.1352005E1,7.561163E0,9.919313E0,1.5938091E0,4.973707E0,7.226822E0,6.381504E0,3.9689606E1,3.5216476E1,7.7708817E0,2.6787857E1,9.856217E0,7.2231884E0,6.0292497E0,1.4186058E0,0E0,3.7112126E0,6.3735275E0,6.6560745E0,7.265045E0,3.3534737E0,2.574418E0,4.7884064E0,5.2955894E0,7.552596E0,1.1021638E-1,2.0210586E0,3.9142962E0,3.688837E0,1.3135662E1,4.3873844E0,1.6107626E0,1.0375729E0,